[-1.135625349199745e-05, -1.7834082411979743e-05, 2.37770396020248e-05, -1.981408882893536e-05, 1.1595165317652466e-05, -1.3258702627585728e-06, -9.648251578644876e-06, -3.0021712866035708e-05, 7.038940683381188e-05, 2.511934042901953e-05, 4.283284897963889e-05, -9.654295603007742e-05, -3.148835245658651e-05, -2.645375751684922e-05, 0.0003262402806509725, 1.646045834661388e-05, 6.588003259260551e-05, -9.87737675642211e-05, -7.829571480836022e-05, 5.278994058480139e-05, 9.50801410400786e-05, -9.841070927349725e-05, -6.916883137014127e-05, 9.538183927378822e-05, -9.353605713813897e-05, -1.396054003729435e-05, -7.712385026935005e-05, -4.883062082873069e-05, -9.443796202200868e-05, 5.450176234554891e-05, 5.804338519334511e-05, 7.414206712057617e-05, 4.2758666665935014e-05, -1.1716086565539663e-05, -5.0986267434430425e-05, 0.0007250467608966397, 0.001967280139294922, 0.00213073235542989, 0.0016172920926924668, 0.002716257450689267, 0.0028747845848873907, 0.0043408627668753775, 0.0031060549242181617, 0.0008216906069010326, -1.1701643950349307e-05, 0.002036074549927537, 0.0017685553865925997, 0.0010579856115622386, 0.0008987765595801874, 0.0006116621048797879, 0.0003546133149976068, 0.00024900748430568896, 0.0002059806817036251, 3.422053047832646e-05, 4.898770050736612e-05, -9.218698290940498e-05, 5.308549375628989e-05, 8.179059053661699e-05, 9.046938600319415e-05, 5.4563164107719593e-05, 4.6910955702262286e-05, 2.0044699587913356e-05, 4.3815587949778476e-05, 0.0014692905202707556, 0.0036435113714482197, 0.006032615793245994, 0.00840053167935334, 0.011208440291049702, 0.011275039530069843, 0.01186934288710195, 0.014371094817190446, 0.013333709086532938, 0.012448294522050856, 0.0177314021489941, 0.014921437189673148, 0.009850786298978753, 0.008499385951203723, 0.0032964279066493725, -0.001073332106739909, -0.0015056028968322664, -0.00010071856173964569, -4.217947000161348e-05, -3.8289591163901664e-05, -1.4755354204378474e-05, 3.994178644580127e-05, -7.058928350185261e-05, 2.2457478268843337e-05, 6.895261157359611e-05, 0.00037136829304909927, 0.0005257164636160976, 0.0014494746904148805, 0.004631262733413905, 0.009473741958094526, 0.015933415906481504, 0.021470466509935723, 0.035341551020146675, 0.05363284921663338, 0.06525346583089366, 0.07133653695584886, 0.07999051313249604, 0.07277544926513779, 0.08076539200639989, 0.067495462292448, 0.052911306309989366, 0.03960929214343695, 0.02411640910641295, 0.0043478363934201575, -0.005653333954567913, -0.010547147865117125, -0.00538314352089982, 0.0003261536079280771, 5.800672841119617e-05, 8.45467263817829e-05, -7.3387957546927285e-06, -2.4346576251001032e-05, 9.936583740488303e-05, -3.819819327795451e-05, 8.139227522093435e-05, 0.005515517581614814, 0.010883131042314885, 0.02255843859372826, 0.03157268317843843, 0.04946742970535198, 0.05888650927757587, 0.06851168928217705, 0.046989574039130275, 0.03484045963159098, 0.012819530821371453, 0.030865571724111786, 0.04543943876230108, 0.06767810335561612, 0.07437922447883566, 0.025087851850204436, -0.015069756831039541, -0.011372000968982396, -0.004624486058131024, 0.014751321712902636, 0.0081043952393963, 0.006173840676874182, 0.00021285013263138268, -5.789339088703289e-05, -6.320697214306354e-06, 1.4653204266790928e-05, -8.89645456042095e-05, 0.0016995787569144684, 0.0034432004715869626, 0.011069481735578972, 0.02279127487035326, 0.04095660327846803, 0.07347871543370643, 0.09061932666854162, 0.08291087544604976, 0.03818281486100908, 0.011020248248724024, 0.030548550686248847, 0.04892743209000288, 0.07534290713710348, 0.07508747854481436, 0.08384498998258091, 0.13527326713516052, 0.06669701984852455, 0.03160758723000179, 0.006230539779775135, 0.020600303293673898, 0.016733811947571887, 0.01861927151576115, 0.005653910219832058, -0.0012593236850110968, 4.197759750670312e-05, -8.38027596920266e-05, -8.610436034229721e-05, 0.0013160364552851557, 0.006031531655634523, 0.009311984305896462, 0.025263888573514814, 0.03912221685157609, 0.06393380932136603, 0.09953236574796841, 0.1090975964914842, 0.061838823701191155, 0.033341533538397645, 0.05434212330718113, 0.0800741346660957, 0.10172730117093713, 0.06989578532057798, 0.04647238496179556, 0.058894930989543764, 0.13512438211647282, 0.10713370781991174, 0.057911989644212465, 0.05976032588208631, 0.06255112938246077, 0.04006353213959418, 0.06731722355561111, 0.03915203030139052, 0.01302592534588401, 0.0009376779870123498, -2.6527141261478963e-05, 0.00017365029310862992, -0.0009029507570922353, 0.006213160556052968, 0.01989670837622942, 0.03035074688328, 0.0620669463029878, 0.07349363682131041, 0.062264214407822906, 0.07157768492894201, 0.047526136412169295, 0.07252956088201726, 0.10592106407307919, 0.07948427307685094, 0.12985978832675854, 0.09708225701978881, 0.07836080932276168, 0.1001465444524132, 0.08580713356128367, 0.09638727122743934, 0.06524989822975488, 0.027922709215976747, 0.05252470300269699, 0.05176802740421579, 0.08085817928181116, 0.06935759644345835, 0.016526905348613133, -0.0009907191249194705, 0.00027348659126163197, 5.528297769339119e-05, -0.001691019692473004, 0.008146645849371562, 0.01965633088009485, 0.024008280997227436, 0.032421155167111575, 0.016132570535987174, 0.015331558624851764, 0.03673671899486886, 0.03335013727847005, 0.06730335923427704, 0.04711301923583676, 0.02642028127173901, 0.11301282087776973, 0.09836005401672322, 0.08096268965263037, 0.09920089213631707, 0.07724170323154529, 0.07312136082739475, 0.09145077770891671, 0.05691974306857231, 0.04718186465713458, 0.07459343090284207, 0.10930092543346363, 0.09868506703156614, 0.032397291727374614, 0.0018368450321667052, 3.867500604729051e-05, 0.00015863168809272723, 0.0032626347968982366, 0.007129139504811998, 0.013962797445617375, 0.010894810610081237, -0.01863201165237078, -0.017666978960794513, -0.010760607775347006, -0.014838212948083516, 0.0007836534079706302, 0.005806007754939864, 0.009891477785127282, 0.05975078741343493, 0.08423436672316059, 0.05852538315877583, 0.005438983704561077, 0.027239516774098197, 0.04210659394479558, 0.055722103932670325, 0.0869147789470184, 0.06318530428809602, 0.038423990365125206, 0.09394093078730417, 0.15586318707091695, 0.12121776644319457, 0.025467976136670945, 0.0023220279264930636, -3.705984689786056e-05, 0.0004002663430537595, 0.0032596952047291394, 0.016501137481795526, -0.003668229617982083, -0.01620026545913555, -0.048732513607204715, -0.06371325331108336, -0.0685092532088855, -0.0925354959666424, -0.08064643810242267, -0.07879857090509843, -0.03604913865264698, 0.019233202590809417, -0.02783352777351596, -0.057976297936551166, -0.07381223162575155, -0.04776889542202375, -0.026751158553946944, -0.020613690259621578, 0.03341607583539942, -0.04198656278281734, -0.034622290584737266, 0.04190151250289034, 0.09659712380783289, 0.07466753221714824, 0.020543693234569272, 0.003034376161915503, -9.057923318502905e-05, -0.0002495908303899457, 0.0010227275709667723, 0.009826642238517572, -0.013996902187453461, -0.049489138552071044, -0.06889720257446512, -0.13327275544293204, -0.14362071408734778, -0.16357995354666302, -0.1255265783417071, -0.07189873838543305, -0.07487304375240567, -0.09240019561842759, -0.18507349355545247, -0.21548940634839278, -0.1454446575864172, -0.10200516065275628, -0.044656514020952026, -0.07484194667696357, -0.16354281331143725, -0.19927129019987544, -0.17344482763400726, -0.07835956347067634, -0.002857709760631242, 0.02495126379283755, 0.011133547684475302, 0.0010749550878317794, -4.3000134867402655e-05, -0.000667021493861292, 0.0003539741937301198, -0.002046286893165661, -0.032114571735472094, -0.05567647550641651, -0.06533725815313911, -0.11020622392512405, -0.10402093934533366, -0.10037924586983525, -0.025626099668571954, -0.010914965218219554, -0.031687688327203145, -0.11073759676427518, -0.23178688158528685, -0.24316520108354317, -0.18919406765091426, -0.1343014951386164, -0.06493339716973108, -0.12340147715920914, -0.21091521582420586, -0.2421763298493541, -0.17679043673928485, -0.08661916589437994, -0.030632067313001273, -0.001887731623330017, -0.0006393903842157572, 0.00030036266560179453, 1.661617205112192e-05, -3.912002131097725e-05, 0.00035810837855178377, -0.008637099835902076, -0.04085307774888483, -0.033654089888355394, -0.0067828379888374545, -0.014295378564635816, -0.003868321972551876, 0.009514764029121568, 0.013341291863755256, -0.018552531467933835, -0.058705822224231756, -0.1387566637804271, -0.19736313855005866, -0.2899554446177375, -0.20670352998034353, -0.13162414239573852, -0.09633929862033447, -0.12009673890297887, -0.16877646047033304, -0.1282864519805154, -0.06794133015837084, -0.018484642280995126, 0.00941975640616685, -0.005502677803593846, 0.000666412496682785, 0.0003569606042995516, 7.358618960228763e-05, -0.00022436982492628535, -0.0004054036609812992, -0.011468876481872989, -0.025540798086976277, -0.005712363234444662, 0.053527506745861715, 0.07731410038444035, 0.11090071058515348, 0.11652361764111996, 0.029772442178419126, -0.10657598177753677, -0.10479385335087774, -0.15617901090808112, -0.21993421643913597, -0.22444892360987187, -0.18215616123180378, -0.13189697526503574, -0.10787694460895764, -0.10046430482565677, -0.002915416454005311, 0.02044652524082897, 0.03982126435716819, 0.04338796915705517, 0.03592323176970139, -0.0031369565089040367, 0.0005791721121563761, 3.1571529637412466e-05, 8.13008270368674e-05, 4.8782885901690177e-05, 0.0003139768628391841, -0.010204066750742464, -0.004300717427407892, 0.037633798960800165, 0.10325275414983492, 0.1313941709974897, 0.13088636617548, 0.08070300948046899, -0.0020771365018264383, -0.06947721812426826, -0.08198328659046838, -0.16309274591794404, -0.2277750240096789, -0.17731832149748253, -0.1660996160217072, -0.11689648587249521, -0.0331042228396973, 0.005389796731889838, 0.09455878144720598, 0.12200592097619034, 0.09966334530921946, 0.0834683946028621, 0.04961942688822087, 0.009478728782109546, 0.0026276204263941468, 0.00012703632732537096, -2.2161855966568987e-05, 4.839305041379933e-05, 0.0033117385511431405, 0.0027915463604130217, 0.0250910102691245, 0.07123555015600194, 0.11576378972040599, 0.0986363916534824, -0.04414106083099861, -0.07411808504393153, -0.06156762349391726, -0.07097227604484788, -0.0758805267506752, -0.16710876421281382, -0.2669639036843269, -0.22076286853484053, -0.15579015045185632, -0.012139076105063476, 0.05175986699022624, 0.1165229258525285, 0.1283006956163788, 0.15130082268045636, 0.16557200920648804, 0.10486614364183144, 0.052083489977673064, 0.018976008896372153, 0.004481508911968591, 0.0007529251481260506, 7.728780385408621e-05, 0.0001573584656661361, 0.004072490772252679, 0.024067986551018827, 0.07008808782234788, 0.12806056323983855, 0.15228076876949015, 0.0207711065715955, -0.17818594587751665, -0.23314471883104507, -0.20099664585447605, -0.17391623959317412, -0.22447624431914293, -0.3160103996869691, -0.31639630868539975, -0.10702666923006228, 0.0158302748884, 0.11254115933485676, 0.13428107275274742, 0.1368009869334268, 0.1239242476137447, 0.13646838844533438, 0.14726987306413825, 0.10565042489864902, 0.05622130825446448, 0.015251775499856408, 0.0030197148443287104, 0.0011611761882369825, 3.6118524281732986e-05, 0.0002509014962106467, 0.005173894645137512, 0.038287539379298144, 0.11379707730664147, 0.16874071620027278, 0.20127946237622707, 0.04545864058984637, -0.16324543639923264, -0.2879881497239336, -0.2491242187699866, -0.2551280014333739, -0.27719201497712614, -0.2637524752354677, -0.1480364935921549, 0.006707405252418646, 0.17772315683068793, 0.19637296795127346, 0.1728899544478042, 0.10669294029312815, 0.11884674895087464, 0.16245385906864604, 0.14745986973114056, 0.11654961564546663, 0.05733398114635799, 0.010798636330808463, 0.0013245117215873704, 4.480761850375627e-05, 2.7591360634902547e-06, 0.0005462913436989425, 0.007614976079663273, 0.04736253305039777, 0.12485180755500395, 0.178473387774914, 0.22071289338266453, 0.12539140158405454, -0.008165475569700494, -0.10844958331999517, -0.07465011905305169, -0.03584015103750584, -0.049644088527524416, 0.004441567277314234, 0.06479011341432611, 0.16878614958086377, 0.20215181979947922, 0.19020842494360518, 0.16207940225195766, 0.1377751990018358, 0.1302746457691783, 0.16436469249719096, 0.15173851841207384, 0.10574911142274276, 0.048779427999895035, 0.008035091521065501, 0.0015780108184836224, -4.695494844846145e-05, 8.425759534385785e-05, 0.00045599877385436914, 0.008039888478571322, 0.05647028509806099, 0.1321493707146437, 0.17175635098645814, 0.19673313455073377, 0.14250898423037384, 0.127218135783575, 0.11043602087324965, 0.12358141334329631, 0.18322336376607046, 0.11808090145731835, 0.14359683475635, 0.15555528702758945, 0.14648148228023158, 0.15754955113924987, 0.12876926847873726, 0.14718870206448686, 0.13355426802218143, 0.12854850194731066, 0.16639556251228124, 0.14710571395341154, 0.09670850662065605, 0.03919104349361567, 0.010193720815561648, 0.001532338174040093, -4.8475797572254905e-06, -4.552921919826052e-05, 0.00020402360410226879, 0.0071450353638266816, 0.049273946048406646, 0.1174031479754933, 0.12774256761969746, 0.14067029780111823, 0.13307002706656906, 0.15747439002201352, 0.13176306934813775, 0.14746464904962847, 0.16634224273940182, 0.135610791134974, 0.11984379064121065, 0.10111840145642574, 0.06413857478495541, 0.07330264993176264, 0.07828768482100054, 0.12951031788086478, 0.14049734424407984, 0.12202747307536806, 0.14591072760375284, 0.12338031054600673, 0.07673185514719139, 0.022246486099812453, 0.006972497929788409, 0.0015295908346356652, 1.589630901906443e-05, -7.4447550996204145e-06, -3.336010123094886e-05, 0.0058993772830057785, 0.029086717235145165, 0.0753440830164602, 0.0836516248983857, 0.08171032364169231, 0.08621360735329192, 0.09178401154940194, 0.11715887604795373, 0.0903376451246574, 0.11617164873082886, 0.07672140282771181, 0.058767573713025975, 0.011829535994962963, -0.03197793844979032, 0.004361211217638091, 0.01182452106481313, 0.04147270357256346, 0.06117037614533952, 0.08312490072934547, 0.05928568207790114, 0.06092849569548297, 0.040279361428579546, 0.011188007997680409, 0.0008761222724550103, 0.00042117160483687316, 2.6858494293713757e-05, -8.385744434764159e-05, 8.092739619849669e-05, 0.003091305169498112, 0.0202781964524347, 0.056903293058652785, 0.08431349495218804, 0.06511534606752374, 0.04609605669070541, 0.05562009031979823, 0.08803580180224031, 0.07730226424695155, 0.05421822452395398, 0.014307224387214913, 0.022131620640469543, -0.0119851536835916, -0.05933622378746225, -0.06168735258510153, -0.05565730735060695, -0.054115949991928695, -0.017245494227652817, -0.011891909735590568, -0.004708098369828537, 0.006038257734243414, 0.010997090800205642, 0.002203191795272038, 3.463210151310174e-05, 0.0004041308023254977, 5.1073915968908e-05, 4.005992024190627e-05, 2.9042873896485115e-05, 0.0011169046436648139, 0.012146731943454158, 0.029014896961780303, 0.03750750876758291, 0.048687721465324775, 0.05641515568507457, 0.049452780235128724, 0.08424499740367704, 0.08689864925893617, 0.08038404264890688, 0.09814772507659245, 0.08461955134258539, 0.04987700591302576, 0.00789325094981933, -0.02945849033095894, -0.025349848234183053, -0.02639675360907141, -0.048881870673886996, -0.040994968587716805, -0.018997085424200907, -0.00727750464128184, -0.0023497024805079494, 0.004457078954080964, 0.0007864558166671142, 0.00032553892365731784, -6.487786163633653e-05, -7.883672060775197e-05, 7.511440029798417e-05, -1.2565522345562751e-05, 0.0009168926036939171, 0.004802374128989681, 0.0031500942782528396, -0.004283567527404721, 0.013986747478417529, 0.04380554185233975, 0.07253944346303576, 0.08577046077057768, 0.08215175002296168, 0.06678725309808567, 0.042146032629772394, -0.0005775547136080724, -0.005787893521126766, -0.007965019564611776, -0.010710603589343445, -0.023837982176923043, -0.025741434607091676, -0.026535123044790263, -0.01664189136917329, -0.0009716642778481194, 0.0035024054563201176, 0.0028284683227692716, 6.306628497024127e-05, 0.00026211434947233023, 2.784061167586745e-05, -1.4029008303135129e-05, 8.901234419991473e-05, -9.612059736528186e-05, -3.916499062824337e-06, -0.0010354701009145447, -0.002588809296882187, -0.007360767135901565, -0.003161624497472565, -0.0034569723841075795, -0.000702219792709543, 0.004647678098649433, 0.00891227912340425, 0.017304110327386258, 0.004215876551526682, -0.004297352902024752, 0.0006443409900510769, -0.0022783019997793842, -0.011284982003618611, -0.023643933782884402, -0.010097667920017471, -0.004416461283153771, -0.002390298798673763, -0.0007745456902427385, -0.00032011602489754123, -1.126369348952387e-05, -8.318871785084664e-05, 5.67310931931329e-05, 5.9039848785768255e-05, -1.7185632071200727e-05, -9.663724250230359e-05, 3.687942963187883e-05, 1.558117161840901e-05, 9.77986573134687e-05, 3.792630582572258e-05, 1.947511006437345e-05, -0.00012873561416026607, -0.00018889264193278315, 7.538441319013832e-05, 0.000705492733929557, 0.0025584415654419023, 0.0009422558579332199, -0.0007718995713446267, -0.002032412786872107, 0.0001667304126855526, 0.0017248328433756043, 0.0015806978416570167, -0.0015021036629540867, -0.001715739754034878, -0.0022088471875758163, -0.0016012048612729169, -0.0017132307882803087, -0.00023886113834179995, 9.797322768813928e-05, 4.848040090222109e-05, -1.9849190448968545e-05, 2.215582815689167e-05, -0.0006705054872486214, -6.177362135122125e-05, -3.0566702368507895e-06, 6.367089322546984e-05, 9.361653358344924e-05, 7.683815913288725e-05, -5.776455993175417e-05, -4.9828300454939206e-05, -5.1020707844012824e-05, 2.0655786105114175e-05, 7.787971930400452e-05, 5.9208686036525487e-05, 6.098455621834319e-07, -0.00011296002473339918, -0.00015254973926940942, 5.4282140747935394e-05, -6.15398813996534e-05, 9.660166145117353e-05, -6.732855072012067e-05, 4.982737229083053e-05, 5.018587231241651e-05, 3.116371785586362e-05, 3.330353138095018e-05, 6.373464240068317e-05, -3.394778337921908e-05, -6.711293656182125e-05, 6.328070039369166e-05, -4.6345809288482506e-05, 1.984142955089429e-05, 5.3903612634787514e-05, 3.5347398886998294e-05, 1.607018663549852e-05, 6.410375001270158e-05, -1.08735181211528e-06, 9.589354993208641e-05, 0.00037144677170876855, 0.0008080741437974896, 0.00028781886482644176, -3.1116649457757365e-06, 1.5734955754686435e-05, -0.0012064255652511613, -0.0011302453173445462, -0.0007249972691509921, 0.00043068513971072523, -5.440350854683579e-05, 6.899545770620907e-05, -0.0002839440590938314, -0.0004017840650069346, -0.00010236817081933073, -0.00012979514566508087, -0.00014157285823372624, -2.7607828297293874e-05, 1.4333922823662485e-05, 3.372617210629523e-05, 8.426237959690377e-07, -4.081567605770748e-05, 4.2620213272905585e-06, -9.120886772812556e-05, -5.6089944849432104e-05, 5.0694148804683324e-05, -9.623771922088713e-06, -0.00010815159226407132, -3.7726379673022682e-06, 4.941165277758613e-05, -0.00046523192094078514, -0.003937761090635929, -0.006029512624140221, -0.004974080877213114, -0.003012058095179984, -0.0050724621475175405, -0.009251333710071767, -0.010722543435586864, -0.00914051069314768, -0.004170557049747169, -0.006271394296072482, -0.005732174947688866, -0.0018809049711983673, -0.003724294294920167, -0.005782336339281538, -0.004257983632778761, -0.0012901870717708277, 0.0004946995809286207, 0.0003791173635160805, -3.135106894830164e-05, 8.505808339369573e-05, 3.7344038909618434e-05, -7.575186422295092e-05, 3.8812236385876714e-05, -8.764365159492045e-05, -0.00032410249961134404, 0.003845449059861469, 0.004600935949403492, 0.00506349749481147, 0.002557126808862311, -0.0028791427464111806, 0.0024623991401692296, 0.017843693000475058, 0.040392777801270076, 0.038380479057080245, 0.049940143119457055, 0.04384786712870131, 0.03699491972367518, 0.019845421326169503, 0.016767432829090947, 0.008708319666450809, 0.005112743991551637, -0.0008018695049227643, -0.008884479251320479, -0.010070311072583247, -0.006198106674205419, 9.954352767987174e-05, -0.00029996821963035753, -2.3945620522537937e-05, -4.765837345847248e-05, 6.128552359963597e-05, 5.466764709591119e-05, 0.0003354256671606506, 0.0012970667525969578, 0.008417019892139745, 0.011556930440234866, 0.012401363685874524, 0.015169591624357668, 0.03121111536073421, 0.04712841038947309, 0.05587659262423995, 0.05794638793350709, 0.05033807867272727, 0.06158363662756627, 0.07684181616714612, 0.06910105613496319, 0.0603125370018339, 0.06620897248014246, 0.018865595935607823, 0.005050719980089865, 0.012130556432171709, -0.0008460640205636115, -0.0014848101041560838, 0.006648863538152957, 0.0031414747483821163, 0.0009062871110017555, 6.672526083538772e-05, 1.3136912832168324e-05, -6.494989742244295e-06, -4.358733706269893e-05, 0.004202101992310581, 0.012591358868134905, 0.028697179277676083, 0.022180428474245766, 0.021700014407274287, 0.028320641233314632, 0.04591660188041537, 0.033280650584039964, 0.005378287595565741, -0.03538141791729405, -0.06150493073210684, -0.07688016413908452, -0.06334154371673288, -0.055343509519564425, -0.0696770257497207, -0.030929017656204028, -0.017629013278474895, 0.00010806038666695984, -0.0022216947047152104, 0.0024599631114883974, 0.011227176753085334, 0.02259995315155564, 0.009933232061413557, 0.0024604720468037453, 0.00010052680193122309, -1.5347223253660907e-06, 4.794068907325764e-06, 0.0012645550144893933, 0.011435028167725868, 0.02268892736692124, 0.04300047208082985, 0.04376726384409243, 0.03690614509984955, 0.052675418218564314, 0.06343872819906542, 0.036170572509106776, 0.01295419405961176, -0.004234225794134943, -0.018600196622094757, -0.02073841958924212, -0.04883881166321915, -0.06161945396955977, -0.07690943617629983, -0.03957241566943892, -0.01682912052370419, 0.01436520295584667, 0.02393843097180074, 0.011664542963423681, 0.023312898199222765, 0.05832777678629623, 0.0344411542912653, 0.012892564775727082, 0.0009049660382882706, 1.5023630369256078e-05, 0.00048712014137145085, 0.0006436422703921881, 0.016605839701058278, 0.03895415589039679, 0.04770219430542929, 0.07244888046320973, 0.07939353531404976, 0.07448465230989566, 0.08473510886922864, 0.05128414900723192, 0.040365744197749784, 0.09283376337717628, 0.0645880015079315, 0.05002827304159217, 0.007484930441742887, -0.01172055618583363, -0.003697523483116213, -0.00010724987376572618, 0.028456705829314956, 0.04900382486434149, 0.012681872800456332, 0.028045142063858577, 0.042731572902283264, 0.07965652514767241, 0.059741708457750925, 0.01748794200730879, 0.0002675691202907733, -0.0002541162044062547, 0.0019626032112155765, 0.004003898320188219, 0.025490555413925964, 0.05005112220347306, 0.057006546534216065, 0.08011893429528903, 0.0882371807536586, 0.07963906513189414, 0.09573032314291506, 0.08194899365911991, 0.10784784530295807, 0.14677366698816344, 0.132308032102776, 0.13945289187602494, 0.09020227542353684, 0.030273752657368497, 0.020111556923550725, 0.011375144547374197, 0.03604301510244129, 0.06422425497812892, 0.04646058027289874, 0.04645246603106505, 0.048047053234747485, 0.09951926068236423, 0.08106109678869847, 0.023915439114943867, 0.0014089818549162902, 0.0002553878520014954, 0.003141971594288233, 0.009350684266644992, 0.036343683573270495, 0.061859561701962135, 0.06415282869462105, 0.06467063814505444, 0.06592942787327695, 0.05662655908146424, 0.04436836006641067, 0.04323078162575988, 0.07339557378461654, 0.10215540425655169, 0.12067839133762996, 0.12995228759990207, 0.09463866416503022, 0.015798086646649594, -0.02924333210117962, -0.05151531745093615, 0.006780134590099548, 0.058273313781556584, 0.08151854009489538, 0.042393774794795246, 0.023862180004336424, 0.09623353337136822, 0.0879487326296702, 0.01889419456084875, 0.0014583541179163625, 0.0002773050158831037, 0.0032617972009607444, 0.014379730198116775, 0.046384249653566405, 0.0666484776469736, 0.05778523210315651, 0.04579790399544987, 0.022845439088044314, -0.010164145707587216, -0.0015017983332368434, 0.004575785946175134, 0.03243350007417541, 0.06930313012264658, 0.14415789540082377, 0.15181251639703006, 0.09426001416858286, 0.018397679077506567, -0.05051751750448202, -0.05878623078553933, -0.009907121792468854, 0.030169120841373208, 0.010409506300107514, -0.024920343741144383, -0.037376960687141435, 0.029452940971922515, 0.06093267745084931, 0.01595703567557541, 0.001975321762867911, 0.00015844650476796313, 0.00410993255364531, 0.02187739669025643, 0.0461841191390454, 0.05259803659844715, 0.021341799087935306, 0.008751566590941838, -0.036701898150793194, -0.06576225051747295, -0.036286037680308386, 0.0011213506358821867, 0.0421502423647002, 0.06753564529037136, 0.14236049212901503, 0.1506733729647393, 0.08224980856284689, -0.018998900192234474, -0.03698775111517316, -0.008817965184576743, -0.011127318571519464, -0.05486945365674804, -0.10478648953900681, -0.13936116203251905, -0.13548157663463808, -0.04689726944338872, 0.027703227011117035, 0.010264648698221508, 0.0008939453611118465, 3.434967208519175e-05, 0.003413311514203357, 0.01856204039378556, 0.029812388745980287, 0.019511155565999107, -0.009638992358981496, -0.042590168432144575, -0.05855966235033873, -0.05486849835211481, -0.02121604301566042, 0.005263792014962235, -0.022035782252733574, 0.004627911190321707, 0.045231817049505685, 0.0806407296362561, 0.02873808504218884, -0.023710339177361945, -0.038144027635022275, 0.006823463904061941, -0.023818273573024844, -0.07120079720107611, -0.15556677476919975, -0.1820193783788143, -0.1845722768849813, -0.09269498605684415, 0.002107794817842039, 0.00332169669393138, 0.0006522171490981923, 4.825764034163836e-05, 0.0021977837420538533, 0.010980447527068627, 0.010535196296383133, -0.0049598801793793905, -0.039031929885186306, -0.07705478309556484, -0.09542572518156073, -0.07013337440678853, -0.06344192612423465, -0.12825171883518693, -0.1591402098695376, -0.11093923050730964, -0.03204597901946403, -0.005071893961968442, -0.05622954310529984, -0.042491218215162184, -0.040651789695351895, 0.0020826029119579014, -0.024019950574877373, -0.048159026085139174, -0.1072718165954625, -0.1505293071320376, -0.16148952465422223, -0.0772049376226561, 0.0017122816048858293, 0.001550218677998362, 0.00011546514577612826, 3.3362123908890937e-05, 0.0010775189506311675, 0.0059504113613583435, -0.001014913694511788, -0.010098505111001011, -0.06795658951936465, -0.1341329851509398, -0.16742454570137766, -0.12876983072590564, -0.1159915355579988, -0.1971360062795112, -0.26189254595597306, -0.15619465133110505, -0.05867785350479224, -0.046401092471768435, -0.055249172342337165, -0.06801636166851693, -0.024502347313186595, 0.021260956246677645, 0.021207538954410632, 0.020673441486929352, -0.012294781781073938, -0.081343347746282, -0.09436513606755845, -0.05396304193202264, -0.0022486998769746616, 0.000999962970759445, -5.789350118558638e-06, 3.3513807717083305e-06, -6.447625740517523e-05, 0.0010451635676019188, -0.002418466703808439, -0.009898630746954582, -0.09462977508587435, -0.15396578909869446, -0.18577463248643117, -0.16943305353094426, -0.1516243545185041, -0.194897290375232, -0.20535139072962802, -0.10180665957718249, -0.030465787464927122, -0.03986362773115046, -0.03278290120980687, -0.06715134709938937, 0.0014437542893743268, 0.06693442688129576, 0.07079789425053719, 0.07843285727815458, 0.04707210607627603, -0.0026855928504302623, -0.03028618774346174, -0.024974573892930688, -0.002619776765626614, 0.0020054563653054067, -6.552412585033659e-05, 1.4045322598903716e-05, -5.9941927200330146e-05, 0.004336418937412459, 0.011839089585797265, 0.006867362328759267, -0.09146098510345974, -0.16425907212469185, -0.1774194464934713, -0.18251561646145573, -0.1525448109896548, -0.1720665668228574, -0.16517161101350195, -0.06805243736451029, -0.0239808675205323, -0.03976635653630478, -0.06859596840817142, -0.07146866337933099, 0.012295461934737684, 0.04377197107364556, 0.0870677611487564, 0.07025285613116965, 0.07132880291733268, 0.04472301582048061, 0.01873478553708752, 0.004178438871881789, 0.00022771902919211634, 0.0020551291622778003, 0.0005568181052529747, -6.708067484717173e-05, 0.00014081784530509307, 0.004759974133634722, 0.029718698049852832, 0.03618587999921188, -0.037881723934097986, -0.10011399357888554, -0.1487653347197514, -0.17908462904997235, -0.18407515822233997, -0.20731510863087643, -0.19414787587029222, -0.1301788212072392, -0.07320893547125668, -0.051004735632299784, -0.02222699934693416, -0.004186216772161484, 0.021212841053677888, 0.04191292171420307, 0.0600693991221404, 0.057490544673006315, 0.06718426222305757, 0.05486929399704603, 0.038508193495986755, 0.011186927149957155, -0.006122210968073088, 0.0004191064476149386, 6.047637930238753e-05, 0.0002442401970237708, 0.0001214558825705384, 0.00791244107413486, 0.0536852485867173, 0.06697122108790608, 0.022088573266938655, -0.020649378174141718, -0.09907293483072446, -0.1271496773798379, -0.1485240701192981, -0.1897352373483592, -0.18619369603292962, -0.1393276871428197, -0.044334768094571, -0.01533785728344978, 0.014178757906146883, 0.0393166056175686, 0.03472080848274833, 0.03919865653049572, 0.01728729937845878, 0.04615018830522945, 0.052194433955873636, 0.05784896892154936, 0.03159740735174173, 0.0037941205740909243, -0.012340607854129394, -0.0013067118930998331, -6.205116045418139e-05, 2.0384447550006326e-05, 0.0003522673746744082, 0.010788174262487788, 0.0637397194175458, 0.0768413944480616, 0.04154030237768247, 0.023554326803903326, -0.016384667239876378, -0.01636101810377524, -0.03527350660970562, -0.0644524139004253, -0.09182828116503497, -0.06565895550054213, 0.014022799616016685, 0.019087384307595594, 0.05322554800202798, 0.031336921656168006, 0.026010009559577923, 0.029939057695967868, 0.023937522293648664, 0.01746427823576708, 0.0368519886598429, 0.04582198751131264, 0.029640050198492262, -0.0018754695856898296, -0.007832906122764459, -0.000678866568379348, 0.00011367252950214842, -4.683190800643605e-05, 0.0003392325399668647, 0.007965049347758693, 0.057057777553251435, 0.07240226930408854, 0.03735202873285517, 0.02953000893512388, 0.012487430098832892, 0.047233300190943996, 0.03365406706651763, -0.006826478252602234, 0.010939518167516286, 0.0012484288659272062, 0.021339428500407272, 0.02538187278885879, 0.011747807972377051, 0.0288400295347853, 0.022391562275658805, 0.02285844222086292, 0.009581963461373232, 0.0008502889602710464, 0.027069691646808326, 0.034616534022246334, 0.019733667333070432, -0.012710858909104637, -0.005388168152444642, -9.909612562482821e-05, -6.849832282250875e-05, -9.62475808049842e-05, 0.0001974904589665646, 0.005680142352869113, 0.03960145585025854, 0.06069432478719351, 0.03253131095826798, 0.033889181441694324, 0.007307376801307179, 0.025099281395726335, -0.015541971527357057, -0.026774745708171458, -0.010220337447762724, 0.018873235735563272, 0.018080388380804592, 0.021747339710690722, 0.02401536518921794, 0.024745753612960667, 0.017707261341306055, 0.00962462742277997, 0.00740459046130305, 0.013439165983967315, 0.017513603975653397, 0.007432149378905244, -0.006121068047628613, -0.01403883578440546, -0.002444681477955529, -0.00039160834603640384, 5.873766119973604e-05, -9.613645637091299e-05, 2.0624746781042367e-05, 0.00407591979977702, 0.02128374770998789, 0.04772568832787518, 0.04123915025989778, 0.026881051175478888, -0.0007078521069085143, -0.04378666532019303, -0.0484755926181698, -0.046258644504466574, -0.027932010908750336, -0.03257177030310557, -0.028832920572979356, -0.002853760781111618, 0.02506023864165344, 0.01608993985094494, 0.01815547873015495, 0.02636648085601106, 0.025046135478775114, 0.014406507826970344, -0.01684477254924643, -0.013941490027244678, -0.013583470168030057, -0.006366042406798647, -0.0023809578858322773, 0.00011820690763231584, -2.913625561517023e-05, 3.3768900532639425e-05, -2.840490224394515e-06, 0.0022596983885552918, 0.015677244163039606, 0.04810980473077678, 0.0762217957179208, 0.06402952640729985, 0.04157712474952185, -0.004414007690973247, -0.003978562679310629, -0.0194195009190022, -0.01815310587546291, -0.019064255049431177, 0.001994526909578177, 0.0021818677229283327, 0.011863045766066, 0.004281861439165496, 0.021921047885239988, -0.0033738370625529994, -0.014897043073695646, -0.030039391564049975, -0.0367330439594894, -0.031124097407310067, -0.020517335960092437, -0.006615112745647876, -0.001796188064543161, 0.0004558875560096981, 2.7079850664272837e-05, -7.373675674658941e-05, -5.78311503626811e-05, 0.0006371286123061277, 0.011538849178838616, 0.028546873495452547, 0.051574141518893626, 0.0668159377984519, 0.07150266020330427, 0.0770280610365576, 0.08517029821485077, 0.07326591694392764, 0.08756344154340989, 0.08790035032866211, 0.09743219203263942, 0.07893916408124138, 0.06966015861956303, 0.04218122091350488, 0.03289414607157641, -7.871282436906207e-05, -0.032287194897935384, -0.0423068212658168, -0.03371853926677177, -0.019095904416033746, -0.013126501997043263, -0.002444155509422135, -0.000583894163567455, 0.00011524726633652688, -2.0855534169517724e-05, -3.1462424612169737e-05, 7.479855105912884e-05, 6.967211249943175e-05, 0.0012052532077044308, 0.007553933879687429, 0.008743065658988369, 0.016295760375903086, 0.046843772310310866, 0.08960832291294887, 0.11495718560496646, 0.12770355796885394, 0.14926386045631151, 0.15540460464866335, 0.13639436442742683, 0.10721732029862162, 0.09069138277443156, 0.081417215535253, 0.05995043318421013, 0.01461081105064496, -0.004248994349428547, -0.023094093923958798, -0.018208031828546672, -0.003743554057164203, 0.00017264376732557447, 0.001692740781065528, 7.437196836439072e-06, 3.52560312892492e-05, -2.916746982966438e-05, -2.0562217027925203e-05, 8.897819279441725e-05, -8.846068097947319e-05, -7.01010988541731e-05, -0.002522543424743751, -0.004133392295436799, -0.002109852819960786, 0.01224470451944165, 0.01837916947177585, 0.0245410623652518, 0.028777631832499127, 0.024646142871564237, 0.018594048480359355, 0.02540385527737941, 0.028014211864272675, 0.03245255430538394, 0.02893197809248979, 0.021547277619008036, 0.002450357845190477, 0.0006157130811481555, -0.004671824916618501, -0.005706512937847804, -0.00040209121082010284, -0.0005024587827336299, -8.927537973231338e-05, -8.380362005036219e-06, -5.117120197764275e-05, -9.578719708330445e-05, 3.886158718975846e-05, -6.338962501518495e-05, 1.3222595701864598e-05, 1.203356168070805e-05, 4.648017901354314e-05, 0.00025480313002395716, 0.0003763751255961904, 0.0004528973014489388, 0.0013771154413295581, 0.0027557850665299775, 0.004138036203877752, 0.003674088063236438, 0.0032375733839202334, 0.005897348281329038, 0.006767183004590006, 0.007763615760731989, 0.009714245797748955, 0.007011541398531829, 0.002009057731055245, 0.003429218014610423, -0.0003771380649690432, -0.0015955227508069381, -0.0006021634641264864, 0.00018473592465333534, 6.769901452419756e-05, 9.577151940886604e-05, 1.0385031795255556e-05, -8.748573749552967e-05, -0.0015490914955905018, -3.685440508063551e-05, 2.867023741541546e-05, 6.372682439050401e-06, 9.364143457233205e-05, -2.0337808315513937e-05, 8.356747825992779e-05, 6.765402963461631e-05, 4.77043789233985e-05, -3.129107041840173e-05, 6.152065989359702e-05, 9.036430281964948e-06, 4.9163061499428566e-05, -6.309371253340287e-05, -0.00017997546781126154, 0.00014384151218013757, -2.164307775759865e-05, 4.2438730246857716e-05, -6.86140011719512e-06, -5.20005383050098e-05, -4.3011275709612156e-05, -5.7076915844721506e-05, 2.087662096226815e-05, -6.847112189882689e-05, -8.024515609509052e-05, -9.248181548052521e-05, -3.233018454431627e-05, 4.139963028625097e-05, 3.932847354634312e-05, 3.103966944133136e-05, 9.403998664772308e-05, -2.1978918463635732e-06, 2.3610830387823694e-05, -8.756717374965462e-05, 4.860769611409063e-05, 2.877254957588456e-05, 0.0002065690430720211, -0.0011334091461678878, -0.0015266928214033482, -0.0008753340459211193, -0.0030739878856111814, -0.0035968283117502092, -0.0012479004620071686, 0.00016486036364138807, -0.0010417075401647495, 0.003478074535434716, 0.0005646097661311596, -0.0010317469090192221, -0.00029012782116697464, -0.0005800335582331534, -0.0002865102976890732, 5.139891273260885e-05, 0.0001269352155099672, 6.285733265765735e-05, -2.2615053244024488e-05, 2.0902183346491622e-05, 9.439921656099467e-05, -9.884095265155802e-05, -7.512890713633502e-05, -5.112616954757811e-05, 5.725158798779724e-05, -0.00016304439889325138, 5.458210254867053e-05, -5.4788135401404123e-05, -0.001564545635795079, -0.006807058922927301, -0.010000654851727043, -0.0069575170242563026, -0.0029205575700628947, -0.0010999646962996557, 0.0067231727423364765, 0.014067887053454861, 0.013113742959375497, 0.014136824396486301, 0.004293831836566456, -0.014147160138224712, -0.018443496519854077, -0.015336460177694324, -0.012121155013691296, -0.0077940826042546645, -0.0012245427038611444, 0.001314131279567242, 0.0009012375014250959, -5.9487759175224714e-05, -2.7637179383220002e-05, -2.257473703660214e-05, -8.74285265870921e-05, -3.446146364688911e-05, 0.00012270959204264072, -0.0022052648036173066, 0.0026052453190680675, -0.0002930984557262477, 0.0010129285334688576, 0.006098390496448391, 0.027492527682819883, 0.041624383318587935, 0.07048140748199687, 0.11017771580134897, 0.1364143434739418, 0.14067735722017052, 0.11710623369120535, 0.11198937929075636, 0.06279707270196072, 0.001770453175186739, -0.020367048792774366, -0.024622648722262573, -0.03760724749745283, -0.04223943965366647, -0.026161986136196375, -0.011003195697891986, -0.0005720235537816811, -0.0003695743761132116, -1.5005332717862008e-05, 9.67910238763117e-05, 6.138395822599763e-05, 0.00015527013148138957, 0.000761355188431293, 0.00019260427637660848, 0.006972056347763126, 0.021081821831789065, 0.04531877663785721, 0.08382063409563768, 0.1399281880249106, 0.16328214565841118, 0.1819285561613943, 0.19212195606380378, 0.20740626931224107, 0.18337568611591104, 0.14967526961779845, 0.08815108586591261, 0.04435052033150498, 0.01935546440751031, -0.02153178823380379, -0.06645683055834121, -0.08207598395933022, -0.07767918222759114, -0.0718577741093673, -0.029715113951987632, -0.005206818091459932, 0.00011722299771743006, -7.260267311861611e-05, -5.0008940768395e-05, 4.185109493391763e-05, -3.560383588144371e-05, 0.00459077693062445, 0.015127046834970532, 0.045225273170100486, 0.07037316542611453, 0.08514042794301108, 0.11213286794290922, 0.12880877777821698, 0.13383771739338107, 0.08652970084268462, 0.06403238234610113, 0.12455939917858246, 0.1711159459935562, 0.16676493167016113, 0.11198572731133973, 0.03968285029882397, 0.045531115032148635, -0.0058236405895998955, -0.03728250352949581, -0.04996302049408613, -0.09402531290818571, -0.11105058882494785, -0.06050135560572673, -0.014180954306965586, -8.546122176378643e-05, -5.3216296605447987e-05, -6.382315781103535e-05, 4.9285709641285e-05, 0.002181949378670447, 0.014773945107191672, 0.04008573302278487, 0.08439935531600411, 0.1015776795591341, 0.10295400626444351, 0.10139072891786322, 0.06034301935309277, 0.03652420354993064, 0.003341067895914687, 0.024247948889618277, 0.14026801738929087, 0.1808744296022642, 0.135533367673375, 0.138268581617385, 0.08005960263213895, 0.11524510908658996, 0.06010823859449208, 0.05543140370230464, 0.05154815808177413, -0.06027220209617212, -0.14825659703486946, -0.10997078678022182, -0.03920770159993849, -0.008215735588451095, -0.0007203488999208153, -2.6089039314983595e-05, 0.00047477205831047585, 0.005954339849429989, 0.02510778797597076, 0.08038727217506456, 0.1041282726774083, 0.10218748998555284, 0.07545254328248384, 0.037700667844905264, 0.018873983971629954, 0.028379772985317884, 0.04582787680821454, 0.12430528912510276, 0.17303074714625857, 0.19895795922641152, 0.17401156288640537, 0.17003446694119054, 0.13531180206385293, 0.11181045232061072, 0.11951241949400888, 0.06607316763656103, 0.008756682729177572, -0.03906069313564174, -0.16282309271795523, -0.1618899079948474, -0.055868222707579455, -0.009768828259586776, -0.000750836709070193, 9.990171945033124e-05, 0.001469965099870507, 0.006459453088669579, 0.03931611466252004, 0.0968275510540952, 0.08956542964272624, 0.0568572905075054, 0.028687505552001242, -0.03749696755184252, -0.026908217619941534, 0.030191934434563528, 0.04714872152870074, 0.05300389397692106, 0.12747008925796008, 0.3307978729318104, 0.34959578287414245, 0.22123725103485956, 0.20010701206541825, 0.1421032086764927, 0.09348068590362778, 0.03510433576639811, 0.003994203398577, -0.0392064031420303, -0.17082043405191263, -0.18411748885770077, -0.08607687304955287, -0.01826732300287904, -0.0023352389238555436, 0.00011180741270369517, 0.001824810772183456, 0.010915235131793773, 0.044417955383766056, 0.08150108102980717, 0.05783630777006165, -0.024672494318945318, -0.0667559873943045, -0.10214296479180464, -0.09573330501140524, -0.07497853864830344, -0.17542920943019738, -0.2019809394232951, 0.002976818354894166, 0.2658611046693871, 0.39553781865200954, 0.310248410630146, 0.22496672697204806, 0.12007432248774846, 0.061854934364930766, 0.055997327659212844, 0.017749855914882005, -0.045614425460066124, -0.1307016035894579, -0.14646687736917124, -0.07981185387616824, -0.013415723019580184, -0.00016654934687274832, 0.00035382015802549836, 0.0022539533146160333, 0.012138663275456046, 0.04493165837204506, 0.03851191140160453, 0.002288240646641654, -0.1006247046898178, -0.21415720947313002, -0.2538714019957254, -0.27260182837599256, -0.28434345490444096, -0.38354630345995516, -0.4066266940970692, -0.25277553977105977, 0.07481056545397669, 0.2614372280389061, 0.21669151684000199, 0.10130614442476539, 0.06908367381839163, 0.06340741848554403, 0.06697213394011903, 0.012093291180318492, -0.01900875505991113, -0.05913428722410902, -0.07549189705811453, -0.05323928867410426, -0.008843520457471074, -6.726118981525709e-05, 0.00014872953212358633, 0.0018891797865640263, 0.010329157858061124, 0.02614079946325553, -0.006165638234028495, -0.11258424842920813, -0.2522502589160038, -0.35242797019836486, -0.40343108019636315, -0.36415636317823297, -0.37835322403671356, -0.4190696984628716, -0.46890098239138317, -0.3997214006796628, -0.13160695861679889, 0.037226335064659624, 0.010666437866517647, -0.02382025411589428, 0.046455894952634184, 0.036427071629242164, 0.01779812209335687, -0.023896347218801316, -0.030109777582449624, -0.044076338763158876, -0.03319815152291455, -0.01779358001239602, -0.006618836381262242, -0.00029228925154955044, 3.792845318699096e-05, 0.0012417780201782545, 0.006477261072898739, -0.005851782022616104, -0.05545967094010284, -0.19938262195016868, -0.34244062745669945, -0.3901543988510643, -0.3588454992642794, -0.2819340926377883, -0.25742937737800364, -0.33595139171049826, -0.3491024749237816, -0.33811742134377776, -0.20614207073349552, -0.08316549074367627, -0.07963681056458399, -0.08960668505354158, -0.04198199877583374, -0.05032610572518307, -0.08774663250315334, -0.0834800118306482, -0.07324795827228671, -0.04680062161665016, 0.003749089157079068, 0.010935583350337024, 0.0005218036928445166, 0.0009853663332202985, -9.219938319017543e-05, 0.0007334376264829686, 0.0034103674247743104, -0.01812135523356211, -0.07176902212010781, -0.19833930526531357, -0.2992905466927936, -0.31939601897733577, -0.21532013213111062, -0.13516715048702765, -0.1581479985479502, -0.22928126985097647, -0.20907102916028764, -0.16862104206696388, -0.11215451801285967, -0.1450787225155432, -0.09681616063380975, -0.08459586191463699, -0.07556798288981648, -0.12550232951966153, -0.13212774238965586, -0.06270735099204253, -0.037413075645659113, -0.047220044216971305, 6.843774187412181e-05, 0.017565771453825985, 0.005691996717585122, 0.00196278626372581, -6.61345451061275e-05, 0.0002647016278924712, 0.0013018743240715332, -0.01663760558278886, -0.039273509567882135, -0.12270192186473994, -0.187930955698446, -0.1550005514192345, -0.0785315332538924, -0.048512925235599295, -0.11509985227380859, -0.18261507727945023, -0.1258319144759581, -0.06382146253678471, -0.08279395050520634, -0.08564634190032136, -0.0789813930819122, -0.061999499917504766, -0.0530665820303708, -0.10362839613199462, -0.07172856047417171, -0.00990779787474528, -0.017709487097272283, -0.035020275132980797, -0.015275760437988475, 0.01628569179894651, 0.011958600642865351, 0.0002586212835049546, -3.389598411666271e-05, -7.883628168740761e-05, 0.00025798042140836187, 0.0034309849953390722, 0.014585935874018584, -0.007289685966258965, -0.040007585516425456, -0.05520503326446428, -0.033344748598663446, -0.033180854038256505, -0.08478654664113695, -0.11944026759995713, -0.11468607160191281, -0.06890193305146106, -0.04426404748925793, -0.01594900364884682, -0.07757685415172093, -0.06762822680795781, -0.03463004955356638, -0.03411221825977477, -0.016518153835697286, 0.032423298521462106, 0.006588207389099671, -0.01667776987624745, 0.0023010222917693155, 0.03212779525115148, 0.021714823421021576, 0.00273503130065418, 4.9083718272891615e-05, 4.355400352139659e-05, 0.005668318859264739, 0.037068199551592206, 0.07519103688117935, 0.06339725601892793, 0.054883000540073286, 0.016475169007074207, -0.039448781275339594, -0.03528042924090426, -0.08136904757521823, -0.09441832255528053, -0.08730989244497721, -0.04374530806337468, -0.05607513051555185, -0.1038292806552226, -0.09941822701136084, -0.07123166622265442, -0.011980713984474365, 0.03202262442636939, 0.03216906648094541, 0.08142483675374897, 0.059758102934144665, 0.03243809241377671, 0.041319493828514374, 0.06757185117597264, 0.03295190326644787, 0.00763809446332595, 8.660128254945979e-05, 0.00012206410295817579, 0.010622928945740944, 0.06550879772364583, 0.12304302968815627, 0.10392616362493737, 0.06183366579668163, 0.014965543329668797, -0.04437335874262856, -0.09185415338928138, -0.11752950806215548, -0.11723926945302206, -0.09727398288067267, -0.04379526514761958, -0.059625219989564604, -0.06802498922215862, -0.06892758076660108, -0.033737885414584376, 0.031834007674947526, 0.0408984659238353, 0.02130310757211816, 0.062066268423224824, 0.08497641453081897, 0.06088601669749084, 0.0765817223322296, 0.08133446679288919, 0.02747759135365444, 0.004748239680653191, 8.135766528798607e-05, 0.0005687892521148453, 0.008022688161089135, 0.07737228561882531, 0.1551512966936814, 0.149394371127012, 0.05562885406812586, -0.004689812087654323, -0.06031182156028427, -0.10691906403499556, -0.13149823908752944, -0.14604538172270268, -0.09863256588855482, 0.01078780791761548, 0.019363098549937015, -0.06103512664203749, -0.01731022009267229, 0.025983873437484113, 0.08457587627794004, 0.05752340544021146, 0.04624877102474249, 0.09168158750314782, 0.09988792245406607, 0.10076096709106239, 0.10230262396269017, 0.06889284842546727, 0.018588688928698697, 0.003603706796662038, 7.325805242266916e-05, 0.0012448937031470208, 0.007236793658583543, 0.06771487612769972, 0.1602063509685266, 0.15844975748926665, 0.11554293039078807, 0.057509208236693185, 0.03215698031854966, 0.013814488143470239, -0.0071131572180600094, -0.011365202240111592, -0.0037928236151546974, 0.10797372004849332, 0.053867698700900614, 0.011833133967431514, 0.026395845115965287, 0.09335085854287226, 0.1020032144086068, 0.0640775656356317, 0.06915941681563158, 0.09164103537652886, 0.0985097990481311, 0.09099999549523403, 0.07946949468650662, 0.054809999321189636, 0.017043492969454302, 0.0011974287591814533, -3.950438370274248e-05, 0.00040378905298556943, 0.008986487922226944, 0.08327311256712272, 0.18749537045866507, 0.17089719548278245, 0.14340927329302536, 0.14087811921859433, 0.13597689950664124, 0.09466494415734032, 0.08106032739392456, 0.09204837088630093, 0.056148882646004115, 0.08482706042014465, 0.09101444189446392, 0.03219372648265334, 0.021390467918732985, 0.04460412506776535, 0.08584401285197883, 0.05316488654015476, 0.061924902012609064, 0.08132162845682976, 0.05996688636676667, 0.06654859834888165, 0.05886210349600365, 0.03693626255092044, 0.007367442927886286, 2.6783384371091912e-05, -6.123783311486468e-05, 9.559045194004245e-05, 0.00816728425324407, 0.06905710419242568, 0.13534194689077647, 0.15315127137182113, 0.13261419016128254, 0.10157191895401672, 0.10420725529250253, 0.0762545457752374, 0.06420833938365511, 0.04747251697935841, 0.04620515577370395, 0.03699008275066457, 0.01725140318475724, 0.004320360479170466, 0.002512980199634606, 0.015692039216249395, 0.06502918138040731, 0.05882747977512469, 0.02167954639334984, 0.04657283672106675, 0.04598677035606911, 0.05732477025297917, 0.0363707798045532, 0.023418794546957344, 0.0031480511894080186, 5.943917576356954e-05, 7.139059339095736e-05, 8.070693554997601e-05, 0.00632966463743374, 0.04186901517248559, 0.0839190759876054, 0.13371806307700126, 0.14156200636169586, 0.10752325220989115, 0.088586094569475, 0.09300251973837692, 0.052075158077453436, -0.010144774675934018, -0.07440396455350345, -0.060751461811807704, -0.034162035237898014, -0.021594122981675512, -0.024084957488894814, -0.006149655340524436, 0.038201899323965165, 0.021580062393634608, 0.008623805581268523, -0.0019632889295519884, 0.022497726380933714, 0.02140143760932851, 0.01003058745924791, 0.004882546319820969, 0.0008778560722614399, -5.7335489025282995e-05, 2.0454639973715716e-05, -6.268479080752431e-05, 0.0024220757716544757, 0.02174170508522069, 0.05969630231672021, 0.1062698524544007, 0.11800273947101358, 0.09761569813742679, 0.023429298842637527, 0.05728029454272089, 0.06523670728848949, 0.053362051072805124, -0.02993264523750707, -0.05636454721659501, -0.054685855179743094, -0.06405766728249868, -0.08323046317822608, -0.0600651430083365, -0.031074203174348308, -0.054666516817222746, -0.0709810548887607, -0.04189574132696065, -0.025501472771945376, -0.008650799168189243, 0.0020218278171966002, 0.0028087797436673915, 0.002598168304833747, 7.24087436805767e-05, 2.2205702233166726e-05, -1.121214796180099e-05, 0.0004522690705907835, 0.012795422343830411, 0.03734229418449383, 0.059421162853876344, 0.07715460311700344, 0.07027956431186407, 0.06263619101529398, 0.0409890585816489, 0.04606679512048662, 0.06449779709518738, 0.051602811846876075, 0.03035407701503111, -0.0005631900030057841, -0.05333611134428327, -0.07383983640393664, -0.06112508919778674, -0.09978906691762413, -0.11619659855976602, -0.08987743633093581, -0.05285076851707985, -0.036558315217474685, -0.01833525554242432, 0.0013833999013219665, 0.003109007517762981, 0.000933707067295707, -9.682419851700867e-05, -9.467709435321529e-05, -9.72734109390182e-05, 4.517061034637158e-05, -0.000407672252900683, 0.008528150671571371, 0.010086957115952727, 0.008688991332948502, 0.020467649270135346, 0.05113194458463589, 0.0613326890827736, 0.060398459418594924, 0.06330412951771024, 0.05354702567091374, 0.037384597357683375, 0.016286501580575513, -0.005847558428347886, -0.019914342022233685, -0.014439997464862185, -0.038909419210810925, -0.05808040545364185, -0.0626912205764435, -0.0432458352500036, -0.02204214475643534, -0.00850777966186149, -0.0014962073582696653, 0.0006762744191245525, 0.0008025967037211197, -2.6927009540705643e-05, -1.1049113637575314e-05, -6.941434224460006e-05, -1.3162751740064683e-05, 7.450644189810808e-05, -0.0008608268963744533, -0.0041582853754898105, -0.001841067732087595, 0.011933984754102117, 0.019679975953057323, 0.025496993275129734, 0.03219559853833643, 0.028969529879142576, 0.02618209049894314, 0.032749234542615545, 0.035308074237734535, 0.03716393739420787, 0.02650389378141506, 0.021656939462963973, 0.004178051965179349, -0.009146767293017222, -0.015337729388101866, -0.010521343902496911, -0.002683510886934229, -0.0004248402202629534, -4.946765043064624e-05, -7.253385480189714e-06, -2.4281339821423727e-05, -7.28291166713841e-06, -2.995573943881991e-05, -3.663933237356409e-06, -2.797671861506336e-05, -8.066779320230621e-05, -1.1708166978793453e-05, 2.315578785986768e-05, 0.000390065475773773, 0.0007468635048726165, 0.00143181618725364, 0.0023046891769750526, 0.002748511638382538, 0.0034211087567927036, 0.004955087608039333, 0.00748521970254301, 0.008451352554451633, 0.008778198153874412, 0.008604986045206606, 0.007046869726001146, 0.00140121032857958, 0.00111923718749882, -0.0015869433648935726, -0.0019423110965578368, -0.0019918682541295207, 0.00024075656960320617, 8.199468434349958e-05, -6.002643755862843e-05, -4.207848244178092e-05, 9.403683600919108e-05, -0.0006609334952879074, 3.956686192039735e-05, -8.877700603989792e-05, 2.8928519188663817e-05, 2.9417315893921454e-05, 4.945418066244352e-05, -3.155180508473731e-05, -1.9832153272671786e-05, -5.157646349260051e-05, -1.214871414470857e-07, -2.4753276038343423e-05, -7.350242105997458e-05, 8.11308456660279e-05, 0.0005343525010592365, 0.0009165700532621808, -7.313760391889261e-05, -9.123066592342572e-05, -6.807893963087569e-05, 6.868183781415982e-05, 4.413930762085921e-05, -6.666665677173379e-05, 3.222344460880066e-05, -1.7842450533976492e-05, 3.549427014385941e-05, -2.7418376935134138e-06, -9.23906087441538e-05, 5.1542998713687944e-05, 3.652372217607983e-05, -2.2183269680849603e-05, -1.9607116082451818e-05, 5.0987682672924394e-05, 6.178806802799095e-05, -6.79070145512277e-05, -4.2097830430413806e-05, 6.608804169183454e-05, 0.00031424691721436415, 0.0007449849974339688, 0.002697073388835952, 0.0031175727926281227, 0.0046556269718019735, 0.008492096950267774, 0.011576173163530726, 0.006631507768660358, 0.0037745442999527028, 0.004982675497439315, -0.003703975472926127, 0.0017239679469109744, 0.003749262020484876, 0.0015960697039686415, 0.0016424673030444475, 0.0011320698021726246, 0.000873603228568022, 0.00013259770331265004, 6.285487008952867e-05, 4.1225233204683875e-05, -3.942383031611805e-05, -2.4476962336661565e-05, -6.712433956046878e-06, 9.466438810986925e-05, -9.499912772875711e-05, -0.00010423126042585993, 0.00030278531722595104, 9.081403724097452e-05, 0.00025088105223629114, 0.0018505132235874012, 0.004402316342723275, 0.008749086000397402, 0.018864993897581617, 0.02781092546873894, 0.03950732624661687, 0.039819747955921726, 0.04671266362909353, 0.05743477312520024, 0.04423218242686201, 0.04521579623284738, 0.04922216976127288, 0.04277863190932129, 0.03040218990632401, 0.02126867114132694, 0.014094848901394624, 0.004447885576846956, -0.0005752936045811053, -0.0008540702814037552, -1.5542573030109418e-05, 8.976374131812306e-05, -9.544631333514857e-05, 3.366514675315562e-05, 5.370984198891682e-05, -8.399656273894228e-05, 0.0001645207801818948, -0.0014727283301865983, 0.00015153040651604848, -0.0015392012368162442, -0.005203628058149814, -0.014927256018162046, -0.018559811520684245, -0.02703590312420769, -0.03329496979907316, -0.03271638296549591, 0.007444237537458675, 0.04031282115376098, 0.04394783730326916, 0.06765002717601913, 0.07882794661819024, 0.08049331086630153, 0.06159734737161218, 0.04227230827800176, 0.037929067139994076, 0.027950471762435772, 0.01396853754424486, -0.0006267912022393414, 0.0004709731330881845, -7.931942159488074e-05, 8.929754535536735e-05, -3.456410675698148e-05, -0.00011416366497980222, -0.00016297174247033503, -0.0011971447570740153, -0.007332457780326128, -0.013565963655897708, -0.02603724414278557, -0.041276543363251365, -0.07139235539441609, -0.08893002957613198, -0.10694059147844334, -0.11076458127784657, -0.08935766721171241, -0.06056255165050867, -0.051911628553836374, -0.025494754857657204, 0.01571440672659871, 0.06317106267278061, 0.1203539125235953, 0.12254390073454992, 0.10721408097639874, 0.08288530454866003, 0.047935718500093115, 0.007705593429241694, -0.0040135021647064355, -0.002458644941084877, -6.214627635273015e-05, 6.550585821334196e-05, 1.976927807293514e-05, 0.00011673913776092209, -0.0019032283085814714, -0.004480979957044378, -0.017636181958143184, -0.03437823094234167, -0.05907844416452262, -0.0935744240581759, -0.127124286995192, -0.15220703555252318, -0.18543416120490291, -0.16482767932431402, -0.163388575610132, -0.12972971714313142, -0.13046938362241522, -0.13919960148651847, -0.09963387001412854, -0.03335494792741797, 0.058170203330247805, 0.08935758258218737, 0.11449396951219422, 0.07996392083431236, 0.05154183522317204, 0.007809635801178258, -0.013552989736658232, -0.0033323965209814017, 2.840205674817012e-05, 3.858281494197117e-05, -8.360887550749765e-05, -0.0024088430176063516, -0.006658261714760576, -0.0115758106357062, -0.038903189980403007, -0.07349773675432211, -0.11129051766881222, -0.14994294057464375, -0.19198376195145045, -0.23284310786084422, -0.21477619166325446, -0.1913225755442261, -0.19008886816963524, -0.13332531648708562, -0.12096585012441873, -0.13014105140678686, -0.09641696769032497, -0.027392959107222108, -0.010111194486278638, 0.02649524961976035, 0.02016811509088007, 0.015458506224282175, -0.012182227958733817, -0.025309399247964142, -0.026036590109503852, -0.007636036403801857, -0.0008551273062494924, -9.811800870562998e-05, -0.00024720946863581464, -0.003820248086413149, -0.010952705222964682, -0.025300557228365456, -0.0636182914627472, -0.11893669530941584, -0.16687164535028676, -0.21741775473938288, -0.24573265394928986, -0.25694428202333547, -0.184296487551613, -0.10701643220292967, -0.063394099974386, -0.009194306971997112, -0.021809887897578074, -0.02612893010172547, -0.03723443536507031, -0.029918906485790004, -0.037419800826493786, -0.036741747827735975, -0.04115254034822399, -0.04769218583572081, -0.05435945596429053, -0.045516259875940226, -0.027909028317253778, -0.007590898488328504, -0.0020573882440439104, -0.0005300117870724102, -0.0008712153036480836, -0.0031646411748802133, -0.011996678154523285, -0.035923927540308875, -0.0709611552887126, -0.13657684366941986, -0.19853177791268423, -0.2307142706645412, -0.24839633144626747, -0.21409211848768703, -0.1226438253698052, -0.04186673819771654, 0.003978795570996169, -0.002896145751290442, -0.03529210760766773, -0.06623111858785134, -0.0830587803334034, -0.12241372308063263, -0.15838231561203606, -0.1495694926976134, -0.1234602397247623, -0.12391749537281015, -0.10032252858091968, -0.07108601688139109, -0.04088103920517193, -0.013955267541960815, -0.0019123313146235856, -7.603488450194785e-05, -0.001236845934756493, -0.0045842728980906265, -0.017582846038411096, -0.04664202428869201, -0.09465685556438176, -0.15398272553100645, -0.19597367125922444, -0.20299597950059084, -0.17839879447683907, -0.10502592572230593, -0.008232766229622976, 0.012262253202376616, 0.018025894016111186, 0.01979793280738595, -0.03158912839925027, -0.11276735397588546, -0.17104637219860955, -0.19860749238125633, -0.22164722535555695, -0.22074635710295806, -0.2129160136440401, -0.19940626925106744, -0.15237687458224444, -0.09837700426229808, -0.05681559595688908, -0.01654650426211354, -0.002119647233478376, -0.0001393955996602793, -0.000908191561146067, -0.009441614940681574, -0.03155224005482824, -0.052487563845040996, -0.09820613992999143, -0.14331184684292295, -0.1548740616630287, -0.09749601249702686, -0.06341382516766111, 0.025008060373620106, 0.08426603651570524, 0.050350808641204926, 0.061978311184694435, 0.04293408657121477, -0.0028667246472746993, -0.11100663306252866, -0.16462758676594846, -0.18089391464943508, -0.18256271295103363, -0.2120097558454448, -0.20941931973269468, -0.18763271395542205, -0.1473647194430725, -0.10123018060088222, -0.061086956024892336, -0.018526762455047818, -0.0021465742130911164, -4.099233904759492e-05, -0.0027910918248563827, -0.0109707587461459, -0.03377645183124396, -0.04690477508994886, -0.06994208850749195, -0.09850154191300832, -0.08144820729814144, 0.003852666116786792, 0.07891016980076869, 0.12482094403914289, 0.0955040830194001, 0.08900708176071082, 0.09414262306230052, 0.07688196210317289, 0.03174698558123584, -0.05989447084745052, -0.08972595544392116, -0.04016142785040302, -0.06651854046024913, -0.07682139960561417, -0.10012762303795184, -0.11127689613783354, -0.08985699199281975, -0.07812679258917185, -0.05216771826708167, -0.016138038604943002, -0.0004024840161385344, 6.0306521837275765e-05, -0.0024957274296767296, -0.0086022691691586, -0.026927904493947812, -0.038174504302227415, -0.0572519942845577, -0.06360661530083236, -0.025948968397875825, 0.0595936079057812, 0.1497322754887493, 0.1517133671854693, 0.10784127659918322, 0.07657659030485651, 0.09532415120101805, 0.17139497099167686, 0.10602418807799015, 0.007549644997650924, 0.039776902522673824, 0.06630247499151821, 0.017441715821159713, 0.010376995460619674, 0.00020585972955975055, -0.023408042430050693, -0.026865829425432503, -0.041225699920998504, -0.035684558805250254, -0.014500021869393675, -0.0015366212813676258, -6.579244311325782e-05, -0.0014893957470262596, -0.005194569778044481, -0.014634107415294964, -0.021261344385202916, -0.04270396457826032, -0.05158503065613976, 0.00503281284367013, 0.08103050366823386, 0.17335337134900952, 0.15550776091214671, 0.08451579821985218, 0.04000988053414135, 0.12001264541425218, 0.24167475836779406, 0.1755459666251971, 0.08674818166039792, 0.10206220658618714, 0.07536919295766438, 0.03903801119555755, 0.010433986011856987, 0.006034325603503802, -0.007497866301455297, -0.029243529957885993, -0.05306119827251856, -0.04094485926408574, -0.019031899920033082, -0.008026556963287032, 8.188964140489532e-05, -0.00045345798228020313, -0.0029830353401150153, -0.004899949276073343, -0.01739418678211899, -0.04924158576263993, -0.07538584822983346, -0.03211668781687995, 0.08547700757041672, 0.15793775913076386, 0.13515118419868802, 0.040364869333982895, 0.0006959407112627329, 0.09220734672761158, 0.20050601816505884, 0.15237108843984742, 0.10315244667590608, 0.01729617955221916, -0.030339553531746662, -0.0718730987846477, -0.04826404683255847, -0.029011638789696554, -0.030087911402086626, -0.054472189836241074, -0.05016948574566874, -0.03260959877277171, -0.011205309770151977, -0.000586303328193964, -5.090753115386112e-05, -2.6837148284694193e-05, -0.0006246089608940824, -0.01103226497910826, -0.03175456732757717, -0.08976988644271386, -0.12702716085737387, -0.07272981880851964, 0.036479580138228135, 0.1260744767826916, 0.11673204778633692, 0.07937347547657742, 0.03774097294999194, 0.0888563477411107, 0.16864659964038833, 0.09382005291817012, 0.03126092702791798, -0.09228318303163104, -0.14414482493216574, -0.15379364901721246, -0.07988029648563975, -0.049517267521101194, -0.05013478222108053, -0.07053853255756588, -0.06883070633223007, -0.04515501062768922, -0.021065116478604123, -0.002200789106338176, -6.458532613385838e-05, 3.4642269353683995e-05, -0.0032376442287936624, -0.024131998123218562, -0.05611495643001373, -0.13046753083725873, -0.1778910937855084, -0.1306994569073628, -0.022899859835600594, 0.0673589051274474, 0.11058450342491351, 0.11694671126328379, 0.023635747050516465, 0.09272678489120881, 0.15381836747646946, 0.04114931444773608, -0.04765312405162436, -0.18855484415151605, -0.19586617200829318, -0.1745088969813568, -0.09675750443170168, -0.09490909515519153, -0.11388374698973885, -0.1231391670159948, -0.10344522793125052, -0.07353544741894778, -0.032731720983279394, -0.0074168565462802505, 2.5880783496220332e-05, -5.641321353264436e-05, -0.005768767911255892, -0.03342123376089468, -0.07545990637577697, -0.16303030337041827, -0.22273944239138818, -0.1882214941672326, -0.0769153936719013, 0.030716947347511677, 0.14151681083377665, 0.10427490447841502, 0.05049079810328003, 0.11372180661998824, 0.1123045000923184, -0.01372003018872728, -0.12606101759399532, -0.16438083793863442, -0.17097629572754455, -0.12940834045714608, -0.09957854318120303, -0.11698590743087364, -0.15390946637696626, -0.1468696831372691, -0.11553998812533707, -0.06265772334364327, -0.024031386157607526, -0.006188567915570922, -0.00010809269512749735, -0.00030324096190680787, -0.005470265215651333, -0.035942492210061114, -0.08939695077285276, -0.18428211778659195, -0.2541410411492007, -0.235547729440902, -0.12238000430265823, 0.011688321068015874, 0.08369089000368969, 0.09221892106937782, 0.06743850448046222, 0.06992621968910769, 0.07651491760842373, -0.024584395177463535, -0.103440774021009, -0.08240860179366442, -0.07268642152095878, -0.06611677890048168, -0.09152431281246427, -0.1303203027838374, -0.1662150396930337, -0.14174675822392052, -0.09550990973650751, -0.03576928831591819, -0.007485053235427989, -0.001904173789743726, 8.171796301960199e-05, -0.00040267700088640254, -0.00653040027879279, -0.03452228254200233, -0.08845695148549891, -0.16720291892953376, -0.22898973534792288, -0.22298666885827095, -0.16988860047118892, -0.06390885429136262, 0.02933943729743866, 0.09773622968315024, 0.07566640600066468, 0.07975155772222238, 0.09265505339841557, 0.010083048734388615, -0.006073482039525462, -0.0036803848211277397, -0.02582443815988263, -0.05201309739568324, -0.0892636779500567, -0.13683206272995196, -0.1624412066866597, -0.11567595613540668, -0.06645510231557322, -0.023520634564021026, -0.004928092175323113, -0.0004188281951430183, 6.365651614902996e-05, -0.00020618877174430634, -0.00528457752834834, -0.036181263352521, -0.08935622262501715, -0.14220588243639484, -0.1682561868001819, -0.1833491407334277, -0.18092637878329357, -0.10416872151246534, 0.005213057248315189, 0.07256865926681531, 0.09966721117301096, 0.12844801474400636, 0.1271411421697247, 0.06537895054739405, 0.05694779951558898, 0.0351643094335932, -0.03500709205148617, -0.09378009645037372, -0.12591307894068385, -0.14861640466361803, -0.14321657997303242, -0.09123520360975007, -0.04068566011698621, -0.011684226666108181, -0.0010641066712636107, 8.558505281902488e-05, -8.804634165522625e-06, -0.0001276209635791323, -0.003162066401439788, -0.02511526830104454, -0.06528895530953774, -0.08909349799117458, -0.11150001374111186, -0.12417117088033344, -0.13698604460862945, -0.09594336128130795, -0.017982030742593122, -0.014862480469508459, 0.0497659908962201, 0.10807546287114604, 0.0962938536583948, 0.04128051784177197, 0.012690119208091339, 0.014566991557349923, -0.07868710982965603, -0.13399581696462723, -0.14319573370977565, -0.11781130537809772, -0.09622544989548552, -0.057563833743219446, -0.023431284853291882, -0.008398502602260799, -0.0020818871627632618, 4.980779209698251e-05, -7.811606151313857e-05, -3.400980349607031e-05, -0.002207180568360648, -0.013129370280192364, -0.032564767980699995, -0.03310213267111499, -0.052303344584214345, -0.06493871649021486, -0.09009414990225705, -0.09621630332301011, -0.10894759187767365, -0.15868530605545536, -0.16339509056281454, -0.12461482191803062, -0.07950180554090235, -0.07438407542626434, -0.018746967254371732, -0.014030008535981771, -0.07325454171506246, -0.0983743203211551, -0.09310933610904644, -0.06500776773580269, -0.04675735262603939, -0.02327144128674045, -0.008689384682408489, -0.0021532768169409224, 0.00034227492848962193, 6.129786144429421e-05, -6.514225719810077e-05, -5.5998916674390164e-05, -0.0009164583296287694, -0.010363379333504187, -0.01822583589416021, -0.000489273244376984, 0.0008635836096242867, 0.0031851517134416957, -0.009992568183503742, -0.0300739332930346, -0.07357908580193905, -0.13458909412219291, -0.1733589712724322, -0.18125572493307412, -0.14854913681469187, -0.09450359955350401, -0.026858589353021357, -0.00603116629185531, -0.029140634121294376, -0.042860970823602254, -0.04532189095880879, -0.027556641421682983, -0.017489283165148365, -0.010073381970353856, -0.0036789275189407695, -0.0023724861988204705, 0.0017283634338540225, -2.45202502434813e-05, 1.7429078679409578e-05, -3.73634526355901e-05, -0.00024257409909319043, -0.0042705366663820365, -0.010179977258855834, 0.0009344497136976239, 0.0039477515180988704, 0.0040326916312928346, -0.01278764878458658, -0.0190523326067941, -0.0321941045008433, -0.0841376935150211, -0.12185915043277691, -0.15609032930675987, -0.14204345806793714, -0.09806263715739111, -0.043572067633902666, -0.009925220379998899, 0.010333386385781735, -0.0001314798331023044, -0.005038845660254407, 0.001576949509579186, 0.001733300313515051, 0.0009097800422644172, -0.0036473922245108805, -0.0016797146573056618, -0.00076415395409485, 1.7074504903179043e-05, -7.485306140704968e-05, 7.65861552901807e-05, -2.3475238985254236e-05, -0.000310571110409957, -0.0014075358356942238, 0.005127311896328344, 0.007017306144251518, 0.0110154516672389, 0.012009279477574502, 0.0035784211998237912, 0.0038986897020061337, 0.0008194724745373789, 0.0019295326281111203, -0.01593575514971693, -0.02108321379327229, -0.02186590141792911, 0.002819955287103542, 0.01387172470648734, 0.02371705111371815, 0.01096412068713948, 0.01016102953384288, 0.007245116950128516, 0.00204004770293746, 0.0015055827521378085, -0.0007395917513898561, -0.0006653745190478933, -0.0008791331161052695, 3.6009848665104534e-05, 7.656496812025425e-05, -7.190696447144207e-05, -5.308998583885273e-05, 8.48724993662263e-05, 0.002360363579821839, 0.0051227119660917884, 0.009318572333849093, 0.009070366282240073, 0.012017865751757943, 0.016075434702069954, 0.018410196095524665, 0.02766638063386375, 0.033259033225930934, 0.02858850518595069, 0.02606200989128869, 0.021317204029601508, 0.025248777507325335, 0.018883822550247738, 0.017888054661300848, 0.009467869989306713, 0.003292326642878723, 0.0011117962081079909, 0.00014282682726898775, 0.0005378947922567315, -6.854351352166909e-05, 3.669004335958996e-05, 8.734252503752715e-05, -5.525236530452163e-05, -6.882985224204332e-05, 3.420664410683953e-05, 4.502979037631375e-05, 7.592444776195108e-05, 7.970759841471325e-05, -5.183973802349431e-05, 2.4671714915126334e-05, 0.0010845927031139149, 0.0008085863782437396, 4.838452689168123e-05, -0.0014334183164438894, 0.0010653876006260481, 0.001781485813376875, 0.0002886604664669513, 0.0013380945460522145, 0.0004577874413982072, -0.001548516356750791, -0.0021750069787995767, 0.00047837856317163477, -0.0008437865259682184, -0.0002747458481461135, 0.0002503437342562653, 0.00015855591244280662, 1.5764547852205086e-05, -6.713560977608855e-06, -1.6736635180722182e-06, -3.230920007070965e-06, 8.112220045743295e-05, -2.2598104549026008e-05, 3.539241129786255e-06, -6.238062532576641e-05, -3.289213493561983e-05, -5.584998548385638e-05, 1.2971937566389503e-05, 9.496023312806968e-06, 4.575728248443535e-05, -8.058295229721305e-05, 5.879656767532399e-05, -1.8750918325677005e-05, 2.0416448453905354e-05, 2.0846486168658147e-05, 8.239869546574914e-05, -7.4097325836941085e-06, 0.00015186504119425227, -5.926630600321038e-05, -7.846754383162746e-05, -9.956831847350867e-06, 9.419972136623427e-05, -3.6608564390865644e-08, -6.1012264676066e-05, 9.417779114280241e-06, 6.69710686534834e-05, 2.458258400451162e-05, -4.084158740411187e-05, 6.389375657338794e-05, 6.993393392800546e-05, 6.534961470608679e-05, 1.1517508435860584e-07, -3.3593679377573555e-05, -1.1559893667139895e-06, -2.0491216773162955e-05, -3.6436332564996047e-06, 6.044706626404329e-05, 0.0008243166154866534, 0.002211067336074974, 0.0013317959632374824, 0.0001739138004831068, 0.0012573510411057313, 0.0012068728756040477, 0.0017388908876005817, 0.0014791834539521459, 0.00142322821649224, 0.0007053896766811273, -0.00010418628681949217, -0.0002852979410182359, -0.00015634803429887155, 3.9431720146705346e-05, -9.439494622290189e-05, 8.983537372826643e-05, 0.00028558972824068953, 0.00018330505223148027, -4.000468700072063e-05, 7.379925869854698e-05, -9.829325053164086e-05, -9.016494355171805e-05, 7.110322889431079e-05, -5.3429064492128244e-05, -8.389767732895066e-05, -0.00014352345437360626, -9.52094437120341e-05, 6.85921868254525e-05, 0.0017924377604467251, 0.002757467201301999, 0.002729375162261303, 0.001899858350723816, 0.003946292136603352, 0.010905362470352205, 0.014069154269423463, 0.015254528462685829, 0.01381142683719148, 0.015565311320000049, 0.020642239782163264, 0.01673467615738664, 0.011154222542278066, 0.006056073726613057, 0.002252936864615382, -0.0012324369742255585, -0.0012408094666330185, -0.0001217654029865469, 7.892380927813408e-05, -2.0227020995998388e-05, -1.2344766205663897e-05, -4.746119753577233e-05, 9.871716099847015e-05, -5.143114247141339e-05, -3.4824170504482336e-05, -0.00021994288163962357, 0.0006021990894670221, 0.006176366584018301, 0.009602679827567703, 0.010343272540465551, 0.01111388883844256, 0.014870476025913026, 0.020107260755154732, 0.029419120965609103, 0.053251278231715514, 0.05760800451015295, 0.06279517026720546, 0.059553455322191695, 0.04581984059858819, 0.049098634866540945, 0.05234123501060045, 0.021696152697712745, 0.0064635435292793, -0.0019052070048484707, -0.0011825590179527674, -0.0009874948296081972, -0.0020294019919412545, -0.0002412105021991015, -0.00016340638183618523, -9.466056369944267e-05, -8.298584151068964e-05, 7.630326304824557e-06, 4.337399350350951e-05, 9.360564833766092e-05, 0.00023563235757485433, 0.006719831793578973, 0.014373676348816753, 0.022519965556207052, 0.03451386354108508, 0.05416759997233983, 0.08219140448983053, 0.08459068556162601, 0.09880035124871352, 0.07118954612819078, 0.07836567461607379, 0.09079054787559888, 0.07983497946241297, 0.04101699486985971, 0.040909912025062514, 0.001124989307976969, -0.010714777007522075, -0.016919859547460957, -0.024327463552883608, -0.016053585863443263, -0.0023810277723684647, 0.0017051368810251373, 0.001243856059864639, -1.5541062746301594e-06, -1.6352772396627766e-05, -1.5999419802187183e-06, 0.00011286673588208015, 0.001069804831789977, 0.0014911783645572443, 0.010380307326959059, 0.012659483090761973, 0.03180791150770849, 0.05016686730579868, 0.07784579634845953, 0.097841595651253, 0.11074144172915944, 0.108371779363983, 0.09169314208169817, 0.07671511398310546, 0.07634594055573235, 0.04984961224565456, 0.0018932349673478391, -0.03840749132982169, -0.03606753295632925, -0.03151512873578366, -0.05331362821887323, -0.06268902075766433, -0.03093108446792362, -0.006295734913186831, 0.003285706438533501, 0.002030575427670283, 6.831901606864554e-05, -2.2935311731517485e-05, 7.031228667751891e-05, -0.00018174747933981958, 0.0015787345961348427, 0.0017788885856159543, 0.004763420383760134, 0.010159992107830678, 0.027032621519222873, 0.05041475411691779, 0.088793074685983, 0.08643353739954655, 0.07290058150593773, 0.07585716823703659, 0.08312299084425874, 0.14872901489018606, 0.19631789017285664, 0.1430293208610199, 0.03654909269706884, -0.053042997855675976, -0.06961241764805672, -0.05618145977605142, -0.08954073689699807, -0.11416379864242278, -0.05531350139575578, 0.016751001439367287, 0.021128176380904987, 0.011181890130153162, 0.0005929650498502219, 1.0755771165811987e-05, -0.0005359062213006755, -0.002530919110198178, -0.0060741254053000605, 0.0006629055341737549, -0.004069239120876056, -0.001377891794241874, 0.0037187073995344397, 0.028153747501041274, 0.03172359626747157, 0.02450916322335001, 0.027297652857236777, 0.06407439900250309, 0.1272269605691851, 0.2297611212664642, 0.2620542607302656, 0.18716876246723277, 0.03963661563024774, -0.07826527253663543, -0.09072200218467187, -0.05025330523429406, -0.06893006169209265, -0.08964640294173853, -0.03849196782547165, 0.04750860857009769, 0.042989479932906645, 0.01947865609437517, 0.0007741614665514067, -0.001038269142056074, -0.0047971844336635455, -0.013238248787106553, -0.02262012400148414, -0.014807571511896614, -0.021398661516521603, -0.01172017339248327, -0.014516059279759795, 0.0038208320093567395, 0.04401652749321217, 0.022763282625006702, -0.01528092212653321, 0.008453957381737865, 0.06251715282759823, 0.1417505552311853, 0.14962091719584422, 0.0779606278963326, -0.016536604459694983, -0.10633074675634299, -0.08404160260179655, -0.057072454102915025, -0.040209394189218435, -0.057661384634848836, -0.017892226135219704, 0.066374869012797, 0.06153072928657045, 0.024229307411780514, 0.003057430697784608, -0.00032145048701002837, -0.007381143526804878, -0.016814550403492605, -0.035026053810530755, -0.03462752365545333, -0.04845568126628728, -0.014281773800403507, -0.008370006480092269, 0.014556160228166963, 0.009845093662372508, -0.028626490395032813, -0.05562952929588462, -0.061795339368969235, 0.009223218454968088, 0.10579367394038658, 0.14738896165120954, 0.05569851944330148, -0.0867178191394706, -0.17140513531633939, -0.14393852099477386, -0.09240892250695538, -0.057855257523044025, -0.039925870177275224, -0.012245675393494497, 0.06273587434295798, 0.0678640161502235, 0.017321032987371206, 0.0010930614438920026, -0.0004977221060677072, -0.006396955522568048, -0.02216835320888249, -0.034143006948399564, -0.03703723123032552, -0.0588575827522847, -0.010061659089187746, -0.03152288621255073, -0.021616313872419548, -0.03917269478653156, -0.09156756245273803, -0.11986565827564084, -0.0849981344284843, 0.007141211521020569, 0.13447446669263277, 0.1960822554753163, 0.11533354608715715, -0.08091393730642593, -0.18460387921464697, -0.15554360258410785, -0.10850134403651518, -0.06836436813115929, -0.08015947903578226, -0.03794834710271277, 0.03346969296557704, 0.06480103719858109, 0.018128765074937866, 0.0011876274591447098, -0.00010476701308397913, -0.008836998976044265, -0.03146213191031569, -0.03952856358112923, -0.021045369939181536, -0.031320098930869775, -0.0322274643456834, -0.04783155629666012, -0.023296826931441042, -0.07155340833345745, -0.13023903731994152, -0.13426981397537313, -0.07204361247716295, 0.07077874748443329, 0.23631093898239552, 0.31522382047055725, 0.147681951848119, -0.06283522334557144, -0.15094159583948816, -0.0850836225443743, -0.03740580056002816, -0.04524597681465825, -0.06279812912871398, -0.06939033303706583, -0.008958107896982146, 0.043674052362820195, 0.01208273573532541, 0.0008928105143162167, -1.0307404058916794e-05, -0.0069293385795285, -0.02655243958161922, -0.031375013805879266, -0.014259407643856662, -0.036267880923678636, -0.0470357343139648, -0.048026870596867326, -0.06176026954847552, -0.08533891550553979, -0.12321621054927538, -0.15404743557285333, -0.05773638248225167, 0.11675336018666829, 0.3197752889711371, 0.33129893872188776, 0.0871219964754726, -0.1104456324673987, -0.12587343048583188, -0.009437979852322835, 0.03331912106970609, -0.018409790726517487, -0.08583593376206808, -0.11883672394850721, -0.07147315401676504, 0.008961369352953477, 0.004849152627965377, 0.00022816646686273095, -2.954495843988897e-05, -0.004152495565613191, -0.01468496659870905, -0.012517193334003005, -0.012290336565841385, -0.0565351334469935, -0.0863200817161754, -0.05774247856890963, -0.07091906544766902, -0.11110082879285911, -0.17326887174860364, -0.11491569118948758, 0.007925007580083071, 0.2606046848641663, 0.40558585762688254, 0.3420819507344318, 0.09125273901386687, -0.09207383917580513, -0.06921534481346979, 0.04971912370143642, 0.07457883612570772, -0.0058467938173595415, -0.10404744652933287, -0.12616924814554295, -0.0760098933100254, 0.00442050645015921, 0.004446261522344595, 0.002322171830997531, -2.695590081287776e-05, -0.0019309905366156198, -0.008628249326814899, 0.001018734394121045, -0.0016852221793630397, -0.08721044891574109, -0.09736557457159965, -0.09053610401320301, -0.09027939786642503, -0.09525759874831892, -0.13476528046575456, -0.05186584694178483, 0.13966794519210976, 0.3588816386266433, 0.4198887538223768, 0.25390132876666016, 0.05675185468868296, -0.05551303434990751, -0.02997815030724722, -0.0009278549525173482, 0.01753830992680627, -0.02077825383171499, -0.09491996883768583, -0.11336617740533782, -0.06073053583323746, 0.005023524407590825, 0.0022553770170940903, 0.0001434987613756478, 6.40725683223471e-05, -8.03212186731189e-05, -0.0011206113917454953, 0.004551952394301917, 0.01639273877639386, -0.07875293992552042, -0.08491806684686544, -0.10176580653851607, -0.07766657279000677, -0.08354472139205087, -0.07722009578475568, 0.0645129443273838, 0.27630464598480353, 0.4327529257245083, 0.35940865372158215, 0.165140196032367, 0.019754364407298688, -0.04116409900061246, -0.03388097284764315, -0.037126511742549675, -0.03486413733884731, -0.04767385596546285, -0.08551944004653565, -0.07879017780668975, -0.03356203866892549, 0.004191831381233385, 0.0029508441758363227, 0.00027411363538328655, -3.145813712845454e-05, -9.375132209802925e-08, 0.0021543398410825165, 0.011852587963586838, 0.016134930107242925, -0.05040766950789823, -0.09027441346217453, -0.10939705807093641, -0.1034413067773956, -0.05941816361865699, 0.02121011819134304, 0.20722496226921727, 0.3824230337174279, 0.4150502795858035, 0.26713375965042513, 0.06773296071687407, 0.005293413265011483, -0.01962711317772529, -0.03266528189297149, -0.04090138127048287, -0.049355945399167205, -0.049821635656939124, -0.03387254427081721, -0.02358797911848052, -0.007809627376995271, 0.010932861789333266, 0.006912946363463371, 0.0011874835901531373, -2.5084390063751927e-05, 0.00012001809224454002, 0.0019272166877193767, 0.019750767307526534, -0.003321647996329072, -0.0465456589353076, -0.054224924674623906, -0.0732948516304569, -0.06344109777450914, -0.025198108698012964, 0.05936034186868165, 0.22405160655712056, 0.3365925887924127, 0.2940174769956835, 0.14102630751027648, 0.05379533987640293, 0.007357158901543473, -0.03981794726512735, -0.05009130474717102, -0.02411661703676867, -0.01645877636246529, -0.011832975333499116, -0.021357855062394276, 0.013876283000575156, 0.021951420565294314, 0.006448089207857207, 0.003976870740868622, -0.0007515824890247221, -0.00016014026819513206, 5.2807282396317564e-05, 0.0020718094490694934, 0.032620456057590556, 0.015128981030441989, -0.009972649546342973, -0.0009459679369793139, -0.04101456990009133, -0.050045344088845305, -0.009932781485730926, 0.07677950640674176, 0.19812669651308626, 0.24068131773801413, 0.1864326966658621, 0.10256968488891102, 0.044326710163984644, 0.014409114202071839, -0.018220843402246258, -0.024538512499440175, -0.004930623011447234, 0.026804599255664394, 0.002551199673984935, 0.011474278809389438, 0.03794271481415306, 0.0413830793960038, 0.008664962386508384, 0.0017396089355813126, 0.0007155509072471002, 2.6596160377220887e-05, 0.0002347953075608957, 0.0028810383349544885, 0.036756253642260595, 0.02501358238858091, -0.010862741557438995, -0.009385763377866589, -0.03251367125491811, -0.006753865404557732, 0.006815525613666417, 0.06563464244312404, 0.12397109579414473, 0.1231436246570983, 0.11176775394707984, 0.08028572959850283, 0.08434487060978961, 0.05567863097313175, 0.027694489152022838, 0.019878442996906283, 0.019506460544131046, 0.028244528453018048, 0.025854208092630563, 0.04820449123365711, 0.06477485103115774, 0.037886901042864615, 0.006796191004804723, 0.0014557624042429288, 0.0003217633616991637, -2.2245220509232938e-05, 7.332215280416239e-05, 0.003225006815245066, 0.034867824397224446, 0.029794381031773447, -0.0041454079411821975, 0.005384008078832159, 0.008359201852342955, 0.02960992939816064, 0.020809582378519667, -0.021047806976139442, 0.0037823157261735125, 0.007187043078013292, 0.04809348662481807, 0.07501223325894509, 0.08882462404538793, 0.08866032396925529, 0.07211571807788973, 0.044443680861694125, 0.034192012424262785, 0.043155841437756415, 0.054059724050258655, 0.08129747165936038, 0.07195209137382948, 0.027032027470793783, 0.004462795479358187, 0.0002622543357203718, -7.118914972434039e-05, 4.852980103521883e-05, -1.652878501749587e-05, 0.004103727659962226, 0.025143384033308933, 0.027216503408059502, 0.003386762654794993, 0.01073072109931915, 0.015534796428334512, 0.04421435112450028, 0.026542155992851934, -0.04786301716878964, -0.08356272985651987, -0.019412719066032924, 0.05989693379149588, 0.08354401352095692, 0.06956659451742668, 0.060510411265543365, 0.02662876724101049, -0.012435494565220011, 0.02846445382245993, 0.037821498706155046, 0.06478302034416263, 0.0799071715386176, 0.048448330045604185, 0.019026813632255623, 0.00363627896314071, -0.0016050996034158136, -8.938944369130884e-05, -8.097189195164192e-05, 5.0556363180613555e-05, 0.0032241857978296605, 0.017635425210149113, 0.03438197769631656, 0.008350595627508362, -0.008137934288437045, -0.023921263364521998, -0.008622431062340527, -0.012666812017870585, -0.01852686992454929, -0.05072928084830863, -0.021325290589366417, -0.013586828617838267, -0.0036924455161807053, -0.019324434194572457, -0.007685199846778577, -0.031474893808439014, -0.02265457144758112, 0.0023910545674219645, 0.04665160228273165, 0.06481256814677178, 0.06418352861831278, 0.030835297810582574, 0.016410762165101515, 0.004453400275330275, -0.0003935195640296258, 5.083097010311251e-05, 6.474579603692806e-05, -3.999147933245206e-05, 0.00235799860489071, 0.00896037951980263, 0.0204862273412532, 0.014748438229660663, -0.004581280603508694, -0.0042939145116327624, 0.01699252450117582, 0.0049319140447818995, -0.03557563990271188, -0.027522760998287467, -0.025111319352951977, -0.028855143123260502, -0.044824597802561615, -0.0492772776157984, -0.022403463176073276, -0.034097256022738914, -0.018336791447471627, 0.013590791253854912, 0.051685556327296114, 0.05525518090276052, 0.04876425396743585, 0.027442717303963624, 0.011382593595958206, 0.0022515487974830496, -6.266062831409727e-05, 7.31815486599794e-05, 7.609548410584788e-05, 3.766410513155396e-05, 0.0006834990468561219, 0.001900266699279864, -0.0006594328837159817, -0.006551805814427203, 0.0020299966551494374, 0.023132108645146764, 0.039386835366626086, 0.03519918085107316, 0.02380329509457705, 0.03584514390703006, 0.019157758918949868, 0.005299498008567045, -0.004035136801137443, 0.009778442759481802, 0.020065305222495267, 0.007376238556721824, 0.023057693938250905, 0.030063609245226698, 0.051407161683662425, 0.048710359867287396, 0.038339504588442354, 0.02743905235403657, 0.008926376571108632, 0.000589736578509224, 1.2931095826465675e-05, 5.984615427648313e-05, 4.7190274825845194e-05, -2.404020585201835e-05, 0.0002566376970491364, -0.00015752893224022253, -0.004553123589305238, -0.00017674444196512381, 0.006474919570100625, 0.007010288596407123, -0.004042303590606226, 0.003893589272967021, 0.05253994108302798, 0.0582684345293867, 0.05870624275841078, 0.042697975565533196, 0.011822439211429017, 0.016136868274874323, 0.028573694379962142, 0.024014449948303034, 0.029576557405671583, 0.03739841541346954, 0.0526986789093445, 0.039705240362814864, 0.019604185237631574, 0.012474925266763456, 0.00381748895186452, 0.00015262995370553703, 7.738148152274522e-05, 6.556176125825597e-05, -8.655324206264736e-05, 9.379269172516574e-05, -5.178606481781567e-05, -3.889157964150307e-05, 0.0004399682524856672, 0.0073538548720332615, 0.0077920509934583165, -0.0001998049159197204, -0.0007831244644253675, 0.004693602030925706, 0.01663267094032076, 0.031219312582455538, 0.028247799578371573, 0.015139684933994086, 0.004478742602466252, 0.0009170620645050864, 0.007323677961533898, -0.001575659180136005, -0.003534300443500882, -0.005036640345813794, 0.012954975713464168, 0.015827353672643877, 0.00338439051358335, 0.0017762391718230477, 0.00020736273291824077, -3.7321941075740586e-05, 7.690883776395782e-05, -2.9790443834267706e-05, 2.2082028867093377e-05, 9.296183523069626e-05, -7.155310463916884e-05, -3.1237761247828783e-05, -1.596911276437079e-05, -2.7501722836497587e-05, 0.0002717000187516076, 0.0031434904440523835, 0.0029374714712964546, 0.00011404971105218551, -0.0008310199698468352, 0.002332734130730755, 0.0011240011559930302, -0.003271582369249657, -0.00384241028983955, -0.004528697829911479, -0.007967269407156377, -0.010113883001872024, -0.005047653939107383, -0.007062499973384313, -0.0023567306011902703, 0.001265436399077554, 0.0008885323218389552, -0.0003526581380490197, -6.164256244232208e-05, -3.438366178640534e-05, -5.3835608532502914e-05, 1.253322618197729e-05, -0.0006010662527991571, 8.784900042425235e-05, 4.724630706237309e-06, 3.2293043826820286e-06, -2.557652978751328e-05, 2.627887083941337e-05, 1.1901258074296959e-05, -4.213154324228844e-05, 6.282976990185187e-05, -1.9867799179401653e-05, 9.600489315869603e-05, -3.243454985555529e-05, -3.543573831462185e-05, -0.0002856256821098576, -0.0006483700309289252, -5.3312179916206296e-05, -4.167778172771767e-05, 9.523323591351222e-05, -2.5897257336253428e-05, 6.214642468798401e-05, 4.328052962668649e-06, -8.680102174849603e-05, 2.3383614948591848e-05, 2.3719899363657587e-05, 6.015875609389503e-06, -9.114565715726455e-06, 4.546423895700732e-05, -1.5021170120456482e-05, 7.50588728349509e-05, -5.465029313037757e-05, -4.9788808510202586e-05, -4.8047551788523486e-05, -9.574699278185141e-06, 2.0285214391904555e-05, -3.356620021576478e-05, -0.0007548057766564803, -0.0018764996989440647, -0.003646399545201126, -0.002849214354204787, -0.004014829455486732, -0.006564433182082699, -0.009478324785799361, -0.005330894893222894, -0.0028961028608453757, -0.004603573607915104, -0.0028754618691074884, -0.002518696499576084, -0.001126364963518865, -0.00037993959136462327, -0.00058787187179823, -0.0008013577677627482, -0.0008431769860833974, -0.00018997162433556807, -5.7167636021343926e-05, 3.493510333072109e-05, -8.821840891121943e-05, -2.4147904644002593e-05, -8.571072315681978e-05, 5.3558669360031606e-05, -9.872483086677883e-05, -1.989498551932534e-05, 2.5937447565851485e-05, 1.718317449378499e-05, -0.0019774251265227204, -0.004985268772508657, -0.011136369731599328, -0.013929833056257432, -0.018387945472790948, -0.024562444575295245, -0.031873278877794405, -0.030823661861159826, -0.0267286581138154, -0.0262464771139094, -0.021944203450361837, -0.016414533621304475, -0.014504940892611774, -0.008297113559796123, -0.005705088225123818, -0.005730865784429503, -0.00534119564224582, -0.001953469572617766, 0.0002376458288229459, 0.0001828537076691571, -5.357774910719557e-06, -3.815313454665068e-05, 8.916191467425574e-05, 6.560343642391693e-05, -2.752859854186693e-05, -1.4060278647130067e-06, -0.0012035607538802924, -0.002858298341397175, -0.006017073353576057, -0.013073000239823268, -0.025696581361209607, -0.032823021170685335, -0.04443015466000032, -0.05436650851939237, -0.06827489893077555, -0.07186199792708836, -0.06716036303463245, -0.06471323575167089, -0.04274545973175525, -0.04283700584905307, -0.045194449817918626, -0.02880294253253052, -0.02177601569904867, -0.013057730411656294, -0.016367822679798808, -0.012662822410117175, -0.006019912408283739, -0.0004327961848737866, -9.080387897693076e-05, -9.100802309986873e-05, 4.018570831685648e-05, -5.907590229522867e-06, -8.965947888325966e-05, 0.00013360747337969275, -0.0014775910899041584, -0.004554698598438754, -0.008595337756571834, -0.01626228556013768, -0.030713055430100663, -0.044524365751085544, -0.06138060407733407, -0.06985558789477914, -0.10177127799667178, -0.12470963761678815, -0.14880292530582898, -0.15291260760549702, -0.1510739749304952, -0.10481606643417318, -0.07145508320848395, -0.05546200143537225, -0.04009640307551384, -0.01590554185361068, -0.004853661503226797, 0.00013739781759387423, 0.002346514477682108, 0.002077486322293023, 0.0006107191178210859, -9.458974192753899e-05, -7.932389874062371e-05, 3.175323191595368e-05, -1.2191379587200496e-05, 9.069567270834808e-05, -0.0030364944657979946, -0.0023255201617957094, -0.0077010579209869125, -0.01742442743863564, -0.009160580135634219, -0.015609439718685074, -0.014965079302496848, -0.0025679811405896823, -0.02613925247702305, -0.03315484225332447, -0.04651518040622357, -0.08261145520916012, -0.12224666536101264, -0.12732127908241975, -0.09711197529979824, -0.08926342474688051, -0.056234231097640905, -0.015111849920527491, 0.020719360381890463, 0.024475668358346577, 0.015754411731397435, 0.00489418469472051, 0.0006131673514728986, -1.0121222824892545e-05, -7.076918721992693e-05, 7.511930831845667e-05, -0.0005672271361680298, -0.000957002295306226, -0.006764198807260183, -0.00658320855183713, -0.00944862738576504, -0.004700510401701247, 0.020653189501886264, 0.038354848098340985, 0.06887665101496351, 0.0859222977711079, 0.09392884423956506, 0.13186798723790252, 0.11715526991129921, 0.0874869338505558, 0.05982390093268721, 0.07127796831709811, 0.08644817294176388, 0.07085999811546684, 0.030069815886200207, 0.046109628619613735, 0.060680044672270804, 0.0426184774985293, 0.020572337978270988, 0.004294534852531713, -0.0028916343405948216, -0.0008986954807697869, 8.004128832705017e-05, 0.000137338425236036, 3.6521094481845495e-05, 0.0014701306117330959, -0.007537721066441446, -0.013614892803818621, 0.0032797787745420443, 0.021810716582383646, 0.04257909810687912, 0.08552700617698648, 0.1396213567422127, 0.18199222762502046, 0.1877195880136807, 0.17468157124247247, 0.1560786340904823, 0.15967736338704297, 0.19886932108418706, 0.18092656273874083, 0.1809349967792039, 0.16191843329472771, 0.1219231812134323, 0.0950508404560466, 0.08513507911619786, 0.05377978460935751, 0.0036223214428758466, -0.0015074363682098663, -0.007201085604116245, -0.0019416644735253225, -9.033058268547993e-05, 0.0010144089131369333, 0.0033983937411957727, 0.006761283802063829, -0.005353163489383107, -0.005857231396449367, 0.0073064405184194514, 0.024067691497780857, 0.042954690275950495, 0.04579287867753465, 0.10790628667566561, 0.13835791328426136, 0.09539611708432984, 0.08179218671793055, 0.10095575337663125, 0.1206418911428413, 0.1052545642823581, 0.11411455743630614, 0.13364237991423256, 0.10553141104817333, 0.11762033032902326, 0.08550871769657488, 0.07068933780603015, 0.03854391482332919, -0.012183363045962278, -0.01858285565968007, -0.011167138990406, -0.0016309668497453801, 0.00013508085540610995, 0.0018154920392671433, 0.006606417663599772, 0.010054035387341084, -0.0006156337453000133, 0.0013606782670028622, -0.0007534599614850172, -0.001434432204009994, 0.010501383515710647, 0.04117336448671286, 0.07523759769289527, 0.06057510881001036, 0.05335890945769451, 0.05389507686887617, 0.05789286434993725, 0.07497607999592895, 0.049050881228136785, 0.07150706904291024, 0.09080445432968236, 0.07300158739460472, 0.09854067034713497, 0.03701726898142394, 0.007275324965560117, -0.012052542678782778, -0.03473253872389208, -0.023773464240072446, -0.0077093336867267714, -0.001019459720926694, 0.00018742977547190262, 0.0013991695745584445, 0.010113959600034002, 0.00800453585434054, 0.0022610916224254708, 0.01143398087966093, -0.002989992515623523, -0.0026822483802429985, 0.023253881946323548, 0.03898874760805737, 0.053036609027225255, 0.058270738175674845, 0.031808486638861946, -0.0013948241104750714, -0.004100415740235947, 0.022589745541570422, 0.03894376786791093, 0.04811434803154877, 0.05231302909279646, 0.0639208238939201, 0.08068802644298388, 0.03362188657797543, -0.00276897585248062, -0.04059694848310084, -0.051324929093641385, -0.03338889292818792, -0.009944542643104569, -0.0012926659169806677, 0.0001505846255435251, 0.0024692787868568016, 0.012322529536728051, 0.010908484933436, 0.008806295237909354, 0.004555469339550347, 0.002384440009249401, 0.016034047084807133, 0.033529630298379284, 0.04562766159208912, 0.059603508215999065, 0.07784884918631048, 0.014201776225948076, -0.07520020358562543, -0.09813869721055858, -0.015223205573211033, 0.03632469419153115, 0.05019889929596858, 0.06258031329334332, 0.050120103869511365, 0.05295898120740603, 0.021442404057055196, -0.023391118008005408, -0.05904911703193271, -0.059705371557339446, -0.028812441813095998, -0.008118081559859863, -0.0004264189674367583, 5.811227576079439e-05, 0.002897707627516831, 0.009740803646279304, 0.014031507043792716, 0.015713315707671007, 0.018298150260193026, 0.016841303401209453, 0.012759690435930959, 0.045528416517692565, 0.0481753015948678, 0.07731340591659648, 0.05949535317855657, -0.058854336861758796, -0.1323565538941919, -0.12476857297741704, -0.019399476877625246, 0.01211552827368842, 0.036936014536106905, 0.05544253964638141, 0.035965067404656256, 0.011885568025262664, -0.014792053298518924, -0.010288084897539566, -0.03694626752671264, -0.03792956778467713, -0.009869920675286496, -0.0023452696396677637, 0.0004551710537928319, -2.5998667787398997e-05, 0.0016461843361140073, 0.004936992540841123, 0.01247494948375505, 0.037356056189411666, 0.04979539288805618, 0.0488783864677245, 0.054859571107831205, 0.06290908535014571, 0.0654240891730516, 0.08056211179221465, -0.0026061006238665566, -0.11143625489409766, -0.14862952983857644, -0.1098551119949295, -0.09107263500831575, -0.04297596312459967, 0.01851035787490161, 0.034797940550740536, 0.011737988540079628, -0.009055806895687768, 0.016793362908883946, 0.023801256734308312, -0.015224583191659764, -0.015044169873347188, -0.002107026804179571, -0.0006939111392873959, 0.00036561503844920174, -1.3836843562121163e-05, 0.0007100722361105686, 0.003157078756919955, 0.009965714532578543, 0.040250425901862695, 0.06349048005797724, 0.06942044212049106, 0.06724860772966476, 0.06933845930172086, 0.06416524564676453, 0.06066314834461596, -0.058012957896349734, -0.13136271946818245, -0.17092745784800092, -0.17309594261947114, -0.10614733223571421, -0.021679334953400357, 0.06031095429786834, 0.07624453196192661, 0.03475637054813419, 0.04016721801493562, 0.04770919271147786, 0.033405697598033475, 0.012692176108437335, -0.0015442159718390982, -0.0012964304160232453, 0.0014252108549168401, 0.00014400553146884596, -3.109224524332787e-05, -7.544474385578711e-05, -0.0001720554273932291, 0.006696374538039136, 0.034356345536187424, 0.06959544607304743, 0.0735393781656721, 0.05231336429046357, 0.04523269411490481, 0.023658357841497522, 0.022129727648166363, -0.05235012606290193, -0.12447264250332606, -0.21101805704655283, -0.20227176893435486, -0.059652394119367694, 0.05604609407083296, 0.13536415681762665, 0.12811762132849397, 0.09681871992955685, 0.0910546104529125, 0.06552832174227674, 0.03485371148400418, 0.012419886516682455, -0.00261628662841166, -0.0067748791007343654, 0.00325609803499576, 0.0003222006254277256, 6.682836756278653e-06, 3.8571044667480076e-05, -0.0020881897800472064, -0.0019771505351041216, 0.024997496140061023, 0.056508419708492366, 0.0569889222904422, 0.02691076406918554, -0.0017300448723258284, -0.03428272346736086, -0.001955546997739579, -0.05763817435205582, -0.10743491749138932, -0.18951553446325553, -0.1507711874510609, -0.004677411517138519, 0.09238266862726756, 0.144220108963756, 0.12002128466924848, 0.07631118438853297, 0.0647563435558523, 0.042131025173466695, 0.0040308167383239935, -0.02660455023169165, -0.014139024608299737, -0.004919933783201901, 0.0013834512739098234, 0.0013583095336070702, -9.070637125345985e-05, -2.5956219170231253e-07, -0.0032245764185792935, -0.010492475877486614, 0.010172964892834853, 0.03403314088327396, 0.017797489365196473, -0.02841088685859204, -0.047838189480605975, -0.046952388015192324, -0.031216492211159984, -0.047640993063458995, -0.09767703602047613, -0.11297053763656559, -0.07446842249929006, 0.03798993770913418, 0.05839591292560998, 0.08484138625170676, 0.07026366790107824, 0.04421185742243996, 0.03788400270260051, 0.011005074732464015, -0.032775987200577825, -0.05062990014192264, -0.017190695951625836, 0.0005589501742770734, 0.0001933857921546666, 0.0006520814328782618, 0.0002523041066209187, -0.00032831894167989115, -0.003070434230950195, -0.01734114140794175, 0.00047831755856923115, 0.0038221619022558483, -0.015275716177623246, -0.052229905109574835, -0.07561209861008264, -0.06963425122623408, -0.07058040027689341, -0.08786576699005944, -0.11901233529149856, -0.08172988247163683, -0.0013838307902614528, -0.028563968462108694, -0.05905166866266627, -0.007529399035319316, -0.003413941057979867, 0.012982807960109002, 0.014277227045177482, -0.019593206463181797, -0.05798121691144357, -0.051198665530296644, -0.02084137147301318, -0.0010701528834805925, -0.000324453757355378, -0.00020091736661585391, 5.6967518694050085e-05, -0.0006629267626469817, -0.00279909740554015, -0.014361712257507915, -0.006682694932815991, -0.004332347473207884, -0.0212115904731547, -0.047153663029738425, -0.07809423098169196, -0.09978533110455823, -0.1006550065008708, -0.10446761769386174, -0.10848732945633863, -0.05852721818885173, -0.03444260723599517, -0.08264182867179452, -0.08718446364476452, -0.07536462708714106, -0.04558185404562886, -0.019166568849085866, -0.01577882222578203, -0.03197857209454243, -0.05523696731411618, -0.039899689089513676, -0.006505654196729005, 0.0042919564225673635, 0.0012156171541255333, -2.7941997249554564e-05, 4.6975580155752564e-05, -0.0002710933831856222, 