[-0.3958576424136589, 1.250233006306911e-06, -2.805660971079534e-06, -4.5223932545040155e-06, 2.477266114434944e-06, -3.971746232661382e-08, -1.1514813822890364e-07, 2.2678742853173317e-06, -2.6445476286802033e-06, 1.7282899614004434e-06, -1.9489631212708599e-07, -4.7507589540332144e-07, -4.001556803104904e-06, -0.00030359361224875235, 0.0017145246011430948, 0.0026476224401619404, 0.00011421253401584516, -4.339944699046309e-06, 4.4144996643855375e-06, -3.4880491755938058e-06, 8.847532515663995e-07, 3.76951682975441e-06, 3.4024680643147683e-06, -4.4427110994665275e-06, 7.924742707182961e-07, 3.629829044266971e-06, -1.570338017600822e-06, -1.0110356105715752e-06, -5.488748924471234e-08, 1.2098848065685806e-06, -4.568041224896471e-06, 3.21843181745001e-06, -4.602507063133597e-06, 2.376969548837428e-05, 6.766325516324561e-05, 0.00016217683608770334, 0.0006634938357952105, 0.00047686617654464153, -0.006619758188547686, -0.006262644383322804, -0.003222920470678794, 0.0009434922670052023, 0.008941008780687923, 0.009781897011786719, -0.0030680864375174596, 0.03721834413940186, 0.016449517727205574, -0.0073457735176749, -0.006289246969099104, -0.003976568121339472, -0.0005246825945249406, 0.00030078897599217555, 0.00026307936286631224, -4.643454839125218e-06, 3.2228480688460294e-06, 1.7961469705660456e-06, 6.317336600934271e-07, 2.281542016868147e-06, -8.404015771402899e-07, 0.00022126714002626495, 0.0007356725308049896, 0.00021917377418194937, 0.0005510334430983604, -0.008459137437828846, -0.023287112262667234, -0.05360530821020787, -0.0827514667116423, -0.03674171580940929, -0.010878032149649422, -0.05531935125322983, -0.060235636574131765, -0.08748947288577556, -0.03812744905585248, 0.010607887953918843, -0.018027228794443996, -0.04830368552332988, -0.05232258533815876, -0.06226352211480945, -0.0933820865451544, -0.06643480826344116, -0.020267828708642206, -0.0009361123981634204, 0.0009072438567862942, -3.7624628994647303e-06, -2.03298969758885e-07, 3.3160336913643534e-06, -1.5139873268976353e-06, 0.0004945988605195762, 0.002518577596317413, 0.0019959178165191134, 0.0068166714307387145, -0.003086572396146089, -0.0005516945075920359, -0.044322435540874124, -0.03596303350510297, 0.02098263840159047, -0.03329924803390164, -0.05881835480900467, 0.03301491162620578, -0.0679621275668822, -0.1194089317154918, -0.09127759264587024, -0.20437366739112214, -0.1500963654480154, -0.20158333613851034, -0.17182442803364661, -0.13200787878319453, -0.17070479649817202, -0.164548436321134, -0.07843925614325296, -0.0037998566352027406, -0.007949346311657774, 2.2717084470596e-06, 4.317954363064264e-06, -1.535191345604788e-05, -3.4913521423798595e-06, 0.001890006367257687, -0.01724314110781127, -0.0014597350509003954, -0.0007675662182064603, -0.0034534204537408166, -0.050706898411334536, 0.02873430868704584, 0.08469276241966979, 0.061062139313389274, 0.11332528741164082, 0.11442205037572444, 0.16570129045973614, 0.20697740248847515, 0.09887640346349437, 0.005645204600838259, -0.08538400900526047, -0.29369441241316363, -0.23717502030464088, -0.1524567942853677, -0.20983675282866435, -0.19423540580751442, -0.0648416776095401, 0.0037435972089013706, 0.012417491113101621, 3.6225374571065918e-06, -2.257355992352948e-07, 4.22008533919853e-06, 0.00020727459325171364, 0.008915197598788904, -0.06296255199510453, -0.07173107396548678, -0.09553955051762071, -0.022468450017161957, -0.01016004119411283, 0.04771461249245498, 0.11929321647426515, 0.09001924053882884, 0.0005763520296931681, 0.14592810062311498, 0.030920612627316345, 0.13045912978615581, 0.12205218649517036, 0.20022756444180892, 0.24514243563846103, 0.07371228476520315, 0.14894628061059811, 0.02324246952328174, 0.029459359473449374, -0.08566925063991072, 0.0020196024741523273, 0.03127449989210747, 0.008049356118409982, 1.169736159809649e-06, -3.0642066750261996e-06, 6.803326930271928e-07, -0.006450391716566978, -0.0022427929416225945, -0.045678729087873814, -0.006484355645094821, -0.03707689887513201, 0.04211065600387317, -0.002662347272641318, 0.020333646792120973, 0.07453509544450683, -0.03088290809547233, 0.05753657186513705, -0.019588445485453406, 0.014211431487660084, -0.024309073622410284, -0.008120958757358559, 0.04022459205494024, 0.018352992586910605, 0.07790887632020069, 0.04359654718389421, 0.06985356915348123, 0.06150906158596146, 0.1843717853228449, 0.2232109457341846, 0.1384719874189999, 0.05724399665241867, 0.010166057098547662, 2.1348920455858414e-06, -0.0027208737472435985, -0.018372233945915428, -0.05619880567910199, -0.03440719753951068, 0.11196612403375776, 0.10457821384441601, 0.017172996305221008, 0.10004665535673964, -0.006048963132554653, -0.06900929984309527, -0.01573533485739279, 0.050964461743485616, -0.03242195641352439, 0.03317395163509015, 0.026695077598566996, -0.07402466237118355, -0.04330510480086848, 0.03044840724123692, 0.01737843129486307, 0.027096222517882188, 0.08018089031564532, 0.07666969611255138, 0.13823214319760513, 0.2606539863576924, 0.1465143585503646, 0.05461943847279096, 0.017247975897431513, 0.0019149310390796238, -0.008378376918074769, -0.046718953043430336, -0.10803332914371341, 0.02684628714521975, -0.016395277203983306, 0.11517484498167468, -0.04356854160121495, -0.012905865537612403, 0.047825892319882775, -0.011873892452497462, 0.013064805925348245, -0.029408947903760866, -0.0033914527003762194, 0.038407661864243, -0.013217583885121132, 0.0002990013195532018, 0.04879750957235555, -0.015290172795593172, 0.1402929855997845, 0.1264461527836788, -0.004776192415292753, 0.14520491977825817, 0.15558534398970483, 0.22068975811021135, 0.23028186862799044, 0.09574969887796185, 0.012234130012779561, -0.001976536695980007, -0.015258123966052632, -0.05024981280458982, -0.05321784058079661, 0.017098897974068536, 0.05655824549573006, -0.022666664997769884, -0.011510262031332477, 0.0362591945736448, 0.049798385135505024, 0.013307319860774406, 0.07453428693656747, -0.04690816022423896, 0.010967280623363192, -0.06785918595788656, -0.009579884081101457, -0.018574666032805387, 0.006170930936383637, 0.028076045508285512, 0.08264423216271338, 0.06551407966832688, 0.13031817415179126, 0.167508607148698, 0.2875680072675442, 0.37741883384258734, 0.38511065133706035, 0.09523647649851698, 0.009820610887205, -0.003069814696457423, -0.009971854706526426, -0.04190793074255614, 0.045437537303623335, -0.06372702233556772, -0.0059901488492884606, 0.0020147614970354366, -0.028760567938824408, -0.006142277874935742, 0.05018467663421253, 0.013355872479342645, -0.05877715014312762, -0.03941543332620516, -0.07200731930778276, -0.03735841695465681, 0.010390866734629306, -0.0646085285677612, -0.09415278140337656, 0.018677504856506683, -0.06659789717418294, 0.01884305895347369, 0.05886458355864219, 0.05220258805129146, 0.2999874829747748, 0.42809778864720993, 0.3415292255552504, 0.13563948738567533, 0.01799111615209431, -0.0018907226917661013, -0.012643219731414732, -0.050421918692126456, -0.0229432325356783, -0.0374944335413915, -0.09621127553321483, -0.11215803127092065, -0.20761564253815304, -0.09677474201780818, -0.17365690792003127, -0.15450534931812734, -0.06463279161835736, -0.05236043021834687, -0.06605178384599666, -0.016260508976184144, -0.1285079100231007, -0.1662764850667072, -0.13838167994893344, -0.13412774659098028, -0.08523388788356422, -0.21228340368139745, -0.17081680657639792, -0.026962298587246348, 0.10297897043487249, 0.392655751977093, 0.3834686560244059, 0.13546913058561277, 0.0077926062571710844, -0.0015113540823882712, -0.012633617071606824, -0.03206350245756066, -0.06795057521424021, -0.09673739154332898, -0.12968700457570762, -0.1291485158023815, -0.10824475291100254, -0.09405152671337956, -0.1389705102418468, -0.05087900245442513, -0.08597572667248805, 0.015329599968656278, 0.07844316951668269, 0.07706567544273381, -0.11015909177966635, -0.1271146605866616, -0.15816211650653256, -0.1433145079338771, -0.01808645635379407, 0.009563606490282664, -0.15647329902878548, -0.26558345561200514, -0.21678563691960842, 0.1345174563443409, 0.22508483118550826, 0.10019805186219133, 0.013424542277416586, 0.00011373181532063659, -0.0017785742858379462, -0.0072570742913990825, -0.10419148635431559, -0.2741284082077117, -0.15703581545462897, -0.20465298677701493, -0.1445795037825448, -0.13891383313654998, -0.008255281555854201, -0.139691304777976, -0.023261393603937638, 0.1806256164130286, 0.17811810219569474, -0.01194018198109022, -0.21176321084575825, -0.10608886508507043, -0.08483974290409561, -0.023725612367430482, -0.15666899886743355, -0.07776007806542451, -0.20215782917917616, -0.20158299364972404, -0.1631931136707536, 0.04646765605838579, 0.18337502283325807, 0.13260718438602412, 0.052625578716646464, -2.5971176840887795e-06, -0.001546442525533159, -0.0051418003693738884, -0.13442802287109035, -0.2024229467643076, -0.10647914460138233, -0.17049078284190808, -0.1038298072023631, -0.11611964752530003, 0.03256087436577967, -0.07592427668681548, 0.0911760892488809, 0.12276443230580032, 0.10745558536012446, -0.005594908292711671, -0.10414120324517602, -0.19489745908429235, -0.15770737459659892, -0.18646023508690027, -0.1738181089117371, -0.13514897505147658, -0.1867223464648916, -0.18184521313793842, -0.06591296334298409, 0.04591203241717039, 0.11835370473722726, 0.0790076175327707, 0.0033381462860751325, 1.6646811211326976e-06, -1.5420128336342755e-06, 0.007636133328790968, -0.059551889221451534, -0.051073493458577555, 0.021502409920914376, -0.01875026381141551, -0.12053663841034641, -0.09253838089207293, -0.008271249914860165, 0.03376987067370953, -0.00688840876181301, 0.014119852249034432, 0.14361178876113026, -0.08543291764816138, -0.09597432419438184, -0.1360015795430631, -0.2579656748003674, -0.07994318379316176, -0.09174383722939122, -0.22603143561669145, -0.07893547456098479, -0.2006487653094014, -0.03180034150294503, 0.13219714194378304, 0.15204844790227529, 0.1201548540375306, 0.007352973669734197, -4.12484301470009e-06, 0.0016354549191374102, 0.02353684700217306, 0.07622908698809008, 0.0695391186875205, -0.023730672052979313, -0.05091617158138693, -0.13140382140123563, -0.16420289342129038, 0.042088201271114935, -0.04420741642322091, -0.07485664207032407, 0.04223989475236289, 0.16295756101545772, -0.15531636917177188, -0.10028796239074325, -0.16257924165656093, -0.00021987584610186817, -0.07595468218758884, 0.07309065265577867, -0.10019208677740704, 0.11477134859777934, 0.12066024834644039, 0.13116061080066588, 0.20100996704029822, 0.2568363271501738, 0.17111243801477347, 0.022459585446663283, -3.052403742541022e-06, 0.00025248465628878864, 0.03661220031792478, 0.12367562456336362, 0.2568580582339851, 0.1310081377209893, 0.019431847309213688, -0.026063370981438752, 0.0028437005389751508, 0.05845838769481577, -0.10460530304759398, -0.12908153700968975, -0.03255575737103339, -0.15189191361883778, -0.12426279448995119, -0.09168791518471624, -0.06072486071595104, -0.056993940250097144, 0.007936177064198644, 0.048895343424309505, 0.07087143735513296, 0.11660090303918885, 0.11163455808195132, 0.22826035738512646, 0.16044423040306552, 0.13458287401412697, 0.12298670890224055, 0.02338678288647129, -0.0027406531550625258, 0.007839365853975789, 0.026485117395354116, 0.09219307474278293, 0.19863507633829197, 0.26303649095701415, 0.26746290649262194, 0.08392308819637828, 0.04854268154523021, -0.02377402817520856, 0.007401637077642565, -0.0388212857917406, -0.016310750511568113, -0.0692094733459868, -0.09500898860397282, -0.020604274660589256, 0.0069671870555415285, 0.05356951103176102, -0.011932515573225114, 0.044937744287653084, 0.15285991898178664, 0.012304253321303608, 0.08140373627554376, 0.2832750352360674, 0.26927845453410704, 0.12646570775754307, 0.049957899222473796, 0.006054815509630545, 3.089377689616177e-06, 0.01602685235266486, 0.02283573580616052, 0.04641791841369061, 0.07287213049533733, 0.21737023847494122, 0.20171219792075562, 0.13317382876019046, 0.12639767403660593, 0.1679260216257218, 0.05395179824098682, -0.019251121487698017, -0.06423188781698579, 0.041910366377383955, -0.03639676459913382, 0.1182503458376531, 0.06053269590355674, 0.14702373861330378, 0.14148887188561654, 0.060778874343866994, 0.06391351848483648, -0.006500276569916926, 0.23756715417585125, 0.3007735980713864, 0.2369014057437381, 0.1090201030272757, 0.03341709282527609, 0.00020078375501359446, -2.2181515217778566e-06, 0.0028069740961786296, 0.01579902718025721, 0.07000231580519384, 0.21140894255698753, 0.2955984652024339, 0.32677180780385456, 0.30889317375150543, 0.2988982127089224, 0.25095638548245774, 0.11162354358946208, 0.14761029240268658, 0.0505833135756645, -0.014223757718811798, -0.16202830312988134, 0.025586498094785665, 0.06409450676774449, 0.041214632072698536, 0.04690407823175658, 0.06898486281469128, 0.04067436337223971, 0.11944017669838897, 0.2903483116853778, 0.21405254338331098, 0.08315753794385444, 0.049061144711362824, 0.010958391975229345, 2.2314206313001344e-05, -5.681118839069895e-05, 0.0004680993229941247, 0.016413495356869614, 0.10619258820058101, 0.1913565373904563, 0.27650146243913315, 0.35479789394634575, 0.18123454562349095, 0.17970356924881897, 0.18919713957635487, 0.025675292937395178, 0.05912583619356781, -0.05505056040540101, -0.030965741201183183, 0.005540504507718661, -0.13510871152815412, -0.06642111164231773, 0.07576309967858402, 0.0851704549161414, 0.15713479685257084, 0.10888172197062929, 0.2583949021167075, 0.38115084681426764, 0.14262339943580737, -0.013557475921529324, 0.01749099068701673, 0.00957058358131001, -2.271687912330353e-05, -5.281975600213962e-05, -7.563673497184504e-07, 0.03719760448021416, 0.0848208059149153, 0.07803842871489046, 0.09015657495134233, 0.1255613497250258, 0.08852847653801788, 0.09440403433445183, 0.0750475237723399, 0.14097575523949316, 0.2480948335130191, 0.2242549275198041, 0.2202599046923834, 0.08156730021045351, 0.10703795102838241, 0.06584798885202243, 0.12643449317649838, 0.14288290900017517, 0.2826390574898509, 0.23687357667479178, 0.252253975302679, 0.1461194060334478, 0.04316310830108256, -0.06669975134449035, -0.03501561697058646, 0.0015950481325889086, -3.284842612687317e-05, -4.225932503274352e-06, 8.549035638329945e-07, 0.04029677254931429, 0.08044376956988222, 0.040171156714783676, -0.05675930268080088, -0.08490687339654678, -0.11252004686599804, 0.05561960090670335, 0.19457901965688196, 0.09321794724431412, 0.16141121470580996, 0.20855620324881602, 0.18602249008248548, 0.20777416498630494, 0.17120769180973577, 0.2442633552260004, 0.16226768996598004, 0.03593037664322898, 0.12257993331597997, 0.20151069388058673, 0.07202137533819122, 0.009616535680949414, 0.10284939673317303, -0.02675697249498754, -0.005677062965513582, 0.0016413777286311752, -4.3472533356342015e-07, 3.6239723347151014e-06, -1.930356575692336e-06, 0.024950210153017443, 0.049008047327774466, -0.08079081187204842, -0.2640136936288816, -0.1825506004832032, -0.0698206726380311, 0.0063014854094348306, 0.011827128880688209, -0.10123537267810218, 0.08301788504877286, 0.16011546076350364, 0.11392416143642407, 0.19445912774321242, 0.12300827114886845, 0.07589866254162923, -0.0748205018150179, 0.09386175390932118, -0.019061285193239356, -0.1027809608717134, -0.08431823970726361, -0.025324270343919573, 0.018182580508968135, 0.06312969213858362, 0.02659991218661241, 0.011516109208556655, 1.2887249213720968e-06, -4.041248064940881e-06, -6.041283165525595e-07, 0.002806039066871469, -0.0024435821626746946, -0.10256703801057783, -0.15129914208895895, -0.0742805086352713, -0.13838088847342492, -0.09631679015012883, -0.06848916440658358, -0.0710314055199812, -0.051503374485554906, -0.08496318919058689, -0.03279682177586351, -0.08905725875854707, -0.030295160760071053, -0.01905141727295752, 0.03993229282779649, -0.0671300730977718, -0.056314735444789876, -0.12580165330385212, -0.12851665236682097, -0.030668835765833298, 0.01885540242669939, 0.011506972411860564, 0.008332991598002302, 0.012605392357865633, -4.3311861455263834e-07, -5.669195483892692e-07, -2.1675220486319733e-07, -2.2424570118066665e-06, -1.9248740818406335e-06, -0.015078585256955367, -0.017692151303509655, -0.11359210312875473, -0.15103224302729254, -0.1599698941354294, -0.16559032923672998, -0.14459791469918692, -0.13581531185114834, -0.11699670692705974, -0.17198939457537926, -0.20911724297869844, -0.21652515175645098, -0.14637917559539404, -0.16104821053685278, -0.2379372626287072, -0.11664996526734392, -0.10301660135801158, -0.08507699978505663, -0.0489927291959034, -0.0019150780480308533, -0.0014170793661936055, 0.00011566062853137332, -3.5175914841510576e-07, -1.0191092394370252e-06, 3.7671253814896612e-06, -3.552302867494473e-06, 4.185458436974696e-06, -1.2816741590934905e-06, 1.3615975360689624e-06, 6.064852341229996e-05, -0.0016988282434249411, -0.004630544017303387, -0.0023059084169023826, -0.005549449647606166, -0.02916933794604813, -0.007740197264481387, -0.009579233726686287, -0.01507684964166175, -0.030948892212701053, -0.024625192380813066, -0.004257416703021463, -0.007050872377906395, -0.03787813526118511, -0.03171388456231243, -0.04693394991554128, -0.028840630688633205, -0.03517486241078809, -0.0065037494460921845, -3.4017352485528257e-06, 1.525598676947608e-06, -3.442757897261101e-06, 4.507208559156262e-08, 0.04123148819081313, 3.706168812562049e-06, -3.7137601201180667e-06, 4.581394936799698e-06, -7.352477982148892e-07, -3.7665581140801344e-06, -4.724695085005619e-06, 3.217949522491242e-06, 1.4334181688512213e-06, -2.910565573705532e-06, -8.617500342882456e-07, 4.070105045529561e-06, 2.467567525465466e-06, -3.6330202400295565e-05, -7.9545328735246e-05, 6.916139972880598e-07, 2.041943887411048e-06, -3.8866213072902245e-06, -2.0043507232698794e-06, 4.943648397248019e-09, -3.822540755016382e-07, -1.707033900216436e-06, 1.0336285195933567e-06, 8.947120081349836e-07, -2.9306747071658457e-06, -2.009263203985175e-06, 2.6438320823579484e-07, 1.66330263588627e-06, -2.06178977136702e-06, 1.6961974549337895e-06, 2.949578560398956e-06, -1.3752695339374528e-06, 3.137532416525316e-06, -2.129732566195731e-06, 3.290415485257992e-07, -5.1243281151737644e-05, -0.00014505054525840665, -0.0010551184033977291, -0.0005782210827092693, -5.960397071927847e-05, 2.1850464425596223e-05, -8.594626738356428e-05, -0.0002504096984111483, -2.8914755480986737e-05, 0.0001132210360921237, -0.00022135555661460473, -9.151211398133126e-05, -1.536794230745683e-07, 6.585067512992151e-06, 8.70850087055779e-06, 1.2619086041401118e-06, 9.110388011943221e-06, 1.4828643564331268e-05, 2.648763003337283e-06, -4.1137013103488725e-06, -3.718661574498681e-06, 1.4969669674324865e-06, -4.3944589469523317e-07, 3.2000749865662464e-06, -3.7234742984803805e-06, -1.1923802436527111e-06, 7.540452149415417e-07, -1.2753876016273172e-06, -0.002536021377534585, -0.003637936738725401, -0.00417132335232834, -0.0069549299594501915, -0.005764401653957878, -0.005942243334295168, -0.017635121735934945, -0.021114642793716165, -0.021718120557048883, -0.015609426333830364, -0.00750465676490204, -0.012749731354462415, -0.009527229693281875, -3.977280674489886e-05, -0.003333767350879141, -0.00546664080022814, -0.0021442081132851927, -0.0006093347760619614, -7.395498418183476e-05, -2.811813153222618e-07, 3.6661226544791294e-06, -1.056931388488882e-06, 1.7868575455400206e-06, 1.515059710511376e-06, 8.152801069133061e-08, 9.119786936738231e-06, 0.00033518505593864044, 0.0023409410403245146, 0.0037053893545628005, 0.006056201828788692, 0.021218048202382263, 0.006261716381803675, 0.01655849989790629, 0.05950953970359816, 0.08844194845324388, 0.022749919170430184, 0.042111356763741774, -0.004404352276495136, 0.017528362022466715, 0.005621387792604425, -0.010539327168186764, -0.03627426263207249, -0.03733050472744387, -0.02020570246266292, -0.021621361702304928, -0.020481698813602976, -0.0075067779786112945, -0.002400971702235308, -0.0001409924940787684, 4.482392272770893e-06, 9.849168818920964e-07, 1.3152336330884078e-05, 0.00013876549466970126, 0.0015411346363585934, 0.017782962824808617, 0.03845263734675507, 0.03518488954069634, 0.049865591917342536, 0.053509484194541504, 0.06062801951040159, 0.011927413823145603, 0.06775158160134132, 0.06012550621133337, 0.000629937939590355, -0.02129497161562265, 0.032517047962750324, -0.047563053345020215, -0.042407404145024793, 0.019003267857692917, -0.0779495431261633, -0.09416998085724075, -0.02313817017748576, -0.01399847865526145, 0.02133991884730528, 0.018803340620866964, 0.010723417806670191, 0.004526446239241178, 2.834355147172763e-06, 3.983906537956924e-06, -1.3419416669054816e-06, -5.430437646421612e-05, 0.01652499061016551, 0.05092443401138833, 0.06138200260022178, 0.03145500936096616, 0.014629474059421912, 0.014008704431649501, 0.04509637040420909, 0.05501545496506632, 0.03333331883323955, -0.006797687835984833, -0.03086137149586919, -0.0625903609539565, -0.06650844202554974, -0.06939519331661144, -0.13391236439646312, -0.08997753986495279, -0.0699850690042464, -0.06186503287587536, -0.05586673382627143, 0.048144569577064755, 0.10995506473361856, 0.07478756666832773, 0.01216897897269301, 0.0007735911825595132, 1.206216602299804e-07, 4.396629911316035e-06, -2.046030551546924e-06, 0.008960319222534744, 0.04606654473029814, 0.05131484527231358, 0.05419330330397729, -0.006439786898990091, -0.031175980017035268, 0.04584239426759652, 0.07899552733744193, -0.00023540375039114353, 0.07047191170980269, 0.018205200061703657, 0.060155174265232654, 0.06747293022498502, -0.009540212286491311, 0.039611394838166086, 0.01796246091021385, 0.05566182888415262, 0.04294815001020238, 0.008644578518013736, 0.023438780229119372, 0.10026605866993674, 0.12236893208969694, 0.1393931610381309, 0.04730180272317554, 0.015327958183098631, 0.0006700848930425737, 3.1759362497830392e-06, 0.00010317529317494741, -0.00332289664955162, 0.018668607315514667, 0.030434822212308213, 0.004228699706679205, -0.025609678443706603, -0.040893022724323436, -0.015253613251699025, -0.06341815936333298, -0.06808083884048077, 0.01538004682393131, 0.08778503063664196, 0.08621445084481445, 0.18583694730238087, 0.09482795958823108, 0.13835162145845623, 0.11206284159812965, 0.047138457725791394, -0.011110397639236725, 0.032769039741580276, -0.005946584719134383, 0.0017198774861342577, 0.01933309165461441, 0.11996070019547384, 0.08668292040832824, 0.02375080255842093, -0.0019848334549435746, 1.0104336236402677e-06, -0.006997873979853775, -0.01966712264296534, 0.002482091247106347, -0.005009261276921836, -0.016091095787403767, 0.005248988856184394, -0.0683029990842683, -0.06337448755792459, 0.03176177651834147, 0.02534840277943696, -0.032787922859621794, -0.00015401199699333412, 0.0019058302494579936, 0.056277766629579284, 0.014621293599952841, -0.0381251479019143, -0.017243666784149195, -0.08996483206192388, -0.06625990473020986, -0.016272340214787424, 0.005756032569771433, -0.031471031601934554, 0.0008923200841059869, 0.15734703508944078, 0.17070333601610135, 0.04153405996097077, 0.0028353694034610475, -0.0008259562550782417, -0.009956315928718967, -0.02251582611271904, 0.0025869699469099386, 0.0032881850561710967, -0.009181827031685769, 0.018256327059633936, -0.029113154407721047, -0.031134229249682607, 0.025201378778033152, -0.012267822371080388, -0.03346359245322723, -0.0435388772934999, -0.0005804423481643878, -0.014808089973989297, -0.026861807645393195, -0.15004483076530037, -0.16012036916468758, -0.11199566120680383, -0.16780002683352085, -0.0511454058990866, -0.002385798431428676, 0.028049845438129977, -3.7679636257704945e-06, 0.17091977464615443, 0.16829267652869623, 0.02409015709124116, 0.0006704545862051672, -0.0010274646554437178, -0.009537364518983727, -0.03429854778591503, 0.03422062581752202, 0.019128376964815424, -0.053211837994546804, -0.02645773422222639, -0.08928354871598068, 0.018439100723244777, -0.04012442838531452, -0.030191264504559365, 0.0030011427070815583, -0.004156659733167019, 0.0660037836974365, 0.025514117793975593, -0.008083578155690871, -0.0914647336847307, -0.05738998741128581, -0.11291775246887674, -0.19076276151426996, -0.12261084804208405, -0.10938530331134347, -0.10119974393193087, -0.06337442265241475, 0.0879822891482943, 0.13178777399605088, 0.032274071584591175, 0.0004894008312192746, -0.00015494138781276808, -0.015906797418859267, -0.061424654947583826, -0.0040359673976014965, -0.005895667911767906, -0.042255675987640094, -0.03004469059472671, -0.01319948238311279, 0.04884403588351229, -0.08346835678361826, 0.03195493591111866, 0.13314439965770172, 0.09724890845554804, 0.14316146564610924, 0.17068706374167142, 0.14194894737806601, 0.09407536495253192, 0.05531260726526469, 0.09792978994292652, -0.05201866190788414, -0.13730424973990252, -0.17082147939406916, -0.19327865109556128, -0.1732083148036045, -0.051374237544814495, 0.08124559498757886, 0.03549763838888244, 0.0010617951199484428, -2.117576321865073e-05, -0.01355563095060036, -0.053204927984408935, -0.07336205197050955, -0.06163248694427722, -0.05172313151117823, 0.0011028157608630642, 0.004122693773903679, 0.02040676539761696, 0.055875678885868994, 0.14355603181238527, 0.16693600089556399, 0.12977302767976165, 0.11490041230212591, 0.12433106919111633, 0.10982882212607224, -0.004900638646805094, -0.01008615735702805, 0.0955546521296669, -0.021246092651972012, -0.06448184592463843, -0.18550832278597862, -0.20445870221342852, -0.25417771165577513, -0.14659217879285436, 0.0014368145485478391, 0.012915952268727342, 0.0006327253136535469, -3.1701624568167326e-05, -0.007271515933586817, -0.030268662125774816, -0.06671776209933057, -0.0712566690177384, -0.011093568095016748, -0.028579546656127455, 0.0685851575774946, 0.08909614615021072, 0.07275244384455457, 0.06616258367439536, 0.08990535966290442, 0.10498710415108736, 0.11504029729165799, 0.10482131455470589, 0.020970382841790796, 0.08459238119291974, -0.037861024124867575, -0.017098331022553755, -0.023841653662898227, -0.0715597230463632, -0.1157046675288592, -0.20077977972990696, -0.23130174908195636, -0.13658967800903948, -0.031078993369930016, -0.006736859840750508, -0.0001140219675115116, -2.8100565736532936e-06, -0.0036217544160014347, -0.01716258228609405, -0.04822753499144554, -0.08389559621330675, -0.08867673357628653, -0.0632285021660761, -0.05208132492884038, 0.09034258865780678, 0.14281721908838924, 0.14719175516174932, 0.001710301351255129, 0.06482798740526777, 0.08771093627690822, 0.05731397217847716, 0.06530676442990707, 0.07119764919861278, 0.09334173297900622, -0.03617501779736913, -0.10765374286525718, -0.0422168391088243, -0.08899773979645313, -0.11568900403113917, -0.1255646582889614, -0.07899859656212718, -0.029227106535098944, -0.005087301455804213, -1.1006124604162218e-05, -1.1030534914876238e-06, 2.8736999311137705e-06, -0.0014097596904747332, -0.039254365209662426, -0.08379136487542437, -0.20854820309388294, -0.2381938292696275, -0.2788244691347415, -0.1165177054660108, 0.12276774547155417, 0.2493551567358145, 0.25080414260320666, 0.27470101458934437, 0.13186223592458265, -0.006289284419912209, -0.02995362670239896, -0.0676486821110737, -0.08961231767561927, -0.07038796392636908, -0.06325872734423497, -0.057615166775947614, -0.033038239373607135, -0.02238075656626032, -0.013642725698881312, -0.03899934199100802, -0.03144864469043176, 0.001094745409567082, -0.002920804899011943, -4.426324818597263e-06, -3.2226590694622663e-05, 0.005050316674941416, -0.013971092420342371, -0.10570587720209029, -0.28336239852610007, -0.5040898176265056, -0.488897159421605, -0.5113961244575773, -0.2570635788571653, 0.006816729112638301, 0.23255420058379606, 0.32632847321606995, 0.10598581187185371, -0.04554547018977133, -0.07390862924571316, -0.12231314270480391, -0.06281780196028929, 0.06191670423461577, 0.09647253490955976, 0.011543540063125477, -0.01575344403026694, 0.03727033989428468, 0.0039390880057444625, -0.003894582855239296, -0.04191606034305735, -0.02317176288303486, -0.006282083989026538, -2.699754637879321e-07, 0.000543010783480607, 0.0012673700461496773, 0.03619623602141501, -0.08059275127757878, -0.2896811533408805, -0.45775174240264693, -0.620012476271775, -0.9299770593416206, -1.0882892953622616, -0.8632010854382511, -0.5593064043275292, -0.42689118935901776, -0.3193959586315231, -0.35864428754427796, -0.06144789691144502, -0.06470164243693301, 0.026035412789757222, -0.0062004732654082064, 0.011509905572152668, 0.08678630721158194, 0.028764422846676106, -0.02906025058270275, -0.03630032507322081, -0.0029888180573569016, -0.037245613361291, -0.011662648134114773, -0.0010230725625614767, -0.0009284554689094236, 0.00011735632911373315, 0.002449814523679118, 0.09210956687426557, -0.002342384248013595, -0.2141334166392086, -0.20409657425964886, -0.4149017675513818, -0.6960245614662569, -1.1200998402663787, -1.2981452280324448, -1.3316023655324232, -1.1269486426703461, -0.753755766612294, -0.35339318110166174, -0.13497054929772384, -0.002048381034315559, 0.018305141507084892, -0.023981879301638965, -0.04969483972254088, 0.1019006911973081, 0.1342435246987655, 0.023620982144617168, -0.029314656608875313, -0.017927038511584115, -0.04014389874072696, -0.010078802069046438, -0.0007730782526130315, -1.1051541189376945e-06, 0.0004666347677854587, 0.013868353889006873, 0.1461172418870865, 0.09000802426936866, -0.019198002246417746, 0.0004994540415061479, 0.0007086857293180455, -0.0772938945253644, -0.2833930408479359, -0.3939884825035057, -0.4194576777218042, -0.44990689454654514, -0.28510103123395747, -0.20715067952214367, -0.07325654096271991, -0.005732064241293575, -0.0670488789769178, 0.027013408481427022, -0.0037930738997658934, 0.059976445234182926, 0.09947548921986152, 0.05087249276977505, 0.02560861989584802, -0.015338111047599539, -0.02530780887995571, -0.005737291763314647, -0.0006346395385900289, 6.807388326543603e-07, 0.0012030937488670588, 0.014552363235339125, 0.13336368831864712, 0.13513532572480547, 0.054395694327791635, 0.1407966272297478, 0.1512072097920578, 0.2887363889027611, 0.2722055602283895, 0.2068553640891485, 0.2707038394479268, 0.014683660377787773, 0.013452924325036995, -0.074535233445285, -0.12323165000318703, -0.07409628726607517, -0.006270820257364019, 0.06997866818215101, 0.08206105380735546, 0.045761001913585383, 0.03666954366357601, 0.05324788648371853, 0.016087353971634074, -0.018645104838301396, -0.01156689974466607, -0.0024551551904110343, 7.134071769612319e-06, 1.0802131573407621e-05, 0.0008846598974913642, -0.004116870492493674, 0.07859376154015249, 0.13604474372285702, 0.07237568450933772, 0.14256191104566818, 0.09474615117937314, 0.20636350886452476, 0.1834717146834982, 0.19328682706222755, 0.13433423284392282, 0.0903645042905161, 0.08724734605617465, 0.03907657086356769, -0.0268956512562858, -0.01215098185151478, -0.02899550929399559, 0.011494393201446516, 0.06464149627311601, 0.02076214312045325, 0.05134256720267865, 0.014186690375912086, 0.019695683562779787, -0.008175857228306478, -0.010953721924155838, -0.003339541841530854, -3.609137162703441e-06, 8.74124102162557e-06, 2.1785761196496195e-05, -0.007284072991365399, 0.03645947485950537, 0.10813964669491738, 0.0525931270868559, 0.003235844099213448, -0.09250150848730067, 0.010594647439205778, 0.07137783526168036, 0.20764540261527545, 0.17755313831881048, 0.116182616542585, 0.04605308186896145, -0.0501962735706666, -0.07123801634748955, -0.02325397204730195, -0.13289891536767495, -0.011601757429707014, 0.040168061673264914, 0.05990389944002443, -0.01586530390280426, 0.02038434414560403, -0.0006349737543062022, -0.01692397493470157, -0.01232965598330623, -0.00020154870897603894, 1.8485206597086869e-06, 8.982860608188456e-07, 6.57631209060626e-07, 0.005167835148815669, 0.04700117364476157, 0.11493691959253324, 0.14642132670349714, 0.0732327626351992, 0.026941042339862123, 0.1217778368891688, 0.1369790359464642, 0.1789870861377217, 0.06585658799506432, -0.01727209802219518, 0.05654979267839377, -0.0006254708649711698, -0.07187145855554153, -0.05334486001086878, -0.08189732297314992, -0.06293826726545322, -0.06667494942154673, -0.049396853081697854, -0.006567669984134388, -0.013322040789481005, -0.004430640590119654, -0.007659927528324989, -0.004711119591561736, 0.0004916910341541652, -4.2364041782207185e-06, -1.7823956015119021e-06, -2.5703759790754594e-06, 0.0009884427956914114, 0.030538741255269307, 0.06809293174235403, 0.1006779606695596, 0.15805893161068368, 0.19991790588946193, 0.16525635491542287, 0.1761710021090673, 0.19045396001785794, 0.08390882736441697, 0.016617179383005255, 0.0735417065630453, 0.039295452932493154, -0.012817536014873695, -0.023603540414199004, -0.06383422792349465, -0.13018231099154612, -0.11235668292812094, -0.0220321367155192, 0.04220855523597616, 0.020131561064393278, 0.013422874721098448, -0.000808657953826005, 0.00016983632601293673, 7.360779762272429e-05, 1.9537182456784146e-06, 2.9779245606321577e-06, 7.953837873104977e-07, 0.0002743042238335651, 0.000500531387627432, 0.014734626931385228, 0.04797588009847007, 0.0655075116046889, 0.11362719843896574, 0.15831297801986016, 0.1412253033727799, 0.2093534128699239, 0.14727972421955765, 0.12599508654399288, 0.07398202693537624, 0.017782147297988934, -0.04944575845413913, -0.0385828900670226, -0.07591535153286802, -0.054293729876631475, -0.03624695702761805, 0.007926344973615076, 0.04709570667151235, 0.04103098838280816, 0.017725614791897264, 0.003953928237954285, 0.0011209396425003073, -1.321473691941658e-05, 4.64486104445368e-06, -2.6195794988231668e-06, 1.1097833131460367e-07, 3.3184417307686195e-06, 3.113629429307703e-06, 0.006830386756120519, 0.020009247303138612, 0.022317410344573373, 0.0071867354148922955, -0.015575688153231081, -0.034625907600944014, -0.03688218781790823, -0.0170142429905454, 0.005504545365927449, -0.008023105010417303, -0.02072308951450105, -0.020204334861737554, 0.019817192215805145, 0.018009417338325034, 0.014390397758673066, -0.01430488082630571, 0.0008932800883076177, 0.006881309877782539, 0.0010695017817797519, 0.0007752899636767831, -1.2416671968625072e-05, -5.191769595304218e-06, -2.3235929490361592e-06, -1.1324327925230548e-06, -3.893090923611942e-06, 2.1993223205304907e-06, 3.677970381565571e-06, -3.17932868076404e-06, -3.433554252376157e-06, -0.000551021371321775, -0.0011308311947751419, -0.0013735175446439548, -0.002781445229808438, -0.0037030849357594523, -0.004366292205458411, 0.0006064683045492473, -0.008686033643794975, -0.01810231274433451, -0.011390408403702637, -0.007435517255130055, -0.018076042178540065, -0.020512081436926143, -0.0033686250281141374, -0.013020021726543547, -0.007585767331652433, 4.541575990933484e-05, -4.837448587663828e-05, -4.448641192960934e-05, 3.305349106966457e-06, 1.5085686017730552e-06, -1.976749815282335e-06, 2.8712347371295662e-06, -0.06308635708089369, -4.482714024360341e-06, -2.0894938032826906e-06, 4.134643643344062e-06, 1.9423351161222806e-06, 1.743313748134084e-06, 1.7614473035828363e-06, -2.913951872479148e-06, -1.9133059252250628e-06, -9.89956428945012e-07, 2.4983045027491683e-06, -3.5173712063760377e-06, 1.150967937058849e-06, 6.11489439455344e-06, 1.0491752377160954e-05, 6.88234271432871e-06, 2.8754657095681273e-06, 1.6474188858654454e-06, -8.395507793814733e-07, 7.971302517139185e-07, 6.861562086722996e-07, 3.0824836735864764e-06, 4.2831845740071406e-06, -9.454966577796715e-07, -1.574683899972644e-07, -4.045806535373155e-06, -3.124912824340545e-06, 4.311712143839465e-07, 5.39751164722317e-07, -5.924007992874921e-07, -7.911608068213917e-07, -7.439890372508591e-07, -1.8192064364742262e-06, -3.72633615520004e-06, -8.720389265310443e-07, 4.2172837036041e-06, -1.1023527964271891e-05, -0.00043547587214440395, -0.0002425806127853997, 3.747598935906068e-05, -0.00026007236212905957, -0.00014735663008261804, 0.000397197179668012, 0.004785550158679169, 0.005640431893749469, 0.0014476725670940199, 0.00016642477549131388, -0.0002660205644040219, -6.869935944452116e-05, 1.248348623474154e-06, -6.384394083907294e-06, 1.003573699044283e-05, 3.911002041979469e-05, -1.3759086901430764e-06, 2.1650833027819643e-07, -2.686059997170477e-06, 1.6702912651883241e-06, 4.569546802790378e-06, -3.8111703439009213e-06, -2.8245689441601134e-06, 0.00012908338877784184, 5.318794590542081e-05, 5.1683234380784014e-05, -0.002455166488010737, -0.0022164865603476855, -0.009675316453012676, -0.01336910259065553, -0.006610755155797399, 0.003949504326338745, 0.012784104111064743, 0.0034070361113146966, -0.009194076805253073, -0.005573448374961744, -0.006507406024514755, -0.006802026222458932, -0.001126495156834574, 0.004529688021363704, -0.0023722839009761754, -0.0023302523711742217, -0.0018095196992910499, -0.0005813799965947998, 8.775202142297109e-05, 0.0001057736580429088, -2.7866911773676974e-06, -1.170272538127683e-06, -7.758914795763304e-07, -4.109448558519359e-06, 1.5772735298555614e-06, 0.00036672594310120296, -0.0013169269518144007, -0.002689795466163271, -0.002668743094286335, -0.003256654458868831, -0.019498522956400168, -0.033612041308013235, -0.045582492528119224, -0.04232182570490995, -0.02557653129748301, -0.046485058453758034, -0.04620813873204322, -0.05297542898649054, -0.039155584676547846, -0.06827887213594869, -0.0862694886547153, -0.07042017741593196, -0.03977434997873084, -0.0020335789441931007, -0.0028834125820376266, -0.0005655601422204873, -0.004454159622004473, 0.0007403565278817111, -0.0004919554441950429, 7.875421050659418e-07, -2.8050052853411635e-06, 4.994686023976762e-05, 2.5603231498212142e-05, 0.0008449235855555017, -0.0022230558904429965, -0.008207447092200304, -0.01092669226474776, -0.02844101437659517, -0.05756968143427803, -0.08016613473301115, -0.0705811454024705, -0.07157886411359889, -0.05396476501135589, -0.05705119046132974, -0.028899510220719918, -0.06641358568605535, -0.12654057973257465, -0.06469106354104201, -0.019273838318527116, -0.04861904829402785, -0.02393110392843536, 0.00012114679293067928, 0.00689024877901074, 0.002719174712390193, 0.0047142388090908385, 0.0027498549787368597, 0.0018507988980116241, 2.236791313445745e-06, 8.100650990978893e-07, 3.831158275155247e-06, 8.197932408777938e-05, 6.987708753877366e-05, -0.014777279146441231, -0.015585858235698122, -0.048822978553244335, -0.06220879627363081, -0.06985581356495837, -0.07499858394269102, -0.07392336670965349, -0.018175628691803412, 0.002970705707730241, 0.16791638429929442, 0.04000720532064435, -0.13793524284203346, -0.186245301663293, -0.09910840207032187, -0.0961658229780784, -0.014773177900043255, -0.012277486787413647, -0.021510805641870148, -0.026918339809137472, -0.05261615745881834, -0.015464462770787373, -0.00035491505200144663, 0.0015094944712124821, 9.797544744706674e-06, -4.70698416669356e-06, -4.4273241655593825e-06, -0.002124403999811275, -0.0064467097125106565, -0.03438944009029376, -0.04724084056099205, -0.054056117529288614, -0.04898181805066516, -0.041437671410110906, 0.031056845367283988, 0.12158789634125995, 0.2257405921634422, 0.28126455592011085, 0.2879825594994229, 0.29369219217011344, 0.36639011986258646, 0.22860606609031137, 0.2000062113407656, 0.26825188033955344, 0.21076049099190186, 0.09688925255377415, 0.07691635808262598, -0.10557589269990934, -0.15102100468239135, -0.05606556489216376, -0.011876706236837288, 0.0021989913083995975, 0.0005910450406775035, 1.379508521766779e-06, 0.00028036309972897453, -0.007586365435278914, 0.001576931656065937, -0.029307271710233583, -0.05753646107179919, -0.016225373753131652, -0.03450699253233932, 0.011688673452663069, 0.12092125383433586, 0.1754803476850473, 0.25339554633257483, 0.4631524069737661, 0.41741855765213987, 0.45646500366015524, 0.47564929058782596, 0.5525826259291402, 0.39065481290939785, 0.3699535256173432, 0.2714697706641782, 0.2560492375313993, 0.167266108663767, -0.019481610182569123, -0.06550137477239773, -0.05330449325638248, -0.0403419852205647, -0.005876590968966314, 0.0006412529684314757, -0.0013494003497543994, 0.0037730854648117987, -0.004215193594866047, 0.01983735874486551, 0.021703762061311194, -0.007693418000154539, 0.032785019059067916, -0.00480245323863675, 0.04540393275676916, 0.06701050445517064, 0.13311018349826728, 0.23769930165535613, 0.3866421482111019, 0.3097497915108786, 0.3499675330547148, 0.38702192592824664, 0.3733693530539534, 0.2616434817310851, 0.3083033107483664, 0.24025590053571017, 0.09662479214797808, 0.053120803532779835, 0.04293959752881406, 0.025317038018930586, -0.012813784712100101, -0.06164142862874037, -0.00929774116525737, -0.0010067206973900281, 0.00021390566444858127, 0.00408415694359775, 0.0005751933594352678, 0.05474995241775439, 0.06769082729410004, 0.05709118395574518, 0.0845908096268245, -0.00041628823878997635, 0.0314825530159323, 0.16227358936494488, 0.12534556094730562, 0.12296400495187328, 0.1562340526159504, 0.25981485093800166, 0.3981141338609755, 0.3608194660817724, 0.16143560503986257, 0.17053824850900046, 0.08875689401537219, 0.10320925786103557, 0.05205461523345449, 0.013106443163043786, 0.05243361267040619, 0.05677601710925221, 0.05024575373768619, -0.01390852491817584, -0.005782101463153376, 0.00044680010908043166, 0.0002571696888827963, 0.002700440105982443, 0.02247958294580604, 0.06493812144759352, 0.07914771261840213, 0.06333210038014123, 0.09042182612687259, 0.05815978233052268, 0.08312596541018565, 0.054737691683604234, 0.03420794408397192, 0.09166026344011564, 0.09867707505053569, 0.3663869685040827, 0.4066555157117214, 0.16231164416286242, 0.10498330007834653, 0.04730250272416524, 0.10007368890327874, 0.06800059484512737, 0.12806638704942508, 0.04787558490251712, 0.10766400209269879, 0.1319586615685672, 0.014402214967437647, -0.006481493658726582, -0.0017938912833535827, 0.001033441818792085, 2.783826972998526e-05, 0.0037968564157523197, 0.055025999025265435, 0.06307946346892669, 0.11418330478874945, 0.0836837446859198, 0.1191744754450055, 0.12821371909972296, 0.07211407920084786, -0.03318873778466356, -0.056546447490511784, 0.06607894056402558, 0.05933149679271689, 0.42026044243823124, 0.39387014475708193, 0.2149300571322523, -0.023563945377821603, 0.1345177249404855, 0.23127061311284008, 0.1493710459140141, 0.2050837598030017, 0.15825588683680383, 0.20243672816138816, 0.1082436755080836, 0.0055918154277234695, -0.004761166413401614, -0.00012683010821185007, 0.0011719241210724528, 2.4359712770057903e-06, 0.011003448802708317, 0.058408537252416064, 0.09131851049970212, 0.16852717663267158, 0.1526700386546505, 0.12814541767780702, 0.05615664630708064, -0.09948746925635936, -0.02986016337541882, -0.19366082444575602, -0.3753520391497709, -0.38133913977716766, -0.07841249500938488, 0.26236305823341227, 0.15285509593604096, 0.007318964919969568, 0.18949533573750532, 0.23198966887896194, 0.23049750030757318, 0.16365354695051001, 0.07696510310922149, 0.12467554093149248, 0.10094770855666531, -0.015049944709834234, -0.01247809664512441, -0.004465807657577206, 0.0012827533506244838, 1.4374179395979146e-06, 0.008317520529952443, 0.04381514984454763, 0.07821096252087703, 0.16352638718631346, 0.050126132946951556, 0.001381986326895901, -0.020582349033609487, -0.14359589993767305, -0.14509706241563694, -0.34453800890621666, -0.632641311346276, -0.5652550312428671, -0.08576997401932145, 0.25608898815466913, -0.04278869757054159, -0.057459153237197864, 0.0046469581270059635, 0.050220576262145565, 0.1104409543523741, 0.07347343021745381, -0.026258131367047893, -0.014562477244922186, -0.032593540749359697, -0.051619500883892305, -0.016440710399213646, -0.012724569905320032, -0.005089399570835368, 1.620072959681454e-06, 0.0036266369867296376, 0.025364516815570438, 0.03553251908215828, 0.04955497450707237, -0.09782106610073357, -0.11962443234037276, -0.23349231733741452, -0.18960756568690681, -0.2575328102229936, -0.2724582606039484, -0.5664146733243541, -0.48899210974405544, -0.06111743580726666, 0.0883232342656053, -0.02782272184644212, -0.17580475181882768, -0.15209037980370455, -0.08506173777870125, -0.11660419647445325, -0.04868495609979967, 0.027001302320006897, -0.07365691458103796, -0.058375320467514216, -0.074094893118881, -0.02689785461721012, -0.0067076347791729515, -5.442980737680606e-05, -2.760404308008018e-07, 1.6310539705165908e-06, -0.003158723142906599, -0.026478006480722384, -0.030510138122594163, -0.08821331435323747, -0.13072678982457658, -0.16973462131267714, -0.13696334064952095, -0.2848384786670689, -0.27978571970506116, -0.38860064083370993, -0.28425096411429823, -0.07876991087311544, -0.09545972669555856, -0.15620371939443273, -0.22226457487898382, -0.059142812815396316, -0.02449119796337311, -0.047867448739700044, 0.07868505764612488, -0.014527703888331437, -0.06191850180800393, -0.11438768105060443, -0.07897992557496526, -0.05866001962471946, -0.022804702581621, -0.0015255443008752045, -2.720386103844973e-07, -0.00011053042121696032, -8.689218527085827e-05, -0.035405803961436846, -0.026111771538003748, -0.08662678341174973, -0.14076874321924085, -0.1800874692670567, -0.15483196552479753, -0.21373178600113946, -0.11902896354664644, -0.17263831123350765, -0.09721883894218318, -0.11306815410723686, -0.2547191504441963, -0.3937686294470569, -0.2289026640999376, -0.14986792242658217, -0.15432140630904007, -0.18463632663545118, -0.1282768606640641, -0.12165100343306146, -0.12935039074793714, -0.19708211579535076, -0.11891018304788889, -0.06878923721036398, -0.017487405211623, -0.0038518003243546905, -3.1009812859144324e-06, -9.002180005370487e-05, -0.008375845799077861, -0.025754781014980303, -0.046941065430108536, -0.08786542357438461, -0.17746015353441907, -0.22323631701309973, -0.17244969486187045, -0.08135601330456449, 0.010001608980121392, -0.09562674445635552, -0.02915591011341462, -0.10797261307475559, -0.21682368140182304, -0.1844270307092164, -0.22648335233907646, -0.1767164007311394, -0.15716736339013937, -0.09366618345604942, -0.11242141136731139, -0.08079551649941484, -0.14207721099616685, -0.18028161135940307, -0.0854212372196237, -0.02818805402101985, -0.017332071823637725, -0.004087706256616659, 0.0032468709025634365, -0.0016523454398057898, -0.0007059103318983923, -0.02513213522744168, -0.06452568693110343, -0.06728678218986495, -0.11499916411395446, -0.22158987893323603, -0.14614233056195636, -0.11694442863874759, -0.11753653944536083, -0.11597505371990996, -0.261556100640186, -0.22202534342810915, -0.13334612363234882, -0.06713936475076754, -0.2161745136033912, -0.09247326212174628, -0.1254892599159851, -0.02979621982620194, -0.08097777130933306, -0.08577968952250001, -0.07807631906385318, -0.1296315445592685, -0.093244332034182, -0.028445705942166437, -0.009693109119249466, -0.003241218729605933, 1.6052895912579706e-06, -0.003301475160146463, 0.0056122941669529535, -0.017329011154940684, -0.02217829418599494, -0.029577328480525415, -0.03997232690630436, -0.08541435867637441, -0.0777690538392352, -0.10519435365808574, -0.18336938784591467, -0.24882709097519676, -0.1779089954189976, -0.1515514492107687, -0.11615757961325522, -0.11555462627415496, -0.09788610804247727, -0.06579892459681974, -0.04441297631230792, 0.109509300633959, 0.011447567664207708, -0.05829907530644023, 0.011163773368305303, -0.003535055014907567, -0.0319108146228654, -0.005822361458104669, -0.005457527014211528, -0.0004757135707737097, -1.5122820198942608e-06, -0.00044022592570322835, -0.0018411223133179763, -0.01668493065221958, 0.011479295158133519, 0.07701125563784511, 0.09256403736845079, 0.018504202334725665, 0.0011293172551421003, -0.03788526621768209, -0.04532597132595762, -0.14862770910818693, -0.12274241686785145, -0.006572161890543412, -0.07216186294674637, -0.06176409790467635, -0.08953385173721767, -0.024399261862202707, -0.03402812125554601, 0.07901774236859946, -0.015412812616955481, -0.027276953094956116, 0.07783998479866264, 0.05550092747963054, 0.04036181552029616, 0.01893290100540175, -0.0020417827127666697, 3.3497407509843418e-06, 9.08521825642992e-06, -1.0954909086818477e-06, -3.6375183438527577e-06, -0.0020518381012219317, 0.03252744505559609, 0.12929839184977118, 0.20554330989435493, 0.16313736248057983, 0.112447233623216, 0.009526401924328885, -0.025337309286076325, -0.1301296653827305, -0.15337195962122804, -0.10671335508013616, -0.12377587748718503, -0.08167952358839428, -0.001298686876175317, -0.08693071969680877, -0.09679895962341617, -0.039046469900899085, -0.021423716325656927, 0.019958715991061363, 0.06482005853148058, 0.04833175187373256, 0.07176860265091162, 0.012319807963853107, -0.001933255936619829, 5.883967094806557e-06, 9.001173866459139e-06, 5.332459336367581e-06, 9.708948036843442e-05, 4.303071057523125e-05, 0.017392966429091643, 0.10397044502137447, 0.1827323243670163, 0.2059789177906245, 0.22910076723688833, 0.1703675580030712, 0.10057509403341891, -0.007550171131266458, -0.032259203470155685, -0.07396950196886058, 0.012010356085375897, -0.03625106718433102, 0.013131921754272836, -0.026627258008920296, -0.04914264528213115, -0.09296491518610187, 0.014061122830084344, 0.017063681213431915, 0.09325794755905174, 0.07587794222870191, 0.04665258075745031, 0.010614355102803903, -0.0018360114980763014, 1.60431293142515e-05, 2.7740119084272087e-06, 1.249576398137584e-06, -0.00039956995435955564, -0.0056207745032753, 0.009675275693086264, 0.08529501910809306, 0.12333663419039485, 0.19953783005908135, 0.25183810658769135, 0.2786320389697078, 0.253271269567679, 0.24586055290380504, 0.2449599243535679, 0.14066160501945685, 0.13774060344823968, 0.11385776478290299, 0.048237334639115226, 0.08365051286626614, 0.059717032610999705, 0.010775310971448458, -0.000846973171091096, 0.027652186926579978, 0.08144782577932028, 0.07791468267489152, 0.05552080640544239, -0.005323900843981914, -0.0017379531890588838, 1.355511129109496e-06, 1.5357383574712168e-06, -2.265389799495153e-06, 0.00012015871131093871, -0.0005869539394777163, 0.010644964584786809, 0.034266640077748156, 0.09845216752600132, 0.1749150796782394, 0.17765732141731516, 0.15626724642054607, 0.17570930016487402, 0.14016091066489042, 0.2227425180903307, 0.2452770284636828, 0.1924808778688069, 0.11010827731684208, 0.1317927076188919, 0.17880320109046774, 0.1781597666415781, 0.06857979137187968, 0.10929906589414971, 0.11612827197609385, 0.09674211930784642, 0.07848681415391896, 0.02832026380280711, -0.00629562631551106, -0.0034174849407908304, -3.376795624431444e-07, -1.3383009732610852e-06, 2.965131754948135e-06, 1.7283299198126534e-05, 0.00029979856791485847, 0.01234733115189786, 0.048710495102083855, 0.11728568006614863, 0.17044847985827422, 0.19769842609254382, 0.16465899437886933, 0.2719835827404545, 0.3374466599362285, 0.36760877143591797, 0.3240191048771831, 0.29004015982846615, 0.28916134370958463, 0.3636604370430614, 0.33860374038825913, 0.29723878594514197, 0.2097447519952716, 0.15007362276547892, 0.12338978204109977, 0.057406541675848466, 0.02735314241652046, 0.017950384970384432, -0.0025412643991397964, -0.003645941396589814, 5.346185757577914e-07, 1.3008205249967437e-06, 5.681785058714159e-07, 2.4551376693895125e-06, -2.98123928247815e-06, 0.008228748725583724, 0.030586020007469808, 0.06399777937626243, 0.09197334108813962, 0.1254369253234286, 0.16230922858864, 0.2076527778538694, 0.22518136457852422, 0.2301970156034698, 0.26201897358144083, 0.2922435239452867, 0.2696944565015764, 0.2503971531687684, 0.22850764906533796, 0.21562198512625785, 0.11374801953667998, 0.057004541618184884, 0.0514512548640213, 0.024757339732109043, 0.004878181726388281, 0.0020824414814944845, 3.188344252771388e-06, 3.2761160887401867e-06, -2.283321708965906e-06, 3.8002623744248975e-06, -3.0346084060637646e-06, 3.3637526002523433e-06, 3.5144730676340124e-06, -3.1285114264308585e-06, 7.044683284805421e-07, 0.0042551947921291335, 0.02406770753215919, 0.02776026663881359, 0.015153433437885947, 0.02885743673398109, 0.018130853313951232, 0.00850135779976873, 0.02325085641120753, 0.04361951353540294, 0.027359147279090373, 0.026396125745987677, 0.011508258394377949, 0.03641469655570852, 0.023808317908102252, 0.0031616217139185244, 0.0025577145404939564, 0.005854311563252661, 0.0011395031798214937, -3.8852364669511075e-06, -1.8835134308534283e-06, -2.1533898423829946e-06, 1.992063353250153e-06, 0.05039627506874258, 3.6223453413836327e-06, -1.429252481463915e-06, 8.025336033690693e-07, -1.8882633986950947e-06, -3.189669883632295e-06, 1.0659894991906821e-06, -3.1774241497730096e-06, -4.3675404464231324e-06, -1.714440489651298e-06, -3.23836353465654e-06, -3.947321683604915e-06, -1.821571352828998e-06, 0.0008534675793267695, 0.001770577401312326, -0.00011672634335236894, -6.335016408533512e-06, 2.2574199442775063e-06, 2.845349567964609e-06, -1.2341812617535295e-06, 1.8352738499872232e-06, -4.333819925994984e-06, 2.6596849161201537e-07, 3.3846055430554972e-06, -2.927111969782433e-06, -3.0845136264238163e-06, 2.3430619460752024e-06, 2.9836476257857463e-06, 2.823576494844777e-06, -4.0290896500792895e-06, 2.607975472610729e-07, 3.2574565488842127e-06, 5.20175401441161e-07, 4.1131491332631e-05, 0.000168854175812317, 0.0017958235338428707, 0.0047263590295934165, 0.011294639985053537, 0.013933199184568056, 0.01798045997345566, 0.01659128407659207, 0.021524986231561415, 0.017689169465055155, 0.007483661031443883, 0.010266009987233078, 0.007854575773493935, 0.009737550433916825, 0.00927133615826921, 0.004475664501055892, 0.004586081427108679, 0.003888770587323581, 0.0035449378882482464, 0.0008371256810634282, -6.955730615853986e-07, -9.92605598868309e-07, -8.020075001429727e-07, -3.095713897483646e-06, 3.753105331416418e-06, -4.0389412224097575e-06, 1.4577701756832882e-05, 2.209590256864195e-06, 0.0007274064603128432, 0.0003677942129420621, 0.0028384728032383733, 0.009753991340387697, 0.01588606476903009, 0.025037041892804823, 0.039003695250225616, 0.045169472034629926, 0.06660152112779047, 0.0896229908052468, 0.11405199073680986, 0.09911070986310395, 0.07490449527663827, 0.07531945631203014, 0.09958115596858513, 0.10000012501747348, 0.06893648775856134, 0.03973851346589415, 0.02696157605587015, 0.009019008308978296, -0.0004705665140543256, -0.0008472028242096764, -8.88546820019403e-07, -3.509456208865723e-06, 2.877686574471428e-06, -2.5961086240575317e-06, 4.3470070351936335e-05, 0.0003585499122868383, 0.006680766199451679, -0.004140129096337562, 0.01322985324656024, 0.002895944997483572, -0.023182316603880388, -0.03644232829986674, -0.04423533117422154, -0.086723433001104, -0.07584210746461324, 0.012555619117939808, 0.09768128876678532, 0.1290604149415057, 0.13682540722069522, 0.15454909147117357, 0.19769718769336111, 0.21373602097265193, 0.16094931904208332, 0.14816666286536878, 0.10806968627121626, 0.04729828966215762, 0.018230397806439553, -0.0018407467036812418, 0.0023089425629768397, 1.2966785222817448e-06, 5.071258997667671e-07, -1.106938222831461e-05, -0.00025222826203688856, -0.002000352562842119, -0.00928515771184671, -0.04271959610344841, -0.07639535591019414, -0.08026998574574576, -0.15338367001290507, -0.19466747807335494, -0.1444435753519542, -0.11859107121806577, -0.11454667141048083, -0.1246077346247707, -0.023160119523033137, 0.03251754660772863, 0.06963537678006729, 0.1587229653054078, 0.1449874874165591, 0.13492090910878107, 0.17919253608784264, 0.19369112258180657, 0.18853826497125842, 0.1828281852745122, 0.08338321732005756, 0.03365891937615738, 0.007823986037312648, -2.0077602021322078e-06, 3.60751296458017e-06, -3.4996481258621354e-06, -4.860953086429154e-05, -0.015401066834038649, -0.06257510593191212, -0.12624784353547505, -0.15770555740574332, -0.1272654804564712, -0.09587844280281622, -0.055031646532471445, -0.04023591633897352, -0.0430451693041582, -0.06391391048322667, -0.09796673165541621, -0.039955732111148924, 0.010945970947093204, -0.04390421828706979, 0.0917078387897876, 0.13999282182551184, 0.08837006933564476, 0.14611062644936965, 0.09907844485983099, 0.21302853500652294, 0.2603491299320106, 0.1422685470069037, 0.026226968724572617, -0.002402236755994457, 1.144782195168127e-05, -2.8716743956445852e-06, 7.102917155432335e-07, -0.0025759730817153316, -0.04238027438243546, -0.10578812158725114, -0.19165653306549926, -0.23903975607256545, -0.13421557790440136, -0.04655525780781753, -0.037386747551668015, -0.03671977530229939, -0.031680136512008815, 0.0023611218992479685, -0.06484928023588658, 0.027330772126702402, 0.1156094182414363, 0.01782134156540367, 0.09868543478617792, 0.10750586527356192, 0.08647009598541286, 0.08382140700043354, 0.0940239598671742, 0.2181383962782967, 0.28609689055005866, 0.2237393085133285, 0.07714435371541378, 0.01761244666411252, 0.001739350124913586, -3.004632850797506e-06, -0.0001368576507233139, -0.01060601433046561, -0.057336081494088136, -0.1712706265608235, -0.22188702223871323, -0.16714966708572265, -0.014121796579517069, -0.00776517790652365, 0.012850775060839635, 0.06873813345638723, 0.01941707216795768, 0.010146303683083644, -0.02271817900331237, 0.11804164427997027, 0.08597114387449893, 0.14421480028015496, 0.21819212639919094, 0.17915882007486764, 0.22054174528271406, 0.24297093307757325, 0.27759636555017836, 0.2733758530748972, 0.2736047136278311, 0.23095827225474025, 0.1107011422288483, 0.02550827999393936, -0.0007762086819135569, -0.00011435504767482684, -2.4115642805880297e-06, -0.011639881449211346, -0.07123953012688343, -0.19663867827112735, -0.2030864268045089, -0.10955187530339736, -0.09790337354766193, 0.008600604214290621, 0.010196557522722163, -0.05536389585002637, 0.07644458807886785, -0.06845443253036322, -0.08888581709442483, -0.06081055090933654, -0.10007166064458557, 0.05574452260120761, 0.13084925766490826, 0.09492772802315608, 0.17021352449185098, 0.2690806823260795, 0.1873261608797418, 0.05795317354655505, 0.038795893654757, 0.09751727320582806, 0.09253462903202851, 0.02702534119364071, 0.0007235206524263454, 3.0086123360983104e-05, 2.507648259176963e-05, -0.006340453711771435, -0.05121435406960574, -0.128709790921021, -0.14171514488910364, -0.14764488194336348, -0.046547917454303894, 0.019262176225990215, 0.03954902331883233, 0.03753835815328598, 0.18786513762105408, 0.09186756339326625, -0.08521091322135171, -0.18818383519778814, -0.3644683109118638, -0.5075097842950116, -0.6062643189855262, -0.6487338330045608, -0.6452981011633201, -0.5504111854669687, -0.4713913445420695, -0.5215701610132132, -0.4412724194964012, -0.18059084597532354, -0.007369271643654998, 0.004551571587775317, 0.000881848265000089, 5.4640747598147815e-05, -0.00017037392748787755, -0.00882553184880304, -0.04942318714931609, -0.08360104084821132, -0.14339323195271977, -0.08222364655256176, 0.04524570426886636, 0.10263456518976058, 0.15797126873090644, 0.1059353823261564, 0.03652620806372801, -0.10305280120110565, -0.07494929982013328, -0.295428560628383, -0.40672006992043336, -0.6779033676487891, -0.8676702382942281, -1.1187330973631147, -1.1973308491130807, -1.0564885502049262, -0.900422105453413, -0.7931189246018457, -0.628982053194264, -0.3243513482813052, -0.07630789445730528, -0.010453024338456008, 0.0006972293694718844, 2.1073638831682178e-05, -0.005540805811691404, -0.008878119522898515, -0.05204940271429255, -0.04767055426964505, -0.03790670224273901, 0.10771832597494405, 0.08784719658681041, 0.06649967871624582, 0.06370249875035049, -0.0458410195533749, -0.14137757849383856, -0.09545174501655063, -0.010545296566879973, -0.059119792918205134, -0.06631073685895714, -0.10377044268105914, -0.13840734902651913, -0.263327159625932, -0.5019845013847857, -0.7313327803230801, -0.7359288973720157, -0.694264730099232, -0.5508366648968562, -0.3318014819090704, -0.0645955335392785, -0.004596039739403005, 0.00016011381956313145, 1.564982847824737e-05, -0.004908713906707671, -0.007476761250876273, -0.021335402153788628, -0.026232963034167174, 0.02461892799937212, 0.10919047033816684, 0.013865321957344202, 0.013167733241502232, -0.08748386851248759, -0.008441360579310728, 0.020162687632010255, -0.004219456893525767, 0.010687330364675986, -0.06902427850154567, -0.052873935758104035, -0.038863553693417145, 0.09018055817653792, 0.1981167221794634, 0.10423422909352963, -0.03465435508264084, -0.28708438327375196, -0.3404795045809263, -0.33421151201426097, -0.23896911645717983, -0.05863525329997031, -0.019471268459381783, -0.004339322572577426, 1.0239931825609942e-05, -0.0004839310041030842, -0.004181322774730172, -0.0032940915837120113, 0.002843923515115935, 0.0013500292901034593, 0.06617610969712615, 0.06448823265337902, -0.011450748013218296, -0.08604199341750117, 0.016756372954524996, 0.06667113322162263, 0.00031430399854388835, -0.04340338532888118, -0.13418431972024664, -0.08686780274465726, -0.07642210642997783, -0.02315852495594837, 0.07114110437752556, 0.2536595263636441, 0.2121629995390437, -0.04352856739548382, -0.16032218490679642, -0.1776821222310773, -0.12643710425140506, -0.05534291653910946, -0.031559662434121886, -0.01463181347069538, -3.592138280233211e-06, 1.189525443648885e-05, -0.003114947584207843, 6.084834817027422e-05, -0.003766172100549081, -0.010436009060288519, 0.038234460883116765, 0.01652070809068536, 0.0399657047994959, -0.003970215500635556, 0.05619587013083286, 0.08394832235809482, 0.07338341139461904, -0.1055549568408891, -0.09450233976761928, -0.033184864147841664, 0.016667831773511152, -0.0815032950933162, 0.05391988671634524, 0.019424145500732657, 0.15447326117914012, -0.013803703278230875, -0.016064658284522533, -0.0840352744045248, -0.01965671142310537, -0.03288257113807187, -0.01942150935647755, -0.0009469869158015185, 2.1689284670576356e-06, 4.56528655717037e-06, 0.008305420227156229, -0.019017451314493925, -0.033168435386008124, -0.0514467337379942, -0.018078121086281266, 0.009927374434934248, 0.04297253955182254, 0.01633573978827825, 0.015326331574627459, 0.047675632536361534, 0.001578849443657536, -0.18062381031665306, -0.12962340266324207, -0.12399729594164505, -0.0026045391387844964, 0.031594307508066986, 0.1313117034690541, 0.030305962742110063, 0.0421975182492285, -0.0473934547432276, -0.06358781730822946, -0.0074625655114558005, 0.030247794592105724, -0.016018960318841015, -0.03565362926244989, -0.00470813095297931, -4.375378691951242e-06, -2.508567203542336e-05, 0.0033443245134628986, -0.028736859609773287, -0.05588481016313173, -0.09048441013414438, -0.12053206125639186, -0.04701329399137728, -0.07313654737787247, -0.08359150803034965, 0.03605955220918414, 0.11396630844527608, 0.0037877780830142373, -0.07634905364026788, -0.08459017361080416, -0.031138785313238385, -0.06317515073509476, 0.07636375634462113, 0.03853894653838009, -0.004497667284392127, 0.004354817023714037, -0.08735513802024228, -0.05173203111852711, -0.012279396774006465, 0.02289776348806461, -0.04090594609178167, -0.046177034465042725, -0.014515572130551562, -3.0779880898443105e-06, -3.828411122329399e-05, -0.004778513237836391, -0.028752734365706807, -0.024333408435376104, -0.05466677340161403, -0.03226549963287788, -0.09470269258537665, -0.05736865998460726, -0.0015325443581982326, 0.0804881034138942, 0.039442818412639746, 0.005958874134665224, -0.10584710012968278, -0.12319716137925714, -0.06791259386262308, -0.01621545723638334, 0.05417655717000549, -0.03159799034699871, 0.021510125491094916, 0.059381734474267006, -0.06493517032332859, -0.039661314017648434, 0.012101345165143974, 0.05320260119238308, -0.03241953911581263, -0.021548418739922554, -0.007241550569877718, 5.391425788390638e-05, -0.00012789125714002784, -0.00467278197382892, -0.0345855630491119, 0.02700435711818745, -0.029162842103580562, 0.00254099785815742, 0.015979343043710768, -0.03834307788721716, -0.0028418256074692365, -0.0038016309956780702, -0.09217359610912361, -0.027807913728141828, -0.09079509529931762, -0.036635839065166216, -0.03857803341923329, 0.03430380089703018, 0.09732433171686553, -0.04200226697690876, -0.011726901367443211, 0.05093246422774753, -0.027550261718743817, -0.014252184250583865, 0.07916300371864293, 0.044060935069844355, -0.03382508629784464, -0.011854762049943936, -0.004491634436958765, -2.4169664784382655e-06, -0.00024637474344236246, 0.012106265252606257, -0.009957267996577077, 0.032555684493340065, 0.0274412702493945, -0.024296107617136818, -0.008932558592840532, 0.0804710653629586, -0.004713317648867553, 0.03957338224636611, 0.09156745743385705, 0.08855520401917161, 0.08805348840282298, 0.1704596503984491, 0.08522005875742514, 0.028295077977613377, -0.008829994327169246, 0.018414485302579175, 0.014812753601486326, -0.0015570801409273707, -0.028112976357202342, 0.0625118521362337, 0.1504657029825724, 0.04669536386007672, -0.03132691497317898, -0.020513356247412153, -0.0018423432178475423, -2.380146407891106e-06, -0.00014442842594779222, 0.005822820468047621, -0.02304577235666623, 0.020347627932382584, 0.05703047093655759, 0.01256888862811023, -0.09906778146819896, -0.03164846623541725, -0.056005466464723555, -0.008698085455389798, 0.06757758191276181, -0.00537588443847812, 0.07080904813422377, 0.10142845207492922, 0.07633121434522899, 0.03634776105860251, 0.06080811360878833, 0.05160641182265769, 0.07618227897210973, -0.05409830690905518, 0.044039479832933943, 0.16091630897580939, 0.1181097942068614, 0.04230591751245214, 0.0051319513950502296, -0.0054756168960822865, 1.2604264351440208e-05, -1.8592461513605985e-05, -0.00022866453744290242, -0.008871838296301962, -0.03613554931559016, 0.019417827970664343, 0.08939013820456967, -0.00030478375583384173, 0.02101302948537118, 0.02865187864688916, 0.07533508915407645, 0.05488754966066074, 0.00974409359737629, 0.06571137525623251, 0.1601009355521805, 0.19704482692354566, 0.07034090216916401, 0.09631875943527507, 0.115419690649436, 0.06678788907781656, 0.06010714050130081, 0.05500745131494057, 0.23257136362802933, 0.1916698789202225, 0.06841536932579703, 0.027731280837091206, 0.0012163817174225032, -0.0016427891680671788, 9.557817927183992e-07, -1.7690366917295e-05, -1.0336062723509257e-05, -0.006678572156645831, -0.03197077799457688, 0.011182493046042026, -0.023694317790385323, -0.08213841904235829, -0.02307365293630187, -0.03617652836420769, 0.013538014195833758, 0.0006631900937878233, 0.025751836560932446, 0.004669460386503193, 0.0287338616838792, 0.08971024302725951, 0.0485905644733938, 0.06048267772372556, -0.025101853469042805, -0.02725980154221172, 0.03062655912200747, 0.09879882442329553, 0.07442578876915697, 0.021070216140774842, 0.019864743628066412, 0.00788106085898389, 0.0009583883231274766, -0.00033894149738000214, 3.810035244669089e-06, 2.890636692991113e-06, -2.4565014410384563e-06, -0.002791739739412973, -0.01411017887975753, 0.014569744694340999, 0.021625261798112357, 0.008696874633242065, -0.05359582105285881, 0.011081790849850549, 0.028172429130444085, 0.02788588491917856, -0.12770887339987855, -0.08836300418047875, -0.028115366228004677, 0.016155685150459082, -0.006589400109597548, 0.01900992781479074, -0.02176285525046861, -0.06646025735978758, -0.028226202749862324, 0.005958219329952269, -0.00952270469071723, -0.002504688435112636, 0.005493634413970406, -0.00412113455070148, -0.0027178565629763446, -0.0013099725240391386, 4.595864642689036e-06, -4.135705573685813e-06, -4.345322316882549e-06, -0.0005942322969035948, -0.0033135306906725225, -0.013695885363642052, 0.0026975655729557647, -0.002614841514648912, -0.04488208639632673, -0.049347595722794124, 0.05260416618803496, 0.01809774121810929, -0.04443859835443452, 0.05623321889890277, 0.07935335135871052, 0.03860660693649166, 0.030135643868701233, -0.02985173593641709, -0.018086254000404856, 0.06729617900026369, 0.0005960751131736298, -0.026479037997353665, -0.010995286263078979, -0.003645526815943596, -0.004034206110900714, 0.00228687324707376, -0.001826091579608121, -0.0005751326755427529, 5.879023922925131e-07, -3.722578292730498e-06, 4.440945000106862e-06, -5.184789161901325e-05, 0.002520033325428008, -0.0028884433361688606, -0.013048330323599162, -0.019033969710158104, -0.01948064025269406, -0.005154316381838027, 0.014631513670784175, 0.03579357939516632, 0.07065230520828784, 0.09833950724280782, 0.07122063042736591, 0.02160692409473825, 0.03654843749030176, 0.07375074553600947, 0.0670692982809953, 0.039598975422793024, 0.00820694358085144, 0.01764297776358499, 0.015229480670841367, 0.012110433226894228, 0.008840174260131202, 0.004833249533892492, -0.00046508010169488714, -0.0005581489919717354, -2.477201022658388e-06, 2.556745940655365e-07, 3.837015835541624e-06, -9.587818958673513e-07, -1.4644538096330307e-06, 0.0003396111946404447, 0.0009997169798849662, 0.0017443088915857481, 0.0009330629206356447, 0.0007306193120766651, -0.0026884200696626302, 0.0026637867244650106, 0.022146235404581795, 0.04340650257426106, 0.05629855024953123, 0.052143306115360034, 0.04220549321723875, 0.03613882032019101, 0.010613856351751712, -0.01280146359678023, -0.005043966416794121, 0.0019392449263695502, 0.0022156709081212443, 0.0028151870422221744, 0.0005314791016610899, 2.301488753376467e-05, 1.8468130565910867e-06, 3.707770684947175e-06, -3.725261578521301e-06, -2.774298294316884e-06, -1.5303450684520945e-07, 1.0075093021905703e-06, -1.9238224877839197e-06, -7.155425586268009e-07, 5.267992687967697e-07, 3.9958768623697674e-05, 0.00014466653293260297, 0.00021694113724198414, 0.0002845276117130871, 0.0010531889631810228, 0.001226568882936172, 0.0009978837075689823, 0.000611080398447083, 0.0003378470129736045, 5.4120060761868996e-05, 0.0002071007983007195, -0.0005569915182495825, -0.00028549042524070637, -0.0016009184111918323, -0.0007213540742870203, 2.1423555836268334e-05, 0.00012920160083686148, -1.3006805614605435e-06, 9.6874055658878e-07, 1.0494547625507983e-06, -1.653272636433109e-06, 1.3925079616150075e-06, -0.009297266860624263, -3.763936775491202e-06, -1.33350528038402e-08, 1.5144092894328827e-06, -9.795125984980923e-07, 4.2947846312859615e-06, 2.76024946042476e-06, -2.1489022380222276e-07, 3.437391957723237e-06, -8.756265356531592e-07, -1.9796365703098713e-06, -1.5416493285173355e-07, -4.435663799571071e-06, 5.001803623291034e-05, -0.00011671771479778706, -0.00025475338610534293, -1.275567558657551e-05, -3.1977524662775365e-06, -3.1320957147503314e-06, 4.394095687197468e-06, -2.4138433764042807e-06, 1.3319283172697444e-06, -8.287298129873873e-07, 4.114735790724974e-06, 4.457693482230396e-06, -4.545577645417184e-06, -8.151300581786665e-07, 2.4851432252056458e-06, 4.429483049292637e-06, 3.186047329832122e-06, 9.178663759690969e-07, -4.0152424727561675e-06, -3.946148926856306e-06, -2.9266474033533036e-06, -2.1574854009592166e-06, 4.318067711173499e-05, 0.00011978328205952718, -0.0003067833455137516, 0.00013443688893909967, 0.0010981785412124865, 0.0016387029911408006, 0.0016840550828770317, 0.0027465714916602123, 0.0033804707767265446, 0.0008274508029072931, -0.006881174279636756, -0.0021111401174376348, 0.0021037926756622316, 0.0025593925369874447, 0.0021168702585963846, -8.448666933336611e-05, -0.0003785213990293236, -1.2211245206514423e-05, -3.547059377256244e-06, 7.493085921192098e-07, -3.595142145133213e-07, -3.945778176046822e-06, -3.136877018365903e-06, -3.214561198158653e-07, 4.8343081760577995e-06, -0.00014420350666137418, -3.782907030970319e-05, 6.615044065865912e-06, 0.0001721996266160136, -3.6220544837512626e-05, 0.0016718986428317763, 0.00554000487201617, 0.009130778863631414, 0.009127738756873225, 0.0173062751979888, 0.024660220208598687, 0.03485851477294889, 0.034121804426566996, 0.013625912303400985, 0.019972935712246974, 0.022900022840180147, 0.020213605036608736, 0.014944173930709601, 0.011185336410806863, 0.005472203973458353, 0.001831745350528142, 0.003602754897692624, 0.0020621355224596056, 2.1616352455675934e-06, 1.1142459910834378e-06, 2.1508959035757815e-08, -3.314161351651683e-06, 2.0774549830258388e-05, -0.00041325976436746057, -1.2453615425686331e-05, 0.0010028573949432333, 0.0010978453457145057, 0.0014991083092727457, 0.006117062479303489, 0.01644479855332328, 0.020271687818611286, 0.024489428498112347, 0.024314955414821503, 0.033206715534136844, 0.05641232123254348, 0.07246092238036714, 0.06604357894963604, 0.060182000761157005, 0.05213751075486703, 0.07229369326250847, 0.06739688510973726, 0.0418722245633462, 0.025189789303597627, 0.023391175152680882, 0.01622404295663002, 0.003777643334957691, 0.0008725678308694642, 2.579862565433067e-08, 4.072488650810953e-06, -3.432752544312553e-06, 1.9026118716594073e-06, -0.00025333237732263537, 0.001626317592468601, 0.006420521508190457, 0.013179197238603174, 0.017213894715702973, 0.03796545088374169, 0.04584251787330009, 0.060175066789870744, 0.08692157729383868, 0.1162792755970809, 0.1619393395748344, 0.16866194212322563, 0.16665632151209295, 0.1695107959638688, 0.1656241489970416, 0.16168615996294458, 0.1997171785768152, 0.18360000058039727, 0.14312204244929713, 0.10896532200956188, 0.06314895147840527, 0.029824103922656893, 0.012959739569512572, 0.0048740414802818655, 1.1634237957458184e-06, -4.145349758235007e-06, -3.8112338792803033e-06, 1.7263707816957397e-05, -0.001549737863515935, 0.008422788302100255, 0.0235799894104582, 0.056780467177796175, 0.06945520549681357, 0.08708969479388626, 0.0994846274450776, 0.1261862541354872, 0.13084513631255235, 0.1451195257519297, 0.2384432879633967, 0.2992159156642156, 0.35214962386480875, 0.3856744690321382, 0.3769667838876799, 0.3550588106992492, 0.3021623273556503, 0.25294080457719226, 0.2422104125547985, 0.168380129587128, 0.11363942008071802, 0.07680190508788828, 0.034372066149808866, 0.005974927731062075, 2.045545694119444e-06, -2.3784348755949275e-06, -3.558591972447475e-06, -0.0047017237701939, -0.004778512232408231, 0.019014995469880957, 0.04259716599440926, 0.0703794279193786, 0.1040060890951668, 0.09829205869646897, 0.06436577186313168, 0.05276722824835256, 0.00953785021126378, -0.014106158328979216, -0.02601041744936355, 0.001352124693141867, 0.03167607070557078, 0.14251806408655054, 0.16570166361171057, 0.18786033476135822, 0.18025926128254263, 0.14358896565189433, 0.09319851481961383, 0.038181543469781115, 0.020753842854723873, -0.024923110750825397, -0.0039018589990129702, -0.012699650475998563, -0.0035619178048167774, 1.0215424622708834e-07, 0.0003110876195790347, -0.00031481939113766526, 0.005216896543782473, 0.03844824170956795, 0.057476054933250156, 0.07733534135581188, 0.09240453302753193, 0.038908096570667246, 0.019678117607165292, -0.012634530365362662, -0.04877345124571841, -0.11765444445330275, -0.14881954824409724, -0.19962278593941246, -0.18223047433976064, -0.08073748856996767, -0.013012914137168425, 0.03525236815420676, 0.03651364825316403, -0.013114897988279294, -0.024811803149260424, -0.01630721373958871, -0.0879993302647501, -0.08977960657197691, -0.03594112682120119, -0.011386023824575228, -0.0022149958493175095, 0.00019603828486473477, 0.0011984852926694926, 0.008508142137068115, 0.022693166244914395, 0.06740232728223353, 0.09863746380380196, 0.09911166506565564, 0.10695530420131887, 0.05095826985785791, 0.020150867053038313, 0.03643368411087926, -0.00027342281632426594, -0.0188084960565916, 0.05565732431719152, 0.0020340295270601465, -0.06875221015428071, -0.12097366755552263, -0.11875247209293525, -0.09630919999749787, -0.1428175388234314, -0.19643293960975275, -0.16382673112452437, -0.14442353948626746, -0.19308288243944377, -0.16177118887429562, -0.1320236770180165, -0.05154204464801611, -0.00663369205500212, 0.00021674796921428537, 0.003015571572583489, 0.008605970946791603, 0.03436283281219622, 0.08638036233407817, 0.09298324198360712, 0.06615729507827922, 0.07402789585067705, 0.03502100378002384, -0.0027926462186152147, 0.033316950091267124, -0.05099122809914859, 0.057417255899127356, 0.028334633068295194, -0.07639301869079784, -0.11752675541406213, -0.16420642624055132, -0.21831131002133033, -0.238912924607374, -0.2293469736319797, -0.17437296721908274, -0.1689252251841124, -0.12655992560217236, -0.15574746970415948, -0.21072677252360608, -0.2134580128629878, -0.04730025555786533, -8.694636294626558e-05, 0.0003804113998090736, 0.0036471068827996058, 0.013196880321429974, 0.02734167001870595, 0.06820308137639731, 0.07106231313121167, -0.0038277158050725596, 0.022525506073705136, 0.015330271957705264, 0.0035613831521887837, -0.008930451050107974, 0.016148076488608786, 0.08288207890644424, 0.006591226798939717, -0.034113983940544795, -0.10031994588078207, -0.08530406301563705, -0.09136382703835765, -0.12009548979018789, -0.07683886231021063, -0.0651007972558783, -0.06508145224766855, -0.09524375595744801, -0.15367766998497945, -0.23024085525557578, -0.2024759008226707, -0.05884482783720995, 0.002240519869789983, 0.00015746113075988086, 0.003315304592125603, 0.011274131996659078, 0.023079054750149215, 0.02007581402615841, 0.014601215663659172, -0.034715096471182455, 0.023262541540602345, 0.014222798499955372, 0.024498339646055283, 0.05470805160487025, 0.0006603915599346997, 0.07057703845801439, 0.01654865128270053, 0.05603433785849475, 0.04951271810169426, 0.09823440660633306, 0.09817951340776569, 0.14239844523543582, 0.05101529972451635, 0.0005164570541900783, -0.002471833875728444, -0.0343595065523155, -0.04514321168791221, -0.09559661708989349, -0.17545292630852985, -0.05467027431780504, -0.0004935118129874772, 8.33503244650335e-05, 0.001008697304635969, 0.009541921860841351, 0.010021395716315657, -0.004282273230497993, -0.02713845571106373, -0.031448047284464854, 0.014957937784874966, -0.0010336283635812684, -0.0043776938843682585, -0.00969086630602494, 0.030665190011433505, -0.05774677222288918, -0.024596619716670293, 0.029386669880998435, 0.026905612130411934, 0.18939686492874072, 0.2942199130033929, 0.33085008417174916, 0.22640567196662817, 0.1759348483144642, 0.2229654061668733, 0.18769652879076404, 0.2434899447884306, 0.15576047379376104, -0.042837920832660165, -0.03226662524161165, -0.0021196942320629917, 2.480607438814239e-05, 0.00010375112704136928, 0.006159645861370713, 0.0003286149913995547, -0.00947360151497225, 0.006832554643555017, -0.0011171024903606044, -0.045976588995095366, 0.0051086521249820915, 0.009532949379925326, -0.09070409336270403, -0.12808430689653538, -0.17285426977719814, -0.11284906099217744, -0.01934761082641632, 0.08644555749258225, 0.1668941481718609, 0.2512725556468342, 0.27294026085642503, 0.17757781792828786, 0.17234771289995712, 0.22972683114437187, 0.2550743511263387, 0.2735992347946253, 0.12745576498920047, -0.023999625169488625, -0.02679348482712055, -0.011860315569276162, -1.3735187988920269e-08, 8.445559709166042e-05, 0.0033800377519927556, -0.0015705179908472545, -0.021485518336630035, 0.04153335099855619, 0.03797741116982632, 0.003992743165504566, 0.009412778773678906, -0.0892813448570365, -0.13910644743745312, -0.11333542830958537, -0.13074700218294952, -0.024863539898748666, 0.08710553257199484, 0.010047289351641588, 0.051523799937366735, 0.15200431288232152, 0.07512328434557464, 0.07552566517732959, 0.11677172094451865, 0.17713228539050527, 0.20800329356348005, 0.18862984862592538, 0.060449426868190444, -0.022783010543473394, -0.009769769263261464, -0.0008238527642260517, 4.656901750219106e-06, -3.903749093619351e-06, 0.0007449337625849676, -0.00907273823164952, -0.036372510912783027, 0.0003403788207890784, 0.001597738544099795, 0.037521396914617706, -0.06751020256419421, -0.11963706340455216, -0.10740704578628553, -0.01221512479781222, -0.046505422571078335, 0.07530764165300674, 0.08468751185625845, 0.0017251014365162447, 0.006875952551081068, 0.08778094913364415, 0.04173572997298502, 0.06148883685666959, 0.10990568034467749, 0.15165911748912722, 0.17699713994662336, 0.13206800249965053, 0.025184775591981318, -0.023608774550676066, -0.008225545850911536, -0.0007311396487717039, -3.516510901684344e-06, 2.4773253285991215e-05, -0.006726508864093415, -0.02700545422613291, -0.06378084327904014, -0.08338603278874328, -0.026304990308633102, 0.021581875228693256, -0.022645183592241443, -0.13056495481976893, -0.17370629119100248, -0.12679460316725574, -0.0976748054430304, 0.003972347053361434, 0.034844430765558494, 0.06300003745047146, 0.08474993281146524, 0.05646950454258924, 0.0342811432897537, 0.08548680069905834, 0.0960795901669789, 0.08626881101284709, 0.0906782891854548, 0.0939770213619322, 0.004734706692665173, -0.04088960263805908, -0.018937873988907217, -0.0006987239140130035, -1.7523016817686705e-06, -1.8064209618353925e-06, -0.008898656315977364, -0.039042552408913446, -0.07876152046814243, -0.10571775153334922, -0.15791172069652482, -0.05523709172693274, -0.017334116013222267, -0.11973747770138474, -0.1857236200807809, -0.1163711812690871, -0.10215453636932832, -0.05357478922319317, 0.051547166913705436, 0.007693931921292289, 0.008792485981082513, -0.004712308551149454, 0.05197683935410202, 0.07804297545318364, 0.06240721850512072, 0.07817861855356142, 0.06416906421173149, 0.052105436563323955, -0.0064752620100568805, -0.012568314795138133, -0.014715014287544266, -0.002287410119730794, -0.0002573089147884292, -0.0005432786156171443, -0.0012247543042057196, -0.02726243338203052, -0.08708430329847713, -0.10766798057013881, -0.20935077109136094, -0.18498608138515696, -0.10224544279973458, -0.04635823246707656, -0.02566399506149699, 0.0003879984116644716, -0.047393669089251016, -0.03477968832565821, 0.0543223036833824, 0.06314472531345311, 0.010012726728365349, 0.006662610705751826, 0.06495609047645123, 0.03450437270712488, 0.02024853773535153, 0.06482263987535782, 0.03442512036941062, 0.021373038656924873, 0.028179948749067728, 0.019103358101397086, 0.000494600689513991, -0.0010130763357611445, 3.3831529422716132e-06, -0.0011805804270942273, 0.0007056901314056634, -0.003981102905439833, -0.048931890995149926, -0.0017295762742186795, -0.01912527946238765, -0.10538798566854865, -0.10340791773881844, -0.09940360905267373, -0.02568012756770029, 0.04549312297121396, 0.01925607046943133, 0.07247111995081558, 0.15483703483112504, 0.04841498712845158, 0.07410001412496169, 0.09033711117034658, -0.008158654983517425, -0.0213794187882231, 0.003103586795813045, 0.045172731693262476, -0.018290678775424292, -0.03951710016947593, 0.008341350341360715, 0.016050394828493995, 0.007609047172963168, -0.00015002947412545004, -1.1019805767581062e-06, -0.0003175606756417514, -0.0013223510359932774, -0.002556495547669289, -0.022754434295369434, 0.020143753789965226, 0.0665759880265811, 0.05752708673324856, 0.03889742132462408, 0.03534469932940369, 0.09584416594141433, 0.15903960875169007, 0.22593142090121296, 0.18668136504212976, 0.20218496511569237, 0.13550233553736626, 0.07474271111860792, 0.027195075669872663, -0.002363591530820386, -0.014784909621665608, -0.023123347011516297, -0.007501844415033905, -0.0677047667992473, -0.0857509956860975, -0.030915326838393636, -0.009388430240582314, 0.0030508986867700096, -3.962473573814369e-06, -9.74667083047843e-07, -9.963656518129756e-05, -0.001852351341889784, -0.009064449777141215, -0.025944083733760965, 0.040053636240270855, 0.09154342855699721, 0.12386442202028511, 0.09919171497756328, 0.14105572386853787, 0.16913616116865568, 0.24924068287776796, 0.29053649203347615, 0.23379674668153516, 0.19360957288219854, 0.14966485969078258, 0.07100577280714625, 0.0627195760659288, 0.047112263507966476, 0.039640492503736684, -0.01193779718011399, -0.027419571470617174, -0.08916676234337978, -0.08019562537717292, -0.050316915025420836, -0.016251890988038, 0.0008141494654065061, -9.148233593274182e-07, 1.8357052287224026e-06, -2.830716093987134e-06, -0.00014072558988210537, -0.0012245320185787845, -0.006771767233459586, 0.025951264292916394, 0.103097926164895, 0.14629012174112638, 0.10648976694281197, 0.11188970232847416, 0.15813645483377947, 0.17378446507201983, 0.12671939729683732, 0.13754708913453473, 0.13818579436086195, 0.1406368784389717, 0.08063813907057846, 0.0997608357904756, 0.1048916117198498, 0.08430152919941149, -0.0008979407328699246, -0.03431172406678963, -0.08297366001115777, -0.07576639439451416, -0.04438657274718363, -0.010465569320568083, 0.00027450182957768467, -2.0345190238955546e-06, 3.7321315858863225e-06, -2.473191059963227e-06, -0.00014155072280292735, -0.002867109180111562, 0.005911937028995258, 0.02048940112152134, 0.05050847842907481, 0.08100877807764477, 0.0589748507892595, 0.037439822276873494, 0.0540614157320592, 0.08148664846585081, 0.08324706471370802, 0.060639892390455155, 0.05868126523613896, 0.11663113834367421, 0.12844968556754546, 0.15412502250116197, 0.09603630752398895, 0.07059797498493141, -0.003100707073930524, -0.021482374051573598, -0.07471398308611077, -0.06398217610091009, -0.027822199792429787, -0.004661522757153008, 0.0004620322901357327, 7.448499402512493e-07, 2.236819394493283e-06, 1.4864009005862988e-06, -8.192353404421363e-05, -0.0007972606883479023, 0.004421833899173763, 0.024289956209590145, 0.019602881466056935, 0.0009344082326077586, -0.010720002137081176, -0.0232648084580617, -0.00763037734063582, 0.00860542596111081, -0.04019799552425746, -0.02350373419995074, -0.019476319402860248, 0.024829473809897987, 0.029242943205152826, -0.019617744277250344, -0.08170396915833122, -0.02734382394602866, -0.03133356651666325, -0.05539002792851287, -0.0812872201341855, -0.060881174860385155, -0.028467147629631095, -0.0005673804788275176, -0.00012935009762728367, 1.0234623816296208e-06, 3.870647679350158e-07, -8.825459191743823e-07, -0.00014616257372797916, 0.0009471348542065411, 0.0024702526174143658, 0.005777722160843374, -0.0021513142192033166, 0.007660268717249985, 0.022211723249363026, 0.05466692602575178, 0.016827090462052132, -0.010808006536435997, -0.01834906602977953, -0.013338263993395513, -0.003262204177011177, -0.03877418896374054, -0.0993656098282471, -0.10561165595646911, -0.09572168269019397, -0.083668446150972, -0.07172507112413441, -0.08779792963701817, -0.05936701474975251, -0.029227164147872572, -0.016319579881966577, -0.000517204308951764, -0.0002227754151055657, -2.4149776050007265e-09, 2.697918110242417e-06, 2.100213611079923e-06, 1.2585040893361874e-06, -4.528712822132214e-06, -0.0036051998682865927, -0.004857292568838906, -0.000661405694667726, 0.014796528023405314, 0.029669578648188023, 0.060913069970383704, 0.06287028107592293, 0.04254141935449243, 0.024045607776981816, 0.044852374792860646, 0.036401013887653905, 0.032409254066530106, -0.009449971096783177, -0.009337992996684055, -0.00898247835035615, -0.0109426209811235, -0.022636604710399195, -0.01920391711189334, -0.006389313149898097, 8.49705549869968e-05, -0.0006174840060286096, 4.450005951440893e-05, -3.308724012858012e-06, 4.549290020985278e-06, -8.467604255826522e-07, 2.67892501346996e-06, -4.915833119023183e-07, 3.863842264584272e-06, -3.171882970241074e-07, 0.00018582622400877726, 0.0005575444739395791, -0.003124991315356395, -0.0026682857711941787, 0.0017900545229265696, -0.0016776427223179563, 0.0015128842317310687, 0.01170281248699576, 0.013914483578368752, 0.016457661275187673, 0.01918211411918061, 0.023882292777858947, 0.01899654646425011, 4.250800945431549e-05, 9.755062222749147e-05, -4.678347902139656e-05, -0.0016401499261126846, 0.00011711513866308635, 0.00042180666008889565, -1.266885154081708e-06, 1.067854619093578e-06, -2.7204208985615155e-06, -4.2901205520654085e-06, 0.06612554881149618, -3.4666628832073036e-06, 2.95883183922418e-06, 4.1782988629726403e-07, -3.615796921657178e-06, 4.3730373193138564e-07, -3.2860423840190942e-06, 1.392822522771515e-06, 4.245601065184061e-06, -5.03418964830532e-07, -9.183579072196077e-07, -2.4874656865110977e-06, 2.796792950106856e-06, 0.00030300917652885005, 0.0006563565039292553, -1.876379556978609e-05, -3.981464619208173e-06, -4.681328724047624e-06, 2.9772356444033297e-06, 2.2656433540122908e-06, 2.8948004856722136e-06, -2.258792467214355e-06, -3.390483579209832e-06, 5.92902564756397e-07, -1.7155461983642754e-06, -1.1395377079111448e-06, -3.6294084321595548e-06, -8.981888011823269e-07, -1.2584156052321235e-06, 2.817675994286883e-06, -3.8132132335010643e-06, -1.185657123470536e-06, 2.4601306224626687e-06, 2.361037099991805e-06, 5.096819077136396e-05, 0.001538126517822793, 0.003256513660725801, 0.0025602335067794997, 0.004233199762532833, 0.014321823641164393, 0.017338301537106776, 0.01937988307827541, 0.012036770359923208, 0.00702225625940996, 0.004794246549264546, -0.015758344402872552, 0.0030288620591548687, 0.011745478194881335, 0.006133526437739785, 0.00574682258034703, 0.00548152817955602, 0.004884042780736716, 0.0007692297559792867, -1.1822344363585993e-06, 4.454139229223475e-06, -3.336040094055207e-06, -4.111174823274008e-06, -9.654052955669693e-07, -3.2325955640464252e-06, 3.7994472232674794e-05, -0.0003245154450464545, 0.00041684964952116353, 7.123201783860182e-05, 0.0025259585651201902, 0.004742327562703842, 0.017593513845590436, 0.029051499190368243, 0.04433936455004827, 0.06142585718645435, 0.07398236554902753, 0.07945446662508598, 0.09923341179850412, 0.11324175900700964, 0.12923320220379952, 0.14358146006898603, 0.14249507447305426, 0.12250930727578986, 0.08171106405308849, 0.04408659501074507, 0.02970625542215573, 0.010423675594815468, -0.001139136583050851, -0.0015585193905149094, 3.898829576609086e-06, 3.41815575237248e-06, -3.5164986814179967e-07, -3.6396394272651775e-06, 7.05312551566268e-05, -0.0006315105031037503, 0.003733966426991091, 0.007653354965235148, 0.014834318225514814, 0.016587583151445522, 0.04107676398910666, 0.02708128218883193, 0.06320658502886647, 0.06728710175538911, 0.08699083756151386, 0.045929603940589314, 0.08924729390682463, 0.12077520252229584, 0.07931726898708828, 0.12555986875411282, 0.2291477014830425, 0.2223033517138322, 0.198843798130505, 0.12757681965120546, 0.09337904223297576, 0.06191588375504632, 0.02231727631418859, 0.0010654492180138387, 0.0007025991364437252, -3.3214206561233895e-06, 2.554143255944342e-06, 1.1530589584452904e-05, 0.00011379308558244754, 0.0003516311859229587, 0.006451658777409315, 0.021012303337985993, 0.017793027921295144, 0.03502824260813086, 0.056848376282494104, 0.057375026227335924, 0.0798385137478796, 0.09350387699159805, 0.08982954595695561, 0.043957160135807326, 0.0647376451274254, 0.06103490950890044, 0.0829109245807155, 0.06700837986523256, 0.15162457535408422, 0.17999461064409994, 0.1797511578333471, 0.14422453553991216, 0.10661802183172268, 0.08166901409404397, 0.0485622904767925, 0.021197435296214803, 0.0074453616183243415, -6.504675727269971e-07, -1.7260868737874029e-06, 4.050275810587519e-06, 0.00013447954156717856, 0.0016998613001661003, 0.0265116636466355, 0.05614139208173091, 0.023086005566492773, 0.038338171364817326, 0.048621184197298564, 0.08069032057762072, 0.03538162407966201, -0.006748126886592642, 0.014847765345545393, -0.06888684462629284, -0.1558664671110509, -0.1195238846615123, -0.09224522452209948, -0.17307154307985315, -0.13219035750181052, 0.03377710305774699, 0.02530626601656664, 0.014902410662676684, 0.016874840585458756, 0.06819248271527015, 0.08217653916168596, 0.038608440013316966, 0.004208932414081799, 7.145344224552197e-07, -4.101634593433555e-06, 1.7949788044589216e-06, 0.0023136585604394016, 0.008184153990143115, 0.022557945684894953, 0.04720834667988804, 0.03868679286812087, 0.04025199130692494, 0.06695157938596309, 0.08700585900877968, 0.061269331637522725, 0.07943456147970354, 0.0438777431396379, -0.08520327651472209, -0.1608390004942993, -0.160724435485651, -0.16192839253422533, -0.166211318636669, -0.15591651966057063, -0.07884916611757603, -0.04129430037169957, -0.0728340729773648, -0.010480024349136098, 0.07506629187138238, 0.13886207266224046, 0.08470120568390613, 0.02551912266503745, 0.0016034394458860081, 1.1514422512349472e-06, 0.0009904513877374958, -0.0035782081162500272, 0.01383284769631885, 0.02977003864336017, 0.027296613664999796, 0.049478778506817325, 0.0818015618675849, 0.05017512015453735, 0.09017626685577511, -0.006539487292526913, -0.020442496122563627, 0.050178105865335165, 0.0007000294531403544, -0.0775878192026426, -0.1727580108615739, -0.17405923622130492, -0.11138775827945961, -0.09955810442896416, -0.08161940433013579, -0.002789401344474456, -0.02265231215758106, -0.0010287317032575541, 0.09335005785297174, 0.20013345903205365, 0.1115973799632706, 0.04374721523987525, 0.0018595087503720635, -0.0019086513943116544, 0.0011279234696485506, 0.004876753163750516, 0.026281255362627234, 0.023627132437646168, 0.05339779285046698, 0.10562761871569638, 0.10188737034555861, 0.06015394561427338, 0.14464140084825192, 0.03445967433663956, 0.029872731453799185, 0.10421946562944859, 0.12125991828960811, 0.010946084904856292, -0.19423448289107792, -0.21154342976252627, -0.19296015026427693, -0.11604593672566314, -0.007174354402982948, 0.02653452553803823, 0.04570053251810202, 0.0785153523741572, 0.10160273292167894, 0.24119226803291632, 0.16228192928906085, 0.04268129257618732, 0.003813471548676705, 0.0001911059198180578, 0.0025144996584413846, 0.010860018896265679, 0.035121690353665705, 0.046850839146046805, 0.042394742087175676, 0.11647042212898158, 0.07949775813084321, 0.12548034707407937, 0.07836610004399788, 0.0006287069993452521, 0.06645178749853627, 0.15464087573692867, 0.07152814288835237, 0.02638229474224389, -0.17061659147782693, -0.2527968084807597, -0.1461731625533761, -0.15919326195485398, -0.023433325262375036, 0.03980449989082057, 0.08973258450829688, 0.10557260391129603, 0.041335333968525845, 0.16377403993358158, 0.15314888252765785, 0.03138028737397022, 0.001061746188271114, 0.0003417415013656301, 0.0022158355076191396, 0.007268112532097382, 0.022970404551010824, 0.08816824512639225, 0.04366859364286385, 0.08732255447323581, 0.09520616475959633, 0.09508348431266866, 0.051250578522220536, 0.033903381729318276, 0.03597376291495211, 0.08217272056982078, 0.2114150636340351, 0.20070413585468516, 0.008372763350759413, -0.07400433690957853, -0.08800173744532114, -0.17518859729794134, -0.038065421385317676, -0.012361234837160166, 0.004018268274017653, -0.026090726783502802, -0.03959565038448903, 0.06089075726673539, 0.12973171548805576, 0.029166211315813782, 0.002134026162662194, 0.00020377502166999832, 0.001958465176830414, 0.00896100391036143, 0.010851368522847953, 0.05237767808039937, 0.049621353612824215, 0.10008659550207662, 0.12108613715150678, 0.07893705810601565, 0.12208544025905756, 0.17404038822862933, 0.1749367468051668, 0.24961426998975608, 0.41942880433505325, 0.44481841399137984, 0.26921115412235397, 0.1070285924645728, 0.08948046706584746, -0.015541239863887264, -0.0340021373460714, 0.00873424096585654, -0.05777472767303071, -0.06093451562897253, -0.034285876230790775, 0.014350675251234447, 0.07935491722039799, 0.017242508405087488, 0.0020326590113973315, 0.00013675552444685987, 0.0009686432153907144, 0.007782967564351784, -0.0038382915963468467, 0.002242714480291934, 0.024096503745353468, 0.027596427185423048, 0.12681432954644634, 0.10648663029077585, 0.13423931665891806, 0.25441657188616235, 0.22927724668407787, 0.24992276775699995, 0.3444886491007402, 0.47881301942865934, 0.29987862053952635, 0.23700663647757775, 0.14786981229557186, 0.08976613082822821, -0.049621108853064956, -0.00044264428391742967, -0.1235044668665502, -0.0574575668446805, -0.05035858380454258, -0.09807277419855791, -0.00889338962902294, -0.013492122599285361, -0.0015078580280355732, -6.251682992878764e-06, 4.432018970540176e-05, 0.005455396527477427, -0.007108096200036379, -0.009104948742060701, -0.016829713859121406, -0.037014693706112864, 0.036632885940546284, 0.05291395561015282, 0.04478837024465627, 0.10035648563233357, 0.15761133725914622, 0.170309370126429, 0.300817309323328, 0.3358689155094408, 0.4627197090398102, 0.3549057149938804, 0.17088019755572997, 0.1054258316083846, 0.08756748744295417, 0.009769732661373, -0.06345367376009262, -0.05140158092165796, -0.073848135035241, -0.10037034443481342, -0.04599188700295543, -0.03569792348370085, -0.019919265019148674, -6.173683538392886e-07, 0.00039082540975938026, 0.0027728594616481177, 0.003193698729776338, -0.04337968142701295, -0.09457067322602224, -0.177593005442866, -0.15950682951362422, -0.11435653828592979, -0.099823728727602, -0.021747115130188205, 0.022830328759327594, 0.07916785830052396, 0.2267953263750394, 0.3148044627800295, 0.2908856062430811, 0.2694920653332137, 0.18374992208188268, 0.05270548248335386, 0.04658011719632175, -0.0278173373727095, 0.042648539594093086, 0.010773313886571687, -0.046123818050926114, -0.053322025110891035, -0.0387684102546983, -0.03366484652185432, -0.0014541057380501766, -3.51221486883887e-07, 1.5135455367174293e-06, -0.0006068970192800129, -0.013563110948198318, -0.07037388165628806, -0.21748504519767292, -0.18207801147790997, -0.19661480392655584, -0.31772201989374577, -0.2626828499821636, -0.18635824583535243, -0.024561422990892853, 0.11867461201284073, 0.225972649717164, 0.2715582574885905, 0.19951361728865993, 0.1698406876704382, 0.11823831449379606, 0.04429840947032789, 0.013143629138668232, 0.049695609426558617, 0.017622944277616844, 0.061737540058071305, 0.014604748345790702, -0.05422119874695831, -0.05619832914389664, -0.06530461518024541, -0.006668839086121182, 3.2221062890231154e-06, -4.021100285137488e-05, 0.0053925905397549274, 0.0007049010690945762, -0.06474228550593945, -0.1832386275781058, -0.14612024722564906, -0.10471587383088739, -0.20431548404549288, -0.28479745560889064, -0.3667865832846975, -0.15492508359437618, -0.07275764201900156, -0.010458840672532083, 0.17315311776225145, 0.2042509468025206, -0.01184090662809629, -0.08665457222555656, -0.05774176346117379, -0.02162661580835067, -0.0002703667379021565, -0.04109604633074315, -0.012828604973931203, 0.04642710229150994, -0.01210814729569579, -0.10888647176901303, -0.07196000295364, -0.017080956367981733, -1.3339807846104698e-06, 0.00014393734997170796, 0.0006943506856823638, 0.023267494537500974, -0.04600729909803542, -0.11212434004917965, -0.0939189008984228, -0.10077536399474452, -0.14893256600979418, -0.19805862913847147, -0.29749958247665814, -0.30145902584148226, -0.33572867355782093, -0.10007363929095052, 0.14380934196029022, 0.0603360386671329, -0.11189730406281576, -0.0845364395281618, -0.03699088401563661, 0.02823919236002134, 0.024304983716580117, -0.041901409913436466, -0.04218001543291547, 0.05302249679018858, -0.03981919945229613, -0.12371411258816108, -0.04682437288539974, -0.012581089173450615, 0.00039045393673544894, -0.0003076687168040543, 0.005328793048672304, 0.06367453244121093, -0.002246709845609642, -0.090911962291201, -0.08510701144466894, -0.1370845850058683, -0.0950457295924973, -0.12484969143219483, -0.18543923547785218, -0.2350874292891408, -0.20759683458795714, 0.027918161452314426, 0.07580908247107697, 0.05675947010378596, -0.029631301456681317, -0.0353323748895246, 0.024932609606756813, 0.018425256708682922, 0.06687691917236166, -0.014347504136402225, -0.051336926516433457, -0.07061615148385081, -0.14094467512051817, -0.14366373887727657, -0.03290355227573325, -0.004001810255987717, -1.8153499802462795e-06, -0.0006711641887221358, 0.011875428985586706, 0.08592840684641273, 0.04401933745541544, -0.04765084022789954, -0.09774296282031018, -0.12445657184016137, -0.12038566688966426, -0.1340644876033241, -0.09138394132887168, -0.19378482549857273, -0.16642680247672903, 0.007940910728568605, 0.11187315298576356, 0.05763363136411788, 0.01389752959484251, 0.06742907035738972, 0.053191776480545266, 0.03775089423092746, 0.00423537852007007, -0.029258076839483938, -0.1045516639378163, -0.13146599065383205, -0.18173307084630072, -0.10482167177405324, -0.03484510928794202, -0.0018096440701118855, -4.524801220383078e-06, -3.0570303114083652e-06, 0.0072646282269931955, 0.04504283651758058, -0.020499452504203642, -0.12845077532465526, -0.09528766021830053, -0.07305103054545518, -0.049057613889785814, -0.0323731665577035, -0.15465498078624074, -0.20063218813405365, -0.08624299254396536, 0.07866528512288577, 0.167649106999477, 0.06981352070701739, 0.0487130180326873, 0.11676131673133966, 0.024929847496023606, -0.030514111884645572, -0.06685122897737315, -0.11114766962942425, -0.11538969115866018, -0.16302036747007356, -0.16282232294076776, -0.055745555366215525, -0.014918422616732872, -2.399117362770634e-06, -2.3666301863970693e-05, 8.093475038128354e-05, 0.004994387075039396, 