[0.0221455660874243, -1.6227319051568567e-05, 2.800446385913037e-06, 1.862799275628084e-05, 7.464912130502726e-08, 5.289713487857941e-06, -3.4162902910528407e-06, -1.6563886646142354e-06, 1.1139592203994903e-05, -1.6805637849156178e-07, 9.744174006804083e-06, -3.1067461396537465e-05, 2.5258397995093707e-05, -0.0019460416984962879, -0.003931399784105362, 0.00033048207761433477, -1.000535637840665e-05, 2.4470682268913364e-05, 2.807776676962824e-05, 1.69677228905068e-05, 1.1600362494181404e-05, -2.2182562062773323e-05, 1.86400572767182e-05, 1.842220963294614e-05, -9.03660534591716e-06, -2.1017713897812894e-05, -1.3884241895497817e-05, -5.93386201509186e-06, 2.0808468188893367e-05, 2.7482282218743453e-05, -1.5609097439989324e-05, 3.0841677002236245e-05, -1.0133941773397891e-05, 1.5223201980424376e-05, -0.0006018613047911215, -0.021706188488646198, -0.053351204827697556, -0.08464797731694239, -0.05150060468550746, -0.05298143555184911, -0.07824309400702191, -0.14266271275441056, -0.06273789339915006, -0.019164606112171658, -0.04766883570295902, -0.034927359966827186, -0.01683447561907745, -0.00441961568640997, -0.003745773845096201, -0.0172120852729271, -0.030392902983798594, -0.05193641088890581, -0.027408956110210745, 5.290797542283981e-06, -6.1992277801020576e-06, 2.7508658799945618e-05, 1.8353794014712783e-05, -7.845660404672937e-06, 7.454700924162858e-06, 1.2947768945841808e-05, -0.0030561207979308974, -0.002240784379161755, -0.0020391411615830724, -0.033756503422880224, -0.07168643627649282, -0.12138385960326764, -0.10743035367521245, -0.17987021525352076, -0.2029582784813047, -0.22556752859697884, -0.16200092079672362, -0.11895299835750492, -0.12125027423093895, -0.12027065668579218, -0.06978439404284198, -0.07961719287918612, -0.0627837883648499, -0.040855248281107065, -0.03141362916263549, -0.06818028565885108, -0.04462627411332165, -0.0011387847430812778, -0.0005161111171622596, -1.3702505442564654e-05, -1.3444336413488132e-05, 2.973182905349915e-05, -2.098865689009349e-05, 1.655474600378905e-05, -0.008842893760702962, -0.00258550669815798, -0.010308019429047336, -0.0776786292735432, -0.12939940926711216, -0.24946878905250547, -0.25982117874595395, -0.28299322799610105, -0.2982357819664843, -0.34409593730919996, -0.41068440672776374, -0.3253584173734012, -0.31185814964245995, -0.1910239540606585, -0.15389678602616058, -0.1531275171242401, -0.05522243030535483, -0.050455898213825755, -0.03541806281359933, -0.038798078224297386, -0.055268099596959476, -0.025329461252229853, -0.001633112278904231, -0.001323949394341797, 1.2804757876002145e-07, 1.8126735969808126e-05, 6.118622065567453e-06, -1.9155649987750254e-05, 0.00045604812839207727, 0.00340235220077117, 0.016791635558308465, -0.08241060374709394, -0.14763661984792914, -0.22717862739738431, -0.26716336672121727, -0.2874785879727334, -0.25398816023958165, -0.34209021875253637, -0.34648323804212255, -0.4769726549428812, -0.44708115749415184, -0.3445476938600029, -0.2920246953984443, -0.204734547576451, -0.0798308488428625, -0.03746341975850396, 0.0492899960845712, 0.015418361910386322, -0.014262998098262713, 0.016853572558039372, 0.006030210541204252, 0.0010716873298192943, 1.407967879742553e-05, 6.742529909840756e-06, -1.6370618787382114e-06, -0.0011500887509057216, -0.007696084859483538, -0.008865196106202428, 0.026287606621736122, 0.0047865411038505, -0.07246849331949995, -0.016441722250078814, -0.043698871405455454, -0.12850011588077329, 0.003907297011850402, -0.09386329924812528, -0.16891228091773686, -0.09600361618025155, -0.1104941740574801, -0.1619569254542311, -0.202114773076884, -0.16919866289915453, -0.2095236263753212, -0.11122538824980273, -0.08105053900036846, 0.037881040904260775, 0.11162217685368747, 0.040474236948236764, 0.01917387840691211, 0.0013277951146140293, -8.391399022950948e-07, -1.6854068120196822e-05, -9.510162369271944e-06, -0.0026141228644411896, -0.00672750206324182, 0.0022659752824403133, 0.05884565612185108, 0.021467518735203413, -0.08709293411220838, 0.09533832370523228, 0.08744469792304388, -0.03262148273953468, -0.007793430859498903, 0.004325411579430939, 0.06729737579261964, 0.03597939564808775, 0.00716078931884688, 0.0005312520638826718, 0.029452344818441157, -0.05458731588715214, 0.03707176450798233, -0.04142101178671489, -0.0013995673702838479, 0.11278604284735866, 0.024607479548055426, 0.029901661413456477, 0.015518556907702727, -0.01527454427285545, -0.009477873349257272, 6.037600575585776e-07, 0.002615400779918686, 0.024427965341346194, 0.08185916595491347, -0.012810282855497079, -0.12248686453711027, -0.07198984585836155, 0.12053004942775984, -0.04501080472844897, 0.09043497036179605, 0.18588688166108389, 0.04114007116134761, -0.03515564063421828, 0.07164951526888513, -0.05417653612033793, 0.0007423505826956255, 0.2103346962497226, 0.0882799052799892, 0.043779685203091716, 0.05076004040065217, 0.06461343531905653, 0.02666401967568214, 0.08868061850840576, 0.017509875033978148, -0.04805046223152182, -0.04780815800918662, -0.021525302095069258, -0.020805292160205584, -0.004212814935838909, 0.009112229615142728, 0.040128985372193574, 0.09158878592300627, -0.03158662217489603, 0.0008354434302827803, -0.008499438929734388, 0.10077895749216019, 0.07898542206002021, 0.0152096296113729, -0.006354160956431811, 0.10144658780871234, 0.05179321723720601, 0.007065834673856424, 0.03220181169459425, 0.042776156171713015, -0.024804787099201503, -0.03514062053481621, 0.08858354891027044, -0.03492413866118916, 0.018481663915078064, 0.04700416895308233, 0.024747999663438314, -0.0004080839511482321, 0.05370791409537807, -0.09439550183881726, -0.027040674631009304, -0.007240749290138322, 0.0012743211775038713, 0.01784906094716287, 0.04001813943502315, 0.05073265748224272, 0.016518767927132375, 0.07393260803783719, 0.001290804631756238, -0.027869502727772867, -0.021198123542416736, -0.04083861791812267, 0.013999172412779504, 0.07321793325396865, 0.09207762442115466, 0.07152883631530536, 0.01925587429718637, 0.05479040901787758, 0.07339313276336423, 0.1812017595719207, 0.11417836933762021, 0.006978289072918183, 0.08626859165762822, -0.0703720199091529, -0.07317780873477996, -0.09139488584325245, -0.12185404128864488, -0.06409847579748759, -0.015228293635735227, -0.00011097065844670532, 0.0021670404063734027, 0.009509377934416582, 0.035758736093923174, -0.038510027077356485, 0.039537340733555665, 0.055329209846899687, 0.06716546724681481, 0.02988548470050792, -0.014163950729000311, 0.08203456058761814, 0.07827808774731165, 0.04398529670023942, 0.05965562542940836, 0.012424932596042455, 0.007184621743796299, 0.08894070917491204, 0.05957228049725784, 0.09028202877701122, 0.061544228013131676, 0.11235791390940102, 0.030544747311473944, 0.07752172528909035, -0.01688613548205794, -0.1959276499622898, -0.15490918642843254, -0.06275221671696352, -0.027627388966831375, -0.003372940914552589, 0.0006758672523648264, 0.008326489882761419, 0.04457284486590953, -0.04499693242408223, -0.006821410718060397, 0.125716804993363, 0.14717616332558914, 0.17171596148752477, 0.16554238964196052, 0.20124751230239304, 0.09050754699798053, 0.12483071870263689, 0.15092682985133224, -0.11509532577586495, -0.0724152778629145, 0.19944752653496362, 0.2615955729864976, 0.2077545051040863, 0.0669598107174803, -0.010792068708373322, 0.021413883420869414, 0.0053373060162054215, -0.0944429271813723, -0.24679163844430743, -0.3080853139500699, -0.12672795161612493, -0.014618773064623837, -0.00018957194572512498, 0.00028059619530582363, 0.005726629827432242, 0.02054092658007612, -0.03671400829841542, -0.058303845969288344, 0.01648995358269999, 0.03863313224259487, 0.08898958923754101, 0.15040853903069695, 0.08436702617072558, 0.14252958813393252, 0.18652779521905127, 0.05445435504221159, -0.19986818760694877, -0.16752837904016912, 0.19690246732380393, 0.19440136579077422, 0.14739684151873403, 0.2592503931616621, 0.14144917081982547, -0.031494193633693594, 0.04237368221867826, 0.027011351252585147, -0.22138756690064904, -0.35072471238769054, -0.07539460916918367, 0.0002601408306518462, 0.0009436770302044522, -5.670869814511619e-05, -0.002607225694661377, -0.00012277035430599447, 0.007535573025910951, 0.1548447591737647, 0.11400286445052177, 0.1023361754298186, 0.17816373173312428, 0.18232081478808948, 0.0467363732669012, 0.11542108345247612, 0.022372891678097664, -0.10487250251412225, -0.23158963045089018, -0.020248571056298396, 0.09140023170592908, 0.09027485970719672, 0.16225603238193068, 0.128960488755476, 0.0773651542952096, 0.19296594708194587, 0.18673928304535312, 0.09121168872340323, -0.28314494436704174, -0.30309017681950073, -0.09978519115555566, -0.06981891554517762, -0.035537108343448025, 7.841343593483831e-06, -3.69034837985645e-05, 0.0008839149228170848, 0.07855871360538372, 0.23317315105863545, 0.14770698663852566, 0.049449177554055694, 0.19697274354944527, 0.08493630116385356, -0.020980523207143335, 0.04546092296608286, -0.039141268150894075, -0.11856138451386941, -0.1805680806681706, -0.07181804994823397, 0.03520083149348898, 0.20995172423709635, 0.16530949781662346, 0.2177308546478286, 0.18045006981315437, 0.1673696166126705, 0.05280250467742958, -0.026289670274633505, -0.2402919242246518, -0.2972931872850532, -0.11828993580699307, -0.033441090574625916, -0.0028892453283649927, -2.875242369404211e-05, 4.188449056428803e-06, 0.0003010727050055586, 0.06541020055808265, 0.17233075866170283, 0.03637295189591779, 0.09197009532827814, 0.0720226903966715, 0.04366538963116441, 0.0008698969597992665, -0.006320115308037324, -0.01392245278081723, -0.19406424005006492, -0.20412691437461453, -0.14550156021770724, 0.12313748488417683, 0.18374098006114567, 0.2901866162789422, 0.18964173753195204, 0.1513799886507245, 0.05589201067549524, 0.05682757015250677, 0.13695755877376503, -0.08834285613604627, -0.3314134429248976, -0.19807332380154136, -0.00733915981323394, 0.004730873050075745, -2.2491355596664255e-05, -0.0008444012320538671, -0.02379390198508722, -0.04934111746349205, 0.0031886661254725375, 0.05857783708244529, -0.015227631082869515, 0.07652861105031326, 0.2213559639574701, -0.026267163447334468, 0.0053559601013888165, -0.10600784883563287, -0.06478950368159159, -0.08508907939753672, -0.017566313629221925, 0.16370219978242107, 0.09846213631727255, 0.24523209948397304, 0.09555148385653145, -0.03857781346420831, -0.00916993114888086, 0.10414019662934608, -0.0422892903684549, -0.16725017090353841, -0.2798770255762044, -0.27299194379456654, -0.10275863170294312, -0.003361064518384015, -2.7100732169887064e-05, -0.00019354341110443013, -0.02996196192944507, -0.10839881164301188, -0.18621818229505205, -0.009274282348496525, -0.04644811743916423, -0.01007347023451045, 0.03581184564799547, -0.07880420171395959, -0.06747057408353688, 0.01866209902775935, -0.045136412439447875, 0.08837348682625279, 0.03363278679312623, 0.16549000370321015, 0.1353243298146004, 0.005437203632120847, 0.09643891901350755, -0.09242901289415242, -0.004796443705638417, -0.06821836136727395, -0.16303621301301185, -0.16342516215225042, -0.15165198145686587, -0.15718108609620599, -0.06877194477850769, -0.02954890640912852, -0.0005404638643612427, -0.006481596748337153, -0.014822871801108736, -0.12869064680018633, -0.22837507222204026, -0.11434243389224337, -0.10177661972794137, -0.013936622739058328, -0.1391389187005156, -0.015716663061421127, -0.20865631957586636, -0.03803055618138834, -0.0685057553287077, 0.04098855122266019, 0.10905718449740652, -0.06045227197286949, -0.09090638287858345, -0.08157363459044602, -0.11878440262604632, -0.04407880422206855, 0.008995319102667902, -0.12647380379903178, -0.2729508402729957, -0.315409764243544, -0.20067685599638369, -0.09491701746937715, -0.010530437260730073, -0.0028631356157002887, -1.4577002236463838e-05, -0.015293366057979228, -0.009826069664594343, -0.007348475133864183, -0.13579654410550185, -0.145563335043662, -0.18276350972273153, -0.11851353278041778, -0.20778454431465015, -0.3381984427866718, -0.3086642322405637, -0.22739786363130923, -0.24312582035666144, -0.14031941456616298, -0.023915732370772186, -0.14230069253521088, -0.1911423526109455, -0.28908860889302407, -0.18826307545430443, -0.12248231256307145, -0.15687250637451208, -0.2708995675084838, -0.4326111000533581, -0.27148967205764274, -0.0951911358637852, -0.03813214951058196, -0.0010573213831926902, -1.2540882084162242e-05, -2.7466415252256965e-05, -0.006553229944181685, -0.013654003698473945, -0.07974383855469655, -0.2070565639878579, -0.22358999157451753, -0.2980698332639431, -0.37094952576596774, -0.2733330495548511, -0.252050529191122, -0.35160964137867556, -0.2789606427550186, -0.2540676606895386, -0.2538809086494067, -0.05698819625653961, -0.17969738459589313, -0.15257243452563574, -0.12738871553856862, -0.2860153964655515, -0.2442167949907062, -0.19749403653602593, -0.20286177123859603, -0.26587760817572764, -0.11183997642005891, 0.0014109638630329783, -0.017466062971221375, -0.000752082747913472, 1.3745255549613583e-05, 1.1736071944279014e-05, -0.0029386861526603954, -0.036956239012439995, -0.16109321949547822, -0.1927120362688685, -0.23643697029810035, -0.31692987631509123, -0.25559010808410587, -0.18292460266731972, -0.16037370464858663, -0.12151378566469921, -0.1632075646624332, -0.09691197841898312, -0.24363391228059725, -0.25045800927491135, -0.10442551194416105, -0.05709125185355551, -0.22079731636969188, -0.15181171395979678, -0.217080674144069, -0.20032791054389798, -0.1088243292250566, -0.1333956168164611, -0.03898556754074247, 0.05452259391577491, -0.014712805285971308, -0.007222552187493925, 8.176190264537347e-06, 3.5942687822267786e-05, -0.00013354862848452087, -0.04846276939680536, -0.11707760152931623, -0.149722714371628, -0.19166291719071674, -0.16855799106804203, -0.11350308349847765, -0.02096436076112067, -0.1104774009054848, -0.058747452392234494, -0.11398317213101, -0.160047991699259, -0.20783935158008862, -0.022084729984107262, -0.1415630209338856, -0.14223776148945064, -0.19290255133900758, -0.056955775247655695, -0.18063756722946198, -0.17715345132981158, -0.13894872063921618, -0.027799536004359374, -0.02960542431584842, 0.039155062728071406, 0.009464993483102362, -0.0010198694743359198, -7.29066011817838e-06, -1.5045299463431686e-06, -1.95797952724811e-05, -0.04524278513101059, -0.11108268051656431, -0.09462080536089604, -0.08197789468100174, -0.004981449695384218, 0.02316902087195415, -0.07838245243005515, -0.20116470751510782, -0.04984966449936836, -0.11579706799611436, -0.1757665839109696, -0.15481964600936182, -0.12565533515546354, -0.11948965418152202, -0.0376308905641409, -0.0723529387447959, 0.013355237075470764, -0.03244921091838881, -0.19821585461405491, -0.07212371815873272, -0.00845694924868433, -0.07146115987507638, -0.03868251650158728, -0.004263612490393894, -0.004690379115584308, 2.4714717668730657e-05, 1.6418054238895287e-05, -1.8058505291070855e-05, -0.02381357529461274, -0.06240458442986351, -0.021145381469588227, 0.12931408578630513, 0.10516351117343566, 0.004587570838438389, -0.045173867618622444, -0.059505885521015184, 0.018536082615849502, -0.13666816908182483, -0.24732042390332334, -0.17877519115113152, -0.251637718257468, -0.2040692274840881, -0.2035219264758875, -0.11375913097599503, -0.2160433690883684, -0.09138624514779828, -0.08133562009027727, -0.014316501646975125, -0.017445117619599635, -0.06017612853945922, -0.08865502452229757, -0.025409859629220988, -0.007477796508982851, -4.964396893634731e-06, -5.9967873686229434e-06, -1.7328942792630912e-05, -0.0033464801125756786, 0.013576167624037698, 0.06750216788763566, 0.09788300931767051, -0.01635394385271731, 0.03769460788034222, 0.01044549995320625, 0.017587247166320576, -0.023988210622559514, -0.008164715991174168, -0.04032308535503512, -0.039490465953475926, 0.012396145790192962, -0.00466884430071158, -0.06559960681422336, -0.11162717042643792, -0.04714779119152378, -0.04590154598216731, 0.024466466696981867, 0.07588316726845003, 0.02452295115199305, 0.0010226221913537158, -0.017962783232544233, -0.006311096801238949, -0.007932771112095232, 2.4255202798804233e-05, -4.82788344685302e-06, -6.840222765722398e-06, -1.408436600118718e-05, -2.5135674706929648e-06, 0.006594561285339323, 0.023606461214124075, 0.05712266947473112, 0.05697189276598163, 0.06837865633730343, 0.12162073029990142, 0.09768703573011632, 0.11799973345163943, 0.07491772811993987, 0.13903060118889957, 0.19239525137674104, 0.1730042701076721, 0.05133804307675837, 0.0694096856127009, 0.13490336529164898, 0.06392901948784367, 0.03772163193458318, 0.032246069025305316, 0.027656724726548433, 0.0008933665492775807, -0.0005074669463227797, 2.5648937693845944e-06, 1.437294629874614e-05, 3.837137245808126e-06, -2.4693330684993174e-05, 2.003474590655215e-05, -6.745299855759857e-06, 1.4448263847316833e-06, 3.076528705236798e-05, -6.411236836356601e-05, 0.00015850994357094196, 0.00023411067087340812, 0.00032103761131744326, 0.003486104713365332, 0.0269236253394567, 0.004584016331696562, 0.0014363580054896396, 0.008038471094433187, 0.01918011619225258, 0.015895589917657275, 0.010953041494713534, 0.015853607615784155, 0.030220189344187107, 0.015357753133759542, 0.014821605387689864, 0.007846158390441007, 0.01591355236868609, 0.00255271929350734, -1.9059463153963625e-05, 3.08342515811693e-05, -1.5524966812466724e-05, 2.485204896993992e-05, -0.006222164364787651, -2.982783502768558e-05, 5.772038907660436e-07, -2.016192245199052e-05, -1.2656087214720946e-05, -8.461704400797005e-06, -1.592094706495534e-05, -2.252005104251164e-05, -3.083067903045924e-05, 1.4963810405980741e-05, 1.4686628947670073e-05, -2.9637039240609698e-05, -1.796454599675527e-06, 1.1868230803450867e-05, 0.00010557126263555645, 1.282793486105453e-05, -1.747575298784959e-05, 1.8570306275422396e-06, 1.4746299888262432e-05, -6.353594196226505e-06, -1.3271440252820613e-05, -8.994100648215467e-06, 3.3207868626919895e-06, 6.429956812168458e-07, 4.250777399520964e-06, -2.0236907233270057e-05, -3.0584243225181394e-05, -6.183998668901251e-06, -1.3295518349602684e-05, -2.1701237339135593e-05, 2.4945122961658322e-06, -3.137437313616834e-05, 2.6131512489671107e-05, -5.003372847823611e-07, 5.2409296892156184e-05, 0.0019264561687839868, 0.004592339299509241, 0.0060751368769509225, 0.004098037821912568, 0.0067203572839245355, 0.01010180233953197, 0.01625794069815747, 0.007897855650400154, 0.004918629618515076, 0.007033112327217634, 0.0034200511315135487, 0.002798240172664364, 0.0012451754761410604, 0.0004008155341574825, 0.00036131306829926494, 0.00020668724103354482, 0.002100094513485132, 0.0026837078742708268, 3.106769470926344e-05, -1.0014094338014538e-05, 1.3354664102780905e-05, -8.241095731905745e-06, 2.2904795026566474e-05, -2.983945098824592e-05, 2.018146334602422e-05, -0.00017964507444631078, -6.389837626224828e-06, 0.00021626729072688603, 0.004131764831612583, 0.008467632936855192, 0.014712019228799772, 0.015746835097189976, 0.02732525556828841, 0.04256460729572949, 0.05529666437913346, 0.05303630403431776, 0.0531697067493427, 0.058725359052496914, 0.048070652416072834, 0.03018176192533275, 0.017488579265043578, 0.011708907892041768, 0.0032167348335915497, 0.0009894487724721878, 0.0018425976740018104, 0.002636362354168881, 2.800866194070304e-05, -1.1154622701537634e-05, 7.340601758007659e-06, 1.5524466241302113e-05, 9.6940648624618e-06, 2.4842361242278285e-05, 5.534651632636211e-06, -0.0005293110264767336, 0.000861706578991992, 0.00021873563552079106, 0.007050044116445994, 0.011865046489923894, 0.01795378042506033, 0.02374938657520804, 0.018917102043785734, 0.02727484408836251, 0.049074454976970175, 0.057605339368910505, 0.044058427503775706, 0.06313150804552885, 0.03861410871870956, 0.015610543593328191, 0.003315492520738733, -0.009707695883697224, -0.020731274373484654, -0.01450899078290302, -0.0034926266394037517, 0.0022307730945427496, 0.0016630479287675253, 1.1648911198176355e-05, 1.6363570978478927e-05, 2.9054100780827338e-05, -9.459811853573646e-06, -1.4015107158880799e-05, 4.030788481005406e-07, -0.00015591982540851825, 0.0002621323669302301, -0.006428186464549566, -0.0022624813943626105, -0.005992245969973777, 0.010930905851915215, 0.013624472424907337, 0.009530708967735255, 0.015421401302667875, 0.021500787077245242, 0.030721893240089653, 0.03512435728812411, 0.021173636960860755, -0.006010762107835589, -0.035999021292681385, -0.05572016983075909, -0.05099915475373371, -0.05430405275924678, -0.038127122632501745, -0.019134783252265426, -0.0017958024467232916, -0.003075708995611232, -0.0008774069653324923, -0.00021676819907587893, -1.5290110405505794e-05, 2.5465844639105664e-05, 2.9604312291237564e-05, 5.813422978153004e-05, -0.0024475359424045388, 0.0029566797274451586, 0.005919797006401756, 0.0069653223675367, -0.004384404458178183, 0.015528689099932031, -0.006336889030235366, -0.03650668206369875, -0.040073302055987275, -0.036661320394043115, -0.04176755796195681, -0.004034154503963728, -0.006157953183149418, -0.0479428979945553, -0.1012598997493401, -0.12565156875085753, -0.12409424834991947, -0.11863506329311542, -0.07476170234863433, -0.04898335710289304, -0.024356025961524926, -0.009648990850687513, -0.0028113449746654906, -0.0007558809479372379, 6.645578917044662e-06, 8.125027902563038e-06, -1.7629710560581447e-05, -0.0018699402619735404, -0.008098010574366661, 0.0011591734287398734, 0.007204343616491988, 0.03223054038738491, 0.017187296846387593, -0.010587650428448371, -0.056483897223332094, -0.06394418649209849, -0.015234820143191032, -0.047888055258570046, -0.13895999566920036, -0.1683065770662956, -0.13289008903956107, -0.14217036038903008, -0.15283781883586722, -0.21215769301837042, -0.19371715370634437, -0.13495217648796157, -0.08083695127697037, -0.09828029759451985, -0.06890389356163021, -0.036334985514484226, -0.016465301122958825, -0.004692845011990551, -0.0005447573873296018, 2.3600964196525244e-06, 0.0014910459975236495, 0.004298662956305892, 0.00785314838014055, 0.012519737128536419, 0.031314365898707744, 0.0703312661870921, 0.11485289524316913, 0.03305645742063582, 0.041162556221784954, 0.0043827506591852085, -0.05292650827319245, -0.06854130267689583, -0.18442727390203656, -0.21530564708217026, -0.18682904664304803, -0.14804084986891858, -0.14659964297104836, -0.16329496386475306, -0.14068262254846156, -0.09460830851203265, -0.09273737474717204, -0.07913518596716718, -0.04966371551417276, -0.03499172387409391, -0.015136909634565161, -0.0038304320915518142, -0.0008473981060623082, -0.0005825135857614785, 0.008414003735036944, 0.013376482697007898, 0.03321626017911154, 0.05751133807158692, 0.09588987584974089, 0.10074546596014233, 0.14995349469478464, 0.09768455595189615, 0.02620825667931322, 0.030332391877404778, 0.07419362232052579, 0.034688549604199884, -0.013171297773938174, -0.01322711485939296, -0.02414191221422883, -0.07279052606206723, -0.08858648021615184, -0.1064012856479445, -0.10036325340128908, -0.06807583838187195, -0.06015520530697749, -0.031312656326795744, -0.02221935205006282, -0.042403595275254904, -0.029979222597580835, -0.01138330487364737, -0.0016595446963707289, 0.0005161843190157251, 0.011151365690079676, 0.02368286918341966, 0.060426722729926385, 0.10037982357388368, 0.12472736578370565, 0.08525317915269855, 0.0825186688731455, 0.07321388842068123, 0.0281814527484603, 0.02696654802203536, 0.06648991542785877, 0.1066131626911221, 0.09430832657088847, 0.11185761485569679, 0.04249578922960895, -0.007989732213152105, -0.04230010779664777, -0.06807790843678355, -0.04841665900536031, -0.03607820347101407, -0.00037803522154881606, -0.01137364317769905, -0.05146421291143347, -0.047240089503205136, -0.0394855423189327, -0.0083926527737682, -0.0012359428478716527, 0.0007822985682737765, 0.008480404743023898, 0.040789020213701836, 0.05631732941617584, 0.09461232366159669, 0.1151065455977599, 0.07260436311546015, 0.1041905920107162, 0.05528910687358887, 0.05502583470533927, 0.07770987980046522, 0.08692365619111239, 0.09004667104189937, 0.16106573586890438, 0.12732058197969573, 0.024986080476758064, -0.03102215642050031, -0.04905435945482063, -0.0450311960624844, -0.008919982306974442, 0.01105144314062307, 0.010122007149564126, 0.0075567775238811795, -0.03666323314628912, -0.033971462946937106, -0.03455818351864119, -0.008744903383928406, -0.00104584068701196, 0.00015473422740737636, 0.016737348362600993, 0.0596981041854048, 0.07637432207097324, 0.07244168676013725, 0.06935861246480868, 0.043164550003458306, 0.06843764424061485, -0.028871457599290603, 0.035908984500385065, 0.041909033539484906, 0.02432929573409826, 0.045312003339897614, 0.08517579668634821, 0.05308954301884109, -0.00659446255729171, -0.0767257321288374, -0.061822341546669456, 0.023434334416755003, 0.03266889289135716, 0.02740718078841343, 0.054842940127045145, 0.013878404675611975, -0.003571629319277797, -0.0028835853376461195, -0.018511427944533327, -0.006008778919623456, -2.26895063486631e-05, 2.851136025194666e-05, 0.013438317254937382, 0.04971351584125229, 0.07067239158603258, 0.05740521240443047, 0.06593226870273748, 0.004672552925654111, 0.06853027686911721, 0.023055030065528663, 0.0012316434546001001, -0.021535821534024557, -0.10277407801077168, -0.1967011932129324, -0.22430401843250983, -0.11150880687335127, -0.042003568953156135, -0.022038830952815447, -0.05015260878170336, 0.03418434200726275, -0.025289865616370196, 0.010583995506752672, 0.045392600274546245, 0.06056174197493761, 0.03816233560767925, 0.03130596419935963, 0.008949187078149382, 0.0035339142904578374, 0.0021392483495230124, -1.6053692369671677e-05, 0.008487195474108804, 0.03156261256316852, 0.024238014785919453, 0.03411971547279447, 0.04559335185894305, 0.005169100281531367, -0.008152339093675302, -0.006438405821615999, -0.03020173829526386, -0.05622028703533832, -0.2608998864534425, -0.43935486060578727, -0.39667549953618636, -0.1692912489427258, -0.04821112475714735, -0.06915773651547197, -0.01748810699752403, 0.04760671689061758, -0.023713291895249365, 0.005486724652174492, 0.07432243037668786, 0.09676861594069264, 0.09798231677127191, 0.06328985399390355, 0.027164872752313468, 0.005883516207449854, 0.00017861732818846948, 6.036377696649602e-06, 0.004500003013425433, 0.019830556278516636, -0.006376793781485722, -0.026233006793593795, -0.004507340134070471, -0.05089976032148756, -0.04522160960723762, 0.019590374131416212, -0.028107456900378195, -0.13443677979753382, -0.40635692437610726, -0.49949529361316103, -0.30779901818663746, -0.028863045840404514, 0.061730519729455695, -0.017207010099697388, -0.0006110513699668805, 0.06854388164791672, 0.05210554242346511, 0.05788397415210043, 0.1216709692067382, 0.1221009693723202, 0.11225501713546507, 0.03129850984733463, 0.019187339111545874, 0.00013810708235368125, 3.9249354612495496e-06, -3.0374274923959267e-05, -2.1915864066299765e-05, 0.0013702259694438803, -0.009724667125678769, -0.07037684246882012, -0.07377049418138092, -0.039805883495251354, -0.03779813967493628, -0.06795346432972281, -0.0869312437231056, -0.26944953390171444, -0.4084764254782804, -0.45431114911699383, -0.1737546449503345, 0.13170708035679504, 0.16410298894634606, 0.012339948818929119, 0.01248345033800433, 0.05886701518200217, 0.03256251777160236, 0.09927028742552516, 0.10842200493674292, 0.09746325167053238, 0.06567382239699646, 0.012893994768047447, 0.006848397781513178, -0.0014236993511014368, -2.9272405756952933e-05, 1.414374543086677e-05, -9.38616179199451e-06, -0.0006473313861917044, -0.00561385723497721, -0.07189463465874919, -0.11754066196351276, -0.04200175479694266, -0.04403930342216855, -0.09569760160150002, -0.17841811728598428, -0.33184638516888154, -0.4460132355597414, -0.36019957530270047, -0.006916126826354701, 0.27081674048643906, 0.20918441914801725, 0.03621534247346927, -0.016355582440199717, -0.020593956061448367, 0.0402661954970517, 0.0605635510519011, 0.078305907127195, 0.039902647472971065, 0.019552681790389406, 0.014409597907559172, 0.007899865627995986, 0.001021420227248185, -0.00019699775842641994, 2.097434624645998e-05, 3.689151559727874e-05, -0.0007503139216639444, -0.008447883415621579, -0.0500999318214948, -0.10435575746162137, -0.09856656919722027, -0.10873320327443713, -0.1601860841503605, -0.23108316566972467, -0.37976206596364215, -0.41223052193547166, -0.22398766725072183, 0.10828300820220303, 0.33316006609459475, 0.19937547087419832, 0.02934392997790652, 0.0020152042921216026, 0.058162350852716524, 0.06909781665575344, 0.02999596909316749, -0.007672738045482982, 0.011618487744284148, 0.004767722051306229, 0.0035156190631804927, 0.005510678444593423, -0.00219733781759061, -0.00045417566823054535, 0.0012375197832143608, 0.00014963866319133974, 0.0025294359916199446, -0.012502511241587199, -0.045509462793480795, -0.09374206905200262, -0.1494770607674281, -0.14985655883378027, -0.17837635609354857, -0.2657892266722644, -0.32031282327065874, -0.2562866604518558, -0.023812967429622158, 0.20752852222387946, 0.2623050360255784, 0.18127354430661083, 0.06442655703778115, 0.04973592972110676, 0.06882704400182463, 0.029573561815735838, -0.0019173126686567532, -0.03264724073056319, -0.020094746214396924, -0.03775271641157849, -0.01759823905517018, -0.006719645116494723, -0.0016599750297351759, 0.0003013370116272682, -2.7442459377040695e-05, 0.00023405855498553595, 0.005121489746464288, -0.014766526089417349, -0.047520916633724805, -0.08784037974468009, -0.11860782465475773, -0.15821280384879263, -0.16626666855404224, -0.20439914232679754, -0.20505129363896252, -0.11573137113481187, 0.053051255135845646, 0.22387336849871936, 0.2699866575610374, 0.1962590434636727, 0.11416005079347476, 0.06637095787447551, -0.01645855285655862, -0.014948010456496734, -0.023936453617546653, -0.08012506991073585, -0.06590062603017818, -0.033348386818704806, -0.024452032876151285, -0.004538702906761034, -0.0018752171231640473, 5.188212157786589e-05, -6.335981667383167e-06, 7.943572766500573e-05, -0.00011150522187993822, -0.013755836596605136, -0.04757508764665376, -0.08808736244138435, -0.11952857136912821, -0.1468502322795372, -0.17096014485977545, -0.16955972358662652, -0.07125351794957674, 0.0058400532191853465, 0.17833012458377323, 0.22650487385150164, 0.2988021169273289, 0.1811675366307921, 0.08890082394194063, 0.02039885215133714, -0.031220132919868804, -0.05175083666592579, -0.08517214254013812, -0.10648258677316128, -0.09681929696009059, -0.052502674257415685, -0.016202544399273468, 0.0013220086283947778, -0.0002625701635563351, 5.56711696653605e-06, 3.398903871938754e-05, 4.186892144409325e-05, -0.0008407057021095524, -0.008995860029370348, -0.024570194288168423, -0.045069175738972275, -0.0900687436054368, -0.12576269101277776, -0.11784752938794443, -0.08999051247655633, -0.014372830826182178, -0.026220386595659954, 0.029538317721141388, 0.10055455613650569, 0.16239370509996343, 0.13223724595123965, 0.07373552587589148, 0.02536725799611963, -0.018396349684803307, -0.04809743179914299, -0.07363616377320363, -0.10714112080197719, -0.10504298153146294, -0.045941013176244085, -0.018574761396449403, 0.007592557464095308, 0.0009800510510524969, -2.7857014865245463e-05, 2.606797440774171e-05, 3.1888994401813694e-06, -0.0017320967583905487, -0.004315722760726793, -0.003372065450060076, -0.0007268261782994824, -0.03550348076429118, -0.044995298708312724, -0.04541364575825542, -0.008690519889433009, -0.07881916813155208, -0.17162857938251283, -0.19528378095889132, -0.11963332083175582, -0.001972133824810127, 0.036045598240268914, 0.007549629859852477, 0.04142885698390846, -0.02620938335525228, -0.024740780003841643, -0.06899049528460371, -0.09636404546523938, -0.09591673559352723, -0.04367503599634598, -0.018337857732810388, 0.0008772165373455745, 0.00014080951284802301, 1.8490322696169622e-05, -1.4401124962377004e-05, -2.6920468929754284e-06, -0.003139947473271336, -0.00761030967471799, 0.0026416487740760016, 0.012843529357481693, 0.012660147884449677, 0.012167192468000992, -0.03241924429345306, 0.00507650948391161, -0.061765785199796676, -0.15636515389922803, -0.13904345787404288, -0.12140329249731716, -0.04467646694257613, 0.005870850807255734, 8.628109819369669e-05, 0.01348745061953086, -0.04263296495773414, -0.036998716918325285, -0.08903850162217089, -0.09564640157390013, -0.0820114240523101, -0.05274019215679274, -0.019152979598710835, -0.002389359168219005, 0.000196596871047277, -2.55952432031305e-05, 2.9165199285670353e-05, -2.3706444174368597e-06, -0.0028070932759011167, -0.004825356530921264, -0.0008262624484855571, 0.02079403248496752, 0.00925198782438531, 0.005499855875445351, 0.029727129359242054, 0.021083089871156393, -0.03669864329824944, -0.0714653421588371, -0.084737455310046, -0.05247401358303683, -0.0519263973766585, -0.0018030550636759352, -0.03439285033273035, -0.001286933312121113, -0.056322270333074693, -0.06614966020494738, -0.08632134991638361, -0.07107430383091244, -0.05587191544706788, -0.04210588063081146, -0.009610409074955091, -0.000358452540495496, 4.076379345283198e-05, 2.2141932154745425e-05, 1.7434171658284195e-05, -2.8603489194919454e-05, -0.0007708003654667833, 0.0002329907932102998, -0.005668110737356148, -0.011943648578070494, 0.0020344295936578697, 0.022694779005813903, 0.059933218496146703, 0.057879326848288934, -0.008337224033956385, 0.027214727638910738, 0.03055205041130315, -0.002230069834640239, 0.006496798868280773, 0.022006555458842763, 0.020423737123254983, 0.028102067697226157, -0.02489371399313818, -0.032187868105297064, -0.060826804229572304, -0.04880259935571204, -0.026432369171073496, -0.013074897861569838, -0.0003683352201680347, -0.00019719478790018272, -1.6482534293956262e-05, -2.119590285228948e-05, -1.0702342927179299e-05, -5.628509254626587e-06, -1.7965978597698933e-05, 2.7174665499410555e-05, -0.0035003905072783065, -0.011235417841448849, -0.000319019912835008, 0.020758016942817578, 0.01696210497832178, 0.018543945202532854, 0.028438159683932908, 0.024780946448232644, -0.019748860715682243, 0.026733408313873556, 0.04623741677832765, 0.058772643882034355, 0.021205090446085418, 0.03300069608223768, 0.02548444021359515, 0.029625908658317948, -0.009212044555154047, -0.02621285609122982, -0.0033717369848101767, -0.001417140031456743, -3.6447445481625064e-05, 3.319852754883329e-05, -1.261210538171262e-05, 2.756090190081042e-05, -1.3339256784905824e-05, -9.23895278610329e-06, 5.004647222495591e-06, 7.955009904904383e-06, 9.580770646603679e-06, 0.00011106083993969456, 0.00023462492582974854, -0.0009795584106419234, -0.0004943821292033301, 0.0015294813090342308, 0.007881379877197564, -0.006712919873746937, -0.005358717769608989, 0.012989107152036281, 0.010612436291181224, 0.01126961502632228, 0.016730272389847194, 0.018427526391680743, 0.007155225250403215, 0.011604614163134939, 0.0014907165162714195, -0.0024406398164464175, -0.00029741431303635885, 0.0015181390172545092, -1.2800942494216623e-05, -1.5080216994234712e-05, 1.2588798118673028e-05, -1.5869745504551602e-06, 0.006278202153294288, 1.6881594345011683e-05, -2.9502787487459346e-05, -2.133048261177e-05, -2.3362983436136506e-05, 9.131927055765256e-06, 6.87554615867907e-06, -6.501389707267337e-06, 2.0109469355758798e-05, 3.003122733438915e-05, -2.7288021660869293e-05, 2.9671541139153647e-05, -1.123933332977998e-06, -1.1992257087225983e-06, -1.268032648168384e-06, -2.334695665360016e-05, -2.8090083764393375e-05, -7.127609432213259e-06, -1.9555556091957563e-06, 2.0855141192139837e-05, 3.6619094640530856e-07, -1.8002309513368062e-05, 2.715209254626006e-06, -1.83211254679601e-05, -1.1728199692120466e-06, 1.7309218759649403e-05, -6.3996040720918176e-06, -1.8685164791126602e-06, 2.4820292274471375e-05, 9.821679875919373e-06, -5.216632082535406e-06, 1.0128117426937984e-05, 2.6237084244951445e-05, -2.9850920882036544e-05, -1.5000992457692382e-05, -5.427886895055805e-06, 1.1304651175046626e-05, -0.0009880174781072995, -0.000819245540891274, -0.0005149182455699059, -0.00011413964317066033, 0.0003742362357750748, -0.00035829108392089606, 0.0009843191146766707, 0.001035048383879246, -0.007180769334847145, -0.003309137537020072, 0.0004944789195645508, 0.00028016112378358025, 0.00011174956703909266, 2.4521223425399463e-05, 3.926631185134047e-05, -1.7159110555121552e-05, 1.702024760313605e-05, 7.580361416073993e-06, 2.4007792346552108e-05, -1.752754039417877e-05, 1.164724207315165e-06, -3.833205022727691e-06, -1.634469253817153e-05, 2.3980437573118978e-05, 3.6687969855982385e-06, 2.9015890936294306e-05, -0.0004918204828581417, -0.0010952067354779893, -0.006872312514891288, -0.012332601593672221, -0.005877443004254149, -0.0002713957094885133, 0.0018284242176438616, -0.00416095052966191, -0.013026250334630268, -0.005402841227629357, -0.008975552987252486, -0.011466542540697974, -0.002388469650352686, 0.009975023326088833, 0.0014973870960489277, -0.001263236892969706, -0.0010544403084790067, -0.0006819388341895961, -0.001107786152828078, -0.00045263478130239967, -3.157408065575001e-05, 2.8257784775293318e-05, 1.2097193141492484e-05, 1.4270410005859705e-05, -3.0132292018226646e-05, -4.744860178336897e-05, 0.000987278689095381, -0.0014335442426775642, -0.002032533128695444, -0.0030313419077992146, -0.014673563307417137, -0.03147748647364874, -0.054613174722061675, -0.07541516898031643, -0.08848912786171183, -0.12490586844148782, -0.13315888481240118, -0.11467863500906206, -0.09797152675320954, -0.09395340342417878, -0.08542546790418377, -0.054669996481115785, -0.03560628538911874, -0.005134748072641163, 0.004195061945279539, -0.014314637765066014, -0.007583600491793657, 0.00039934952431352187, -0.0004883378220112795, 2.5125277033164882e-05, 5.297307480763656e-06, 9.567805742709532e-06, -5.164592290932878e-05, -0.00014688632971279918, -0.0004185022516536642, -0.0055551795595939245, -0.008542165266311803, -0.017301214449209644, -0.04141610812582696, -0.08270090224397901, -0.13770962827906447, -0.18445471284594528, -0.2084199050004541, -0.1848606791584998, -0.14336498992670105, -0.14032577030472534, -0.1446705058255769, -0.10198364182523258, -0.08756682620849783, -0.04638240568481462, 0.0004287194469678834, 0.040893332703771476, 0.04830604525832495, 0.054373513016488684, 0.021015214618809588, 0.004911437618414438, -0.004456210630197072, -2.273339779938862e-05, -9.633752790928422e-08, -6.403409718762218e-06, 0.00026552425138556666, 0.0005628356993982322, -0.0028221023946759494, -0.011899721188731702, -0.025601006587432515, -0.05219646692538344, -0.10537040576546926, -0.16616742381235913, -0.2489799225932754, -0.30517028381206873, -0.297307227376942, -0.2475913080004808, -0.10674902536652112, -0.1407045433868338, -0.22327921897658543, -0.22206346222197954, -0.1722835154354489, -0.04387930410378902, 0.06921220716797859, 0.06681798547751985, 0.12259042648099705, 0.10110425829805256, 0.041920438852304114, -0.00822082151438851, -0.0022042637529380666, -2.5509146475232943e-07, 6.51976396652803e-06, 2.8818742962032283e-05, -0.005236630670752617, -0.004290007657724132, -0.008599347681342144, -0.028610901556446734, -0.06428631423767231, -0.11430324459612694, -0.17029704148557093, -0.24042461838979307, -0.3154361117432485, -0.3048420374400045, -0.2641747978590772, -0.2272565594184655, -0.1057278554787781, -0.15677542089214436, -0.2225707855339498, -0.14261375863855755, -0.030065315025664372, 0.003068619868907113, 0.05132114782135374, 0.01240138456418323, 0.047766656803614214, 0.07811737466468796, 0.09204879831277196, 0.020208446165942823, 0.013341627264523408, 2.968954109740201e-06, -2.1710703674949883e-05, -0.000987552979056786, -0.006503088896861371, -0.0067091183981631925, -0.01798190594555698, -0.044066056179696673, -0.10254310369207932, -0.16440632548684578, -0.20725534283546876, -0.2670931153961253, -0.31006518761053464, -0.19664876901072081, -0.05500425520344297, -0.042510318226273824, 0.03465599363423031, -0.04006931869029248, -0.0050019836920129025, 0.03132345763318185, 0.060358851777515474, 0.04936616895621919, 0.02895937804551063, 0.02612222789389817, 0.008829210355982471, 0.07357973761158891, 0.09408939560550718, 0.04348631971969526, 0.01756518081356654, -0.0019409852046629926, -0.000381192436419728, -0.001679813893537479, -0.0040986405894966925, -0.005822144579614329, -0.021266900489220076, -0.04282280118517127, -0.10641541520966767, -0.18867354736958816, -0.2269369627670235, -0.27810414894223423, -0.28768550594104353, -0.14544254149221503, -0.014684072379240742, 0.08909617441779634, 0.08943647873963234, 0.06801309467184262, 0.08647458563874115, 0.1540419915522767, 0.11777826702308923, 0.09293917999469505, 0.058158742455268635, 0.036372579452760914, 0.0251540638370816, 0.10356806187849703, 0.15756530648961825, 0.12024712222045025, 0.04339465667701221, 0.006061850164582292, -0.00040022394587444556, -0.0024621750532453587, -0.006306784766786094, -0.011379536397004087, -0.03058556194221193, -0.0660933966530996, -0.12114991905637419, -0.19742487707846898, -0.2215929920686571, -0.19537195564287343, -0.1505265827108707, 0.04254904437750102, 0.10938760789789549, 0.16020319931833077, 0.15757142764045126, 0.10252628771231294, 0.08128391964587861, 0.06638520736861593, 0.06758143727053399, 0.0565978288462148, 0.03840079271800094, 0.055311909492014935, 0.040573990298921246, 0.0933514792621415, 0.2024899037191538, 0.17936344966491827, 0.03554569052515342, 0.0026073085748341616, -0.00045993145571109203, -0.0009906817991708905, -0.008689122770914406, -0.02511440810311177, -0.04400794835910696, -0.08990358822472559, -0.13656933674652716, -0.1776859784732169, -0.1704889484418749, -0.12053760980345034, -0.048353733759769014, 0.10828308693830133, 0.13166530930217868, 0.14030886034570592, 0.14367584086163798, 0.1255218602568697, 0.04835512551862861, -0.04135967514447857, -0.11611947590403358, -0.10125087738527414, -0.06690760093279326, -0.020957167830385648, 0.020930068263699867, 0.1202173416588884, 0.20354410977539536, 0.1595479227851406, 0.03578711953313918, 0.0030157985734157056, -7.019680325930399e-05, -0.001724099376242967, -0.009073080625000668, -0.023877282953753586, -0.04890685289970957, -0.08484193471644783, -0.11724086985215622, -0.14585562108176003, -0.10159550031842951, -0.0667983286629317, 0.009026868298116778, 0.11876469641370589, 0.11769511265012723, 0.13568866233159424, 0.1261709352464741, 0.17091421592905126, 0.04890236445710721, -0.16969571403089187, -0.2133376485263629, -0.22998768190046373, -0.1673207976846086, -0.07335260866377132, -0.03971689211636212, 0.0451840529483496, 0.0946884036008981, 0.10158329323120494, 0.02848772871232327, 0.0012357916579344465, -1.9090234679406704e-05, -0.0011988207967672784, -0.004687472934401108, -0.01431842599203083, -0.03846054196899316, -0.07925459787850883, -0.07881325263339826, -0.05946011444997894, -0.04061494635303912, 0.03877508882624893, 0.06909170258136588, 0.08669709127340193, 0.0751272693773028, 0.15148976041985804, 0.26412699913730603, 0.24645600169738335, 0.01622725020714071, -0.13307787219259096, -0.2842989096044715, -0.3205071758538167, -0.27230426081122, -0.21818114695364652, -0.1851002895739663, -0.14802024274476538, -0.08587900049017805, -0.01205941695057297, -0.0036306407237852553, -0.001913760113492064, -8.680649809884434e-06, -0.00043962742393552937, -0.003278231472042712, -0.004265900394477335, -0.021057133475018867, -0.06436696005889019, -0.040407064663834154, 0.005722616264580768, 0.0026471344794851766, 0.04243518169542706, 0.041181895122006984, 0.09557686366280899, 0.06588897510489072, 0.2017254178468406, 0.3188600815518028, 0.11412862960179591, -0.05607152294785157, -0.09302128458780595, -0.24543773714625675, -0.2798862592748259, -0.3032109355207246, -0.26765773909402785, -0.22027233351288084, -0.17516507695062275, -0.09567636997834997, -0.033900592270492004, -0.014273417444866208, -0.004221573615360947, -2.20720215708641e-06, -0.00011020417652399764, -0.0009526697733907587, -0.0018646826305735629, -0.019128725535545156, -0.043850396546448574, -0.03264034616894545, -0.028393162427927394, 0.006857517823969902, 0.0663690654542955, 0.08291713016817248, 0.039484886254731906, 0.03993375887596139, 0.143768262591815, 0.13012453519263598, 0.002338636104681694, -0.05589968981949584, -0.10392938813825639, -0.11793685567281843, -0.2087930737229755, -0.28534680417653097, -0.2588482877171482, -0.19227011861939866, -0.1335769343409642, -0.046832290984646564, -0.017655678890909673, -0.005029170592299453, -0.0001535567652112002, 2.7141354113796294e-06, -2.6649022652189452e-05, -0.0008823032696205332, -0.006435739881020969, -0.010837836876130132, -0.011146063418924707, -0.0045345674410470225, -0.04115259298219261, 0.0030093852967659597, 0.02343641255249228, 0.012344500308588139, -0.045973452052420184, 0.038951725531631454, 0.06688612788999498, 0.019153085113603793, -0.031232720014165945, -0.04204645295915327, -0.07183402510991933, -0.1114397404962763, -0.2020659589655397, -0.24577805928149357, -0.21930461687552188, -0.15967295210530588, -0.0840780636728333, -0.05175564984149934, -0.02100581723276699, -0.010106750178123928, -0.0007456844774678966, 8.272206182893021e-06, 2.4159326689692507e-05, -0.006042068847731654, -0.017029145231677204, -0.014314920575611054, 0.041444080729488374, -0.031442170659748685, -0.10808476752272894, -0.13262573818505327, -0.14990973316050016, -0.10394175630852341, -0.09367947708932348, -0.0760630015023048, 0.06488274015689913, 0.054313377410372, -0.04974673810385538, -0.0903153175649186, -0.06238581250267158, -0.1031928274117128, -0.19010508263431755, -0.2352381882770175, -0.19299344671437943, -0.14873500876088286, -0.09923781701844997, -0.0582764536112032, -0.03479349686449063, -0.01158707198468998, -0.0023688839994646105, -2.004317591780542e-05, -4.7999499960068265e-05, -0.008508201666855255, -0.02386008949887754, 0.005243781119601604, 0.06121885511059033, 0.029369372439142737, -0.09142238397839658, -0.20385819755351456, -0.21111006159644977, -0.08666354898579894, -0.07587026000576086, -0.06288246470546009, 0.10558617864437521, 0.07150515939992434, -0.009176944666788624, -0.060832606793752735, -0.023732925183269027, -0.08279729473198454, -0.15745927321329575, -0.20642199884033774, -0.19415773326940272, -0.16591629128766525, -0.10043595255708382, -0.058755427057559574, -0.028727169883558754, -0.009671353491447123, -0.0018620881832383846, -0.0003410903369540004, -4.1044563114000655e-05, -0.004885511090080576, -0.02737608857718962, -0.003662733131276503, 0.05921546781961852, 0.11482045340967086, 0.02313609339628191, -0.11248639258377786, -0.16244381545382988, -0.10058224081537293, -0.026271190563152327, 0.07883207795356059, 0.12566116758123544, 0.11289253475953372, -0.02147794626323749, -0.05710189427840005, 0.0486100880066575, -0.022559331645880473, -0.11235721082309291, -0.1679952675702991, -0.18637770253733982, -0.13748872572717957, -0.08155519882180558, -0.052807839151522304, -0.016928556482041973, -0.005196698373730488, -0.0006429455553799306, -3.155033027554898e-05, -8.650558356313136e-05, -0.007189508991244096, -0.031803882584177455, -0.0610604623867577, -0.06600522649120763, -0.008947427145824496, 0.00939492185187727, -0.05584049950264952, -0.0787752065066175, -0.12136635283604129, -0.03891862081653633, 0.053268563468066826, 0.09373179271189425, 0.04923960955363303, -0.009722794344192133, 0.03026603655661486, 0.024341210204528126, -0.008985095212088541, -0.07542703598877071, -0.13626815328182487, -0.1390210165740711, -0.10918671487276045, -0.06113723221243234, -0.02568351492818967, -0.005166013915044629, -0.0014384436874976798, -9.56885509203655e-06, -3.0231697181934412e-05, -1.04156844670647e-05, -0.008586295825687857, -0.059757199510175676, -0.11426885851148523, -0.13630890091917733, -0.10041892149084397, -0.06801680509347442, -0.015092166135767358, -0.01926015058703396, -0.035443444822043146, 0.0008350749244387668, -0.027449654996434286, 0.008689170082201552, -0.02721799049299518, -0.0440086605634286, 0.08379034025506668, 0.09421944640519243, -0.03924225180911939, -0.09533530532701422, -0.11252807551697719, -0.11396218602332642, -0.1014052718643601, -0.0542080145610488, -0.011734259020261217, -0.0018392931623145163, 0.0013558709101726394, -3.0169227144074324e-05, 5.930506978879955e-05, -2.6285314216089993e-05, -0.006298639540146474, -0.03952121927089247, -0.0772457929782671, -0.12035366236804834, -0.10678495876857005, -0.04163280031488218, 0.003168416824912756, -0.0006954636170716363, -0.015492927199846197, -0.10541252422058103, -0.1243689644970039, -0.029627716661834464, -0.010684887976880485, -0.042283324825683886, 0.012988224309337685, 0.05545778068508704, -0.0721335583967454, -0.1146884389255097, -0.06935149617944847, -0.07026971591591669, -0.06673372651946616, -0.03949005132866825, -0.008303680793097373, -0.002806515730858165, 0.00022736205939554748, -1.873992722941697e-05, 1.6100062265282548e-05, 2.9519876828131427e-05, -0.0034503123202635866, -0.01790320422161309, -0.029749341020438455, -0.06836777119943412, -0.08752505735989335, -0.055144260761385164, -0.016943431947506943, 0.0105251916700703, -0.0448572924105535, -0.10434277627490965, -0.1048168314311251, -0.08923613599494275, -0.028319488344358646, -0.059785584466846085, 0.020507112132196973, 0.0371144758062283, -0.045066455336933084, -0.051110288364049655, -0.02486691835157963, -0.027798532468707185, -0.025890015183140498, -0.01398178842299922, -0.0022766103648246337, -0.0020619823485239423, 0.0007911025537890233, 2.3523595817493143e-05, -2.0458372141362732e-05, -1.3365740000521883e-05, -0.002065651549368221, -0.022856258877529786, -0.031540449170274695, -0.00651179971491254, -0.01761058467806939, 0.0069205738784010404, 0.035561035676336776, 0.050115464150937275, 0.03875018497868728, -0.0024549864650635013, -0.02730804279872338, -0.09272815417810758, -0.032249844514993686, -0.013451178262923903, 0.03282859083308772, 0.004170427359791229, -0.018207395184899312, -0.01101854473080878, -0.021238249037146516, -0.03213647684018589, -0.022697297577356477, -0.009724435856191543, -0.003270735146145209, -0.0029719111533335852, 0.001616097718317391, 2.7439332266931274e-05, -1.2491217670793882e-05, -1.3653701841464907e-05, -0.00015427678292575888, -0.01075814231153772, -0.038883970129741194, -0.032745591908928715, -0.04192062413468602, -0.02860707547606053, -0.05936738117853936, -0.010069026321691946, -0.024796352296861876, -0.07371508921646484, -0.06161171445963601, -0.11038854069273726, -0.085421426170791, -0.05794254150517067, -0.04484348560993076, -0.015839866330389255, 0.021182722876947203, -0.008245016729008077, -0.018760527545165658, -0.011765315184987937, -0.0031723422686507434, 0.004218212141124585, 0.0004804371143945992, -0.0017808550821697888, -0.0008085077779795849, -2.309339940524524e-05, -1.605646523990876e-05, -2.7508991704822437e-05, 2.3618359407660903e-05, -0.0016231645756574968, -0.017667841613783448, -0.027350351406251434, -0.044543939845325, -0.054077686117153544, -0.07372755757268064, -0.06863844752172085, -0.03987960975519576, -0.01859408146670579, 0.009340129586756916, 0.01609169195983884, -0.0032324130169736516, -0.0052846728980634715, 0.033299482007188165, 0.01629918836353563, 0.016690515786546165, 0.0005101762282697866, 0.0053917654145394876, 0.009110887474705166, 0.005990541904014741, 0.003818870566509664, 0.0009602186657758661, -0.0006979678844610732, -0.000836486032742217, 1.3368454283105656e-06, -6.145314029485272e-06, 2.1746602871173906e-05, 2.902972296463246e-05, 2.4200308288968917e-05, 0.0023752547319321224, 0.003602788499118085, -0.0062342108743865315, -0.015744264764686062, -0.018015300410772102, -0.02490566420890599, -0.01968003653280145, 0.0023511861409761265, 0.025401612074427364, 0.020000023822534543, 0.012192814598323075, 0.021137188082186256, 0.026224068501940284, 0.003013492074823865, -0.0063977410783061205, -0.0048735254160605975, 0.0035781051538112466, 0.004779473044724815, 0.0010739725977756236, -0.0003993825208891684, 2.4351472283538644e-05, 2.565187145417133e-05, -9.796584262475734e-06, 3.09582163481063e-05, -8.85087285689751e-06, 1.9345984669244452e-05, 1.6360137345097893e-05, -2.4364590459458504e-05, 2.677191855477251e-05, -8.329045724558933e-05, -0.00012488098412624977, 0.001002108605685582, 0.00016097230464923873, -0.0013815934282741943, -0.0002263048462119799, 0.004933850275977724, 0.000623158736072562, -0.002875407242454328, 0.0004420205011496152, 0.0021955454032730718, -0.0014684535178949827, -0.0044318676821442655, 0.0010840772979466764, -0.0014693985296549213, -0.0007769899466899449, 5.80441314434304e-05, -0.0001331105119709939, -3.8485770708145905e-05, 2.5030597844514656e-05, 1.2769355878056607e-05, -5.292301021195743e-06, 3.069598160507741e-05, 0.0011401913159984596, 1.5826653011032215e-06, 3.4606810062512754e-06, 2.5634991861349356e-05, 6.796540199053398e-06, 1.7501448420693858e-05, 1.8882337039997595e-05, 3.136021795509157e-05, -2.9353010386065155e-05, 1.1110820854686757e-05, -6.391562926476704e-06, 1.984275098470105e-05, -2.3488608541371848e-06, 0.0001362232152052152, 0.00036863754320036175, 5.185015733699915e-05, -1.768219022010978e-05, 1.2392270162174967e-05, -3.3895522192276783e-06, 1.4197598625193926e-06, 7.210976446002785e-06, 1.948761794647724e-05, 1.1513714833118869e-05, -2.3405103430210372e-07, 9.25209956807819e-06, -1.1929532286141205e-05, -3.0113788096733263e-05, -2.2181900515874654e-05, -2.479898713348271e-05, -1.1822866919326825e-05, -1.888075844125929e-05, 1.263752489325959e-05, -4.441854575991147e-06, 1.159048855103867e-05, 3.320911990934977e-05, 0.000533284331202065, 0.0013319162850411923, 0.002536883630090108, 0.0017562186166651347, 0.0034807820914478306, 0.005033900243989956, 0.006339715730836476, 0.003349373805342356, 0.0036091447052505033, 0.003953240734078844, -0.0004550876231015183, -0.0010444095141763125, 0.0006036584896939193, 0.0008063027584929169, 0.0012586383031418088, 0.0011912949743881698, 0.0025420021258053473, 0.0019487079962377974, 2.9355367118310072e-05, 2.464037022568486e-05, 1.7992071406289224e-05, -7.183178784327716e-06, 1.008382402788755e-05, -1.6509608160458178e-05, 1.0478749838735064e-05, -0.00013600553647011383, 0.0003409008282279447, 8.236203253294511e-05, 0.0033562875662777945, 0.005097094951936948, 0.01288918732087808, 0.020517791850372193, 0.025922756495664123, 0.03601572653443572, 0.04336889137162859, 0.04165701262467317, 0.042649186028365094, 0.049200517105396156, 0.049564945569310834, 0.03341152092645076, 0.021208162332056354, 0.021760538759613833, 0.02270709094298306, 0.019469451539479325, 0.013749683390708582, 0.006842418862840834, 0.0018988052374973952, 0.00046373022468831107, 2.7038284413845053e-05, -2.375719978939638e-05, -9.355141889922454e-06, 1.0584905031369699e-05, 3.275670934791414e-05, -0.00015303383464266768, -6.9403881968017044e-06, 0.005188738854140371, 0.009307989147812433, 0.01795304067467007, 0.04241580275449133, 0.06384100623621142, 0.08097569115175232, 0.10512885397505267, 0.130418599164364, 0.1369958592987552, 0.14843499223475332, 0.14817087067136225, 0.1313694559038078, 0.14200424829630043, 0.13540999114051616, 0.11049959995351409, 0.06702106448318972, 0.02350767073727613, 0.004019767670716314, -0.0005708244142563354, -0.0030876896717300217, -0.0005098826640427867, 0.0001678078425806928, 2.7530941695215857e-05, -2.418804090365173e-05, 2.461491919831678e-05, 8.082194243018289e-05, 0.00013980502022730776, 0.0009110324460614871, 0.011290907587137435, 0.03570184111940093, 0.06589181054881746, 0.1117553011423334, 0.1335680673334559, 0.16605423611518202, 0.15250976409432088, 0.13542421793144074, 0.10981583013843375, 0.11398068007341879, 0.07409573567362357, 0.05859157522875058, 0.04535136644166053, 0.0628863144437933, 0.03484916248634959, -0.0251099853146411, -0.06731040430811085, -0.05416891098868047, -0.04901071402820473, -0.03914123667804873, -0.007147709825035015, -0.0024264984695626366, 1.984816624167178e-06, 9.358066527849995e-06, 2.560003872556712e-05, 0.00019557394896515767, 0.0005370474990948705, 0.006232971519540744, 0.021554845886114886, 0.04286321329301971, 0.061840260905296186, 0.07093424325694853, 0.05494801673940584, 0.05483202333254653, 0.0007239458329859084, -0.040271287233581775, -0.05138956265731886, -0.10528499997480478, -0.1427982200292798, -0.13581417580964003, -0.14042772318244062, -0.15862017231557074, -0.11916524349619857, -0.13515883706438958, -0.13080699480040253, -0.14006341969052208, -0.10830773519703646, -0.058745655421987335, -0.016447914664598454, -0.002648869901035793, 1.9083477743386206e-05, 3.0174566878496197e-05, -1.3449217380785987e-05, 0.0006925407927868811, 0.0036148814514212584, 0.008875550957136324, 0.004284523558073795, 0.012510637520824599, 0.0004378227265138134, -0.049953910581046035, -0.0824321209573902, -0.1044963964594583, -0.10659532066986702, -0.07087455336051453, -0.01274369315549738, 0.06797274738335232, 0.08920381056494843, -0.0015785663088263143, -0.07447946988412983, -0.09149759600180565, -0.15171908605402312, -0.15478848248020363, -0.1305105254842957, -0.1968953051804604, -0.19928530095256183, -0.09942038137418367, -0.034717992921915346, -0.007907234875694925, -0.0020012928648292373, -2.3434092839658405e-05, -0.0001875317188102067, 0.0020176305235112403, 0.0029993391171104448, 0.025514223406964246, -0.0020537173513466077, -0.046439535664262545, -0.15521198362836555, -0.19696329915940308, -0.18571122272452947, -0.1685395618243691, -0.0694383686970838, 0.03735948833016991, 0.11927936716187297, 0.296751681510914, 0.28120594311388175, 0.14028012553573327, -0.028945497013183358, -0.12676317798658288, -0.15882405615035455, -0.14873856731031923, -0.12220246194968022, -0.19014467277284608, -0.23406447920810816, -0.14432300468021056, -0.05290326558826374, -0.01633500918641354, -0.004211502100765427, -0.0016549574585555105, -0.0017444795735872148, -0.0029804272333011288, 0.0023446532993060343, 0.02874862153648415, -0.025972317918032846, -0.08911827720253646, -0.19038995180889678, -0.19025181858057053, -0.14240206099572106, -0.07299645646982486, 0.026229158228413808, 0.07180170857652088, 0.12798939245367827, 0.2512608321106309, 0.15481949568011338, -0.09744048611648098, -0.16979450559211942, -0.20336762410948217, -0.19789577364020786, -0.1473410290988159, -0.08537498208880685, -0.16588414861738637, -0.21072339155573938, -0.1725662350187299, -0.08146374433731038, -0.024036252363175498, -0.002969573095208826, -0.0001162594532484745, -0.003518126176133178, -0.00810380746882097, -0.0010855048924819537, 0.012227267189184566, -0.05177562635555853, -0.08623812277665371, -0.11614820022394474, -0.0524673678876126, -0.03196291933485882, 0.03547679523572818, 0.0904422272119623, 0.07841920439797685, 0.12155214756974085, 0.1833368834442819, 0.005937824568823898, -0.23555553272393057, -0.252168043647381, -0.2009713290040769, -0.1679115002456175, -0.08540298605218763, -0.08153681863206569, -0.16761362860227255, -0.2145598691754762, -0.16037420167078648, -0.0846314669843347, -0.02037173205784926, -0.0020408399718128806, -0.00025286482962393064, -0.002539839875367206, -0.008634760338603473, 0.0033185839163740833, -0.007161499521853286, -0.036417351605630734, -0.03929146149055327, -0.04584920502156877, -0.007495697832549829, -0.02197079020566812, 0.06040699911251826, 0.11171442692624184, 0.029607242291982357, 0.03114109346564815, 0.06558412751378703, -0.0761445427339809, -0.19017677033941513, -0.15629955643430704, -0.09723130560639086, -0.02417700107698619, -0.016178232109292336, -0.06847330891017302, -0.14638933193061351, -0.15952246356802052, -0.14624601119602498, -0.09071028677677588, -0.01874201309847253, -0.003199057012728419, -9.877296432433732e-05, -0.0034275051530453615, -0.004514648726290094, -0.004169952697218466, 0.007897567795625726, -0.034723116891049635, -0.05194659237055904, -0.004130413909007806, 0.04491429352405171, 0.006008593392227443, -0.025592785049842595, -0.0464369640372191, -0.058373959121297496, -0.01908587682288541, 0.042363536090329494, 0.022328765816483187, -0.0511480836374669, -0.05520228775090752, 0.039870678083459336, 0.09086521306709662, 0.10869435122361527, 0.022046282493883743, -0.02182461528771204, -0.08137185181269241, -0.09102406914380316, -0.05877566140544792, -0.017487949002720247, -0.0010075981535391603, -7.600032148993227e-05, -0.0010353586303827119, -0.0004844203756273077, -0.011519642733051751, 0.00232210803904361, -0.04062848244371037, -0.036185344013630674, 0.020191857727881398, 0.021266491847657675, 0.00888791110033036, -0.08335841919712389, -0.16178863093721732, -0.1513809493437103, -0.0009617161905949422, 0.12494777130571484, 0.09811087157490016, 0.01416254791477578, 0.026106874976723756, 0.09733150167368093, 0.12673731591846898, 0.09908884092699381, 0.03286445711660141, -0.012074026751691523, -0.02313577029959606, -0.020183916330737836, 0.004178721913319416, -0.003950425821156383, 0.0014365469057818422, 1.285817074740822e-06, -0.0006355552723252729, 0.001593013919968872, 0.0010116023143972863, 0.007194649907575577, -0.024171864988776243, -0.02581602016363808, 0.023960187898555297, 0.009473507760959277, -0.04287820373088707, -0.11313896109282877, -0.17487146828491018, -0.09244553316876226, 0.1408645863640014, 0.22194433018868498, 0.13682241349693278, 0.0932118320520993, 0.08043124208327299, 0.1054741163485377, 0.14061389899122168, 0.07686551522022562, 0.027470802606456946, -0.011349487198708314, 0.0050616266512403365, 0.019440733012008365, 0.028729598621809942, 0.014087336915449306, 0.008987440670135313, -9.189812632582497e-06, 3.328694317309264e-05, 0.0008058147003331992, 0.01621277761383151, 0.020555794885930467, -0.03806021203920961, -0.011931235013518313, 0.0045908368286782745, 0.02342904053617405, -0.013219063059624546, -0.07745996185881558, -0.1563659084432165, -0.03234593622885416, 0.10698771992489806, 0.11643274546231647, 0.07591178255560875, 0.08376331009614865, 0.0935008546030433, 0.06586171345796742, 0.011768493217807052, 0.053478456206184716, 0.040928999207877605, 0.011814374922029325, -0.007843137343191805, 0.005572335923958519, 0.03920365618844955, 0.00966908833053237, 0.0007409441566144589, 2.3895931778482507e-05, -2.7844304872686625e-05, -0.0033512844590484685, 0.02012839321655611, 0.042902675069884134, 0.017210656072790695, 0.0454715791933557, -0.0035282532472841574, -0.0027313913203904417, -0.03287150898739444, -0.050043764335777736, -0.050372395498397185, 0.03161692312478728, 0.10905484425679088, 0.08104310808825248, 0.018138335596369636, 0.06575312890513266, 0.057872510297751055, 0.038479909511960377, 0.05610664489939577, 0.08552844237120968, 0.058924644573727314, 0.00297941793650781, -0.03680130880046754, 0.01268656699255246, 0.04465380662872978, 0.010828312646419383, 0.0016375938345243118, 2.1058716911200873e-05, -0.00016038675548726478, 0.0034055472316664444, 0.030812624425563, 0.0716418273631883, 0.04372486268816021, 0.0677834866471127, 0.0422529322474946, -0.017439820120991666, -0.016526506273348653, 0.001473366097154003, 0.05829618736187151, 0.042107748710131614, 0.03342264700725565, 0.042608634001631666, -0.005963144309307118, 0.07340301472539873, 0.014294539639903917, -0.015226870212693153, 0.030999749062197948, 0.04428217678247501, 0.058547157215098504, 0.06798643541447315, 0.038333978032726514, 0.054010055361827, 0.07771952172889961, 0.030699490959505214, 0.0062561063092441, -2.190782108020684e-05, 4.363201725389727e-05, 0.0039949181895626885, 0.0491255227196567, 0.05692264453960698, 0.004877798159761418, 0.03370519922992313, 0.0460872541813631, 0.052201688113239615, 0.018397872809038415, 0.03363081988185305, 0.023410544349935457, -0.01542211312863634, 0.012393632365408578, 0.03206963783557217, 0.1274764244971709, 0.041253913552417504, -0.001050738932993694, -0.0036264103951265925, 0.018916547156915896, 0.026140148108639516, 0.04727057487437993, 0.06288780627622298, 0.05775069998159865, 0.047582723581150746, 0.05921028316544023, 0.020123380100097343, 0.0028223121912878835, 0.00028056606583042076, 0.0007589058973778806, 0.0012314842044230257, 0.05845307107350502, 0.0698453017952332, 0.03624403795838102, 0.022496519801048293, 0.007796510698549283, -0.007667180163237457, -0.03300761842054521, -0.0430673837996587, -0.07803208393937593, -0.14308039493644925, -0.0484532658336344, 0.09483329449267389, 0.07971854500921241, 0.04115577568011443, 0.06858208286798528, 0.04954011266175396, 0.04086664226873296, 0.015726065571137864, 0.07687189026045449, 0.07346223784779868, 0.07329718863054141, 0.06821061901201532, 0.051694122217543846, 0.011136626466943562, 0.0034445343706863223, 5.350205422298325e-06, 0.0015526167965078206, 9.37086006648582e-05, 0.05014982590817901, 0.08336274177915592, 0.04835479101916011, 0.04457612543245643, 0.007942740978757624, 0.023364971722449113, -0.016446448772131143, -0.0551909633310285, -0.057946202524783184, -0.08556767218529794, -0.006036313108109885, 0.06452333326836375, 0.06422881974147872, 0.08480349363010502, 0.09120293143159415, 0.06511102391241338, 0.05365805163044096, 0.05610323464383962, 0.08541538239079494, 0.1101003539854573, 0.09912009457298371, 0.05907628109898833, 0.038688600951612695, 0.010426689001892754, 0.0010198553124566012, -1.2352918127475532e-07, 0.00021641311467508807, 0.00272895641661626, 0.06339315046657078, 0.09168329886569233, 0.06656852535027148, 0.03540965041646785, 0.028901875423845362, 0.006263412969881096, -0.011812268006406263, -0.029518775966823594, 0.0023769649237221214, 0.0032178842998514287, 0.09183968547333075, 0.11810075696245766, 0.08489058318425771, 0.0483021353708238, 0.04992039972143702, 0.07275836795804251, 0.0731975535896707, 0.07320877584414298, 0.08463268681817186, 0.08595642366738179, 0.07439462188336768, 0.061833174406047686, 0.02613448928151897, 0.0038427784578467686, 6.395142359397946e-06, 6.880710413314642e-06, 5.521935735914327e-05, 0.009494052661579057, 0.05606386018331882, 0.08351023718033636, 0.04266812605540218, -0.03750007362504789, -0.05182497087294992, -0.09624785273934937, -0.11484059835390671, -0.08515863260969116, -0.07508776257999465, 0.00046780864085201897, 0.09048732806192822, 0.021030871382529424, -0.04786100968135124, -0.055644331289925235, -0.04928038705054542, 8.69114469171737e-05, 0.051510037322086144, 0.02860496941885016, 0.040294526672532, 0.03615403788112526, 0.045975085007631866, 0.042086376379100454, 0.015843015377561796, -0.0006451926613889581, -1.81496031262561e-05, 1.4051476566850778e-05, 2.6666403245372296e-05, 0.005211282419051845, 0.034530326951642445, 0.06227591264315584, 0.032430151851134605, -0.05306858839047162, -0.1341808816303263, -0.1985688515491642, -0.23685488788153844, -0.23331409609841705, -0.2595953072724687, -0.20878842776382966, -0.20692861547148844, -0.25510714108360033, -0.2599164753737091, -0.17917293462161174, -0.14354068517472066, -0.06361039785552851, -0.05467330128395977, -0.019807002662093388, -0.014132081626019137, 0.024528587230069374, 0.023903656914191274, 0.025661644146021137, 0.010084922723381028, -0.0003922558876770115, 1.8053627776258911e-06, 1.5787730926760147e-05, 8.359354093547961e-06, 0.0022896227229951506, 0.011445001493944174, 0.020163557311402274, 0.022679191944016058, -0.02746470967341241, -0.09598809464933047, -0.1611640841800378, -0.24077807201848414, -0.2545727054424012, -0.28734915367073227, -0.27050621581268397, -0.22434957857626545, -0.22638361620156244, -0.2352149754077433, -0.20713814831644536, -0.16423409094200714, -0.08410700706624999, -0.05120840849650656, -0.023282290338231152, 0.005837857741369375, 0.029235194763042725, 0.02898392182383871, 0.023710589030093276, 0.005860788260267818, 0.0002693170988745945, -2.0729051542686647e-05, 1.8985799234368884e-05, -3.883174238603137e-06, 0.001720539526256008, -0.0011461184097871636, -0.0013201904510620533, -0.002031069114874915, 0.008800295098857205, -0.004968037962470904, -0.011460196343641755, -0.04313287785036573, -0.017467350555640155, -0.061121633117796975, -0.10377117463525928, -0.12883354429948285, -0.09690351163508511, -0.09985986053919181, -0.01507877627981754, 0.034304476558570024, 0.04341563497105016, 0.02825204304347234, 0.0581555056965703, 0.061401221916281064, 0.041035883123098894, 0.029067240307825756, 0.011236293823712669, 0.0022241309671081648, 0.0002726456216532165, 3.425255761748545e-06, 1.0239889534670937e-05, -1.8028921854712108e-05, 0.0003877267929600286, -0.004117379154545729, -0.007778067926540912, 0.007123641745078979, 0.023500772509571242, 0.03965866680707173, 0.06259774863979309, 0.0794335253326926, 0.1304187857655978, 0.10797405260578914, 0.11263024861521101, 0.0908791923613028, 0.09760114114505815, 0.10155067620290115, 0.11939489490052042, 0.11530007358822028, 0.12237052577875461, 0.11382589790219558, 0.09422160615841295, 0.06275181708875543, 0.021624458536999017, 0.0066215861117298325, 0.0017870597207276702, 0.0004203059318831909, 0.00018886625907043835, -2.2845938946608045e-05, -1.1619162100147431e-05, 3.135141175998735e-05, 5.388840118736113e-06, 6.743173684312351e-06, 0.001725769057976359, 0.007943326962997694, 0.011927053133457245, 0.014178724219043556, 0.03212228374497026, 0.05153472166967165, 0.06553365399574286, 0.07095629320897724, 0.08202404593792428, 0.08247078223976421, 0.09724070146517, 0.0909585995154246, 0.09147732512642091, 0.07216191216251708, 0.06750318744734587, 0.038927656925910215, 0.02702111305649644, 0.01868979345820786, 0.004078537384690079, 0.0016587385366448161, 0.0004930774024956447, -2.6158266258542455e-05, 4.294113389929847e-07, 2.477159153415527e-06, -2.5682918480155915e-06, 1.477776237964963e-05, -2.287625968343784e-05, -2.928350859075548e-05, -6.344034949344153e-06, -2.7864404877632217e-05, 0.0013243871897434553, 0.007063870153310945, 0.007806023455328866, 0.004428754145986083, 0.0044579762796021225, 0.006298098773552789, 0.006259740200445581, 0.008461119012479366, 0.01393602084025963, 0.008749204702453063, 0.005964940250128253, 0.00013110533969012264, 0.005938980392695451, 0.003806920920992654, 0.002590581024475496, 0.0022286159459674196, 0.001182423052520308, -5.315419063398956e-05, 1.6006784492067155e-05, -2.9712871205213585e-05, -2.4821710863423418e-05, -2.18471782854018e-05, 0.00452266871367148, 3.055888146123252e-05, -7.810504452252976e-06, -1.6265274344018102e-05, 3.0867846218118975e-05, -7.371093402711419e-06, 1.912409753667398e-05, -2.7424018319581194e-05, -1.472225169956659e-05, 2.2773775675747646e-05, 1.2869334482761014e-05, -5.592134917838997e-06, 1.7556993051416745e-05, -0.0001100622038726679, -5.629356256692063e-05, 0.0001641675975114958, -8.509280025758196e-06, -4.857624693511601e-06, -8.836098418621746e-06, -2.4036521048087494e-05, -6.531271706314729e-06, -1.6248180627755653e-05, -2.189318994705337e-05, -7.078660418953645e-07, -4.95324172363746e-07, -2.5473192104930736e-05, -1.703759230633532e-05, 1.8759743581216204e-05, 6.707850085909793e-06, -3.017309277101825e-05, -2.7712594897004123e-05, 2.7997123327336438e-05, 1.3775895841900023e-05, -1.3452145359449313e-05, 1.1322929094239526e-05, 0.0006069860672561336, 0.0015181117422602237, 0.0011257610566433398, 0.000829802572940538, 0.0009948398263796665, -7.859130635368357e-05, 0.0004117208802851226, 0.0004897342880910665, 0.0027624528266314034, 0.003765040769184338, 0.007904617723941009, 0.0031078902444837903, 0.00013181670539719675, -2.870375897366466e-05, -0.00019915811019673464, 0.0006668355995017183, 0.0014500644070731515, 0.0007863470544036691, 2.4015976104177913e-05, -6.532495446886617e-06, -2.6973728128866656e-05, -1.647212599917126e-05, -1.7280286543436247e-05, 2.3601959800830017e-05, 4.5123515466005374e-06, 5.966972147006963e-06, 2.0745610910839086e-05, 0.00011313986063113177, 0.0015380485048316977, 0.0028682252723683057, 0.002986159477162419, 0.0027066917917060902, 0.004605265479194266, 0.007210030525884012, 0.011922771718312328, 0.023266702271398203, 0.03609832359155218, 0.02987459183955238, 0.02390794515232317, 0.014365137945814732, 0.004539830155348363, 0.001115309799813168, 0.001681782002669611, -0.0026060950014615346, -0.0017942228393833658, 0.0003451842351249071, -0.00010151852882172495, -2.8553638382550206e-06, -1.5342110359027777e-05, -2.7586430837821474e-05, 9.849642167434623e-06, 6.293882757583244e-07, -2.826815532087542e-05, 2.744399786817892e-05, -0.0002145206298298884, 0.0008393912623050463, 0.003599418729476938, 0.004362761504263114, 0.003414101218739862, 0.006026517751596311, 0.014314480603791493, 0.041278586946384345, 0.06450953325345558, 0.10057171378771307, 0.11778023041116646, 0.10272605683028464, 0.08097775946584684, 0.05170530024819325, 0.02873941116627627, 0.002657555217615706, -0.0032406148722049083, -0.013470277216620072, -0.017419597824070206, -0.008998381453394955, -0.005419783737111375, 0.00034718789568405155, 0.0014414867035739526, -2.6134988823664125e-05, 2.7255352250810435e-05, -1.278082374388319e-05, -2.4756956860640576e-05, -1.957777452570417e-05, -0.0014031603274187155, -0.0004174853810928246, 0.004468475960243864, 0.0068663138999810434, 0.006090580917269464, 0.024244251834728905, 0.06515219793536098, 0.10985967579504627, 0.14832124923106896, 0.1944149603463845, 0.20564678777845685, 0.17226651169181606, 0.09107819778015099, 0.03319383501528658, 0.0026282298898769882, -0.040594915954205404, -0.04269815992757986, -0.0526748005959663, -0.039695716289359376, -0.027061794852342367, -0.004480488562367962, 0.005987957888826551, 0.0008333207775664994, -2.4245516242096647e-05, -2.7534726890464115e-05, 4.3073522976931335e-06, -3.207816845012823e-05, -0.000895687957391371, -0.006541185299953688, -0.00728934150521776, -0.007950187342625885, -0.0029027313149357116, -0.0007922809442572241, 0.008573475938269617, 0.06486155942455304, 0.12069443154807258, 0.17404445588154693, 0.2343189538781559, 0.20950605956016588, 0.12216021642742332, 0.059537367373368635, 0.016539508395501116, -0.003512896673161768, -0.004828705428211108, -0.00826752605866843, -0.04711570060053472, -0.04944734948081726, -0.04059398743484036, -0.008824327160754729, 0.012930000757609313, 0.0011459998258276645, -7.624746786468142e-06, -1.9129624371758667e-05, 1.6180658808991387e-05, 0.00044969704518198976, -0.0013336728728551724, -0.00784050105229729, 0.0022949719453141553, 0.00022442570562931127, -0.0021984084249915808, -0.017661980095896705, -0.015720266967025172, -0.007713790225392546, 0.020260372020449835, 0.09466521204809995, 0.17380352504756344, 0.16992491142865235, 0.0985926790323794, -0.01098511942890166, -0.09961477633838214, -0.08909098610627264, -0.05714257539325465, -0.08740231367006854, -0.05483578322609355, -0.06719606517034765, -0.027725275775464207, 0.02430738487554735, 0.024348626618324466, 0.003486367489804509, 0.0004085687563976957, -1.3912470878719891e-05, -0.0010339682887821938, 0.00016218098369244127, -0.0006280202665698387, -0.00257212865621857, 0.013178713407611273, 0.018663150932278782, -0.0023770988507398902, -0.007782510193396315, -0.036003656007046594, -0.06863715816382251, -0.0061191747511300755, 0.07410026525788707, 0.16612872037471024, 0.21247857478298554, 0.11843972245123496, -0.056215599543982066, -0.15972449513573206, -0.1510726433596569, -0.11377747647334223, -0.08778881792038097, -0.04626454866064445, -0.04226823660405499, -0.020006825084694996, 0.046244598832314646, 0.028459007287660654, 0.0057997670051235465, 0.0005406186539076407, 4.45774170702171e-05, -0.0012376038316109293, -0.0009181615377376847, -0.0014434123415706403, 0.008412668034957499, 0.00968359908508028, 0.028288925784404752, -0.006372151977417745, -0.01898312306397019, -0.04819985772833673, -0.03954254488676645, 0.021547077553070934, 0.12191108733975954, 0.23939080084516604, 0.22421598796959089, 0.03129231030813443, -0.1523841231083408, -0.1972707689525619, -0.13824983869543683, -0.06761771189129863, -0.05019364698513267, 0.010267397177093632, 0.007128114119111612, 0.05641898135308939, 0.08692318025727055, 0.04064127267920069, 0.007686469814057448, 0.0004741627575858143, -5.704215597990848e-05, -0.0019331133555973215, -0.0029455605167892627, -0.0010505638497142185, 0.007017829609986185, 0.010718306325682296, 0.030275398536152066, -0.002134505896207393, -0.019824035159634296, -0.031123603140861173, 0.015914212015192823, 0.13151765058052947, 0.23215563720264148, 0.33203028654025785, 0.2125138227163112, -0.037431712106767163, -0.19209796398906434, -0.1450854227341814, -0.035166218346695186, -0.01068512195501347, 0.010537951475930288, 0.04541189730729025, 0.05364660868834549, 0.08077891579763663, 0.0726040101951306, 0.03736315274632782, 0.006838203538477639, 0.0004013371583180535, -0.00010990831375036326, -0.0007536037633437539, -0.0039060839832214178, 0.004006552236720107, -0.004054119320817855, 0.012082883765369356, 0.049439737993139644, 0.017626063861217293, -0.017476638314174796, -0.005559569330320868, 0.058542572943749226, 0.19426978957973895, 0.30808908092027953, 0.3169116598509375, 0.14429507623396892, -0.09154145272057256, -0.14037503632593967, -0.08002089831305045, 0.014701287416716849, 0.017692625669263277, 0.017841328326846873, 0.03338460290216402, 0.031579532819673746, 0.05809323288732453, 0.04445249698852074, 0.02186289974291241, 0.008470494163984406, 0.0005759112255864404, -2.9339441121049015e-05, -0.0030711155791286666, -0.008297914035080593, -0.006576678277028912, -0.008605436505796439, 0.011795320888250613, 0.03747018744425057, 0.01504804089512166, 0.012273773254676613, -0.0014084710018724697, 0.07629447631612614, 0.18630171250427507, 0.24158057103533623, 0.1795603525789746, 0.03990313155300844, -0.11421206258315804, -0.10325546488349162, -0.059092266667853034, 0.017585002286957054, 0.03282127828332202, 0.0301308588447356, 0.01349389705280584, 0.03466228470532609, 0.033334261091210494, 0.03406394156228213, 0.019925049247620376, 0.007579642398254271, -1.679944544438007e-05, 2.1301056259066726e-05, -0.001702998158301814, -0.006383128532972437, -0.006616018073146622, -0.0054788044227201725, 0.012024938206637413, 0.03292689358997084, 0.013125742803753098, -0.00817543957808543, 0.026260397587472794, 0.075767161361382, 0.1345092214841831, 0.15799246964025576, 0.16032107350596486, 0.021763562232272955, -0.09090602342786185, -0.07837340689878755, -0.043815409358978964, 0.02778345356815633, 0.046085389578875716, 0.04073687965226961, -0.002345579944357026, 0.014060995427111068, 0.005283148962741786, 0.012405070857234766, 0.012877930654851334, 0.004708544108659172, -0.0002728544002360905, -2.3436644169811636e-05, -0.000701507690867529, -0.0018422509834189148, 0.0031046418567681907, -0.001998706657540441, 0.014380892242835536, 0.026117723433213752, 0.04522888907052577, 0.04251415865580809, 0.06157704309641063, 0.07164983493141658, 0.09945989866901041, 0.13652547291151895, 0.13967154137536858, 0.034415027390782164, -0.023602687772233198, -0.047191866213016305, -0.026030580736537957, 0.010094141502222511, -0.0058538531840178435, -0.0067837647378495335, -0.00827538854881256, 0.005459818688919318, 0.020098087149970245, 0.01912133402103517, 0.019516345022083124, 0.0157900384851945, 0.003955374273532998, 1.597171525589711e-05, -0.0003717428188901572, -0.0012507293930754855, 0.008086634888605046, 0.016536876325127875, 0.019132690995889927, 0.04580136601154408, 0.06803955133334628, 0.08029360999819381, 0.07978892050275439, 0.057300652805740405, 0.03322202657811729, 0.05802050480732427, 0.05793178506332511, -0.027420532353113564, -0.0316774767291715, -0.07849564626230643, -0.021895522623344602, -0.046519333303462584, -0.09344703560215818, -0.04180199656984001, -0.003483710299607062, 0.019720808765375842, 0.020175521852401117, 0.021349625490178815, 0.015442216843069179, 0.005440363400717583, 0.0003604216045604159, -3.184141745535088e-06, 1.8496656075144875e-06, 0.0027894700198515, 0.017592061068167183, 0.03528216792228324, 0.04768316271943759, 0.06279890461993332, 0.08496876409461263, 0.05289944187926185, 0.007765017318247165, -0.018914346654616884, -0.035641995574577506, -0.011532215291919832, -0.021768162155295277, -0.049439698279573514, -0.0433081856383585, -0.041693522739413354, -0.03492880832735573, -0.05104051895382739, -0.054524153527350724, -0.043329273145734884, -0.00718452550856387, 0.015183146786810878, 0.022509781500345636, 0.03202026391882892, 0.02480760385147862, 0.0036076006249903736, -0.0003671969305475454, 9.955100153628501e-07, -2.5904062604852124e-05, 0.007905698322041157, 0.023371944883941523, 0.0465116641988024, 0.0655793717684104, 0.08013143248933209, 0.09116937661709776, 0.04068007857292195, -0.02429688716475767, -0.038841729142942955, -0.027979557707567587, -0.04432977171498033, -0.08270092249137176, -0.01104306198379601, 0.03279953077706768, 0.07044325571786508, 0.02767724962284511, -0.02305607067162102, -0.01889911763796786, -0.003954471114931844, 0.023575318085649385, 0.06935003802259929, 0.074642961770894, 0.05730729736300943, 0.037207305480557486, 0.01644214462772904, 0.0005679897591952282, 1.8148511320464444e-05, -3.102408158284534e-05, 0.00998873666643463, 0.02771540655312401, 0.04396574889886726, 0.07342915038479232, 0.10348435318154742, 0.10036153326895236, 0.07156856972212708, 0.017038351593810223, 0.003230687147328313, -0.03509620034389875, -0.08988996657759984, -0.08399411965326632, 0.034421796461346355, 0.13760337928193941, 0.08300194566470169, 0.012724334639825743, -0.008310863122847185, 0.01920053380662449, 0.056721685890445524, 0.06347109514192481, 0.0725954517187562, 0.055954531841063616, 0.04263751480523285, 0.02139462827088384, 0.01205027919755731, 0.001785513462412326, 1.8249228041821765e-05, 0.0020180247276517195, 0.005946969472967543, 0.025406555785950233, 0.0410854714004403, 0.08852471456569598, 0.14907601292878805, 0.12484463992798318, 0.08021467349247302, 0.03441000721632482, 0.013760345538793472, -0.06130808709079419, -0.1241614666768027, -0.08740902197751146, 0.0922051763056717, 0.12531539984066958, 0.09546926002426546, 0.025956218935771543, 0.0380868046025753, 0.0782809884757923, 0.09680720186932307, 0.08022013605256614, 0.08475528069196975, 0.06863930930344635, 0.047101157922835944, 0.01479841056045889, 0.002310997522470126, 0.00022582615850956907, -2.2798838076675062e-05, 0.004127052925310731, 0.005566116982422196, 0.010818552475808482, 0.022771568675857244, 0.08370198305938739, 0.1345977115576892, 0.11951472868268588, 0.08840347247172432, 0.03821797326731989, 0.014130504116670195, -0.05409866835612359, -0.06302137132846045, -0.013291794837124676, 0.11038400592693536, 0.15386850053087817, 0.14540111898120012, 0.10753564158063474, 0.12709559100221884, 0.12028621719382325, 0.08135166507712521, 0.06416445872104856, 0.07473630074252018, 0.06871787336216148, 0.043436374126160485, 0.009601877793206608, 0.0023320384801370493, -1.4777977620908747e-05, 9.601618985496926e-07, 0.0006677112147599352, 0.002398687807480559, 0.011183372751962394, 0.019090481996253204, 0.06899071346568175, 0.0800843677212339, 0.08036559666073959, 0.057941362541128624, 0.06510319848163895, 0.0398779171716771, -0.01670997777226851, -0.04635771664157048, 0.055422872925230945, 0.11637214950848129, 0.1892644425590087, 0.18841258824440418, 0.14848585835046846, 0.15843936831710773, 0.1283659961017224, 0.07160151251471478, 0.04233171494657238, 0.04689028912139693, 0.03988058453170719, 0.026392545994042362, 0.006701521534211745, 0.0006122517078816234, 9.83770415606304e-06, -1.4993848581547477e-05, 6.964377989165398e-05, 0.002120688667736363, 0.008553790122677169, 0.011229590646959938, -0.01583197552029666, -0.008060719913436655, -0.007301698936949533, 0.00441235258909054, 0.037545529115182476, -0.00258132051776975, 0.002310084348932995, -0.00880276656403727, 0.06003420927776824, 0.1387566353097556, 0.19399972666652457, 0.18175333328341534, 0.13828438462732545, 0.14524598196434893, 0.1398634121762785, 0.0706169972388758, 0.04645707616114747, 0.03573341557177229, 0.02276985450895014, 0.013636923381212755, 0.005508334638300291, -4.6474509159586816e-05, 7.883726441487335e-06, -2.5615422418181012e-05, 2.229335835896923e-05, 0.0028481029216861223, 0.007643920174022167, -0.004579320655828735, -0.08392201793058598, -0.09206351877026403, -0.10549602867123418, -0.034021024301699246, -0.01818089311106972, 0.01197906032840314, 0.021430145262640542, 0.010517795648561496, 0.045844543450178056, 0.10376187817275122, 0.16185987471117774, 0.1516039565257514, 0.10912447995448346, 0.1110886246842939, 0.09356089649160823, 0.05094120414858288, 0.026177044330902115, 0.0184406729245603, 0.011857366606917424, 0.0071368592308013465, 0.0029083312727710042, -0.0006978439820406585, -1.4166423796535206e-05, 1.0396578521531163e-05, -5.221858173629999e-06, 0.0034323302104377253, 0.010119307220632022, -0.02996752362956109, -0.11690431628971909, -0.15692130220917885, -0.143272428066304, -0.0340304069430509, -0.024859780336721603, -0.011397186281319648, -0.051100822089644074, -0.058282991437955727, -0.007384750440347848, 0.07318743701959667, 0.1227474979223231, 0.1166912461716039, 0.08735703623768765, 0.08509823753085813, 0.07971619178043848, 0.04671398616239789, 0.022658235538880616, 0.014700438211795853, 0.013631474763409925, 0.005567967690987232, 0.0005137952026502319, -0.0016159718548544692, 2.4235075556979206e-06, -1.0869832048615442e-05, -2.5826507525001138e-05, 0.001864280102028974, -0.0017462608936297034, -0.03343184633114225, -0.10877038676589065, -0.11661916594569725, -0.07789904188257141, -0.036556669135857235, -0.03648034060755845, -0.0012206424512967238, -0.027166020759016675, -0.05511025307777452, -0.055607877342142016, 0.02449394255924741, 0.0779257094757315, 0.08063937573865901, 0.07826380088042989, 0.07316430316725298, 0.07644934713379986, 0.058152150469807214, 0.03017048290503837, 0.02185498917360769, 0.01909286616704743, 0.008413912586649667, 0.0011098106710733676, 6.208122198262006e-05, 1.0966424767190942e-05, 2.575057411903584e-05, -2.218715858507137e-05, 0.0004399282283433363, -0.004623095811732216, -0.02588428597756533, -0.019595271478188087, 0.0018202401961984263, -0.002563150438306382, -0.0013711971508415055, 0.010875185711984781, 0.030627039987839978, 0.003811304437791373, -0.017468833239986225, -0.012068518975585677, 0.010545709137979586, 0.046521580371709045, 0.05065974935159504, 0.047517535017389964, 0.05491965522161683, 0.07101661427639767, 0.05940746942028053, 0.04292478709833382, 0.022402570250726218, 0.0073663317906351175, 0.0015330622455568639, 0.00010613181412812377, 9.645093103391796e-05, 8.233536275266287e-06, 1.1316157903622992e-05, -1.4368334355614823e-05, -2.7379333922574782e-05, 2.6275805538802256e-05, 0.0029438913331457915, 0.011268240046467523, 0.007532924471583878, 0.0013433668781312397, 0.014542221384957522, 0.021149316566993977, 0.02184097025499597, 0.02796305098590753, 0.04476017956166781, 0.026851868628341182, 0.013897053284985401, 0.013631767466872982, 0.01335787587141169, 0.0037497634482636373, 0.010504170389553244, 0.01668993436485332, 0.01446499670727216, 0.011035602480982544, 0.003263509407896954, 0.0010692916548095143, 9.978470836985333e-05, -8.599308356274591e-06, 1.1486182882094424e-05, 6.60223389585088e-06, 1.7425455251246328e-05, -1.604959564345167e-05, 1.8367019648588646e-05, -6.893486968623774e-06, 1.1537339059363212e-05, 2.1871791959321457e-05, 0.0007614931951256316, 0.004985581710819029, 0.004555280379236224, 0.0007000039328928025, -0.00257254592203039, 0.0024617441461893385, 0.000774720750074395, -0.00012906263599830019, -0.0008177843804233378, -0.0011994916409086725, -0.0014515892725354615, -0.001471821357613108, 0.0009162474502610825, -9.454053940352318e-06, 0.0006679024432778019, 0.0007111041174433073, 0.0004150287066605459, -0.00030971770596914484, -8.016717954769687e-06, -6.754899773845952e-06, -2.830245536135286e-05, 1.908290569062732e-06, -0.007670414292232759, 9.116500231268807e-06, 1.3891523990796104e-05, 3.0358626038255313e-05, -1.8261260510393473e-05, -9.206877009328896e-06, 1.856879368210759e-05, -2.9160206119770695e-05, -4.554917844804197e-06, -3.5706898474691416e-06, -2.0307051412082694e-05, 2.366658695940149e-05, 1.3166819815826837e-05, 1.9203716480428154e-05, 4.146907253987295e-05, -2.4909064911605603e-05, 5.70102620935075e-06, 2.2508522250060995e-05, -8.349570688812185e-06, -2.5784674636480163e-05, -1.0013349707366181e-05, -1.8054073013691034e-05, -3.1131245881382347e-06, -1.2573418682738749e-05, 6.890958501214209e-06, 2.396959137656896e-05, -1.7461142792562643e-05, 2.0661895325937715e-05, -2.1218392265944413e-05, -2.2227846103376295e-05, 2.9934358246129367e-07, -8.37931591477976e-06, -1.850846517617671e-05, 7.576862866849305e-06, -3.7439752410117923e-06, -0.0014031484919732103, -0.0031199499042775716, -0.0014696638446117175, -0.0005680899365132011, -0.0008618011377220115, -0.001992685836394047, -0.0049289190303484715, -0.0006923855930378959, 0.0014791435551473632, 0.002224277157483011, 0.001079915262754966, 0.001028808330855781, 0.0005864317035195493, 0.00015670949793681352, 0.00015338620969485839, -2.4586493617115503e-05, -0.0011923475832330615, -0.001588097796919095, -2.9176312263570205e-05, 3.0482940006739633e-05, -2.513533323107753e-05, 2.928192330656626e-05, 1.8700101572619202e-05, 2.978744366491592e-05, -3.911226655592612e-06, -2.8795970354225548e-05, 0.00012030238080793595, -8.22588111481304e-05, -0.003252167994363172, -0.004635580510211291, -0.0034356296350385035, -0.0012503943052500272, -0.0032890744043321744, -0.004869640599916537, 0.003600321028344522, 0.01599954283957022, 0.021360787875896743, 0.00844462919593834, -0.009067073526567508, -0.009198185910053724, -0.0042575280978020685, 0.002977355883193165, 0.0020616097592560073, 0.0035711373591225458, 0.002016139758312793, -0.0009009034996194249, 1.6356569721927367e-05, -8.379531335682603e-06, -2.6639830028338223e-05, -4.19765094160419e-06, 1.0456531132701701e-05, 1.2578480826730948e-05, 1.532370410695239e-05, -1.3641756537791035e-05, -0.0005441538939440023, -0.00998241569786956, -0.015036428879254734, -0.01643894286571897, -0.010795842402982887, -0.005245566616280638, -0.005967969515170823, 0.01408892220009995, 0.007634198816227407, -0.0014330192814541957, -0.03108942040124954, -0.05131318326953059, -0.05691158305913087, -0.07121455314164306, -0.06743411227812472, -0.013478591625734528, -3.506902822107385e-05, 0.004035240614838696, 0.005270862105005626, 0.005285856510189188, 0.0041518660955457455, 0.0007988229565776969, 3.820189930182739e-05, 1.6679984584799403e-05, -2.7185325671987802e-05, 2.3577514366878044e-05, 2.1495772646166746e-05, 0.0004044107784840672, 0.003903347124502073, -0.005871114058386915, -0.022655172724546733, -0.0312405545242519, -0.011979570437751398, -0.006736854062604579, -0.009643856354545498, 0.023123229148732678, 0.0016092505136460255, 0.01982334338980955, -0.026881257791501023, -0.07695290422773882, -0.064122901026177, -0.03400555104897486, -0.03987984538520831, 0.014381818409185898, 0.03524846424717349, 0.050818340958017405, 0.04486908208730746, 0.031285218265069116, 0.008452135957320948, -0.003015730993806346, -0.003171944302429458, -2.7364032171736616e-05, -8.846119062423928e-06, -1.1728926045440836e-05, -2.3366060612302347e-05, -0.00022264458350276377, 0.005306360372830495, -1.920448400963931e-05, 0.008483118775000891, 0.0016057010610141022, 0.014866445836811874, 0.02623949842286087, 0.026013162842102127, -0.023186065320470437, -0.0895119667140204, -0.1093774564613079, -0.1534408634073637, -0.22314621672206383, -0.1779409064388383, -0.0212645088068752, 0.08749282425542353, 0.07573050676328517, 0.06853397115741641, 0.11799747128202584, 0.12676473084792642, 0.08656367473244161, 0.0374477969239437, 0.0029650655336953104, -0.0022143596884163547, 2.6246903796751146e-05, -6.518595049876277e-06, -1.5906392539298046e-05, 0.00045656851397525344, 0.0025007970161354575, 0.012933028066780556, 0.013471665743520118, 0.032392131283159736, 0.04374937781402066, 0.0366535712695831, -0.009835739516394573, -0.02867694410257544, -0.037412317952437144, -0.047706962760367566, -0.08806094682447155, -0.3073599897954284, -0.5531111759659272, -0.4499201412710524, -0.13285388142110494, 0.032169781252491106, 0.008892921709287115, 0.051160964124461424, 0.148629321475371, 0.2038760961235782, 0.1479574158287335, 0.034295908849424246, -0.0065735989506214435, -0.014752557653551636, -0.0009087033251261427, 1.1350130833057814e-05, 0.0018343571230625252, 0.0015741321830092358, 0.013667186284454541, 0.011494153531404622, 0.023929161530542965, 0.05998839243570869, 0.09273663473411382, 0.06100815833671733, 0.07813601163851826, 0.05758627571717224, 0.016349094822180193, -0.030902033637567074, -0.11576769090977806, -0.37291780250327106, -0.570535152778651, -0.43909924844718823, -0.06726875170706209, 0.10231414482221247, 0.07294247340593354, 0.020978001758038444, 0.08570447001061769, 0.15320080018888013, 0.10208219249915146, -0.0011903716993164034, -0.02747269046596823, -0.02190414957350379, -0.0007685411734118645, 0.002157832876202256, 0.010983790053395918, 0.021831571595820297, 0.04065114952407131, 0.02432499441964646, 0.06417908990226996, 0.07588736741524409, 0.13604063515954062, 0.11241880136288739, 0.11352118833372725, 0.12098801021170598, 0.1315815591324459, 0.08480952886866958, -0.03225572374211431, -0.24971330815850157, -0.4110909381296984, -0.22277756287045525, 0.030761768236775223, 0.08826388312922852, 0.010090061292423123, 0.03330908868921689, 0.05444343951529546, 0.0938550634864927, 0.029535037125593397, -0.06240348061155997, -0.05513595670304026, -0.03149084117403276, -0.0034290891704870626, 0.000776113873088804, 0.015827049612010542, 0.03131146246023379, 0.0546081369695877, 0.05508054916724593, 0.08947280587459286, 0.05467083937482496, 0.07463737028786878, 0.09067433348126837, 0.1224754067834834, 0.14378771369397175, 0.17646647537942078, 0.18353441032629983, -0.016546027266430226, -0.2921159218252754, -0.3774437423237674, -0.05331904843461229, 0.15987715842608277, 0.1455022384553292, 0.09891062308613364, 0.09750461700768628, 0.10278611467112451, 0.026667554113849287, 0.012965687760682357, -0.053501906418467034, -0.06608255452801348, -0.02019522442423906, -0.0012986139073676533, 0.001053404546057653, 0.013261840175747414, 0.04157592806538294, 0.04490287531196857, 0.05466591835718203, 0.06103772178644735, -0.02747154212459639, 0.08230966224501217, 0.13269703608082276, 0.1658905216016571, 0.20591455846466475, 0.3034239840340725, 0.22184423912664203, -0.03438763910878524, -0.2812687266999918, -0.3277422707113867, -0.032469968134541984, 0.21614446326401293, 0.16099422246652026, 0.08988077787894075, 0.13125083044531635, 0.08240014907145833, 0.04176684638230041, -0.008559443304662281, -0.01855049572648439, -0.06320443481595277, -0.01839954429422505, -0.001226623010711322, 0.0003067227856401458, 0.01828988770398959, 0.05472516044120613, 0.047387814528170875, -0.0034221361418569247, -0.004289675203203082, 0.019451185100658536, 0.06261900354175128, 0.03358845259637202, 0.10936691712873256, 0.21921141935280847, 0.30550571160663037, 0.17089235504501243, -0.1853771919525279, -0.37287574640326965, -0.35551396922747724, 0.05672595550359658, 0.2007831152378212, 0.10224602654967685, 0.005527984676887116, 0.0029336144930129527, -0.0005495745387039215, -0.03752884972643396, 0.008241164820494043, 0.0035284780765142154, -0.04967199043997241, -0.013232059069572977, -0.0009065236170323019, 0.0001398674884871458, 0.009509008136823417, 0.040681664073235375, 0.031263911059389055, -0.05645524098417405, -0.03403236826023648, 0.00022388485986268804, 0.04128126469659379, 0.07965948060483612, 0.11839178708686049, 0.22694423691568033, 0.2956423292655666, 0.011296917955062618, -0.3098484524358094, -0.43592728884280507, -0.2992535554944046, 0.10230817464807568, 0.16387476600606732, 0.07868407908937337, -0.06897157205730144, -0.03770609491423548, 0.014128603364359435, 0.06279743211316599, 0.09838979278246172, 0.0695596710400995, -0.00912513702752036, -0.007866130409098287, -0.0009605030432937486, -3.131979200362324e-05, 0.0050956660158120995, 0.01881695057681862, -0.009424080676503382, -0.06121676108197199, 0.004619686540160905, 0.06614246469853921, 0.03320153382784092, 0.1215097433327635, 0.18182594089661572, 0.24377218613452126, 0.11692243317077211, -0.2250185573563438, -0.49206842760998337, -0.5049562968943128, -0.2831046782306177, -0.008702786495759937, 0.13529966162975796, 0.00711705829089956, -0.09360402962602689, -0.0740429653591652, 0.05726255699329352, 0.16674725725074083, 0.184012727109373, 0.10077303921235449, -0.0030121935461582764, -0.0112236010277181, -0.005366010045894515, 2.2384225047853485e-05, 0.002722325801129772, 0.010211085090343429, -0.023241265196156272, -0.04107537503478619, 0.07729710156742553, 0.07950491609463918, 0.10516136517186093, 0.12382796263490689, 0.15535314635008113, 0.16584883086256813, -0.06240167240153408, -0.39657514562796026, -0.4598692492063146, -0.3595788592661813, -0.16273196989010288, 0.01903143703814112, 0.10237729975059114, -0.005667723459987395, 0.041928595513527574, 0.01837725653028048, 0.06493487306330457, 0.17895194714955978, 0.21358588471468734, 0.12331376469926111, -0.0025285229033296264, -0.003720184844927074, -0.0004951451880757741, 2.8822568946031536e-05, 2.6175833011407282e-05, 0.003589212780006899, -0.014659608923933132, -0.06212708213388156, 0.04043398960715934, 0.07919101247777635, 0.14829677834665458, 0.1401849653576147, 0.18426528560376482, 0.11016074351404335, -0.15303702385613568, -0.40239820745394383, -0.3646092393171298, -0.18137909136617217, -0.05766090822178746, 0.008671184897313352, 0.03932578867354149, 0.021286105558089505, 0.029686183712638984, 0.04919385736076617, 0.14005674018396344, 0.17276671931628704, 0.1747551133328873, 0.07621434255748426, 0.0013648397966530821, -0.004820884364860429, 5.923125155462521e-06, 7.003595629764503e-07, 0.00016156560167138577, -0.001087425955012328, -0.018374789824778574, -0.043365328278157304, -0.001696707173482336, 0.07632641860110724, 0.14430914539026005, 0.1605272889218066, 0.062110154006824694, -0.05726939142994269, -0.3479352321297507, -0.4831278650889523, -0.3406715694539261, -0.11310086712897126, 0.021106897705535886, -0.045644785365650205, -0.05245745150330503, -0.010734357565952727, 0.013388386237555666, 0.06121368617941973, 0.11419302591665709, 0.055182986188783374, 0.0692354020952313, 0.03457043661807565, -0.015703838358020004, -0.012483257958515993, -0.002931680060548148, -1.8957060025607716e-05, 2.1080862301650973e-05, 0.0005646877875694335, -0.027955921187991912, 0.016071550667400424, 0.060610869591907125, 0.0659998950947428, 0.08213932851912256, 0.06572345397445394, -0.019658285611415603, -0.1803258725969352, -0.3565480155006412, -0.39540352347198693, -0.22322219930217824, -0.013245782208787195, -0.031210415949058816, -0.03899737818331949, -0.028305397155479063, -0.022081285275658148, -0.008526190174163919, 0.03472630938007311, 0.02582050149262878, 0.057436298662387, 0.016698900766458233, 0.003402436268542058, -0.004651184224252995, -0.007729551914929711, -0.0021301827174174835, -6.0526066039381025e-05, -1.239883331519534e-05, 0.0005885288063686087, -0.03333025276255961, 0.0049695778641657105, 0.016007430927221882, -0.028627295336313995, 0.03252653733916398, 0.0412130092160664, -0.025069222597108788, -0.20282914429241358, -0.31451313759884536, -0.25394131230102374, -0.08108579631400603, -0.0034577206538415534, -0.04678310024094048, -0.059279084395030227, -0.04401873445222028, 0.022983839731648074, 0.010588514397929875, -0.004822074274269404, -0.0008696766826249947, 0.017473157450515513, 0.003034264979200101, -0.02389490866140399, -0.009976019903325362, -0.002824073027428911, -0.001731633691599915, -2.3220464978782922e-06, -9.435422890423595e-05, 0.0005007049375466348, -0.03143397707232532, -0.010947265432703933, 0.01470684455442335, 0.021628604844440517, 0.053851905935741844, 0.023107401044124842, -0.051909780816178405, -0.1688949799713986, -0.19030441164931733, -0.15900008032687296, -0.07196581209581651, -0.03823365195762634, -0.09664817826075928, -0.06519824594904025, -0.005317478678743507, 0.003953790571053472, 0.020958152676375394, -0.00299772781654349, -0.014753922460903016, -0.01605931558159792, -0.0405442931398361, -0.048671672814607346, -0.016145803964140445, -0.00473694031013068, -0.0001317452767524622, 1.8886527393409186e-05, 5.527902231840173e-05, -0.00037905564781321463, 