[-0.03010346006188581, -2.8235383391640805e-05, 1.5223127594275126e-05, 1.7111453348670794e-05, 2.0900746595261098e-07, 3.686276321418914e-05, -1.2093977259847596e-05, 1.5523822309227486e-05, 2.357381775814098e-05, 1.7218330923301647e-05, -3.093076737930075e-05, 3.862517372412031e-05, 2.1924981629356683e-05, 0.0033083573418177283, 0.007431460070464559, 0.00016517910449664688, -2.5728706667597714e-05, 8.694996212592916e-06, -3.4157089657745195e-05, 3.71512079488884e-05, 1.7112234654197236e-06, -1.635112945911183e-05, 3.4196696966851626e-05, -1.542349853673584e-05, 8.958887426813264e-06, 3.084286024711354e-06, -4.026958940222752e-05, -1.4062479054802085e-05, -3.1685150111273806e-05, 3.1790540599312645e-06, -3.695610659138248e-05, -5.6255949050857905e-06, -2.973556906119519e-05, 5.8789150812091e-05, 0.0003396752932475512, 0.013691113639544674, 0.03212966115625181, 0.04329351386043851, 0.03502157607974981, 0.04666658920130798, 0.05284188387960692, 0.0804499872456557, 0.054820483809501996, 0.02653220990081387, 0.04532104512844387, 0.06076022586649969, 0.040723998022047736, 0.020966813459519344, 0.011855390473774596, 0.021337479199596367, 0.02850944098184902, 0.03980636033441749, 0.01681378895828179, 2.3314952044818317e-05, 2.148203325985653e-06, 2.7713538799306824e-05, 2.7872168618338906e-05, 3.7711024696769646e-05, 2.145697474964875e-05, -6.544090890455449e-07, 0.0029846920549870103, 0.003450909835095241, 0.0014366040827987598, 0.02196020121204365, 0.05826210983405248, 0.09060807755798414, 0.10945638685968223, 0.17132632932718375, 0.18806184051531571, 0.23040521878738024, 0.21732105986983846, 0.21192807730027632, 0.2169793374030902, 0.20004360441502506, 0.1698560514124093, 0.16083174122289617, 0.1268557619633602, 0.0965069063505665, 0.06473795866045898, 0.07563760090266733, 0.03934839209756811, 0.002101628091976013, -0.0004646317174235538, 3.35114190066001e-05, 1.6051513559305463e-05, 2.7259388949600766e-05, 1.3879604104422697e-05, 0.00012012489682749171, 0.008607450346026703, 0.0013868474250543878, 0.00939016135128409, 0.05471586898975316, 0.09125324889046368, 0.16365963175682793, 0.1999740740264568, 0.2648242817317139, 0.3216743910593012, 0.38316213485396583, 0.4345435588647068, 0.4609171499396374, 0.4205629199016847, 0.34202693598986855, 0.37804020079568934, 0.3084170396137135, 0.2166074701830352, 0.21431720646424876, 0.15574909041024385, 0.15023874957487385, 0.13695041685723244, 0.06719913749315774, 0.00646323771095971, 0.012339525907771228, 1.5905589331228204e-05, 1.243286649826465e-05, 1.257690482212536e-05, -0.00013000086344243982, -0.0007759958697993369, -0.007926473471574066, 0.006570910581417322, 0.06521491626025704, 0.061346676066872226, 0.10117918403469855, 0.13495124750326057, 0.125155057000772, 0.1384765441701358, 0.1498726424071382, 0.1850238158091473, 0.17939843107788944, 0.1602290345808688, 0.12951737375227995, 0.16257167890592022, 0.14236453388236708, 0.13059363218098008, 0.07390215830276332, 0.00987562023805004, 0.058238014576947175, 0.033847178631964334, -0.00820654833393859, 0.027574789298658302, -0.0015024838980135181, 2.9423180085314614e-05, 1.227337814462495e-05, -4.042087127787756e-05, 0.00016300679175595273, -0.0108785807885856, -0.0021254698146648014, 0.0026076526952429836, 0.026760571663415857, 0.018088706658029714, 0.07971444728895813, 0.10376564876129332, 0.09255067498948175, -0.030688216792826822, -0.0020881215990364997, 0.00507981319651606, -0.0032382110780839945, 0.060440388079135696, 0.078623585892715, 0.08771905543816344, 0.09642827401816037, 0.09439521658021235, 0.05233557944617057, 0.10340781456527277, 0.015664344696364723, 0.0037155310282435414, 0.03636528339586453, 0.03605318706007921, 0.006955051888036495, -4.8921687993877466e-05, 8.592017594427746e-06, -3.076323389501675e-05, 0.0003937470140956641, -0.002341198730674151, 0.011100343542855728, 0.03338098430257129, 0.025821123592093653, 0.10439117577391664, 0.06583890102391492, -0.015688181998910034, 0.017922826809163177, 0.0011113197606453231, -0.004877349632071603, -0.03469810747876618, -0.03966810582934679, -0.00041755017221622006, -0.02132675451344214, -0.06163335669635827, -0.014770417182246476, -0.039766937652791975, -0.029223595120731024, 0.037487140347373396, 0.007884688056482634, 0.06424643115091426, 0.03750840705326958, 0.04423730246206787, 0.012924263816003352, 0.005136050674443467, -1.9700437126462683e-05, 0.0021351664167187493, 0.008002617347841084, -0.0020256430242116237, 0.0003640769682360641, 0.0713952641280695, 0.032754481695487614, 0.05695334976589943, 0.010492809737356843, 0.03416847721977412, -0.023515363994735083, -0.020432728686421417, -0.03272084892818236, -0.02828614636887559, -0.02096509484656471, -0.03129177283326001, -0.09820264719011901, 0.02353325302479073, -0.022759191312776695, 0.013587327585304647, -0.021928578484690507, -0.04735533785635367, 0.024697407908103253, 0.017067284534729617, 0.06969415293372222, 0.05542011030010676, 0.031599444777863715, 0.005047805233020546, 0.007492977427231907, 0.0027221823541377296, 0.002592010266401694, 0.020728921610006345, 0.0604866391082099, 0.04150426603089588, 0.05470431345094346, -0.000623157181376918, -0.0199357078617444, 0.0467432706365973, -0.008754360233369956, 0.010893352871058788, 0.018745897649711293, -0.012137689993072754, -0.0005005359792466284, 0.0029147238645283974, 0.029153106877469068, -0.02946942178492316, -0.014791620269283583, -0.005371344764525176, 0.024877989025972515, -0.04821901302671655, 0.01142842763736823, 0.011599678728675683, 0.02181862764223059, 0.07293612457539, -0.02377684230707076, -0.01118660868156246, 1.3597177309382243e-05, 0.004555670585227234, -3.873072762247514e-05, 0.01363184526108232, 0.038839165593443, 0.023060845208134947, -0.011733354333358502, 0.0024360601442424052, -0.011605961264411411, -0.01795082942367359, 0.029454151623886964, -0.001804367284365153, -0.008002180976466187, -0.001977118379463334, -0.024319468968438257, 0.0002965347569567737, -0.015202669012316702, 0.018000207613653507, -0.009893643040139724, 0.04576347488184377, -0.024616237521608537, 0.06984826991424781, -0.0013482366265702877, 0.040508167569786833, 0.02983984681417128, 0.0174625725654552, -0.023630041577062666, 0.02177530445358886, 8.228498692646395e-05, 0.005257307783382995, 0.010879667528859053, 0.04794402883719358, 0.0033661038420884407, 0.04034011417995244, -0.06507452165833809, 0.03655344165833251, 0.00016976597552304244, 0.016173869533167014, -0.027151875193002314, -0.01758133187238143, -0.0019715940624948033, 0.01606053157049182, 0.004509960413229417, 0.041766992180690805, 0.0029099123644567505, 0.00555874581947945, 0.013808416864891057, -0.016425773748998646, 0.027487566895639713, 0.018075977862810184, 0.004768045930437898, 0.06582786094815486, -0.02387151523817756, -0.06887505244267977, 0.002903411142161378, 0.03496120183244861, -9.990986537748158e-05, 0.0025186445872460495, 0.01461640137320703, 0.07589309934342017, 0.007154158470558169, -0.04423217279111759, -0.000497085626494568, -0.04867954231810274, -0.06059120167100755, -0.029422788304099733, 0.004420870670694048, -0.04097945267836278, 0.0018423906997111447, -0.003939013879515083, 0.023647039772234802, -0.08073156704912311, -0.053439402002545634, -0.049645708586762156, -0.03684363767671952, 0.009120514362990039, -0.04325035660624144, -0.04254103834947949, -0.010804481852964122, 0.09972380474476307, 0.08947634949762565, -0.09478361511392748, -0.021144692278603872, -0.0024686644623715726, -0.00015304473632589776, -0.01243803330335866, 0.014306696704906174, 0.06784867621383286, 0.01281862821454445, -0.018480913575604673, -0.041223408862865574, 0.03602064839538037, 0.004989150648570051, -0.007973276891055436, -0.01499025636048317, 0.012361877285890336, -0.027825817889292045, 0.0372160946451629, 0.0037136555052592387, -0.09620704016341498, -0.018869082751195528, -0.03429442058322994, -0.04806167568659868, -0.0584483621499209, 0.0014792310231651637, 0.007030351019552171, -0.07828129548949181, 0.0419714538428402, 0.21159476120774878, -0.027711057540646924, -0.01652239780397283, 0.0020704709507205024, 0.0002587954560814744, -0.005200276283421029, 0.00439292694499823, 0.0655499362870765, -0.1231496471613422, -0.024676234799248034, -0.04546876587533915, -0.06840912403941449, -0.03155118379500786, -0.005882258846053759, -0.03397968904826529, -0.03075066762802918, 0.041169315415644614, 0.04536381318514978, -0.02450026087759666, -0.03334892389176617, -0.06229742812423727, -0.005492827558507578, 0.029325431127270013, -0.05911798154331365, -0.06495906591215339, -0.06262136090579601, 0.013734605319663466, 0.14003434924840413, 0.12637243890724612, -0.0397489584231852, 0.007274961168089602, -0.0014324042504068085, -1.8661823187958374e-05, -0.003343973332089648, 0.0031052758012529587, 0.006807696803701389, -0.046056294611833665, 0.006483020268974536, -0.010045463856834991, -0.010542058998161845, 0.014316670511092441, 0.007017390238726567, -0.02905880282024937, 0.008386101277184668, -0.013006855901160816, 0.0646143523570233, -0.016372490126226043, -0.01660251800748056, -0.06431534993576883, -0.03657418996820843, -0.04334301166163643, 0.004800587922045774, -0.019755600694988915, -0.01851138112731768, -0.0025383180373762006, 0.0843131788593419, 0.14271070095061145, -0.004231817591152193, -0.007464968924724778, 0.0011670103780243779, 3.36892956617123e-05, 2.2050569867351062e-05, 0.009196493631218787, 0.01223871488578642, -0.08449552431286943, 0.05253045147974207, 0.02190842881159082, 0.049817311670743866, -0.028663012575079517, -0.0010440387022663158, -0.005773509215232207, -0.00875310558618643, -0.00909656702352825, 0.05534841689156939, 0.006446452161857998, 0.0040334596192394155, -0.0859387323077285, -0.012309578939517691, 0.025976451916324788, -0.050849962787145465, -0.013061066733927235, 0.03997412149973007, -0.030537182750828087, 0.06285527084471952, 0.09462467961807033, 0.05280550523459109, -0.03342960691840836, -0.005488519249146737, 3.400862164458217e-05, 0.0010766439385151616, 0.02147422575385582, 0.009699251912045933, -0.012923173447172065, -0.04674089159096468, 0.027499882536589217, 0.020263480283504, -0.024067738809827197, 0.05203147062546954, -0.060041729900947076, 0.011634434153372545, -0.020204662367244705, 0.06291033316073266, -0.013621079820455524, 0.001878923221310613, -0.01582187755038869, -0.04827430745802299, -0.05525637074269273, 0.04942581179074414, 0.024059311681153436, 0.006475032351429593, -0.032847482924433416, 0.032295399168353466, 0.07824446006090788, 0.09139945110590345, 0.015310440860905057, -0.010565621642781194, -2.740578667295233e-05, 0.0003102429191654823, 0.015393192712210707, 0.02183327466869199, 0.08174375509070528, 0.021712990826166637, 0.01974412604840155, 0.010672801201025237, -0.007197335248391244, 0.014581591187358354, 0.01093159591463572, 0.02266175656530899, -0.01812402920447092, -0.045128711085369776, 0.06870360264091453, -0.053130150260600216, -0.026742342640656558, 0.018244851593123057, -0.05151318373925675, 0.019881004671377652, 0.04152598201472051, 0.011447625423764424, 0.05225458267921991, 0.04886912214673078, 0.01641887795609566, 0.04890178969979759, 0.019867037809883865, 0.01930995211553773, -0.0020020994549649783, 0.010970939450877779, 0.022810929690563128, 0.025328062190034476, 0.04297968463509235, 0.030748635131571833, -0.02720646232126545, -0.006274207478794923, -0.014325499709847261, -0.007290252629681822, 0.0272474075664586, -0.03130439329041416, -0.003977374920297054, 0.009292664713698892, -0.0725670556616117, 0.01631850261407412, 0.036853408534709496, -0.03933668786099412, 0.0684003686011155, 0.019195739810937282, 0.01005226708857857, -0.014062276942365873, 0.012540492808806659, 0.055319385672990565, 0.04027301955146632, 0.05138160369854902, 0.0004833800447867655, -0.0024365364235826082, -3.1338784046880246e-05, 0.02386211436373679, 0.029965592387041145, -0.04656654615203444, 0.015215542219181843, 0.06748563956482836, 0.06171691617831095, 0.009039691567940301, -0.023212339054661833, 0.08212126372630606, 0.0619801512535165, 0.05006787950449494, -0.038594055986395044, -0.018687363992913746, 0.013732892513038279, 0.005352822681230849, -0.001823536194235461, 0.11179801191964708, 0.07685091343767451, 0.03917128213959647, 0.033530488054585125, 0.03418056669787067, 0.08345566208717663, 0.056754206662872814, 0.04798520090510449, 0.05738516400546577, 0.0011097537100582173, -0.0003374010592005548, 3.85660253435168e-05, 0.007183278093250275, 0.016486610640616434, 0.0013454652810588074, 0.07319482824610773, 0.06163901445173246, 0.0665260834299006, 0.23356748844432026, 0.12768959201770916, 0.11568089822427163, 0.16588377158502834, 0.10673653362140693, 0.11006206625688263, 0.03756724496733404, 0.03642201076092693, 0.07916589545290002, 0.09645015994782115, -0.019656429214375166, 0.045002154408228655, 0.05316392786504136, 0.015531264412570425, 0.05656704914186026, 0.06272377771714098, -0.02026966568196606, 0.018669087257247342, 0.02015489087829217, 0.004173838622569725, 0.0002904480310173767, -1.6513042190153754e-05, 0.0029056663711078527, 0.02921546017917999, 0.087526867040664, 0.060755930402359395, 0.026466454298234115, 0.06586796140758105, 0.08312034728580409, 0.002957918256748798, 0.0372368017353549, -0.017539065865823024, 0.09195981866661068, 0.11194252922251668, 0.08072449282739662, 0.09908699054185915, 0.0009539187284642766, 0.010895632227320646, 0.08143584883571826, 0.02845029437951787, 0.0208251526593981, 0.003097433402859278, -0.01600234603085104, 0.026027037781208153, -0.03402112708659551, -0.0687534539227832, 0.006508346219116227, 0.021138903007271528, 4.184546736893108e-05, -1.4174991071993273e-05, 6.837565479035584e-05, 0.04939921660150708, 0.08344932588616512, 0.034238968226075944, 0.03545901238156725, 0.02798588095043734, 0.09228709558760069, -0.031404959688452874, 0.06256689274718222, -0.02304159247544576, 0.036475653640795754, -0.038918436426868465, 0.03183628448727602, 0.014493001223237543, 0.06544077929634591, 0.033349505534801614, 0.05387180342232363, -0.04952550382305155, 0.1009419035730558, -0.032396054858561396, 0.02830645612120511, -0.039917187974796244, -0.009358392942690459, -0.07011754554294711, -0.05394021976484426, 0.004819719411969915, 7.606934827006508e-05, -3.338273366258156e-05, 3.197100538082344e-05, 0.0405365488295999, 0.06957017556437259, 0.0472796673313032, -0.03705188364321333, -0.005834846687147038, -0.03194041969006433, 0.00810165458307403, 0.05654278016419643, 0.04799819476833612, 0.021773369577383912, 0.06475413324492175, 0.06125903557268839, 0.03767872913703385, 0.04944700366299918, 0.031784290459123794, 0.033814049419568296, 0.008457627248441497, -0.006184904577573975, 0.023004120291192677, 0.04616215586748052, -0.06994217179033563, 0.043524719719575604, -0.021622369045378596, -0.019149117097905257, 0.006313266387969351, 9.622515722563962e-06, -1.3057576894260883e-06, -5.93232199180986e-06, 0.018269767747610927, 0.0478331218219373, 0.029861743672351115, -0.04775396241527246, -0.009210372067568189, -0.01197686151934527, 0.04985305425038281, 0.011059116775184306, 0.010292036771847963, 0.08071562980510398, 0.0808366078141652, 0.052184128617643835, 0.0631834910903559, 0.04653993689149946, 0.0698020858787089, -0.0040379260648607, 0.09076948900346193, 0.024656025936081856, 0.025030464383407117, -0.008716428148927886, -0.023039435661378532, -0.037957644518698506, 0.022723338716989543, 0.02345570346884341, 0.016530121604296105, -8.304728136518484e-06, 2.136474818846174e-06, -3.846239695713199e-05, -0.0009277894570755826, 0.002371580445263533, -0.028767205179421187, -0.052792269272705465, 0.025448307738227198, 0.0457678091662784, 0.0012803927759545307, 0.04885742267467622, -0.014985326455466644, 0.00477373580766929, -0.026364389760964883, -0.001994908532181048, -0.0208522047897948, 0.008742355631420385, -0.02164432908434044, 0.03715621139081995, -0.021979679174527225, 0.014650982609785916, -0.06252221741500728, -0.10257576472484668, 0.028942661331343676, 0.008897398472984928, -0.0036384941854684843, 0.008483970162073315, 0.017331586671454298, 2.134818090446678e-05, 2.479092094460894e-05, 2.1077237014112704e-05, -1.5558933113473305e-05, -1.2974396105438381e-05, -0.03170972891195202, -0.04978043603988083, -0.09277638554712261, -0.00392141573844434, -0.012870872276107377, -0.017350655390223207, 0.008366332281947485, -0.013664043778653295, -0.015487379326204575, 0.01791941599649704, -0.03146592168713421, -0.006204001624111378, -0.03698176811870105, 0.0037427131887470605, -0.11077097124489858, 0.03508412112429179, 0.00014132482465485963, -0.05786309559806325, -0.044582325517124405, 0.005333163728863585, -0.002493747202537372, 0.00034370907342890747, 8.161373353168475e-06, 3.4802754375017934e-05, 4.0519265046256714e-05, 3.215152478454826e-06, 1.4166839480265362e-05, 1.2314530102921223e-05, 1.7280801190513297e-05, 0.011483888788509668, 0.013675282495970807, 0.0022278764251050104, 0.022990792115232476, 0.04428060075842475, 0.020788880285810853, 0.03375747450433704, 0.041358262584227874, 0.06112766021852487, 0.029904920690753876, 0.04596220995801558, 0.06622275291377297, 0.07285038658517276, -0.013125394861348868, 0.028444120002446224, -0.004846576415769375, -0.027997357344146497, -0.04611093611366203, -0.004401894324118757, 5.623561568179394e-06, -7.262176828900281e-06, 9.008279587867219e-06, 1.4736772965018585e-05, 0.010199943931106816, 3.757397123941886e-05, -2.4482290265196584e-05, 1.8318520857303593e-05, 4.8901055199071556e-06, 1.8695519658761917e-05, -1.1298554091971732e-05, 4.089631012379749e-06, 2.4353604142364796e-05, -1.5038830729112056e-05, 3.4591014806607517e-06, 1.574097611484172e-05, 2.0271642531647567e-05, -2.5243599693621e-05, 4.586743183130168e-05, 4.115144824577477e-05, 2.821057064564529e-05, 3.2967881906144085e-05, 3.8287800380902825e-05, -9.318485277419927e-06, -3.275477252130511e-05, 2.4737307106967156e-05, -2.3154308964911315e-06, -3.879432031659923e-05, 3.914993430072661e-05, 2.0530763162057785e-06, 1.4290276732667698e-05, 2.2275261015257994e-05, -3.174423795619983e-05, 2.195319112519047e-05, -1.8370853312108333e-06, 5.950299503785605e-06, 2.018558618733102e-05, -1.6954363325085323e-05, 2.663739683990103e-05, -6.565150018475387e-05, -0.00018872723687419804, -0.0007098684789520607, -0.0006381715830101116, -0.0011971331299295764, -0.0022329640193279065, -0.003079878365686419, -0.0006094147718293188, -1.4362203782647744e-06, -0.0005107747075217153, 0.00038382964687310524, -0.0003249739567336584, -0.00047278774163914263, -9.260038834868321e-05, -0.00024542858592636625, -0.00011676995825776155, 1.6815725398003124e-05, 3.26097657184371e-05, -1.865720673907727e-05, -1.3947309481893167e-05, -3.5135935342170336e-05, -2.8373076021423844e-05, 2.0853070472917858e-05, -1.663421056130188e-05, -7.89574135023266e-06, -0.00022590208620901645, -8.182774044091109e-05, 0.00014660486384760187, 0.0009022284135947055, -0.00027528369143514934, -0.005780214790009533, -0.008338906783410503, -0.009663975943297027, -0.008378285106149944, -0.0023086546275183145, 0.008214572521366403, 0.007777659578027879, 0.007343014861580607, 0.0034291024081305557, 0.004816284659520649, 0.002686422371092731, -0.008919966442464946, -0.011127388374798194, -0.009297255252416434, -0.0062996447082914915, -0.0006198254859352267, 9.277918446835906e-05, 0.0001299949123870923, -3.134749544155514e-05, -3.4137549949915294e-05, 9.225371109789523e-06, 7.955673107784079e-06, 1.6859862078289013e-05, -0.00040384493088960714, 0.002597777088111076, -0.0013123523695553296, 0.00496393666144171, -0.006525655445781825, -0.04002876634263723, -0.048572416115280286, -0.07170362089090333, -0.0633972249389731, -0.06449023063874475, -0.06117363369997963, -0.03696995728368139, 0.008945601370914364, 0.026508526759725697, 0.0025380570154903354, 0.007637044409259184, 0.005772034961207993, -0.01501499228056156, 0.01625567517292406, 0.001360823243630131, -0.030159376890624357, -0.017911472951085798, 0.004115524213452701, -0.002043590619724042, 3.1926364580224584e-05, -5.054570129690521e-06, 1.4566684999042258e-05, -4.300368014016683e-05, 0.0004960867427317825, -0.0024862360920672203, -0.010191145151233238, -0.020596838115778622, -0.055236633335239066, -0.08954485864538324, -0.11856320009811318, -0.14597715484630153, -0.1354742254460043, -0.16887265371938598, -0.1836843883190882, -0.09491928652179019, -0.02548912657964554, 0.0036604802030993223, 0.027920091424409897, 0.08011679499222937, 0.07469831114686415, 0.03802581200695574, 0.04814042338333892, -0.0065011455982762305, -0.023050680078999596, 0.002140569965660129, 0.004991223394536026, 0.0022810828291962492, -3.4010382620115246e-05, 2.2234925767549738e-05, -3.1116395202286225e-05, -8.812758029241187e-05, 0.0010064366191617265, -0.010602753928510948, -0.017183861145884993, -0.02435461167213693, -0.03322968952795253, -0.018505306672416774, -0.04566212746521049, -0.12433867262472298, -0.0993927374738722, -0.15666901221545584, -0.184950058608056, -0.12559995332409177, -0.14256334906376272, -0.16616924369982464, -0.1887831798308385, -0.13661909603706904, -0.11565390166073337, -0.09467006105659426, -0.07376723466273838, 0.0009007839992492931, 0.0169087467619112, 0.011390547933496106, 0.015003104300173068, 0.0019515955760768021, 3.5536915222638486e-05, 3.482149099447713e-05, -2.2262201731801736e-05, -0.006965541153689477, -0.013787280327289977, -0.00939442410647634, 0.018311630848957743, 0.07888983889071566, 0.08683823433032342, 0.03954777529710652, -0.008953723036071838, 0.05136796730515693, 0.054265071608367056, 0.025016975507676762, -0.047494369289783435, -0.08727716242781719, -0.05719902619641272, -0.10978266444242854, -0.11214114823860331, -0.17291345563293814, -0.11110084373547895, -0.03857918721040011, -0.07218465082567506, -0.028759500691536963, 0.03955879296876085, 0.0918100896990178, 0.04209044873777903, 0.01467265013874779, 0.0005661400352520085, 2.3807374029470238e-06, 0.0013145737901558742, -0.003448646624379842, 0.0011053488839733348, -0.011194073869960379, 0.05601800546480657, 0.1357848719536539, 0.1753665410718499, 0.14455425184610005, 0.19193334899879538, 0.1407161366220499, 0.004475750232293166, -0.0025271187899859097, -0.03714243186411949, -0.1437865468244523, -0.19270359303767093, -0.06918784396740642, -0.051983973757188065, -0.031060201684857725, 0.015085601304272906, 0.0519769421221395, 0.007116097664340684, 0.05941918812848894, 0.14250923343577498, 0.14436454761311876, 0.09658633820533864, 0.020593879561619892, -0.0010914282449710595, -0.001920553946526114, 0.004857922437024745, 0.016100873993444866, 0.032625972939245004, 0.03505657928655271, 0.0980722375190044, 0.10774484264806079, 0.20641242849228714, 0.1747124741343114, 0.08857213898737357, 0.10393252209282447, 0.1297027646620727, 0.11511616665743495, 0.09967321434839738, -0.0009076590378555066, -0.017485366571730367, 0.04525572040577762, 0.11504066193246487, 0.11855881888782158, 0.0678173852306971, 0.14684057163036454, 0.10993227184746117, 0.16121410622160712, 0.21872883453178477, 0.22401877031033043, 0.13834312770823023, 0.03726668058823748, 0.0019818698286854586, 0.0007704894910385634, 0.0057143830174690696, 0.034269731871734994, 0.06579237418057486, 0.08923839015776745, 0.13278628991903743, 0.09076859285536495, 0.1087796460981357, -0.015240416376588134, -0.036839826382344176, 0.022866645993978064, 0.030455931643801185, 0.20230308951233497, 0.21746115412587777, 0.1750684039922558, 0.16517855834633308, 0.23956811315383686, 0.2770914212314555, 0.20367147457035636, 0.2071122933426107, 0.132561862611962, 0.19019551841019958, 0.15041215213611744, 0.17051786989444306, 0.2585267625993997, 0.1777935487068788, 0.027990900988143812, -0.0006187754441998648, 0.001081427507922258, 0.0039567600665585375, 0.06389408131266713, 0.03424994938746293, 0.09307717889118877, 0.13516028152778717, 0.07960114399120208, 0.1028318735755763, -0.04711578525855718, 0.03063946929441004, 0.05254107365050462, 0.0026581279442297132, 0.1444244458321942, 0.44188728344646394, 0.5268760638107711, 0.46148013676498956, 0.4305175603119684, 0.3725883578653379, 0.24966587854835548, 0.3078484312063562, 0.22396876324332013, 0.22886880611289814, 0.1583959810306059, 0.10447672963986694, 0.2112886947902277, 0.15350856164342083, 0.03745658411461567, -0.00031287675586720527, 0.0003152829662830665, 0.011885559260796269, 0.07252951259521626, 0.06439536444991042, 0.0801838021609393, 0.05772430223624447, 0.032065178506265606, 0.06158007368669771, -0.1297862752015894, -0.033942600527617404, -0.16046582576421828, -0.1810909155612996, 0.027345894161539906, 0.32766160618219187, 0.3814741670808566, 0.41838804277891734, 0.29482386870849325, 0.0646904722392554, 0.12438361808227454, 0.06548068121254123, -0.06253184763570241, -0.018639569755436052, -0.059648860219289244, -0.09451357451023115, 0.0012608074840079115, 0.09991042838204948, 0.040804766372619934, 0.0007239112775771228, 0.00014210832873346547, 0.020470622595006073, 0.057506573693395596, 0.04098603388799401, 0.06434975385249064, -0.01912587328950979, -0.0955421613677723, 0.04945993421082944, -0.07563378731878598, -0.13996435363529328, -0.2575148469978603, -0.3817993589113077, -0.4112269074978774, -0.33440140030993937, -0.15759215115471614, 0.07982988145802591, 0.03133614842590132, -0.1886689600117509, -0.15102823441152805, -0.299005136299021, -0.31634872342299675, -0.30665725928184084, -0.25986600246621566, -0.24286288203683995, -0.15127405068395483, 0.028912912308557512, 0.018109928930377394, 0.00032246439210501166, -4.174498704440634e-05, 0.009115916024415234, 0.03868000266369135, -0.010408443132468043, 0.03029115433771237, -0.054425822568576226, -0.10498625992646576, -0.12791562927659567, -0.10899198489815436, -0.16000738378492807, -0.2790294314165487, -0.4450708796206634, -0.5714707177453522, -0.5340220813162772, -0.3824231594638985, -0.17561932265101549, -0.2138671213400726, -0.31341088899598457, -0.23934256786570723, -0.27149233709415166, -0.2387428761682706, -0.2700024549911268, -0.22564196653170607, -0.20016599648218153, -0.08000869722266153, 0.024081191401881603, 0.0019856588461410387, -0.0011748643014788708, -1.1158010943784408e-05, 0.004122190463554254, 0.02280792302208644, -0.026196188312251734, -0.02796845396461388, -0.05318227554664818, -0.14855843867987725, -0.20532854045138724, -0.20187105236480904, -0.22724569772833925, -0.24806114533205825, -0.3636090874123128, -0.3686629328072353, -0.31724173705360903, -0.15341535483134183, -0.09440777782837217, -0.13986220765975285, -0.19407674813460557, 0.07918070731464324, 0.10653805516327894, -0.01290101788702657, -0.06279971284333308, -0.07012463018782886, -0.12368406123787726, -0.09851423859445761, 0.008108294895856087, 0.0019420705384023194, -9.851408094641126e-06, 1.9365641237604816e-05, 2.0452616730462913e-05, 0.014140642951015449, -0.02179758167529353, -0.07510349004182845, -0.1695815297777216, -0.1558029447015589, -0.20258495927642306, -0.2505484599934204, -0.2603775824572654, -0.25856093594780416, -0.23918475916299697, -0.1737002531560162, -0.1528998721844696, -0.0964644530781571, 0.004849371173190182, -0.06564073359534489, 0.11595364316124172, 0.2582084607065687, 0.09981928881892015, 0.10063538834519198, 0.09638715666415387, 0.014499744781883515, -0.0467505034712794, -0.04687887822470823, 0.0025834111458307033, 0.0032609214765922058, 3.609817983919051e-05, 3.1490726845020815e-05, 3.251581960121753e-05, 0.007900925229998763, -0.013841686656348579, -0.09276547108280947, -0.23025384925012424, -0.17997514173174145, -0.17777980277038893, -0.20088594369165844, -0.18739353763406727, -0.17233862017746232, -0.21913558618318302, -0.06924389840567931, -0.021284501832506252, -0.03986733521073281, 0.054728297754208684, -0.046053720732570115, 0.07186634291818333, 0.04575772725863482, -0.00683806111649313, 0.04497714187929066, 0.062361365342451784, -0.039433415010090025, -0.026274313831100134, 0.0156653597096132, 0.012359188693957206, -0.0013127197257021795, -0.00011156918386510714, -3.6252342328846176e-05, -5.955026906141409e-06, 0.0049702972967491195, -0.035764347219998244, -0.09150955714145932, -0.10851523059761449, -0.055761868467360115, -0.11796931426728961, -0.09234863062614379, -0.09462294949013714, -0.18334455866521393, -0.1214426822409332, -0.02604085228407649, 0.08698937575466312, 0.0923907291763244, 0.05859373763530447, 0.024082401281902706, 0.037897864395863276, -0.01368064876004691, -0.03228859312393752, -0.03729801825829769, -0.09740210821471978, -0.06359855774814421, -0.033981858364339125, 0.003250966466370843, -0.0023124593490348117, -0.008583619215222252, -0.0016712634732681249, 0.0016141980770611978, 0.0005112934213476141, 0.011160574742747268, -0.04719646035290159, -0.06649683912717358, -0.04182029564555994, 0.011171990514032813, 0.053269520189056944, -0.017629669098219558, -0.08520998485253937, -0.1390032526528606, 0.017953398160844937, 0.22674599375818016, 0.25247070890718504, 0.13408748427917652, 0.027350916582042174, -0.017647872019246724, -0.0833024570502116, -0.10537820876204992, -0.14593537946122512, -0.1224391658895629, -0.1631811149312996, -0.09112464500185605, -0.05116212049888559, -0.03176508324541625, -0.011188489111857705, 0.0001145467790350747, -0.00028772491207339137, -1.8706226091568624e-05, 0.0010857212575593857, 0.019298625871873035, -0.033976926030324685, -0.06041557648569539, -0.09461357183230149, -0.06542713367026057, 0.047545534726011904, 0.1098276531164981, 0.09689682328767274, 0.0033152223174266957, 0.06226387420144004, 0.1709910414195958, 0.17519135282477746, 0.12300382819655638, 0.014148693864790538, -0.11722737499167146, -0.23948952317621627, -0.1857559289099817, -0.15918678562782249, -0.15554294049343081, -0.2169103039368849, -0.16555700261392753, -0.0692885791602718, -0.04029438837763299, -0.00205459833043049, -0.0006823293852223973, -7.35557986252581e-06, 7.110105533265714e-06, 0.00016072437386639135, -0.0028301781082130523, -0.055291877450750586, -0.12169183024637416, -0.0900341587842025, -0.08658787726875913, -0.050986842080206214, 0.08892411062177316, 0.11276812908862191, 0.05390702137543751, 0.09319600476145704, 0.16567226940289337, 0.0841807887088727, 0.08480297955935859, -0.07524937221413493, -0.1287575115161879, -0.1600130638663006, -0.1757674842591608, -0.17904872494393367, -0.2748240493321816, -0.23212740825849232, -0.15019003437066705, -0.058373844294430155, -0.02315043210716058, 0.0023249728931825043, 0.0008393209240255439, 7.695466716569005e-05, 2.7428836259442877e-05, 9.541352508671146e-06, -0.011918453654368125, -0.06205884240702438, -0.1115092736784507, -0.07983738414017914, -0.05416377991083647, -0.0047635411167521, 0.07602608966841565, 0.06845818039321454, 0.03798346104296892, 0.06485436241246748, 0.0699082882237432, 0.03447700417719005, 0.06995993804682268, -0.00680117814819641, -0.02460444579939889, -0.06253911791167811, -0.18374580736480553, -0.23494265315744978, -0.22280125146284413, -0.19978720452329507, -0.13246022599572013, -0.03227182537055939, -0.005972959109415475, 0.0026272852695739092, -0.0007444753230080875, -3.3893624400689094e-05, 2.5901983533428726e-05, 1.9872833430056565e-05, -0.012376027181839661, -0.037016150847546524, -0.06746584587829407, -0.047355294968701646, 0.005182236460371421, 0.0786553852766563, 0.04427769132137675, -0.027185013911355724, -0.050136610165491306, -0.057094729300883794, -0.09016738101971862, -0.06735515450787698, 0.029637134470957158, 0.10930709505592728, 0.04474392215587462, -0.07892067867029143, -0.13975527698710724, -0.12262170405565156, -0.185201528884174, -0.1888872228165256, -0.1492447592323473, -0.05409053497769526, -0.00023237205068723848, 0.0003036721640957618, 0.0007857964375299427, -6.1917704258483725e-06, 2.9474549941458623e-05, 1.4500245841205884e-05, -0.014402637077779931, -0.04383778488045904, 0.005582503309726352, 0.05152142619289946, 0.14482007112981904, 0.08939641224859388, -0.10326705971541145, -0.07607834208981559, -0.06175580015042055, -0.1339297635707107, -0.07660403517481357, -0.11297035071131278, -0.029894984194755485, 0.05805640455938622, 0.02399320525622253, -0.0725910570575025, -0.08740783218611493, -0.10295099971958292, -0.19363600627509864, -0.18643193010721607, -0.1651231009328963, -0.09341660759966543, -0.017827520881785814, 0.0005556608520403993, 0.0016727960201436474, 9.108446980900963e-06, 1.07611183104843e-05, 4.0794505561555926e-05, -0.013588668694943688, -0.028068932646734608, 0.004629572510040534, 0.08983706967929107, 0.11120752556920044, 0.03895724791858016, -0.009618629017396461, 0.010942689549662123, -0.007494907632457542, -0.04992687144411966, -0.019213590400273154, 0.06838885827078224, 0.004129432530171952, 0.02384745927815046, -0.0731527053871053, -0.015404794487603953, -0.05631189113015369, -0.08486570776495245, -0.13316107179684952, -0.1230948513549576, -0.10215423806155105, -0.08542247208359094, -0.014966495197899568, -0.0012872622581110028, -1.8020454128591991e-06, -2.8591549578766144e-05, -1.2188333148388243e-05, 2.5766873219430568e-05, -0.0030302915324345882, 0.0013118073763613177, 0.025042753468694293, -0.005134192793913773, -0.025045716742018255, 0.013654564156349268, 0.05463756609542888, 0.05247899128710605, 0.06817172809280556, 0.13052632990360843, 0.1762054722125034, 0.09143760807966142, 0.041139417802763686, 0.07015248974446207, 0.06549887862873324, 0.059007522445555356, 0.023439764949435456, 0.021845891960840545, -0.06109236620941365, -0.05843731961906094, -0.026466260879772503, -0.02154621956310026, 0.002534788635967298, -4.0620871098526686e-05, 0.00010125784430806908, 4.46029388458347e-06, -2.3263737125114153e-05, 1.1073190741163263e-05, 1.8226137295181732e-05, -3.523510356062304e-05, -0.009225538351539962, -0.014731783024521465, -0.03286695857064177, -0.0372799169866346, -0.054814176974838015, -0.045154275544956476, -0.003996224851071649, -0.0009892349435207833, -0.05359219637203048, 0.0141881670388718, 0.06013705793890587, 0.055495186482913406, 0.008688792944932681, 0.050955474039577446, 0.08585139867945316, 0.10525736910750906, 0.008134159732128287, -0.037661775377745586, 0.006096247488326686, -0.005201911882962567, -6.461918740519623e-05, 2.3189926936495162e-05, 1.1476322879489562e-05, 2.458237573753205e-05, -2.0686503103489543e-07, -3.326294985978102e-05, 2.2015005947680687e-05, -9.660506099661046e-06, -2.209022160517071e-06, 0.00010946901425846362, -0.001305100341227218, -0.009388222965311322, -0.008164538666913461, -3.7072027427271995e-05, 0.018465448836089908, 0.010467848415484588, 0.007213394464581966, 0.020469669154628327, 0.02603461218060475, 0.0352246761979524, 0.03516998548595717, 0.03393342821807153, 0.019425338338923334, 0.022357855093642916, 0.016106261076503255, 0.0006294639173495327, 0.004466057399534239, 0.004734618101309318, -3.0548927104980276e-05, 3.577063553217869e-05, 2.2719467310281062e-05, -3.297283379148288e-05, -0.016439746216689824, -2.3784707254216467e-05, 8.435009832636063e-06, 3.3588860051945166e-05, 2.5999350281565018e-05, -5.947254995801043e-07, 3.1950795656764464e-05, 3.038315799091761e-05, 2.436546973682319e-05, 1.6017279868688563e-05, 1.7818519384480792e-05, -2.809198497747345e-05, 2.9424769208031876e-05, -2.913519102992811e-05, -6.846007000474281e-05, -3.5290306535286435e-05, 1.9036184730489673e-05, 2.8622181457160365e-05, 5.476262713966465e-07, 3.092001338618074e-05, -4.048519901850872e-06, -4.4886055062842405e-06, 8.576570122629986e-06, -3.758724841234698e-05, 9.209602202994268e-06, 1.5371024477626788e-06, -9.000478597629418e-06, 1.5185174353976575e-05, -1.5577702608476093e-05, 1.1298186672004722e-05, 3.385393941323175e-05, -3.7774711478465465e-05, 2.8060160649225377e-05, -8.040388538145037e-07, 3.7126997236772655e-06, -2.9180991790446294e-05, -4.4263652183912526e-05, -0.0018914100723546083, -0.0015007546635139154, -0.0008374070119880968, -0.00018852460720757299, -0.000353043128789884, -0.0002504816450398489, 0.007747072766819435, 0.008887499611669765, -0.004741006442395053, -0.00282134201932674, -0.00017214162869838229, 3.226799646860969e-05, 2.828780150234502e-05, 1.5095974067029185e-05, -1.4317278309633349e-05, 3.330344594230607e-05, 3.15154777529609e-05, -3.225698632567094e-05, 2.2853253947667514e-05, -4.079176095864553e-05, 3.6181977438015866e-05, -1.4344433249740695e-05, -3.758628385735976e-05, -1.4066852036403158e-05, 1.712084815019798e-05, -1.4405993911827784e-05, -0.0005344938219757134, -0.0013383906465147455, -0.01122781367999869, -0.020542693716346396, -0.009311709285186485, -0.002523772172878175, -0.0073501751371581785, -0.013129215276458243, -0.006301101805184209, 0.004670303943931216, -0.0037548288877061317, -0.015268601473069885, -0.012489243308433854, -0.009482019661161533, -0.009039238100361374, -0.0033696592008198097, -0.0006288893760305872, -8.729678068387212e-05, -1.8632517813027225e-05, -2.1136585609682375e-05, -9.30215148701397e-06, 3.970942884972291e-05, 2.1196732336281662e-05, -1.3543027495357539e-05, 2.6559314838846787e-05, 1.0066720862110244e-07, -4.899282460531708e-05, -0.00367874217235714, -0.005109066657651009, -0.0050193158571055765, -0.019675205786046774, -0.03428791052750597, -0.04918843790510899, -0.07613058162889381, -0.09572416975419175, -0.11470878873064451, -0.1154108749532989, -0.10928303348971186, -0.08856209892076605, -0.07631037317955441, -0.09858728627148573, -0.0839367751409864, -0.06701920318693706, -0.03225175833464547, -0.026606645065291406, -0.01995743771286203, -0.01223944925325776, -0.003772082748398963, -0.004116497095381939, 4.425677886609737e-06, 3.692390524238719e-05, 2.9081352270359535e-05, -7.074535469722989e-06, -3.562048503518627e-05, -6.033107351041507e-05, -0.018323232274726577, -0.019804348844423586, -0.03009265640157576, -0.03999183054625568, -0.05892508768714421, -0.037028784346397454, -0.06584944561606583, -0.0717877068765779, -0.05473529915804781, 0.01719918766105692, -0.014938611186426776, -0.04762273265607934, -0.07060879582911538, -0.03717446106053794, 0.0390992273150953, 0.0442379584628924, 0.05902845804346129, 0.03395016722209871, -0.0015038427437590511, -0.027984934238225737, -0.025886529574243963, -0.0019584716984348796, -7.580197600721035e-06, 1.365582884805282e-05, 1.4386527053837598e-05, 0.0002122334406166445, 0.0037205870418902396, 0.0009177831753894812, -0.025681971160842747, -0.047080592271293215, -0.0806332283324827, -0.15163193577137726, -0.14945492820427247, -0.12474006812528306, -0.1398271885662421, -0.14290949865270608, -0.1271468074800331, -0.01411114027668622, 0.014820184952822255, -0.06618821540648817, -0.15773272758467177, -0.08989230187133561, -0.00929556404968016, 0.0687767220240538, 0.15999021591183024, 0.17060196615205409, 0.08989520954330127, 0.006987724357167007, -0.038106809474774926, -0.002575659101252534, 1.5766516773387667e-05, 2.491346275592744e-05, -3.0068005004913856e-05, -0.002521769700498026, 0.007587679596267939, 0.006329396940982247, -0.03954463596994085, -0.09831621211740452, -0.17563854941228285, -0.22410266000469564, -0.22234052477664126, -0.23119592476754136, -0.16415383503932776, -0.21722743917892437, -0.22483131432867334, -0.14796909965139302, -0.22707704411101137, -0.19251633716363234, -0.1555070562702675, -0.08382212513027892, -0.061684402808756436, 0.12545039810082648, 0.1264195616010296, 0.13052247531142863, 0.04342678477858786, -0.016725905675713203, -0.054768108965948116, -0.005789596769555363, -0.00014370836427830282, -3.0404104565830104e-05, -0.0004896682850691944, -0.0024292321546423514, -0.0020656772673147204, -0.007795220365334927, -0.054381785802669634, -0.12586357712594198, -0.1955207477531768, -0.2678289827201453, -0.2684419627630874, -0.24195157111172153, -0.1779800347365631, -0.12587679583741782, -0.17259441521999733, -0.23795552668720263, -0.256604459353543, -0.1787489506598522, -0.11584524933735553, -0.0766849188731862, 0.02806440391550472, 0.07322790121491003, 0.00898937396245321, -0.005746607815162068, -0.03388701311730552, -0.08466791688753622, -0.049159481296153246, -0.003046899127925419, -0.0002349921607746778, -1.9091266611372173e-06, -0.0007120291644417885, -0.0013371311412314786, -0.002047362831505603, -0.024728355627766006, -0.05108805712471599, -0.11957815760250547, -0.16813093271328353, -0.22815623217275574, -0.2800702500357768, -0.24650926698283757, -0.19336901646787888, -0.10998992231954567, -0.1038900451823275, -0.17703904079176205, -0.0838180259713666, -0.08997889470804428, -0.007609363643277152, -0.0785550323460863, -0.07122390278228097, -0.10162482357522434, -0.13450730089429494, -0.13693449642678265, -0.17065373523597938, -0.16192850564662517, -0.06798005435921468, -0.006958613680187545, -0.00016733021522554665, -0.00015128324862558848, -0.0020517857650058043, -0.001699258335576821, -0.006772878609214402, -0.03896633101332002, -0.08152799627186938, -0.12853959419739971, -0.16353698849417045, -0.23549831954300107, -0.29276275262657064, -0.2576553830744585, -0.10692903665929517, -0.1303582969394779, -0.05250485102442913, 0.025951537175077165, 0.10572758044384588, 0.10689796009138935, -0.06423991285260837, -0.08620270413052236, -0.18568930158563993, -0.18267921284015015, -0.1890398322469237, -0.2172206913986582, -0.20513461224394688, -0.14910702275353124, -0.07340675725718522, -0.011894944752563119, -0.00029941759520301194, -0.00022088815947093809, -0.0004783251499684095, -0.0024670619212217074, -0.017426174568669163, -0.02955578911491245, -0.06845767720249162, -0.0954552820511647, -0.12152760216502441, -0.17116482205563577, -0.2308313747222714, -0.21385135236311145, -0.026079435716716913, 0.0037936401903233036, 0.04190086663519281, 0.16170742393397516, 0.28675883311809197, 0.11890924756995573, -0.030665138528174853, -0.13548984433607492, -0.17972652541909387, -0.22523604827620064, -0.2135740901771506, -0.18049095812822127, -0.15608389540120857, -0.11529863784465096, -0.04835189826942456, -0.011629981809732154, -0.00028717454974124717, 6.661965130544672e-06, -0.002812421132506491, -0.006496860224269156, -0.014757662136588995, -0.02265466279459625, -0.03943479322964995, -0.05596597352169548, -0.09932508206356826, -0.148116240162607, -0.1778275138366629, -0.18446826229776261, -0.07611331855604446, 0.009818266857941634, 0.14899014008641984, 0.2732236438233461, 0.2970390673424606, 0.1480891664898449, -0.064415901177274, -0.06528400573439018, -0.13770657836091565, -0.13926150760086858, -0.13044034118847572, -0.11068918487016499, -0.09898498432522113, -0.06390530842656302, -0.03228797952439851, -0.015770879569139865, 0.0005587145209934206, -2.963978640064522e-06, -0.0021886475778621823, -0.005691457899976739, -0.008653085502247202, -0.022186940705760598, -0.041219086146556144, -0.046733859240607786, -0.05363271267075673, -0.08412984292595274, -0.055196381168316634, -0.11041568067976726, -0.12008160837353962, 0.08618941167520186, 0.21898146597694826, 0.4448742058002326, 0.3583283611805651, 0.15140409793284992, 0.03231933592796231, -0.10332479517272332, -0.12189015665113412, -0.1079688151981975, -0.05322168836220577, -0.06169367236920993, -0.04255249977456864, -0.03318526746495866, -0.032440238801029184, -0.017247442821386492, -0.0006617458775142182, -1.3187903368064635e-06, -0.0006063169828406658, -0.0029841653008448807, -0.00255064199096335, -0.01705695383186276, -0.02856815921386966, -0.031103433627889004, -0.031582205039645136, -0.007744465026245148, -0.035456390892665994, -0.14321054117345203, -0.1667015128343276, 0.06408665701039123, 0.2718768348001382, 0.43204988257358784, 0.2242756794127663, 0.14711621144300646, 0.0494018140525525, -0.14059914844262697, -0.15127713713415994, -0.0961605846682344, -0.06972452981194383, -0.0670107929105614, -0.06920481264615055, -0.06784208135110555, -0.04650147590770159, -0.025757777787164572, -0.0013958355881746383, -1.8837553871748575e-05, -0.0001723332478387397, -0.0011867539605856005, -0.0015900213855166798, -0.007258166966957113, -0.0364968324729352, -0.03206218192000198, -0.03184581367577843, -0.018163438585511477, -0.06709974157157388, -0.19581943924490816, -0.1641334225801666, 0.030886525679716566, 0.2186581202594142, 0.25905117803867167, 0.11747878996793674, 0.10011559944891427, -0.15902760403704536, -0.3122947914071254, -0.2152747829317275, -0.15569618245584163, -0.10559519622672851, -0.06873879002574265, -0.05292087695752514, -0.02110728036019376, -0.010619775986052925, -0.0027522854940026553, -7.490871393228328e-05, 3.5907311002506693e-05, -3.152755410093448e-05, -5.1700253715782436e-05, -0.0022104564712190507, -0.00432770047261563, -0.0531102820196341, -0.06002822210560646, -0.05127722231204197, -0.06378830706752965, -0.139197323336897, -0.2153995078661392, -0.08434100973669025, 0.027302567485571312, 0.23316327930497016, 0.23841248287543623, 0.077974875800603, 0.04908041530676787, -0.30260959193021564, -0.323528991898718, -0.22898501155992418, -0.12976871803745157, -0.07353241109236677, -0.05640583029559064, -0.0383469807090007, -0.025799059541372005, -0.012154992127509595, -0.003949015490953885, -8.479146220004371e-05, 3.8051188931930924e-05, 2.806259239297593e-05, -9.531831278952488e-05, -0.00381998399016621, -0.005049939712576973, -0.06963430514242426, -0.12399630404253623, -0.12994152751496155, -0.12777131682299608, -0.13135483190363587, -0.1455324131136336, -0.03694515648556292, -0.014763099331207638, 0.25761832419586933, 0.309611496741844, 0.030953445763498687, -0.09420213714424014, -0.35573350384818586, -0.31935971604847185, -0.2069502388262756, -0.11122036874203711, -0.07040822572794249, -0.06937027125346178, -0.04585634242188353, -0.03389094445351669, -0.02661169772059969, -0.011183598772227037, -0.0004590012973800876, 3.726688161835536e-05, 3.605608031412975e-05, -0.0002525591315230371, -0.0035376536801269964, -0.018720146071372814, -0.10430462282922941, -0.20626259730890306, -0.19363033993458284, -0.14062789985443347, -0.15392887292274277, -0.04602431688751615, -0.041434927730099685, 0.044335491512604804, 0.2742382625065907, 0.1981273246582606, -0.062270732119242965, -0.2216622864039188, -0.33979287709422196, -0.30270073738068853, -0.20058727652434513, -0.12300943447743937, -0.0862431113896586, -0.09143393673240072, -0.06883651316945659, -0.058490867200558724, -0.019057697862642803, -0.0103508150479658, -0.0012728378642721323, -0.00048461610226034597, -7.413609702311837e-07, -0.0001496733414370235, -0.0014194333208721254, -0.029330465467814478, -0.14114906181418646, -0.2526979382142432, -0.26376164740438524, -0.1605071244236539, -0.12878254532368635, -0.09773299310779329, -0.08975866137222746, -0.04363195661280956, 0.0992301628410341, 0.1114765593103, -0.12753927544743215, -0.2356465074409308, -0.17471813076333514, -0.19498395684389352, -0.15372976528595805, -0.1153865843883372, -0.10045856739544516, -0.09405881067362697, -0.06614483654699303, -0.030611393873866306, -1.0406391420683306e-05, 0.00038426702658916293, -0.00011211751944170118, 2.017602359679149e-05, 3.338717515920526e-05, -0.0009249879031591614, -0.001519132223713828, -0.03771698432825303, -0.14743176808327826, -0.1761137598591648, -0.16068825561122202, -0.16975760190428218, -0.12342001372491429, -0.18687340630943877, -0.111366807707383, -0.07337655784860163, 0.05174811026330434, 0.05369997508872501, -0.08569841672399899, -0.09571823974721416, -0.06916753870568071, -0.11858458590798723, -0.1043825670012562, -0.08888171483116668, -0.10528308023102924, -0.10791090733404461, -0.05412719968030703, -0.019695288578057222, 0.008489637223157528, 0.004619147928661904, 0.00019489171984657573, 2.5883474059527896e-05, 4.992077796993016e-05, -0.0005121526971735236, -0.0031518208438776367, -0.020718823367453336, -0.08631061896795911, -0.03042900739689263, -0.058748787326807196, -0.04838159001444275, -0.11329599964376683, -0.08727171275296727, -0.054305718918511284, -0.026972998930457605, -0.06235958087620685, -0.0356711555490176, -0.1018097677245616, -0.03317095159565865, -0.026524393216702087, -0.06751292922359488, -0.16097500369340104, -0.16296355336331872, -0.15212528711610754, -0.13240638191424375, -0.05933323720027494, -0.010806972063425551, 0.006296453437358533, 0.004078456627545706, 4.1038094067399956e-05, 8.329933876593223e-05, 3.613989661627563e-05, 7.497184390449251e-05, 0.003964228439667696, -0.00857243385685733, 0.07408481512517068, 0.0686992874178848, 0.0363531743752353, -0.04940815771806581, -0.13343475601554744, -0.023465188799045522, -0.1447130615741125, -0.12933350374429164, -0.08932043072274387, -0.034810838815235175, -0.02189442968138282, -0.01202269719408682, 0.026576272446128216, -0.05485734356985492, -0.1707540905132013, -0.1607354107037746, -0.12473277886596285, -0.08947062605792298, -0.04480646638597814, -0.013370544117528823, -0.0007370666034603101, 0.0002454088168997601, 2.444147622432844e-05, 3.1746463683335994e-05, 5.380752426301929e-05, 0.0003536938691034333, 0.003163955435572046, 0.0017497444644608577, 0.13399215333226266, 0.14517838982899112, 0.10778470637770339, -0.022778457006958727, -0.046146562141460956, -0.08616509021110912, -0.20879899148580336, -0.27714560862534066, -0.21984420903883267, -0.03941640775320185, 0.001624831228090079, 0.08839512277035488, 0.16042499044729613, 0.08228519656806471, -0.03536334553709423, -0.08330932874626348, -0.06558975363466965, -0.03539965152752948, -0.01712525053221761, -0.005646090939587932, -0.0013481633769237664, 0.002352031139304152, -1.93879411717501e-05, 3.830186344717999e-05, -1.8683825290990086e-05, 1.8124807459431286e-05, -0.012197848990500727, -0.010183702357813051, 0.13500181440089887, 0.1600853490630804, 0.13267255482518922, 0.04689966637802424, 0.029564357409329018, 0.008526509299058928, -0.03745858136424213, -0.08595206945452466, -0.16956922829274246, -0.09307825570846785, 0.10089578341331776, 0.14882121232536824, 0.1927174981866033, 0.078072387360066, -0.028866463231947304, -0.09520064066985696, -0.07897497998099642, -0.040030726447664845, -0.022189197540939128, -0.00036192910915094337, 0.0008656262956280542, 0.009609258912408557, 1.5907992772345298e-05, 2.3659543431043897e-05, -3.0896722205053157e-05, -2.820631140702091e-05, -0.007747729121211699, -0.017408793083445076, 0.026268436699558306, 0.04250807405471976, 0.005330250608705684, -0.03474626093003225, -0.0499783355040291, -0.1323816911264988, -0.21643413133101222, -0.2584687738049678, -0.31436705958604233, -0.24724464963547996, -0.1805499522383298, -0.16196540328182513, -0.053255281473661216, 0.018193830112641217, 0.0013939293896108095, -0.04259832803277127, -0.03448483535460701, -0.009553513245298784, -0.002708779563271795, -0.0004557067416451586, 0.001656833272875995, 0.0003341201299571109, -2.9033934109317584e-05, -4.079198654188199e-05, -3.6671835556021476e-05, 3.722404968499343e-05, -0.0017734121715716163, -0.01759796656529633, -0.02396164466251405, -0.036936107505742756, -0.06273685225366388, -0.08011908153741852, -0.12606232640985482, -0.1915557729257456, -0.1918866592390339, -0.18539906578674317, -0.17496156939031668, -0.16255266129650772, -0.19758423794169094, -0.14228008037177878, -0.07315629727575476, -0.01872100047368464, -0.00719600271142593, 0.0011424609662029617, 0.0005018231984033945, 0.0015409253400250605, 0.0034487573070678453, 0.0005260808967820877, -5.977779231878834e-05, -5.3486943931105774e-05, -3.976591706071599e-05, -9.771623297327127e-07, -2.9237460313138566e-05, 1.479186743812978e-06, 1.584651546964143e-05, -0.0001759129289677215, -0.0010685619049832194, -0.002128355847662457, -0.006608085685147166, -0.012695555167516907, -0.017591871562046026, -0.030886902442495142, -0.06051041525619428, -0.06596128797427535, -0.07031637531126927, -0.061429727807126466, -0.061241104374688715, -0.025525422307415602, -0.01686829809651036, -0.011521890667861134, -0.001817015403307603, -0.0007206335588137853, -0.0005400123586873052, -0.00014658049837364544, 2.2181487859308896e-05, 2.135283527726043e-05, 1.0273972213086998e-05, -1.019899159584801e-05, -2.5729993601175597e-05, 3.4995677002525166e-05, -3.248521182672619e-07, -3.821136665738557e-05, -1.531004763772856e-05, 2.740194743993971e-05, -2.515340372971917e-05, -2.936408052165247e-05, -0.00010149949684658246, -0.00012965685353312286, -8.113085582484375e-05, -0.004494973025686018, -0.004196641466884263, -0.0007587516273866957, -0.0007918666285601503, -0.0009882345171159993, -0.0001943255421330047, -0.0008476776805828829, -0.0016036853988136513, -0.0026677499040010533, -0.0004798229086029534, -0.00018819811784720055, -3.2670497811642085e-05, -6.256578874737955e-06, -4.230726023589115e-05, 8.793818655871492e-06, -1.9915474382263013e-05, 1.4626500710334926e-05, 1.876911521804982e-05, -0.0295271912068761, -3.615551524068816e-05, -3.863718026964632e-06, 2.129673327287421e-05, 1.3801508274158626e-05, 1.170347655005205e-05, -3.3325639200893e-05, -1.0231539042500071e-05, 1.812545811374508e-06, 1.0994805493575445e-05, -2.7451376236175334e-05, -3.329934056433899e-05, 1.022688525965183e-05, -0.0006780938116425952, -0.0011951850012426328, 0.0002474512888115581, -1.0319836511584702e-05, 1.2930701254323666e-05, -3.4863097831930333e-06, 5.931417125137595e-06, -2.2777610527879946e-05, 2.0190857905972657e-05, -3.2377044523120086e-05, 1.0156355240993803e-05, -3.224594085364669e-05, -2.901878847832064e-05, -3.707658710184356e-05, 3.29753879077811e-05, -6.369325315284411e-06, -2.4536784316988116e-05, -2.6379377899424463e-05, -1.9638509652527653e-05, -8.667096514386547e-06, -4.4668994695782034e-05, -1.9965209944371847e-05, -0.001884471787425965, -0.004191875001959703, -0.009085011254561067, -0.007396006924677865, -0.007288794286018283, -0.008604236408205557, -0.010857828036106508, -0.006117330552873991, 0.000868709229901011, -0.0013744682727653797, 0.001187742978703449, -0.0015647893615654811, -0.0020525163141636112, -0.0007636296601662185, -0.003447069165399886, -0.001591813404790297, -0.0001506503287679095, -6.687322684956589e-05, 3.623114034913321e-05, -2.9353897079430995e-06, 2.2547892927833788e-05, 2.548510029453178e-05, 7.266222138870972e-06, -1.9990994331000986e-05, -2.5842947097737832e-05, 3.4699997543507e-05, -0.0003518440268881031, -0.000155429837222319, 9.835425995730182e-06, -0.004745032376472802, -0.01946607261709418, -0.027292285708253785, -0.0334019872575199, -0.027853196502696312, -0.022490167009318184, 0.0015694685359990358, 0.03353765667764408, 0.04319693322945793, 0.037501232421383354, 0.01372775210633488, -0.009761291682149844, -0.02152687171648357, -0.022444099267287444, -0.016703882957943516, -0.009723583503073143, 0.00104471878229111, 0.0010810461598571139, 0.0002649423598510215, 7.95782153713051e-06, -3.4783450639703724e-05, 3.5669481640045e-05, 2.5502804709478175e-05, 1.0253496021998645e-05, 1.6984780306107593e-05, -0.004367495087812165, 0.02376655035593254, 0.015046538679502237, 0.01766538535147617, 0.01871100900884649, 0.013597192089960533, 0.025413523318250784, 0.08079167329148573, 0.15931442286542424, 0.19835919647444059, 0.23231643453744508, 0.2177685764348788, 0.20825963649423318, 0.164926581655355, 0.10869457819885846, 0.04186674469938288, 0.03472441423251281, -0.07457634632601609, -0.08823403889589072, -0.05159191579377756, -0.0222029014916311, -0.0032306698928013817, -0.0020736716082488623, 1.5845584685392758e-05, -6.353157337206494e-06, -4.77059305522104e-06, 0.0010123002950758006, 0.003424841838127196, 0.013375178970756681, 0.049330471304268965, 0.05707666344316497, 0.09246031776463665, 0.17515475879895034, 0.22684127075944432, 0.2439168766155106, 0.22085652420524723, 0.22916889673557983, 0.2938405147746176, 0.1738668947924578, 0.11366310072703692, 0.07220668591883382, -0.010385811741683583, 0.04272429190939595, 0.023782686809240332, -0.01577204558326522, -0.09545648347015859, -0.11097050033224636, -0.14893139132086597, -0.06888869760165693, -0.019204135904838503, -0.0003948716978473346, -3.805729119591116e-05, 3.94344507232372e-06, 3.6654566955462643e-06, 0.0002840946227192317, 0.02023057936807597, 0.08142965569163832, 0.17611644478407515, 0.21577901980425374, 0.20324476182080084, 0.1556964816484557, 0.13495765757177355, 0.11754479288456869, 0.018512383996410222, 0.09216729588669757, 0.12933191679402178, 0.08348524618671131, 0.06596070528289989, 0.010475049084141194, -0.17855371112187512, -0.07298526165734635, -0.060533867367549406, -0.0797898292725685, -0.08028057296821929, -0.17732449458900945, -0.20929561377007963, -0.11843134381391993, -0.04022110765286915, -0.0008758525725538305, -2.835546715684774e-05, 2.941939251794286e-05, -3.056960961641429e-05, 0.007878598026251658, 0.046067970425979314, 0.13799726558563027, 0.28781599558315285, 0.3086229267717512, 0.259268172060654, 0.1534528043937464, 0.06794569451559863, 0.05467035963611377, 0.0190032221517783, -0.018794182718987012, 0.0856748915227781, 0.1265641551126407, 0.01876711010774297, 0.10199556212499505, -0.03347894099122479, 0.05454507567523547, -0.01422396898546138, 0.12418746430085467, 0.08035980474036189, -0.21602930917413385, -0.36646807737157844, -0.2183855936914428, -0.06754371357808704, -0.00479646858554913, -0.00029884301736172666, 6.013698074503208e-06, 0.0020025686735166397, 0.020371626271984324, 0.06987921508312293, 0.2504059514500638, 0.2687206790530525, 0.21423715546192648, 0.11268459520676123, 0.013709125350839128, 0.00969862117816545, 0.06336058437058004, 0.0047473342625492295, 0.1485742708305482, 0.10533990675535196, 0.029232267267368196, -0.029528002098608876, -0.014724246226314113, 0.03316661862552746, 0.005202858948034066, 0.045243107658626165, 0.09477412911635659, -0.07053802667471495, -0.1582571259746965, -0.40409198729019424, -0.3192360931864233, -0.08438979976648833, -0.004939784740847996, -0.00045301505542727163, -0.0005302181159183823, 0.0020064167469019587, 0.01586607375518547, 0.0981025173984625, 0.2630778778350283, 0.18282616783454594, 0.09593765714566574, 0.088160707014425, -0.08817500324194562, -0.01990397553892447, 0.016755435786636328, -0.09540397260634638, 0.08025928130515458, 0.11151501178767673, 0.2159523200301439, 0.21556951917181558, 0.04622146860345854, 0.09991491225573917, 0.11086774494336002, 0.08628183633954659, -0.03884979085481144, -0.004470585365768953, -0.15150095739106784, -0.4997834827739398, -0.386202902865624, -0.1254180663135843, -0.012187553035885831, -0.000767948639363262, 0.0004666708519302394, 0.002677624598049648, 0.02110931024092307, 0.09030254917727562, 0.217051409362101, 0.10863927944127638, 0.0029386968995601176, 0.025999759715651032, -0.05809894064787594, -0.1780827155066093, -0.20658821487563014, -0.44968602546142766, -0.42858763574283226, 0.009558280959688423, 0.40285318477535553, 0.43025526838474903, 0.18248151927615702, 0.12886016470483386, 0.05564911652091424, -0.013174373329913811, 0.037651558580517136, 0.056217573759046346, -0.16680206040141493, -0.45377390728167893, -0.30277982987189134, -0.11552416010378955, -0.015223426263829616, -0.000730148605320274, 0.000524511794681556, 0.0022501756044722813, 0.017355786002363194, 0.0783690819088886, 0.12413697088591077, -0.0027723281469908597, -0.07209309044728304, -0.19490999913798782, -0.3667210866326489, -0.577033860278579, -0.5710746061443175, -0.6310554867264122, -0.5937637202832936, -0.2669949394119891, 0.27219962228507305, 0.4830474071095985, 0.25080749087796855, 0.11748716318390402, 0.09790688293379289, 0.1259453730563982, 0.053423782452566564, -0.04023193228531393, -0.17334527177261452, -0.28641550950445127, -0.18968797030190437, -0.04371124332992028, -0.0023564800603824397, -6.743409870694204e-05, 0.0002374539380965516, 0.0027021661766166534, 0.01274496029453914, 0.05042741583070368, -0.0062955824208729754, -0.201044902415138, -0.3640925321110084, -0.5541244904439583, -0.7401526973215075, -0.6251191928516717, -0.44367924534851916, -0.3660992539936248, -0.41211515517107816, -0.36998902298035646, 0.16244991781690213, 0.3970005871058899, 0.13885083673351215, 0.039310422657794525, 0.08402024381909534, 0.10079612725179055, -0.024606495089052063, -0.11394636701014442, -0.14764109776007445, -0.18563639840161775, -0.10552420455851128, -0.0014579663265239773, -0.006812668205303883, 0.0015440868154762667, 0.00017910968170327315, 0.0022009918657872074, 0.007289393052245368, -0.02402227239631762, -0.11267241368248665, -0.3025203486831423, -0.5296020879671962, -0.552833462040451, -0.4648181679511213, -0.20941321102301055, -0.09524907312360867, -0.28567718536997694, -0.19600692431952293, -0.25461463676905893, 0.09306861300295331, 0.1870709365008979, 0.1407119040008126, -0.06867596517761604, -0.004490185145731807, -0.06621837490011692, -0.13496557214843427, -0.1979078636504247, -0.19606217112333632, -0.14181875323169732, -0.02107026404309401, 0.03453949456337988, 0.00303082660965861, 0.002403300373724524, 2.5613783923719884e-05, 0.0007170285142934005, 0.00311487873177654, -0.04272181427363704, -0.1311754905810448, -0.2587762673767958, -0.36456473386568106, -0.38259100705793525, -0.07786291623795334, -0.03928105200321382, -0.14853499705536688, -0.2579292911216351, -0.18010604848309347, -0.14549521939048246, 0.1527459857393634, 0.08778813369451273, 0.09885190988144667, -0.09492637599546602, 0.04444578601994091, -0.11613076443361373, -0.16819246740609928, -0.10019826356985245, -0.12446211580453764, -0.13331818928469205, -0.012182588968627287, 0.03764809869147386, 0.0068935365519505985, 0.0012144052305533733, -2.1107256675385983e-05, 0.0004134243760164967, 0.0013883274498077687, -0.043556643532285076, -0.0388123603288372, -0.12301265261610714, -0.25755314320895684, -0.20699719003407993, -0.0681725605348294, -0.11172999784110882, -0.19000811759699368, -0.304779884592079, -0.19129364927860143, -0.020202277495031166, 0.14866830783639498, 0.06954185551587486, 0.024448571943545484, 0.05343806109809363, 0.10793646083184438, 0.04775831001444678, -0.0038399470808533273, 0.005338572886305143, -0.06053207127589588, -0.050725625986806556, -0.010817008282060432, 0.023691881393384132, 0.015785743346793068, -6.877752408467833e-05, 3.740827022530053e-05, -3.330601232526933e-06, -0.006255312223583411, -0.014467710375427094, 0.020605322554420647, -0.041830227811317205, -0.07743776767279159, -0.10921481509132293, -0.11746445146281176, -0.1490273355303501, -0.14861133893001804, -0.047132191624394804, -0.09109904365419082, 0.0705240140669807, 0.21273591019367322, 0.1707306787782192, 0.023189283583231315, -0.0018142225576012973, 0.07961238465470726, 0.10977361419852473, 0.10522424312741306, 0.08187207780168804, 0.08351213640826088, 0.05485850991633195, 0.0384814660593992, 0.04715768594453758, 0.03219657082533269, 0.0016114070693756981, -2.292294174168826e-05, 2.1145359755336776e-05, 0.013527675419935246, 0.06505034016405388, 0.10787230439848466, -0.01264048049593675, -0.041111660226261365, 0.01905142351011136, -0.12709611801461584, -0.05707977848285815, -0.09123717697068523, -0.05409936516774538, -0.07522671178004785, 0.11980800721689785, 0.21767446509095875, -0.07254286172645813, -0.03688584458925465, 0.005214896976402107, 0.14597276514218807, 0.2138661410109871, 0.18937411208440247, 0.10370427408604757, 0.1434086555552513, 0.13451608509048593, 0.10434381574303796, 0.0711084007698618, 0.033405630513907277, 0.005377116888336246, -3.21554388007577e-05, 0.001077326696749148, 0.023630581431106565, 0.13220729033486645, 0.16634318720405766, -0.0320018831255847, -0.10082055546570394, -0.030221400869016594, -0.15019592700060225, -0.15215357559890985, -0.1743830896579512, -0.11046656372137324, -0.014372493697784561, 0.20440370540196015, 0.09783033520386174, -0.11782248984953349, -0.04651116990966843, 0.03354200606250976, 0.10742933608724037, 0.09888721237923351, 0.051025935738628445, 0.07984573655636414, 0.10939774996213698, 0.10410975268622905, 0.06977521501649257, 0.05918205900390981, 0.02073512936579078, 0.001885738716934483, 0.0007766220895972682, 0.0009503071685759833, 0.00991208819151549, 0.1755582968697065, 0.1866569891264413, 0.019550130031579523, -0.10593557235044411, -0.15634928443741913, -0.12877714735966134, -0.14415794560134976, -0.2427466948686552, -0.2752747919494395, -0.14813376767522374, 0.08385350607877899, 0.06475738795341032, -0.0654002758768052, 0.06940105452644732, 0.017713359995701967, 0.13237923955341838, 0.004342605293580136, 0.08966392107011038, 0.20892483582428223, 0.1320218803309163, 0.1017810221646452, 0.030394878526754564, 0.044446088291641525, 0.01740474877598768, 0.0030236621025012075, 2.2631876733072162e-05, 0.001403456878793834, 0.002154196937983064, 0.16855861569727268, 0.19005313657781142, 0.041203118976616195, -0.02124043074985804, -0.0933449570139121, -0.07408075626779491, -0.07810598771833618, -0.09072318346447243, -0.1636191126235433, -0.19845486406338475, 0.04984363821290113, 0.02748116125743371, 0.09621054629679349, 0.15916391314416248, 0.15922307208852732, 0.10109095376080245, 0.01691476442222522, 0.09402606820745105, 0.16991228480015502, 0.10934878033641818, 0.0453314314768674, -0.006988508165944216, 0.04238751241692212, 0.016993554240762928, 0.0015524098282732103, -1.952846922491712e-05, 0.0003577490431774195, 0.016089761130239223, 0.21991639096856158, 0.2499242189288567, 0.039442656404573846, 0.08763367485607594, 0.08698886407041588, 0.053460900942261455, 0.09080338332896712, -0.017683060923309988, -0.011966195684992829, -0.17643176911490657, -0.15466374106599198, 0.08490067269816737, 0.12392178232325118, 0.11420683943257558, 0.06988834307672478, 0.21230224406356618, 0.06016669521649709, 0.13724449900421334, 0.09196143431145638, -0.0004058920722509362, 0.03592311216370412, 0.0012695584701069918, 0.027058879536613217, 0.009088611185935673, -2.2693144884970396e-05, 8.648191945671398e-06, 0.00015715056683718176, 0.018633724766207, 0.15387794982324488, 0.19326490181626516, 0.07618940574877106, 0.1224221073434012, 0.05411293411736848, 0.0388538991400767, -0.03531500215839893, 0.0021654864054440723, -0.11139652086662244, -0.12304927440579097, -0.16554839533378518, -0.06488395456760031, 0.06111976700701347, 0.06378249912937922, 0.09339501102364776, 0.10105437238108195, 0.09657900521170529, -0.01908611190552622, -0.01754622751660993, -0.0011484732304524413, 0.023898094187200233, -5.363682832587595e-05, 0.016485142086322003, 0.0021348437160496605, -1.7249893276986563e-05, 1.4579343927069974e-05, 2.3337980668430115e-05, 0.012140484893440832, 0.06552086231708641, 0.1012244596221621, 0.21617436121161113, 0.19895390551269004, 0.12663810082041416, 0.06958287724952475, 0.06176834842188794, -0.0047941904296767215, -0.16038717984011433, -0.2689473560107068, -0.24562394214106625, -0.18150390201526065, -0.02969193314547411, 0.047391678552360976, 0.09639342612415937, 0.2027105058135285, 0.06132861310041759, 0.027859012460794842, -0.03016783114914787, -0.0025774673726795014, -0.009390511747519956, 0.0027323286536363118, 0.0038856647473191957, 0.001255782905792529, 9.438753986944671e-07, -1.755755716044777e-05, 1.1851866317029404e-05, 0.004806861303176828, 0.060870883221244426, 0.1188835527468064, 0.22701907751537745, 0.24965753780023742, 0.22867818770107498, 0.01641280454620447, 0.10341195178282268, 0.02497600687759896, 0.03019035095038141, -0.10237841341477362, -0.08482434231872042, -0.15893662648752868, -0.08072659656376498, -0.07221467605146674, -0.04024482207523511, 0.03535910445639548, -0.05505085244248991, -0.10616194551241077, -0.05783872218963429, -0.05690872754782657, -0.03684482253095113, -0.002734504271106575, 0.004836376082071247, 0.007027265601927004, 3.8520603995159365e-05, -3.400984963522252e-05, -1.846957818384422e-05, 0.0009702926920340794, 0.054080878853042455, 0.13576690580370387, 0.18183282806447532, 0.2502980292021796, 0.21184410448750243, 0.12137944616570034, 0.0511946647505986, 0.03171765520431784, 0.11436738284385409, 0.026301214649745937, 0.06745984789999714, 0.05967509763929783, -0.037476039306729644, -0.14461060584600138, -0.0936427217211837, -0.21891540594359443, -0.21615676778388904, -0.1385812807957012, -0.08976038179327289, -0.05082480318000525, -0.034064198800361586, -0.007793137635312031, 0.00351793148655873, 0.0007103239510192236, 3.1482812166081805e-05, 1.6782398836687143e-05, 2.9918433516427282e-05, 2.4569814029339132e-05, -0.010938794044672583, 0.0313121976971314, 0.02960898800886575, 0.020311596688980315, 0.05370125406925121, 0.14045801123938745, 0.12786833208666631, 0.10715774727310298, 0.08610697497436942, 0.12200656598517748, 0.06988324076643834, 0.016219598018174717, -0.0697277208693777, -0.10777681987859208, -0.10672558381569279, -0.13991304671922278, -0.13281330078186426, -0.10528474270605177, -0.08294585194157013, -0.037946338092770884, -0.009487549579129612, -0.0012980382580071391, -7.919240995519112e-05, 0.00042215409655119244, 2.460796501351187e-05, -2.617890526784565e-05, -2.5731632884019153e-05, 3.1742879522004464e-05, 2.022464647857225e-05, 0.0017632417260956097, -0.013428672560543777, -0.014313339837633169, 0.007096752631916126, 0.0024555602013548758, -0.010434518560650622, -0.017926369287018514, -0.029615043962360053, -0.057690848483125765, -0.05860487860782128, -0.046391141203186256, -0.019864178138647944, -0.008021951456191882, 0.013350288752208502, -0.018070806363347045, -0.041871988162689215, -0.026715166388561647, -0.019103167986400993, -0.00884460346156565, 0.00018369912572817728, -3.5732459414092614e-05, 9.337786047382603e-05, -1.171735501183608e-05, 1.5618406217458964e-05, -2.1419832988228425e-05, -2.1190030381429318e-05, 3.962281501045261e-05, 2.5677706254415622e-05, -3.701312566998252e-05, 5.0354489243807535e-05, -0.00028574140504132193, -0.003958569427259382, -0.00299824433948307, 0.0011918330141493729, 0.003739584360971725, 0.0017604257491968178, 0.0044892356229557775, 0.0010059621429809572, 0.00021242384130920733, 0.002175463510909774, 0.002009061278672615, 0.0005982386158313883, -0.007778884994627357, 0.0008219528543966831, 0.00044006403305244267, -0.0011067193122279624, -0.009447459397891845, 8.064182869201123e-05, -2.7716368700539985e-05, 2.6113059801461792e-05, -2.228741534168606e-05, -4.32624917014979e-06, 0.031987689638979036, -2.0271344499019317e-05, -3.866433080625196e-06, 1.834045928787425e-05, 3.2829355680399027e-06, 3.183195837660641e-05, -1.4643368125110168e-05, 8.317410496233963e-06, 9.695729384089315e-06, -2.126759186770311e-05, -3.327053239150564e-05, -2.8519385272595073e-05, 9.486471078393252e-06, -8.797056791183178e-06, 7.090400710631848e-06, -3.503822741706968e-05, 3.0208309036715583e-05, -3.175207379816259e-05, -2.7152307799132224e-05, -1.2062254836639486e-05, -3.1600747399869725e-05, -8.798450094026729e-06, 7.8199743357536e-06, 3.19388296503616e-05, 1.412738010911814e-05, -1.983540868194712e-05, -3.341961737933898e-05, 1.8459634951326262e-05, 3.379309415220997e-05, 3.566247739895285e-05, 3.385206870074449e-05, -2.8087328055257944e-05, -6.872129841999963e-06, -3.1711911522279696e-05, -2.2489369930430458e-07, 4.47958886552993e-05, -3.521340587366118e-05, -0.00014786146762402064, -3.0423258792749356e-05, 0.002423221518828684, 0.0035296917174624416, 0.0010072799882783483, 0.00014306191614533661, 0.0003486812113373904, -0.0017070523697273355, -0.003924296977775119, -0.0017183275741795587, 0.0002346591464757784, -2.614823473389518e-05, -8.539464297832563e-06, -2.31805009462425e-05, 2.8517434795166032e-05, -2.0456959708388062e-05, -2.421976594906317e-06, -1.049034793555174e-05, -1.2100068037727832e-05, -2.469363229642276e-06, 1.739957892157129e-05, 1.2430840460453963e-05, -1.1700704119440787e-05, -0.00016818690294744622, -7.863983385179343e-05, 1.2935784947667604e-07, 0.008457110595829669, 0.014155076306374068, 0.020927903931804454, 0.02861696669037113, 0.02653169325995718, 0.05286707270211071, 0.06316170786053235, 0.051119839857532955, 0.056617101803402015, 0.05873184025244354, 0.06422339985327438, 0.054869079402178174, 0.03834647353560553, 0.03170802417507833, 0.02325571888000821, 0.0032383365394406034, -6.701713939410192e-06, -0.00035490543112745695, -4.9379413281502326e-05, 7.974973782386761e-06, 5.304040509040267e-06, -6.612810128319619e-06, -6.489652420625261e-06, -9.808536507161133e-06, -2.0052982673952542e-05, -0.00020730614840072526, 0.004773921128312954, 0.025762284801944424, 0.03860695213531427, 0.05102051182413618, 0.06037049325841064, 0.07648682931319684, 0.1086346279354057, 0.09564058090843543, 0.13244002499282173, 0.11009350221472186, 0.13681861189155634, 0.13762001787207948, 0.08082487715975305, 0.10715235199606227, 0.13995333253943937, 0.0984513737255944, 0.07302954207592603, 0.018934261725749184, -0.005011675489930777, 0.0005527401609910604, 0.00013305886216998935, -0.0002492615636851249, -2.2397590555312167e-05, 3.232041129744852e-05, -1.3694085963798904e-05, -9.99554747547441e-08, 4.3412891697639606e-05, -0.0004572237991076286, 0.0021144899872717958, 0.02982298673211158, 0.045786627252671346, 0.0894430602268696, 0.10450543116550454, 0.13212501545851704, 0.164783827613371, 0.12459509373252058, 0.12779122724996997, 0.03189885741914206, 0.03914946397587999, 0.0560378231289807, 0.0879260165433335, 0.010096348409718285, 0.08093118684443101, -0.0016789346398910043, 0.003171614273967234, 0.019549442444881784, -0.020159426618965838, 0.0005515494484396574, 0.01739229072928765, 0.014598102120038816, 0.005358013290036622, 7.961329614990074e-06, -3.463283901310283e-05, -5.202776129721029e-06, 7.772702969289705e-05, 0.002055065893174212, 0.004505085107122572, 0.04162297041188203, 0.06063420451130673, 0.10970626598445578, 0.14038959071222123, 0.18670053577684026, 0.18434818429174893, 0.2062208131524502, 0.15005007233591297, 0.047559359738573684, 0.00739525856080402, -0.001535094974148426, 0.011391968276085667, -0.04518157660937584, -0.041051145658906295, -0.006010753420074836, 0.024251200077218236, -0.005234566702145197, -0.03575262086887744, 0.052421876395496246, 0.055090253527823235, 0.0325777404542025, 0.0047821431111286184, -2.683638004445137e-05, 2.154403695236616e-05, 3.06406088023016e-05, -0.00040870478026469755, -0.002792175997631962, -0.0029312780588572197, 0.007245375517595834, 0.04787299823612556, 0.08544122492015337, 0.10612924167588396, 0.16629416824056867, 0.12196960042885899, 0.08469639125190108, 0.11370814421570631, 0.07168070963275669, 0.1226887004879884, 0.13105641149312272, 0.0557607243626561, -0.03936077175838065, -0.11417568173989855, -0.10488724325206747, -0.06356300177970477, -0.10716846964912626, -0.06763558656188366, 0.08726141080656595, 0.1672472202612825, 0.10952027179359439, 0.044254644488279114, 0.003436898698740027, 2.3715118382180116e-05, -0.0022440856073313907, -0.004949405138321587, -0.03310737471550388, -0.029898470306844387, -0.03458629343471884, 0.007810855052973756, 0.028671317894552947, 0.02118740531560175, -0.05240062064256965, -0.0560388132223423, -0.04530883664325387, 0.007473717223807418, 0.07859079423459116, 0.19228117881111972, 0.17622683198055356, 0.057378350572402106, -0.08599941613094639, -0.20402368949115798, -0.16032354807092697, -0.06703584873668088, -0.10527301495507277, -0.09078060164376242, 0.04641909420062779, 0.23268643071227055, 0.1519579033744605, 0.05378339993530611, 0.0016764424777622165, -0.002090090754713279, -0.011606641145203905, -0.033641165665596315, -0.08107800622311934, -0.07305931605336646, -0.0695839378612344, -0.006436100491337942, -0.07219284374701893, -0.07885984076962968, -0.029750129857702867, -0.06730635317793661, -0.07449386230158102, -0.06988053118717182, -0.02083563532599887, -0.024778807345085776, -0.09805026083304541, -0.15824573031183478, -0.196121572966499, -0.20017650904337667, -0.053398791047104474, -0.060573380254933196, -0.012492115260113634, -0.0817784485496973, 0.007249426847281468, 0.24982897332230591, 0.22514550233799357, 0.08060824942892067, 0.011417240860522437, -0.001775248618485379, -0.016991781116951904, -0.039890525376388666, -0.10521642083851465, -0.1264649484559125, -0.1467853593171595, -0.08722845780132761, -0.11154682553866398, -0.020525488328923806, -0.07760189072691981, -0.08118776237284772, -0.05529378935886008, -0.09886698647402778, -0.09635926444236896, -0.06635558196812205, -0.058879746816026715, -0.24213240216585238, -0.39906964408133755, -0.3046245335998664, -0.19904677435980173, -0.12134377159422345, -0.06695994151454866, -0.04336647473676659, -0.002255470397780899, 0.19832716016091947, 0.2597732465927029, 0.061624984597017075, 0.002058752196480905, -0.0021883630773047186, -0.013028022166454217, -0.06754578766617203, -0.10468459900438004, -0.13272078982925703, -0.16306477589620644, -0.0744777185534722, -0.11497717326574626, -0.08123837361837205, -0.06727738218778705, -0.07759988281655349, -0.13021801086964763, -0.10060357392394438, -0.09869483425597537, -0.0030135288580548985, 0.05623330493650398, -0.08333235138216939, -0.2779356416238877, -0.30462046176917734, -0.2793428604618294, -0.291448116627213, -0.16591954048880675, -0.24170868249349775, -0.1127476185492188, 0.14310660135803369, 0.23767985273538655, 0.05645309645014235, 0.002646696758962105, -0.00031077798501353594, -0.017182728742676512, -0.08422820589443812, -0.10136340738367765, -0.06481487959377123, -0.06989254894095069, -0.044516065232651676, -0.044335775456737746, 0.04767668748965636, -0.06074024008897999, -0.07413745714270983, -0.07871572199643291, -0.015190558534541742, 0.058067806070858555, 0.22507766684866864, 0.38454560805422944, 0.10261260224839616, -0.1273756492878535, -0.07586815107051167, -0.11738831083961852, -0.17269574324311354, -0.20995552951611016, -0.22770497272554252, -0.2123789180820994, -0.04711708393150183, 0.13660419146433306, 0.04759693723453443, 0.0028398086132808277, -7.660775860089206e-05, -0.024006507790409765, -0.0813719915956947, -0.08657948824356873, -0.04685893493253345, -0.07080365879757017, -0.04098537602462887, 0.012817429554208065, 0.020423824806581007, -0.02225689560350588, 0.03928102225623627, -0.08107632151929241, 0.02155611277820945, 0.2043040773564122, 0.4787199132980455, 0.4169030875673036, 0.00010473491772454041, -0.11374540986223608, -0.009201760475620945, 0.07253880479447664, -0.0449529065510918, -0.17499491245624177, -0.2553361874568833, -0.2929622194038777, -0.2150944174609211, 0.019755205916778956, 0.015128516868910487, 0.00027547908354794707, -3.4353849560694425e-05, -0.018160553608807545, -0.056882286772148405, -0.029968683692361775, -0.002117818925539243, -0.03995478212452647, -0.04253158314742455, 0.05878059876633647, 0.016851499637536446, -0.03339876007309048, -0.10873769051910287, 0.004186564274062843, 0.10627105017482577, 0.436713553488134, 0.6618884221539003, 0.42073392250895697, 0.027542889997447185, -0.020580780410920763, 0.08741452977676474, 0.13820664369746466, 0.08137946123938611, -0.11034677002841142, -0.2644856470494402, -0.2276853091692307, -0.1435694817235856, 0.010508658453466392, 0.004531235379577853, 0.002414489277757102, 2.6743842599077975e-05, -0.008435427278829781, -0.02799464771692151, 0.020987667082902634, 0.060283453799842346, -0.028423723708457135, -0.005864116799011307, 0.007100409476332431, -0.026726876863987704, -0.005024171475173055, -0.09183243203801274, 0.0013135504200348243, 0.2425176940204114, 0.6182375090729499, 0.6084672438775198, 0.22437337439509653, 0.1386108518155216, 0.09057172478416758, 0.09146546287009852, 0.0018450517698495573, -0.017778276153799226, -0.13442565522822328, -0.19768101307034674, -0.1977253971672105, -0.07874188626901599, -0.0021640256980440067, 0.0015637666620107887, 5.346411385372234e-05, 5.800320770316203e-06, -2.0398169412423133e-05, 0.0023420792530448402, 0.02786108737285598, 0.10726119668653665, -0.017569521981626226, 0.024590542078541663, -0.02936791325518731, 0.013835567761903592, -0.0550063603271152, -0.13942514889423965, 0.1129530338943315, 0.4957726147892075, 0.755248856355875, 0.39768467264170543, 0.12378240349313342, 0.1404625301678449, 0.06065598472642172, -0.017543545312189063, -0.1174582548355926, -0.1549549576656357, -0.11393832193884315, -0.17323307689754022, -0.13779615769875725, -0.052394221181168626, -0.022439979242267306, 0.0024688077873978496, 0.0002171466057754608, -2.3520884177675887e-05, -2.7786360020820547e-05, 0.011887108770531283, 0.035839601157672644, 0.06863509173714055, 0.004854252594347948, -0.05242633831603447, -0.08351929317406512, -0.09038418123159325, -0.10738841305024377, -0.09826420588399341, 0.26094518093493296, 0.6777286301147994, 0.6182682815055187, 0.30418422698507597, 0.0817485697373496, 0.11389088036466839, 0.014160510820580717, 0.029828896123621326, -0.05069489696556764, -0.05500259707736804, -0.04231622255307269, -0.023590360170757434, -0.06760972878907585, -0.010031310400980355, -0.008351973976253124, 0.005307138511848761, -1.9880489803082227e-05, 1.3349909503026833e-05, 3.7893142489091386e-05, 0.012755514793852885, 0.039547076519067186, -0.009947341297720078, -0.030501729636211478, -0.0034609982960027014, -0.06864899139041525, -0.07315696221676907, -0.06213422479509479, -0.06471835096211363, 0.22294185379993095, 0.49528239146852066, 0.3670002459076043, 0.1434115490403378, 0.11965832971586325, 0.1536114204769329, 0.03459375306017765, 0.03141460279739206, 0.015747882103108752, 0.032084219100201636, 0.04771369505537898, -0.0491463943759417, -0.004909450086805186, 0.058845012255561074, -0.0077269447946762, 0.0062037349390396635, -0.006500945006065497, -0.0011984201385806619, 1.7220923222291308e-05, 0.010536268172444265, 0.08525167548326029, 0.06100289729359662, 0.039896641203428194, 0.0881445002932643, -0.02318706582221531, -0.058504263524148, -0.050829412261562824, -0.07184388114502639, 0.08511812691440974, 0.23594824032018985, 0.2672432303329155, 0.19540020086829454, 0.1678606370029127, 0.13961298225998825, 0.07261337867480462, 0.019018740273182583, 0.03541702559357272, 0.15692584186190978, 0.0664605668175749, 0.014376760513823571, 0.06541864044969714, 0.10719029073188119, 0.016031622554515935, 0.000989938285591642, 0.0006421079983901601, 1.2296328128717173e-05, -4.3701715316373334e-05, 0.011963696048418489, 0.12300020269817229, 0.1033206808312569, 0.08989934088999671, 0.11328030533511282, -0.0018595812919867097, 0.017225358302760414, -0.05126093183779911, -0.13014121737287632, -0.06926406090259107, 0.00427344995803749, 0.17470333812914585, 0.1845863476296617, 0.22681581152936187, 0.14767658102783499, 0.10167792993102426, 0.10999052837793064, 0.09730084095239973, 0.14230834121864294, 0.09681635751864799, 0.08314472970709427, 0.1278236761708262, 0.09558728176159141, 0.009442425231664222, 0.0003344856925671701, 0.00013128351232896264, 6.448924828167682e-06, -1.7745404671779905e-05, 0.010197011348128381, 0.1226441544392162, 0.1496065584728227, 0.08237892331981651, 0.1357172024472015, 0.05252437013524714, 0.09936871349239726, -0.004205865971080041, -0.20773363662834043, -0.15164587961438558, -0.09654473222873171, 0.054147009433250945, 0.113681123786643, 0.1507808907725085, 0.2452691371314643, 0.24342443715305828, 0.22557639018014708, 0.1719480590933397, 0.13152183177241786, 0.13198107459981412, 0.148301905993766, 0.13419842907989699, 0.052506700681478835, 0.0021590444098333332, -0.0001242143365964968, -2.1948062132168124e-05, 2.950157622995312e-05, 2.6532697755493808e-05, 0.013039236190356261, 0.07870811610309772, 0.1130240501693262, 0.047108372264927235, 0.07652883757915814, 0.0524611095817383, 0.10671477327500276, 0.011733818275072217, -0.1876305749907322, -0.25522000194212335, -0.11875823193295525, 0.0009178364926869379, 0.048153609394349185, 0.05831998588198048, 0.1232988512458702, 0.16824383027687378, 0.13635828316700083, 0.18755989097126927, 0.1272145788414967, 0.16290112021836511, 0.1607436236194682, 0.09878383635602295, 0.032078824903771855, 0.0015145896753407505, -0.009688545849259503, -4.098906371318714e-05, -2.5118705132447287e-05, 2.2005136346001252e-05, 0.013706465997849294, 0.055371757197062964, 0.13220666640361073, 0.004785616945341485, 0.0026755581539903367, -0.09782567723754299, -0.04914260431220594, -0.050553335161038604, -0.042987626921303736, -0.11271570077027268, -0.1247845961180445, -0.1566998601790724, -0.10139048381748685, -0.09759250743051515, 0.08178926601351427, 0.0659732768971584, 0.11538774395238172, 0.1277090801519815, 0.1908141625684378, 0.19666530867337795, 0.1465812582216186, 0.060019557226542834, 0.04160387666007664, 0.008026498056221463, -0.0011769634369031559, 3.6631279057722226e-06, 1.4730659906675807e-05, 2.386980520176453e-05, 0.012135050813026788, 0.03654081653220633, 0.05191852003447393, -0.0020900717102531837, -0.04479178258408334, -0.04238527176875383, 0.041419105927670764, 0.011393138014074586, -0.022841213835292643, -0.010638083154383221, -0.0855742206410273, -0.06688901964414644, -0.08071512109111038, -0.055333149180743134, 0.038939993509049, 0.01230364382316842, 0.10837601204512302, 0.18803412928477903, 0.2292745938655009, 0.17311617945317473, 0.11591978026802907, 0.07057790150841986, 0.02879192521099794, 0.005159706797608341, 0.00020327596892666855, 1.4967077499597611e-05, -2.570339787311964e-05, -2.5764854785692695e-06, 0.010637453044754129, 0.017477114151476892, -0.004766885823495814, -0.059673875820879865, -0.05023632788389137, -0.007539373516402624, 0.03499860204341705, 0.0612407576968049, 0.0394310659901695, 0.027916143337762926, -0.026900122151845868, -0.026550732916332767, -0.003008161513123509, 0.03610997166581855, 0.06821570494283433, 0.03692337127212559, 0.07751057744142485, 0.11731539073837595, 0.16793411879173367, 0.13469534274919293, 0.09749948491472264, 0.07136405881295073, 0.019078090404487838, 0.0009089365844925977, -5.185927641572482e-06, -1.1294773360501099e-05, 3.846951706534822e-05, -1.811593586584278e-05, 0.0022320583469072662, -0.0020126047693569014, -0.015895601382307344, -0.011104082956960932, 0.003532128833571012, -0.040007267290138745, -0.06641838788702147, -0.033699195085359464, 0.046431714434701336, -0.005274489543726745, -0.019115899672539512, -0.03613889380936023, -0.11251974033323124, -0.08513529620635549, -0.06089551106369192, -0.05132919468775642, -0.02111778061147825, 0.03329734450675534, 0.11536745112816511, 0.08968033744979365, 0.04776866619067875, 0.03565163965098098, 0.007471587970863569, 8.665323177104991e-05, -3.564298021920939e-05, -3.6492692509098245e-05, -5.672626475695351e-06, 1.3962680763167236e-05, -1.4431087140216858e-05, -1.4306042662191074e-05, -0.0006365593410836251, 0.0014038971112696557, 0.0029260029673893327, -0.019108041086015187, -0.006094317076954006, -0.004854108961087589, -0.020911879053543393, -0.00028025387112079345, 0.006340041050024227, -0.044825954640311236, -0.08103634900296133, -0.10138544985723846, -0.11537478054793975, -0.11639301962203791, -0.0905468602621144, -0.06856931356673174, 0.023765658733611156, 0.03734950134646802, 0.01032361146828341, 0.006401127129604456, 6.370703504318497e-05, -5.373239460906895e-05, -1.4142378717334797e-05, 2.472611979966566e-05, -4.07541034093612e-06, 3.4463017636022334e-05, -4.562391749658559e-06, -4.040975494276722e-06, 8.552823962197498e-06, -0.00028162095907332825, -0.0001185192288748312, 0.002986038633774122, -0.0006104870338394114, -0.008888551358275293, -0.015239250631174315, 0.003844952240114684, 0.007551059766183292, -0.017360052887089594, -0.030502378337355328, -0.02260641887373341, -0.027417491539990728, -0.029414210303768385, -0.01880289414894413, -0.02541682057539551, -0.008746024475242793, 0.003799812137359354, 0.006378038599586775, -0.0007661245772196027, -3.074817170050801e-05, 3.0385998816369297e-06, -2.0425616850454256e-05, 1.2447734108700559e-05, -0.0006056329142418932, -2.419028836669455e-05, -1.4034696503838022e-05, 1.8725035428177344e-05, 2.9887993422511357e-05, -1.8111971842103889e-06, 8.035160215272681e-06, -2.1931100960561123e-05, -3.033266364705909e-05, -1.26701892773952e-05, 1.068242197254103e-05, 5.175627200298343e-06, -1.1037866095999867e-05, 0.0020973130242039964, 0.004594298194930184, 0.0001106546226703122, 1.3017528027878543e-05, -1.0168528902549573e-05, 1.7305343112003044e-05, -1.5621504258695328e-05, -2.6434420317728157e-05, -3.3678616295058625e-05, -1.6907293795213004e-05, 2.0860656963069622e-05, -2.858460578575093e-05, -1.9377442632099858e-05, 1.0261985795651578e-05, 2.453320452170116e-05, -1.6225927646167046e-05, 3.2107889369434045e-05, -9.76573161580864e-06, -2.7447049223864368e-05, 8.280069552068574e-06, 7.674031705195701e-07, 2.2320477248736624e-05, 0.002994929515502036, 0.006665362024642628, 0.016990211802598992, 0.01194189242097178, 0.01695278553177212, 0.014902798121066336, 0.025426352989977866, 0.018777712229298006, 0.006651129462592617, 0.010200100106006988, 0.0005228305457324081, 0.0058348874385890735, 0.012194106174351132, 0.007088423022244635, 0.006815518810577508, 0.006670769706563218, 0.007376159747590964, 0.0019148980151711226, 1.0541604775500319e-05, -9.448858922829938e-06, -7.794207740867942e-06, -1.670129111397936e-07, 6.477564649024471e-07, -4.297378681395871e-06, -2.2335349344175572e-05, 0.00029070708701391237, 0.00119373955924172, 0.00014214095916931233, 0.007218341932914988, 0.014740235781327507, 0.04084322103787356, 0.051575101550726504, 0.048717896327201596, 0.04677285893395563, 0.0801804507668873, 0.08194405389499382, 0.08153979344246773, 0.09626793926437074, 0.10530865908128116, 0.09527260974497899, 0.10200399674284673, 0.10709111810925301, 0.08965071660298718, 0.06254541912995444, 0.04301850443164773, 0.021538862373267773, 0.0025811635327694536, -0.00014892561685567388, 2.125754175492818e-05, -2.6439367571591497e-05, -1.171021978731844e-05, 1.3913834988572341e-05, 2.1528487268286885e-05, 0.0011637420062590835, 0.0013425994121411807, 0.004327440735608434, 0.018725718957964217, 0.027949325565420423, 0.06902050439400763, 0.06147387281392494, 0.03758864075909486, 0.06920648992733458, 0.11980452528639714, 0.1266515901622867, 0.17076478813403825, 0.24099367060021662, 0.2605188686717923, 0.3217235925633225, 0.2938507005618274, 0.3031697565462711, 0.25364743165976256, 0.17268452685531055, 0.10925608589629769, 0.04763229999726805, 0.0005657023176247741, -0.0007029401308040539, 4.2680918157538075e-05, 3.79187062483724e-05, 1.863519550704383e-05, -3.1984331378801844e-05, -2.7780289218639785e-05, -0.0003277509950695772, 0.005790542672746653, 0.0021611307702630216, 0.020198094719396497, 0.03438691675770734, 0.011113581503866743, -0.01873513634543191, -0.005478524136806991, -0.01664436667487313, -0.060048130088913396, -0.03875753255606255, 0.009276657957736644, -0.015933773305081483, 0.008070840855656515, 0.1673089291188524, 0.20147308382487394, 0.1960029300807457, 0.06834880646297448, 0.01873611044515088, 0.027267366640191977, 0.002339382796578102, -0.020859227282297152, -0.0046414374559838635, -0.0015909728982882734, 9.971986040323373e-06, -1.4956889930917841e-05, -3.9712245030505856e-05, 5.5655122053933266e-05, -0.006670442873841802, 0.003353667748348546, -0.012755688554791813, -0.030270005965648397, -0.04111206613613358, -0.05848964939468128, -0.11205643809578386, -0.10434743795734885, -0.11472302883062592, -0.11644438536662498, -0.14433695875688668, -0.2520789470467203, -0.453391798696948, -0.38421322206914793, -0.24465844417818364, -0.25608594527091755, -0.1914647851515287, -0.24721404879452344, -0.1881857012886637, -0.15030043749717328, -0.13067225901591, -0.07000399775725362, -0.023391043757007915, -0.0030484435604890316, -3.269728981393509e-05, 5.314009394332647e-06, 2.5446061712170554e-05, -0.0011718907051154828, -0.007726775820407546, -0.018754719587060376, -0.07708740909826033, -0.09110085196242541, -0.07261447945006674, -0.07203223961297818, -0.10317045883768797, -0.06767412792517881, 7.199219424738734e-05, 0.05074656458365844, 0.012308076658843124, 0.01390948016324559, 0.08777704051311971, 0.027386778536732048, 0.02246140598101881, -0.01577908305086257, -0.17687171720868247, -0.2763005591488027, -0.25178643177255394, -0.3591563390129324, -0.3547230306383131, -0.1890537149959498, -0.07503630741266219, -0.016360080077238853, -0.005398793410798525, 2.9905254766445163e-05, 0.0005665573137448137, -0.002350110363512335, 0.0048630154671031505, -0.006614862161362796, -0.08497009168521047, -0.06739115929902756, -0.06781708883126134, -0.0408977930577825, 0.023082253213895152, 0.047293470074694394, 0.07349165669284981, 0.20963215443600786, 0.18699727680366046, 0.31957164044473685, 0.29902311199140413, 0.3722462464232346, 0.21006130244914453, -0.003988187507720518, -0.11494829788109547, -0.19440481051519598, -0.15214838328458918, -0.27643780333169093, -0.32092091351430335, -0.2690784806562574, -0.1344183741258746, -0.04921791182920422, -0.011606886914781104, -0.00124053225638149, 0.0052417800567699435, 0.004531909800531539, 0.02096014514301526, 0.013879331976254702, -0.041741027044494394, -0.015370793902917224, -0.050716679300878, 0.009178706270347068, 0.009833497802715757, 0.05834873919443706, 0.11144462807665366, 0.18176046377204674, 0.1498722889416205, 0.23905774493937237, 0.27257552400103957, 0.16483519873573685, -0.026576038823446124, -0.1710597479807275, -0.18845623235184844, -0.20884832094369882, -0.12183526987701158, -0.16224791700737917, -0.2209881979253975, -0.29305328097507144, -0.1854604539074451, -0.06561745228219046, -0.008726589529311667, 0.00049646025173007, 0.007592681848938322, 0.014729994027681341, 0.04178969979269202, 0.045628312196016665, 0.011489854796138588, 0.0266142075519539, -0.04278796264705496, 0.050748456151397545, 0.07323671125402746, 0.07094710608665135, 0.13606609921540538, 0.18273190280189458, 0.16809825257236893, 0.3605030844598779, 0.14759242869738676, -0.1091331275456019, -0.11025975859676244, -0.18908744854004392, -0.11413599697215937, -0.13393345108700294, -0.14572435878851425, -0.21673423665845806, -0.3045327934935996, -0.27068237916417104, -0.1790924706352299, -0.05554063857231115, -0.009829387863959852, 0.0007048188617207663, 0.0054991608254150335, 0.0351926334725828, 0.05693553701365523, 0.07062516641592331, 0.052251258413321906, 0.04956854264254838, 0.010823835890560905, 0.1182675774847496, 0.044980408307539195, 0.0319498706342411, 0.10126980430607964, -0.032622994511166556, 0.047656063865004546, 0.20425305060671886, -0.049403785086216935, -0.07116829494971158, -0.057377656250952376, 0.007093460007939547, -0.02338365368772328, 0.0037884853371450435, -0.12060183254511626, -0.11779583709927756, -0.2043765221380947, -0.2424743935273969, -0.17205906452132883, -0.05721649211591794, -0.013261658782557745, 0.0002517017490360807, 0.008477525147460476, 0.07114763948795605, 0.09172078940288943, 0.11923013929092048, 0.0976323220824736, 0.08462020714617022, 0.09745801973621429, 0.1564115714365651, 0.023802147113209923, -0.02348518327574676, 0.02746480824694309, -0.097834901671414, 0.10837380740500488, 0.06684385126398505, -0.018857298353917768, 0.006668820988338638, 0.1189753220101854, 0.18036079812297845, 0.17226747267408582, 0.22641849314795356, 0.15948442609396654, 0.11348881578196482, -0.018400324648619876, -0.13761561014292154, -0.10892822393042725, -0.047344471454323085, -0.0022595465514656018, 0.0001469921013037514, 0.016409744389541646, 0.06869181570779809, 0.09467268583197919, 0.1251826002381888, 0.15431184453601152, 0.10213617565354825, 0.14935840228390976, 0.02571257403667718, -0.02102134496002428, -0.12995525490162568, -0.1929863658559632, -0.29492374865253923, -0.1167813674572847, -0.013972594162934854, 0.0257142561009762, 0.06982983738273542, 0.1554324108062189, 0.2056807200651496, 0.19176149003946752, 0.20667561944896423, 0.11819773699119797, 0.19420189593760923, 0.15947081286677234, -0.04874800638831633, -0.045856341384773576, -0.02635769974807628, 0.0009349428385109256, -1.555847697213579e-05, 0.009979546687692454, 0.046208664464480395, 0.07646224432795132, 0.12604626124738366, 0.13148852154634263, 0.06935869207540808, 0.08839002564329079, -0.05807105598172483, -0.11726090509618892, -0.1762263690577692, -0.2754721974667079, -0.341523938969917, -0.01761310159676827, 0.11662237323891883, 0.09926078086372243, 0.1265612225717176, 0.11826053003550865, 0.14449165263238653, 0.21945378885249783, 0.1029776348692428, 0.11126926246983906, 0.14410498211971995, 0.11136044716571035, -0.020717429794157954, -0.035173383061938845, -0.01057593083273209, -0.00447841688692597, -2.1663753723437706e-06, 0.005258466582087308, 0.02055682851152923, 0.05446786288225464, 0.03594137203104766, -0.051795936484660625, -0.0975193206576415, -0.13385272971087875, -0.07979080210637338, -0.1371476691173182, -0.019509980838045865, -0.16620574166753693, -0.23236148994025965, -0.0851020803671539, -0.012681294581621401, 0.04574995717581998, 0.08878739416757113, 0.10037833345509037, 0.11961321713655504, -0.043758788933066436, 0.061741597818550494, 0.13598107887402827, 0.09808989644790353, 0.01962039890089736, -0.015673065956510898, -0.007262635648764996, -0.013714456204329697, 0.00023225502993469514, -5.6847269125360035e-06, -2.3709350141937098e-05, -0.003673912864487286, 0.009757081002482995, -0.009493383250134565, -0.1397879107917026, -0.09646855007400144, -0.12685375565948087, -0.09475077267624266, -0.12722429290257983, -0.02534101005359535, -0.03413632627870696, -0.11611365357069305, -0.08012404726532178, -0.05423421223168863, -0.007104854061647252, 0.009878433350399346, 0.07455699593784583, 0.07861173037019839, -0.024579003573688633, 0.18569592310189997, 0.11658747601484044, 0.053818944628265745, -0.04905571616967286, -0.03288107705839186, -0.02303474383739163, -0.03820906214519103, -0.0028324069248319623, 3.509400582240047e-05, -0.00031274384591578873, 0.003183146107968708, -0.00563252985074854, -0.02409871209038441, -0.13287951959453284, -0.049079558199197286, -0.07022500391070495, -0.10751726223993693, -0.08211664458456058, -0.007027296304160456, 0.06093217500580418, -0.07716111646109816, -0.17812432492602104, -0.07357352707733104, -0.0817139751913007, -0.016383244051418947, -0.08477865359215013, -0.1097209694142154, -0.06643511072422915, 0.020223027736832207, 0.028477041030267585, 0.039244536564377944, -0.021369011781023548, 0.022492004153465004, -0.010536537717385748, -0.03349764350593635, -0.008445564613895326, 2.7357423831073643e-05, -0.00018555690987552347, -0.0037095128885168186, -0.0030416508444476268, -0.06713561082534535, -0.15934344126792133, -0.06168936115079767, -0.036777968462181156, -0.055291411447881855, -0.007744060322258617, 0.062333292742138925, 0.061088789268322376, -0.028567175117871314, -0.02666031398680136, -0.05103045250446359, -0.01825024426286271, -0.11434411872065438, -0.03662106891763202, -0.00501984710301763, 0.08815875061949466, 0.0018382720071133793, 0.025096088036775467, 0.07334752049649212, 0.030488592530711817, 0.026890182260302233, -0.021160932870432872, -0.03306767373827464, -0.007436518738196343, 0.0024728759978573283, -0.0008217630081916233, -0.0019861857004439994, -0.01172590845283811, -0.0737045782142272, -0.16819796364106046, -0.13249870058389404, -0.08167088883575531, -0.03020465672628651, -0.06381301463350214, 0.021598201534873965, 0.07665039728754841, -0.02563631587741687, -0.0028117936171608007, -0.04767924854185504, -0.09862860674166853, -0.11388883013634167, 0.02196964461897261, 0.08433049176651383, 0.08031058673560444, -0.024013503924564184, 0.03530905591048715, 0.033507645141474376, -0.044881576201570524, -0.07545374669612454, -0.03484011740981475, -0.013680015634245176, -0.002857282531262556, 2.9381229887411668e-06, -0.0018297429418244414, 0.0016965828390539126, -0.025473707502827674, -0.05955110984001535, -0.15598572282207265, -0.18481862010167682, -0.19007615198760888, -0.0943536333316065, -0.08772080603311873, 0.051043732493938246, 0.12211180456533392, 0.16449490000217054, 0.12566291607083263, 0.009391643204473707, -0.07407142561679142, -0.02613051890601853, 0.053758943434871954, 0.01981906105849223, 0.10958295452340867, 0.03744659822115116, -0.025252071963304003, -0.027996962352000148, -0.08038500642049114, -0.09646752909382111, -0.032516585772779626, -0.019180658292277577, -0.0005166564298666462, -1.5931959819231964e-05, -0.0007321719520016098, -0.00925728222879515, -0.029850402763007974, -0.09567529546863492, -0.17257791283023555, -0.2557372388249538, -0.32129237759243173, -0.3103838306130027, -0.21571623961700248, -0.05315575120270757, 0.06996761809263474, 0.18743940421228197, 0.3597694333605493, 0.24908353627778604, 0.15297101773049332, 0.022094300577730173, 0.0200360287562998, -0.05077593272798563, 0.021026392839984896, -0.05271416015483032, -0.13549831719600425, 