[0.011014192528989155, 2.2463984811781428e-05, 5.162600981432142e-06, 9.836117503554572e-06, 9.042247031221675e-06, 5.4117287785077024e-06, -1.641720616500004e-05, 1.4231644234693785e-05, -9.582161812004475e-06, 9.028222596311718e-06, 2.2995986115121854e-05, -6.787969855570322e-06, 2.1299418992823615e-05, 0.0008369468633103437, 0.0024702716417258417, 0.0006641823668290623, 4.5161261965185144e-05, -2.456712412062027e-06, -1.1080606736569085e-05, 2.4127991408830334e-05, -3.180583700746949e-06, -1.4932767509624681e-05, -2.4409238055898124e-05, -2.1332761767589097e-06, 1.6111129546558697e-05, -1.582378482608173e-05, -1.4289818160403525e-05, -1.416186540724331e-06, -6.51012593512281e-06, 9.527290372654159e-07, -9.612866255788605e-06, -1.6125615274532392e-05, -2.2311298450081957e-05, -2.391042242505951e-05, 4.053782515737358e-06, 0.0011365903179459216, 0.003168638565836187, 0.005005426497725057, 0.0029745962353896547, 0.012585881412314301, 0.0064469219568663435, 0.008850499827871987, 0.012154734549856121, -0.005687858429236105, -0.014524222226036467, 0.025560200968508858, 0.010487216497986973, -0.0009792694476870262, 0.0007316700237378369, 0.002434367958062454, 0.004387310058506991, 0.007612592208901548, 0.0027030491873765907, -1.1766432503854871e-05, -1.4885600338045354e-05, 2.110707854597867e-05, 1.407621009767006e-05, -1.0125212415689203e-05, -6.060089477431276e-06, -2.000593683703154e-06, 3.586992783215121e-05, 0.0015759829837740918, 0.00047441747913555657, 0.003983623584811139, 0.00552921611959823, 0.008438671477052004, 0.006938944107597604, 0.019633990162482757, 0.00011418684573066117, -0.010621015392109108, 0.011873146197729029, 0.040723120158121066, 0.03669998200820129, 0.07144539142737244, 0.07505840074685544, 0.05260596151058816, 0.03891073577616405, 0.0401671114211096, 0.016132759520145645, 0.012975985180521335, 0.005082386085900997, 0.004672053630922623, 0.0029436701874687482, -2.066173318715763e-05, -1.4512756330597982e-05, 1.682309192723123e-05, -8.713768573899583e-06, 4.41609671188519e-05, 0.00016575032293121125, -0.0019323952891082327, 0.004285234130584827, 0.018490405723455023, 0.019654258014159067, 0.029618642412428117, 0.05383722186458687, 0.0716782595005503, 0.07970898892304784, 0.04459489388978393, 0.13615579410598191, 0.13076833908060373, 0.09142239131793152, 0.07549746452719558, 0.04308948235925815, 0.11188832772261588, 0.09486646080404022, 0.06417258192055034, 0.03705870236278121, 0.020751241007943944, 0.02179623448549823, 0.004016564531358794, 0.010150768766957061, 0.008182950301150838, 3.7825436970429003e-06, -2.2817915715091294e-05, 6.154013764867056e-05, -0.0004113896219281221, -0.0007300818633026678, -0.007979282438598504, -0.00022746470035138176, 0.031054283238641643, 0.04804630030249526, 0.04073681739086928, 0.07008830769606772, 0.0778480964334961, 0.03306003481944393, 0.07643205189201446, 0.0827431015661275, 0.04552257917804678, 0.10887911220878904, 0.06437063300708605, 0.06774205815240977, 0.03105545509844066, -0.09022873806508594, -0.032853049317597374, -0.08760195498830613, -0.004471912235771035, -0.0006504197877279685, 0.03182299682078893, 0.05620369670540376, 0.011267910587774167, 2.5672056543113403e-05, -7.3067473765320635e-06, 2.0475567992504733e-06, 0.00013415187497112073, -0.008937205345159793, -0.045123561976318324, -0.045126027551004144, -0.016236725276252355, 0.03883736378150932, 0.11936098875916792, 0.06777312746185023, 0.07551846936598323, 0.1270112058407283, 0.07004641566575591, 0.1079769197398488, 0.07461258282508898, -0.006290825759660746, 0.05036577926055205, 0.1488811224499323, 0.07542647288115337, 0.056573387520064244, 0.14223534660246978, -0.0012810687255222545, -0.007060919258364229, -0.032645896963875994, 0.012058990518541732, 0.08646624848500949, 0.013151724265545376, -8.253129418176102e-06, -1.144361912743849e-05, -1.7290728514532344e-06, -0.006537195203358469, -0.03440988820488831, -0.048854475845835, 0.0066579238174969595, -0.035560587502923555, 0.046484934074045546, 0.03875920873282596, 0.026168862917683677, 0.0195554747419972, -0.084114308477456, -0.013664071618164039, -0.009713342147307376, -0.03716707178937365, 0.06271058416624575, -0.0024938642232335147, -0.012664269418773709, -0.02494375431470677, 0.08045624294247472, -0.09835670122912815, -0.0033740178856088367, -0.04935819616173274, 0.0815730665702059, 0.1693906124583599, 0.1503976283474283, 0.029999114778355047, 0.0048967593544604745, -2.5548783575006743e-05, -0.00228433611085363, 0.0007028213265046188, -0.05300844771637145, -0.05768374915396439, 0.08194857758292058, 0.028517405710059267, -0.021588781967531757, 0.12167812792806218, -0.03589952826361469, -0.09206790648699723, 0.02630486570333962, -0.0018043673355849304, 0.03924085462046038, 0.10354622186021795, 0.11595049837756037, 0.004738005037690947, 0.01503450425701144, -0.03163623895403688, -0.10483811007380099, -0.07776247998276202, 0.016966102598512726, 0.009414435114297664, 0.002993168420912777, 0.198540237159594, 0.12659076143965745, 0.03699646793947407, 0.006622722435354971, -0.0010710408307794243, -0.011260388588512844, -0.0002987771829416435, -0.06963176498831597, -0.013607771959332202, -0.018479018172407283, 0.04313833308792563, -0.08311547005898795, 0.011490215848256349, 0.03164702637588644, 0.02874647745698749, -0.005191643426395663, -0.010774222169017638, -0.015451368375852119, 0.04607825864480712, 0.005089671249941981, 0.02396935106451646, -0.024065922308883176, -0.06128605909005822, 0.012608818314498714, -0.0012085300845815653, 0.01841583902372245, -0.009621817007069025, 0.12663750178098815, 0.29266909628739524, 0.1719765340167794, 0.04121246452638741, 0.002370178513035654, -0.0005679940553325452, -0.013886901635796851, -0.03352652201405016, -0.03607546026317245, -0.03687056955249466, -0.009206006626437174, 0.03952311149861437, -0.02438492211915647, 0.04426144331387178, 0.08471999590594184, 0.07852951386903159, 0.056222280098544485, 0.024453910853679286, 0.026810378832618685, -0.028401228101681306, -0.006488109866760374, -0.08090320819076857, -0.0045462544309160646, -0.03990336574708309, 0.002902423902078893, 0.01758068417547312, 0.0014251010107889934, 0.007247110252006271, 0.16735528417593637, 0.19709403013837942, 0.1518689763064008, 0.04327075122340055, 0.00573006395664634, -0.0007058932865316714, -0.010956816997230511, -0.0337916809104779, 0.04865166967649693, -0.050167821866191134, -0.037295188840840786, -0.019672137713924915, -0.033262754670514094, -0.0060379900123160996, 0.04959924435001938, 0.08428772694526546, 0.08461447847493901, 0.07434867193244389, -0.030631619285549295, -0.019072536777917915, -0.09237900389477852, -0.09663569624663527, -0.01684146329952267, 0.010920209269272622, -0.03154933129535223, -0.06977492777891513, -0.006013409783293568, -0.06457136445244652, 0.08818555912576388, 0.10873851101098096, 0.09355258992707917, 0.05094929527541936, 0.008547619676638382, -0.00022014387445098114, -0.030221495607556235, -0.07987308902148242, -0.039645522339005444, -0.04883678691088378, -0.036596837218636505, -0.011808348260776381, 0.042251241769438556, 0.10950423074658107, 0.07798554758651915, 0.09397744312847614, 0.10379172388657243, 0.06641939744389544, -0.03935759744411387, -0.10503198377377533, -0.126527760298047, -0.007830879694869411, -0.022098991070968063, -0.022500202986738976, 0.025989025775590556, -0.010099996354522618, -0.00865279149341496, 0.04997843481842274, 0.08576487577773086, 0.15169055799711834, 0.10127860756931137, 0.0391411311935124, -0.002082971125938703, -0.00013699825207172893, -0.01941047938905619, -0.05938534902154142, -0.054378854863088626, -0.02706497182555154, -0.010406492686478995, 0.09518736309873325, 0.04847950421415444, 0.016107045346281386, 0.07838801734892889, 0.06263185712644863, 0.08665915625886515, -0.022312402480483867, 0.05112120877911147, -0.10183931599744121, -0.13193775572281144, -0.08823397166082911, 0.012688304110889058, -0.015957603526004057, 0.04839608792614199, 0.06241665397849844, -0.006174807412848392, -0.004642412871301687, 0.04800390368521457, 0.14258365734363124, 0.07825733100192536, 0.024423617679419148, -0.005815885362864701, 6.851438149444509e-05, -0.00785380383650886, -0.027010347914082616, -0.008098809729544878, -0.04971953918974573, -0.04217172380608759, -0.03154043777937605, 0.0856787909639287, 0.0801306155669916, 0.10512415588801231, 0.04453149542807083, 0.05823699424806968, 0.009218233718830909, 0.08715661205176739, -0.05042047336768751, -0.05321144214832818, -0.05286793954121784, 0.02270492809282963, -0.02051427274239584, 0.02508650574557327, -0.03826085843832697, -0.03924246307067385, 0.04731220247858473, 0.11287896621652072, 0.14620648231466815, 0.10670081144495808, 0.09653546277662407, 0.030087893758261465, 5.170378978619205e-06, -0.004866318388638646, -0.023668039013529096, 0.007748882684522368, 0.0003762402858099497, -0.0672920893834786, 0.07627325333772964, 0.13607563482708462, 0.06744742883584784, 0.05848575882162526, -0.01674926976339415, 0.07238493722187087, -0.017880597309027003, -0.005555654879856527, -0.06099903760405806, -0.017923929221922503, -0.09527583956376415, 0.03306235709183248, -0.013050391417292542, -0.09068959995448744, -0.017981292114551094, -0.045056281704189495, 0.019820012875412477, 0.07616238707762808, 0.1625019610023736, 0.11446238433998392, 0.045769335967627924, 0.0023580321347220095, -3.252309182487528e-06, -1.4480531345205748e-05, 0.0034550223125386584, 0.03435002947539333, 0.051916971452129944, 0.03290385276120021, 0.12593125592830282, 0.13278955236718357, 0.07938598772395997, 0.044657225689276624, 0.037765918882738815, -0.07549717787667376, 0.017283412418779714, 0.03191932505938767, -0.09876676646568135, -0.035484735991037464, -0.04938844829687112, 0.032902020946391684, -0.04179488530415301, 0.014618937750945958, -0.057279217694829104, -0.015237194391859662, -0.04164120970126697, 0.017655827610863543, 0.1665395141772467, 0.14839959542397083, 0.05014967736607356, 0.0019135194237222593, -1.0279389935452004e-06, 4.733988606238595e-05, -0.0016753653304018353, 0.03572046496997612, 0.025970809650508277, 0.01041754362227358, 0.05007347267521443, 0.014223241590098338, -0.03266145898305115, -0.03782385403168423, 0.05422968711953275, -0.05958163540779234, 0.03261912410658699, -0.039691368232319967, -0.05601984252059367, 0.03478189582284074, 0.027926632237379317, 0.09004088161987978, 0.00016728827186322535, 0.00932102363837507, -0.06253721590510486, -0.03274282300053325, 0.06378593547227618, 0.1610558881871508, 0.23271326650771484, 0.25160129322160507, 0.09418357110831795, 0.01364376393368137, 1.0011573706519924e-05, -0.0004975219872563552, -0.0023878618857495547, 0.046621985292705066, 0.01491111887042926, 0.030964178018841416, 0.048177910769540255, 0.030457855020451487, 0.003677711842818861, 0.048615759581523955, 0.00966780934526708, 0.037059460490729314, -0.006461308733487356, -0.0708883423293993, -0.07850771180906665, 0.04567196052324901, 0.0033931627672347513, 0.016081700251087024, -0.02658969796180361, 0.032652781325203384, -0.007857228568181536, -0.005052185743834477, 0.0371169482754247, 0.14696654549936713, 0.2201412074129992, 0.1600434089590658, 0.0679028473671324, 0.020967235899046102, -3.74540804420354e-05, 0.009301991005792069, 0.004358798883862984, 0.01522918586394207, 0.014139638604704297, 0.0997038370285228, 0.23118532053292098, 0.10709144385563608, -0.014983791537814985, 0.031873427075278904, 0.06913932548794446, 0.001978926863193733, -0.06978275491666629, -0.14752755702080197, -0.05364521550846916, -0.04363341515871603, -0.008367330462657271, 0.02434720387936529, -0.014525030795154424, 0.0794602000403151, 0.07817858217493664, 0.0558543888729905, 0.13583656878397313, 0.2263351606285779, 0.2139064819327261, 0.059097451202905174, -0.015372131816905655, 0.0017542194330201534, 1.1519138089262025e-05, 0.019096463187931588, 0.016845708259756845, -0.051825304388208704, -0.053521145439769185, 0.14121868731793044, 0.12108523696708891, 0.04589360934176925, 0.06990178219500956, 0.030452007151723037, 0.06800263913650655, 0.0130741882273945, 0.041865926487515984, -0.04120912820561685, -0.0024723373381975696, 0.04841754723531132, 0.005736407322293149, 0.08172453993139986, 0.16113863663383024, 0.034157743114035834, -0.0007034418379250326, 0.12514020967833112, 0.2648594232764825, 0.29007711629264427, 0.1700174162608288, 0.0184253552183482, -0.003041993003701357, -5.684537575390892e-05, 1.675895840264154e-05, 0.002569597302919128, 0.016564787921563674, -0.008130261558898857, -0.03184064906296876, 0.16186421385740232, 0.08853662407777188, 0.13103275278882187, 0.06970382828285504, 0.026252738657406727, 0.029215396869240143, 0.0631937312436171, -0.01144086488791134, 0.10819455761503383, -0.025536215935118668, 0.06536808852206821, 0.08234647369163539, 0.0723066152195875, 0.003808836547371507, 0.07182134711861864, 0.06050965580360832, 0.10660849137300162, 0.22776622789200082, 0.18070755363089103, 0.10054184606570803, 0.010439576717451127, -0.010817279947892862, 2.8492585338203652e-05, -0.00011011083264321749, -5.616192401976567e-05, 0.02486670264539489, 0.052467635835845156, 0.03357984665569714, -0.023953076107426037, 0.01944200966709108, 0.06025653205018709, -0.011290099922846273, 0.11241826051347219, -0.06150006979266913, 0.09428833698290368, 0.007247651332317779, 0.01895435402507047, 0.027064776050034118, 0.0003769847609847792, 0.0064630290321727015, 0.018216385811828502, 0.020613908286620297, 0.1664098897781663, 0.09849218077230117, 0.16274016394924054, 0.20235335417134068, 0.12070017749038703, 0.05028851047784612, 0.008871573660864029, -0.002045092976309977, 2.5556731679034306e-05, -8.872837861929466e-05, -1.6906699292050254e-05, 0.028817460387332308, 0.07578483785528826, 0.10734187894326937, -0.08048868339642666, -0.029966860403546562, -0.09787088440019924, -0.022550662907072173, -0.00029040919517062976, 0.05464341650091416, 0.05561680989986695, 0.09738106974912884, 0.08340222786690132, 0.021034031995996506, -0.014831447172467227, 0.004431850118683759, -0.03390069971097925, -0.025065807362328527, 0.021882138008879042, 0.03202092650134559, 0.11113977670773334, 0.10598625948200872, 0.06145646438657601, 0.015847560347142766, 0.006432932240690208, -0.004768557259632869, 2.13099233867064e-05, -1.1990551621777252e-05, -2.162224192759306e-05, 0.0354771988135147, 0.06930918805731148, 0.052367270581591394, -0.12415272436785935, -0.12346394977128912, -0.10733800799711854, 0.12852124750837202, 0.0030925299870258522, 0.02629557116209137, 0.01867821744303616, 0.028465683022329637, 0.06750463144481686, 0.10711935745065032, -0.03817637155469123, 0.004210694378288683, -0.05490879950400006, 0.03443360033796487, 0.035426682668726645, 0.12348351864354373, 0.13442571391146135, 0.10491989343619744, 0.08132213644088894, 0.0065350004843988015, -0.003947584921657309, -0.0139330409486617, 1.885778447158312e-05, 2.3682546538431992e-05, 8.300811500841885e-06, 0.031947839775423426, 0.01531709258698065, -0.026882202350706923, -0.1717947436185293, -0.13400284798263032, -0.013109110373099987, 0.03038089718492958, 0.0035280703279285345, 0.04664509970388639, 0.07820295031237162, 0.1435723249089612, 0.05911394265686577, 0.12251920369560917, 0.0711761907614056, 0.15729255169854292, 0.07708801440363472, 0.16026111413648922, 0.06184118325593074, 0.10284605309122402, 0.10031664847613303, 0.0636586830234827, 0.05070184483034386, 0.02120170780773925, 0.00035085560471671866, 0.00019419369154153977, -1.0129761567666405e-05, -7.582031389409951e-06, -1.8399411262263537e-05, 0.004216216795871272, 0.009167574820566793, -0.023604555344210038, 0.028530517417232743, 0.11731012214158355, 0.0774115436779192, 0.012072674705294611, 0.06663235149343402, 0.1259836006209897, 0.08127719907938367, 0.021026585432581443, 0.07837010538946443, 0.0479082439111745, 0.1437084367249079, 0.15922015702043255, 0.1492929511385894, 0.15843369192808562, 0.09284168302402601, 0.09041942030493341, 0.06801923143121179, 0.029196680537752043, 0.004607865164615213, -0.002107163989619979, 0.0010806656241447014, 0.0010601078735708932, -7.16388895077901e-09, -1.7849343586317778e-05, 9.056876941652071e-06, -1.0708200876120439e-06, 1.1867383244571064e-05, 0.019992519381394163, 0.06976554720340473, 0.04535945256396227, -0.006440415492252208, 0.0670038664104479, 0.07290060855690668, 0.049183633614222344, 0.09757795841947768, 0.1983466563123837, 0.1266731414890923, 0.11891309286205806, 0.07982919103799929, 0.08129008013260344, 0.03713675208585396, 0.02538582611782821, 0.024189467838158042, 0.017447700491734934, 0.01308300919794345, -0.005031194506218065, 0.0059855623522073655, 0.00013761517741876306, 7.632915693726579e-05, -6.922056654719103e-06, 1.8283253954094496e-05, 1.7471887381526315e-05, 1.730606502245904e-05, -2.4535306409526642e-05, 1.239563610145722e-05, 1.4031813182183933e-05, 0.00039679101245233757, 0.003014358633191631, 0.014874733974645785, 0.015157048616780577, 0.005982581811569057, -0.004071853953580592, 0.02222739306661969, 0.017019874377545468, 0.011492760117803183, 0.01608038518829579, 0.011073626280586451, 0.0016050473763194809, -0.0050669693437952, 0.0012562509201908443, -0.002918924186588829, -1.5474585360000415e-05, 0.0017564674620676943, -0.0020414335782408272, -0.0023743714350135414, -1.9719082878476406e-05, -5.85707350461267e-07, 4.581312695037637e-06, 5.0830922081255305e-06, 0.012647659399510814, 9.959593497201728e-06, 1.8487553095217437e-05, 1.3235741551264687e-05, -7.180214872649863e-06, 2.4135749428404078e-05, 8.136375668586769e-07, -1.168980471285843e-05, 1.2417402717309434e-05, 3.943745907381238e-06, -9.335568678907146e-06, 1.2445865902636965e-05, -6.882006855529606e-06, -0.00024230751909299486, -0.0004939301908340597, 1.3823905589805133e-05, 1.2838382160284868e-05, -1.714006774794723e-05, 1.2525797548042145e-05, 1.7664219410245322e-05, -1.702415902191007e-05, 4.998280537311395e-07, -1.852658127722257e-05, -9.964267923968552e-06, -2.0137338837486535e-05, -2.2441537463107644e-05, 1.6518605999368657e-05, 1.4745029135185594e-05, -1.7992838791481462e-06, 7.5221319486986444e-06, 1.8147879329117046e-05, -8.404400263782845e-06, 1.641036045042758e-05, -2.8819716513356815e-05, -4.401435124834405e-06, -0.0002296653750629633, -0.0005425558325493239, -0.004939425340296993, -0.004768366755519043, -0.002722527624318376, -0.003561437271037253, -0.00863198625705087, -0.004224464099189741, -0.00012613244296442438, -0.0036932944937235076, -0.012887726179250434, -0.006593655420591811, -0.0007434996297782255, -0.00032494051785554237, -0.0005733110490099318, -0.0003419012546327899, -0.0003940966070795564, -0.00023682189566228727, 5.093013768315125e-06, -1.2215646198436558e-05, -6.912980359846472e-06, -4.047172075792607e-06, -1.21913997243042e-05, -6.373479280906597e-06, -3.537446360202785e-05, -1.046299191281703e-05, 5.42695186558095e-06, -5.367249460381588e-05, -0.0018526562849292107, -0.006741428706319953, -0.01997497423842112, -0.03214954633074984, -0.031202154373791178, -0.031372730512398896, -0.057894655045778565, -0.07994206401932803, -0.07323889400085203, -0.048797368246177836, -0.04290924849557817, -0.028349420734215768, -0.0004255259382756107, 0.016370484340048896, 0.006088037070938956, -0.005221951020665738, -0.00515943037458327, -0.0037922286969406392, 1.643023159827064e-05, 0.0005218284279987933, -2.5417792411307795e-05, 4.686041151929158e-06, 1.4103833854358387e-05, -7.822376491142544e-07, -2.9331186835330533e-05, -6.897696747770522e-06, 0.0003891762593036704, 0.002677802714409983, 0.003336902812164378, -0.005657076156778538, -0.03925160007590021, -0.08491673764549461, -0.09709301668563387, -0.07127823202128672, -0.04830450354714307, -0.09156831998534332, -0.05543203887887853, -0.0449814699127051, -0.070200099904458, -0.06443721875596263, 0.03470781347454318, 0.032299367016998065, 0.021558109356485947, 0.0195376279922503, 0.004327945277051044, -0.021189731008368268, -0.01673362697286357, 0.004814324720462806, -0.00307052366039134, -1.9135243060862553e-05, 1.2730456910702932e-05, 7.9525933846945e-07, 7.842838635444474e-05, 0.0005221494945031331, 0.0010266745705135919, 0.013161918695142223, 0.015285891784644623, -0.008422626953209063, -0.049806779635764305, -0.06322790303526649, -0.06511187078335298, -0.013838858847269587, 0.01866921223126388, -0.0018323385398090184, 0.06754094112649131, 0.08730679946486894, 0.019882946261222834, 0.010012617619057753, 0.0979702931186289, 0.02858820538640264, 0.040388720927422184, 0.05348955317009828, -7.018760337996528e-05, -0.010382152007989247, 0.04277894066235117, 0.019586019788647064, 0.0067629328239111886, -1.9574275357935962e-05, -2.3367810172781878e-05, -8.205178268137355e-06, 4.089911215550734e-05, 0.007302513067538743, 0.025468424031793932, 0.06725263854160429, 0.047886947571941944, 0.018800731330610578, 0.003881338985030876, 0.06541580540918954, 0.059307308152250784, 0.08554809191251286, 0.02392769757184751, -0.04285588909777877, -0.058243718763505335, -0.018864104118996142, -0.01694480866793591, -0.0732251455685981, -0.039913916538487575, 0.010835990180432575, 0.0469775229325033, 0.07110524505181365, 0.08527480431369151, 0.10038990527481544, 0.08724997533344232, 0.04424979777249626, 0.007721686920690258, 4.296585846550104e-05, 2.3873015327876565e-05, -1.8144884696154603e-05, 0.00016921921170162823, 0.014762298458369948, 0.027178038562399434, 0.07603890001988729, 0.06884627554200255, 0.05481600014331332, 0.10727505586007806, 0.17107784021137748, 0.16599908831963578, 0.13603496964516232, 0.0676913873945243, 0.02951794069741975, -0.018673033693094587, -0.0018307189298990354, -0.02866859581723607, -0.06804331487305469, -0.09517826803906519, -0.007319460018792214, 0.051656751139258876, 0.072649997874622, 0.10823717487329726, 0.18509764520578423, 0.1963331121557937, 0.09328567203866257, 0.039480189345263, 0.0030119238865370652, -3.109428137925215e-06, 5.439557008556866e-05, -0.007737901596154402, 0.011744820285493767, 0.02264241476786509, 0.05878063711934953, 0.09094292669763902, 0.1340348661936856, 0.16322760493124358, 0.17983338303389335, 0.09984258098990162, 0.06596743807370146, 0.08957338707212549, 0.06795201676738914, -0.04654238400541192, -0.06742705559833766, -0.013109569399421516, -0.06715438508579949, -0.0494175341667821, 0.005840377541424403, 0.11047938212044782, 0.07304041681294335, 0.08722157127012257, 0.18094219275642554, 0.2341863865119408, 0.11948040924663147, 0.04493880124212199, 0.0044551540981579004, -0.0011332892101260656, -0.0011516913333240964, -0.0022024353050554245, 0.018245139294735667, 0.03153741072833287, 0.08079482369880463, 0.1337391119474021, 0.16244764435395165, 0.1298676203667555, 0.16782851456554032, 0.10101888431883617, 0.03312661746163063, 0.11391194047225274, 0.08407028488062189, 0.009614898135792617, -0.051190054115217896, -0.018384336651969903, -0.01495116879602516, 0.04808064230778331, 0.09814726306064489, 0.09518902803968808, 0.047795564259558034, 0.10777054265449731, 0.16332864861770596, 0.2678134505777232, 0.1840709393967903, 0.05879826250904912, 0.007389871042088177, 6.504794360320312e-05, 0.0004453847830124582, 0.008538282787019954, 0.02381900995580814, 0.03790404684913931, 0.08120790107910902, 0.11760738176195179, 0.14777651891724405, 0.09744322212077883, 0.09460002184485479, 0.05224011665633364, 0.10802914020767775, 0.07782315961690556, 0.047116623416897346, -0.006570263052703895, 0.01440924596084131, -0.007432979741064786, 0.03172901625140031, 0.011914417883265952, 0.09621495691832768, 0.07214934172415317, 0.1411836600232062, 0.1596520297314678, 0.11376448008104938, 0.21800508526121334, 0.21158179066181082, 0.0632919136265344, 0.004895010727726364, 6.564365382890701e-05, 0.0007203811119575711, 0.0021834230893504852, 0.016586266587720826, 0.050739725586551224, 0.037328537501486174, 0.10065012481402745, 0.09390880945155922, 0.07509012833485038, 0.1555915726830695, 0.08957982122469729, 0.06909989183207964, 0.0742166414834815, 0.1416554189910002, 0.17614055791963296, 0.19665450044554791, 0.13550322483662153, 0.05901218302567383, -0.04543071478440843, 0.03141163845298041, 0.015821861069453654, 0.08232405206906748, 0.08124257601256075, 0.05404882997903744, 0.13637884024137076, 0.23443044538009228, 0.08203199785037853, 0.012037341360212884, 9.300742922586753e-06, 0.0012804409614503966, 0.008524961956918755, 0.022998969890362136, 0.03225951896019705, 0.027457591820359513, 0.08463823283242417, 0.032834529147276685, 0.03310980588554405, 0.10725114484569463, 0.1542190443993629, 0.1946740873739172, 0.17192740745151566, 0.24580264934783533, 0.38785016571593645, 0.4215855017121773, 0.2427859497187984, 0.14963973021320906, 0.0155403870629196, -0.015483521683663617, -0.04498143779104404, -0.049275931484273436, -0.03522534230986378, -0.02527146634944627, 0.06436495398070231, 0.17101475843314257, 0.06090199208768445, 0.006773284076892624, 1.7886000325450218e-07, 0.0012362730794299498, 0.010239018584967872, 0.020860472258914322, 0.016781889808047415, 0.028176387619847126, 0.016914378744921438, 0.014406097983654118, 0.0075777075572067325, 0.12464304653471829, 0.20145802802508125, 0.14403206537718896, 0.12757852049709842, 0.17109569410869568, 0.3633154027292088, 0.3555487947471185, 0.24499416964564186, 0.07135791874678597, 0.031058616189372057, -0.001978742094823801, -0.05685434072961499, -0.14525399428786287, -0.182004403244106, -0.20425993503682813, -0.15606103590691725, -0.007954503888682324, 0.0027612072510692174, 0.0009069103190075375, 8.495214988450107e-07, 0.000894477775042011, 0.007615766722341785, 0.006261361638311301, 0.006146268125871489, -0.01954355831092122, -0.0850834051239569, -0.08121685146812661, -0.018262814942251106, 0.040300749667736495, 0.052918197688647396, 0.09160481534220127, 0.08162009932901093, 0.15908416140037626, 0.23219435869984245, 0.31380781638975636, 0.29907122741321224, 0.14149947421028086, 0.0371485874978188, 0.0074717876590545285, -0.011509927088311485, -0.13120566898212632, -0.23567194750103626, -0.28434404995551665, -0.18838745219410893, -0.050968396200975305, -0.021343542981873357, -0.008106597258537034, 1.908502590896918e-05, 0.0005391686009618738, 0.004105912309565386, -0.0034349138710450013, -0.004620520065826464, -0.07050215532097515, -0.20917075273964286, -0.23678143317363984, -0.2035327470530457, -0.10170187641222736, -0.01625934283606871, 0.019485505541311673, 0.01771041203305707, 0.15544646045703742, 0.2203394165681603, 0.24413557818971737, 0.22098455678285084, 0.13128079731392753, 0.0001102407626091961, 0.003927737232114767, -0.07749606181052797, -0.09776481693324994, -0.19882813292516718, -0.19782597635997684, -0.12839757506219368, -0.04178006282163804, -0.012495338181089515, -0.00041502329130077987, -1.7975908511744435e-05, -2.4147479196699283e-05, 0.003956012738266078, 0.0014447785230151861, -0.005312554403709056, -0.16521590247466375, -0.234606790240285, -0.29744140435608973, -0.3157044362552173, -0.22927877114818124, -0.15425878324137582, -0.10221164771013859, 0.024625514440790152, 0.14795747955977792, 0.1566258586823075, 0.2271571709957855, 0.17099861033275557, 0.04439900660362401, -0.03608322985973285, -0.024175102846702098, -0.02392643333881447, -0.052766935208025, -0.07706988325941458, -0.07240885076246595, -0.08626994461814168, -0.04359267628977501, -0.02281198639361628, -0.004071904127799533, 1.7657899266368877e-05, -8.90202835217315e-06, 0.007308543411498202, 0.01271988333440202, 0.00382157336101609, -0.13772955252029592, -0.23898066610753502, -0.2302013063152992, -0.2861375327155961, -0.33279641993195697, -0.36097827487301326, -0.32571005938273767, -0.01624526008806825, 0.0969962091285635, 0.13878959357350004, 0.18115717161215555, -0.01240043535105484, -0.020903491893579255, -0.07997281521134292, -0.06805933823247906, -0.07649631097886914, -0.0436666161276541, -0.046257800362308664, -0.02969210666784074, -0.06022299390465284, -0.09024879856592431, -0.04464430552778034, -0.008613029192108688, -2.2271870017792995e-05, 0.00017326400300377668, 0.002999745111697203, 0.013098701289542377, 0.033125916228613085, -0.031937696303281526, -0.12210249801294824, -0.1974143864228002, -0.21134134608015476, -0.30900471434947907, -0.455779080708177, -0.42638996258873085, -0.20774130903006577, 0.01658437436165438, 0.05470597468157261, 0.04081905803877055, -0.06524200880041817, -0.10399184401988766, -0.08086664440549901, -0.09057833475670748, -0.08444380833608399, -0.04426147088352264, -0.0952772034460081, -0.013889721388676475, -0.057235758108944365, -0.10861235950833606, -0.029559458218314887, -0.005183529069510425, 6.144024879819893e-05, -0.0006314258163417581, 0.007834187546335556, 0.04055411259853846, 0.03651644718470334, 0.03604824020275522, -0.019972575672003993, -0.1494768157784145, -0.15701690393491619, -0.186851545581158, -0.33073637940646244, -0.3121666681442592, -0.17626677041103772, 0.05496687625610924, -0.0005712653010102042, -0.07315993655022181, -0.16500476122025617, -0.14311171888265636, -0.13868983034855217, -0.11386531997231095, -0.04225451448595361, -0.09470084963148921, -0.0738117163384504, -0.03377996080677945, -0.059723024886440906, -0.08396509573479814, -0.013322493398226365, -0.001464953777515592, 9.131340813441816e-06, -0.0013271001247984143, 0.012062190444606942, 0.07638752142488356, 0.03283846875452718, -0.0030532683612616036, -0.029146865308187705, -0.06463276912026196, -0.08495489215239187, -0.12546378001133468, -0.19394377397068024, -0.25140651122537633, -0.15230114066778463, 0.00837509530574848, -0.06716578492673263, -0.10138495577298128, -0.15177128386100378, -0.12682584550956033, -0.06551278503299947, -0.056145794160970465, -0.06745428822023046, -0.09274471046083418, -0.07929514624857742, -0.025632035587567627, -0.05126195571694542, -0.03875046482924364, -0.01077995387903106, -7.200231398917944e-05, 1.9119557425564604e-05, -8.131262778125464e-05, 0.0061214731033297715, 0.03380783796356448, -0.0029169816898735735, -0.07950264578781924, -0.04010107000372616, -0.07606975076532947, 0.012301307897168027, -0.058609251773457424, -0.17399870348051438, -0.16149356347946545, -0.10598896801742258, -0.04013073252060166, -0.10983992856228822, -0.12624000517771397, -0.08859900762382059, -0.058230359574831254, -0.12969305944903017, -0.13340575621979714, -0.10014992238044457, -0.0910913278147394, -0.040077683650815155, -0.043515334464614724, -0.07336442307116467, -0.026034615454406124, -0.004609185243297199, 3.380422827018127e-06, 7.317949529957218e-06, 0.00012124878472986197, 0.0031870828160497034, 0.001967103042037698, -0.016373945406388923, -0.07641154198430183, 0.011585746636275042, 0.012163314621104742, 0.07693938110702613, -0.014306628739566278, -0.09435249625216136, -0.08451481438186999, -0.05926995636623285, -0.06256533701909972, 0.0007343837781362767, 0.02084413589047608, 0.007520148572907602, -0.012417466739862309, -0.10037108240870894, -0.1284246103659076, -0.020868939328079875, -0.05898793977754382, -0.08249321766595627, -0.08804344748564905, -0.0608600766459492, -0.01574879276996762, -0.0038302515422138834, 5.359856492396675e-06, 6.337594768909479e-06, -2.2507791945365003e-06, -0.0006862951846133687, -0.005027412903750858, -0.005694757031157449, -0.04937175877984561, -0.018143522690893626, -0.014865607955734939, -0.030037668920942378, -0.04313202466489981, -0.026074987836007424, -0.013921102002484921, -0.03535985516562949, 0.014692530976244312, 0.06306173542772034, 0.0915177529149482, 0.02947958882752077, 0.059443367165776695, 0.00301544995348435, -0.01386851079180494, -0.003852722754725321, -0.06522170398441117, -0.05775556052597493, -0.048780921063599644, -0.036307873916868884, -0.01147387662154093, -0.000564057130257659, -9.082979550314682e-06, 1.2346886086366995e-05, -1.2119332861268498e-05, -3.097822124951198e-05, 0.012614028566834393, 0.03509786854580771, 0.037816418777409704, 0.007989740808312225, 0.02369158867915993, -0.014454624189442034, -0.002656460535554119, 0.015495004272222366, 0.002956962772137299, 0.0645356065482673, 0.04984753412774646, 0.06966170094198758, 0.11089231574536525, 0.1264813134593634, 0.1640202893820862, 0.06247057345833574, 0.03507499508484163, 0.01194797388182125, -0.020078401349545444, -0.042719563837596994, -0.032391675944038446, -0.02501747398746378, -0.013514168945162238, 0.0004374263275404532, 2.1405667128527665e-05, 2.2859507176896468e-05, 1.2788855653457295e-05, 0.0016109599099173473, 0.016334704420952875, 0.03463218976273003, 0.08529211663823161, 0.10029993791981265, 0.11003419583523798, 0.11668285973409721, 0.09077789869563657, 0.09109788243714115, 0.08861616449045341, 0.06601386091591528, 0.16389181522398236, 0.18755979950081153, 0.21488008068344996, 0.16181817487193745, 0.1653683820377623, 0.12268200591883914, 0.07791103851984262, 0.017139025370366823, -0.0026014291120218616, -0.009787099585418338, -0.01565882591637398, -0.007023657965481252, -0.002933191764253893, -0.0012301100553057127, -6.266811391266341e-06, -2.175798688491962e-05, 2.558283287377678e-05, -0.0001066405839850385, 0.0016414379706318465, 0.016835638389935393, 0.027922263501303914, 0.051862571104383026, 0.09766087700604748, 0.12841875085682397, 0.15298485171784354, 0.18172814197404769, 0.17147489249142345, 0.192682563587851, 0.15859258671281382, 0.16178488078060746, 0.155362471234323, 0.1204621574097076, 0.1299560008375944, 0.07291398430623552, 0.013448048904703325, -0.01836281696313144, -0.023973042988815686, -0.006276676102686768, -0.0018581979581067543, 0.002202891806513218, -0.00113350419168777, -0.0013142257796609675, -1.8836146203219088e-05, -1.078899138022808e-06, -2.47853202977439e-05, -1.732976509063717e-05, -2.2583464769452945e-05, -0.0014371279515653106, -0.004528507981076909, -0.006658553347129679, 0.008892609516942025, 0.00996766877867423, 0.023945353813447628, 0.02801708790994562, 0.020989897244160928, 0.02197096564934394, 0.03938557701822549, 0.042831377857082215, 0.03592636251828603, 0.028001859195144512, 0.0423805858795617, 0.024723820730324066, 0.0013259917075809774, -0.011220495760112907, -0.01203212947208123, -0.00040758720746066627, -0.001040197731673205, -0.00027215507049489627, -6.750674826686929e-07, 1.6691845622668327e-05, -2.1905521955307976e-05, 1.4828765659531073e-05, 8.169715527023624e-06, 6.866736135558551e-06, 1.812063064265392e-05, 6.5717333677242e-06, 4.2897483254858574e-05, -0.00041162751854384363, -0.0031412589418532695, -0.002606002082576481, 0.003367331951941441, 0.004858011114596148, 0.005387221288737886, 0.005294571261669474, 0.004959647191529457, 0.007216603911584344, 0.01215906951576835, 0.010395518295435037, 0.007283614367240446, 0.003710368673718673, -0.00048521038805805495, -0.002432997032284707, -0.001542183828161469, 0.0041495348242645705, 0.0015252426095400552, -2.0843623997667238e-05, 4.998636975626018e-06, 2.138252794054497e-06, 4.742097289930702e-06, -0.005276197090426952, -7.936379948458803e-06, -1.4408787496421766e-05, -1.2128559325495748e-06, 1.8315020061000746e-05, 2.3308287578643127e-05, 2.0858093516570846e-05, -1.8876287175367752e-05, -1.4429435772625724e-05, -7.320371615302916e-06, 2.4660780990374857e-05, -2.3946140772309012e-05, 1.4777972515365521e-05, -0.0013310350501687716, -0.002938682936083615, -1.9801396474401655e-05, 3.153393438538933e-06, 1.6446401898133983e-05, 1.377228151763036e-05, -2.1237619772637037e-06, 6.394100984971192e-06, 2.253681812696488e-05, 2.5435696555574755e-05, -1.8742423270080977e-05, -1.8191066947840784e-05, -3.2193262797668786e-06, 2.3341117683466484e-06, 1.5689123181471268e-05, -5.989883111321524e-06, -2.299618477080431e-05, 3.780794200756e-06, 2.1468289327489377e-05, 3.1370613574518907e-06, -2.0907605123815146e-05, -8.32235509950802e-05, -0.001319625909309973, -0.004157125608056649, -0.013310007518611897, -0.012108765914670855, -0.015359397223419365, -0.01693353455113187, -0.02823991520267008, -0.017399514972573093, -0.0073094951442101925, -0.01345955271145055, -0.01448067648395701, -0.01202421783955299, -0.006726981874375265, -0.003475220976331196, -0.003914643994728845, -0.0018566638517986743, -0.0011294637119833365, -0.0009999286566033433, 4.7951974957886954e-06, -1.2891317698106296e-05, 4.482810318572502e-06, 1.3909940193879274e-05, -1.9770441546924626e-05, -2.4684525776660697e-05, -3.477041789687626e-05, -0.0002798695790504804, -0.0008233707356511545, -0.000187426032010311, -0.0033959613276686217, -0.012106324763145649, -0.02748668847528536, -0.03842544099737086, -0.05652292370318485, -0.062225403903125, -0.07971892040341126, -0.07137500312576543, -0.04884156242999075, -0.0527143672271045, -0.05178110399548167, -0.041695676592449396, -0.041997700230869454, -0.03729041380148594, -0.018196979460437867, -0.0141967992383826, -0.011008002781528322, -0.0055418837755124885, -0.0005950011217254449, -0.0001717302597877438, -1.807686142792301e-05, 2.3588438402221184e-05, 2.8763428612999524e-06, -1.7623760002565754e-05, -2.2913339017426235e-05, -0.0009036253203479987, -0.0022689658114919604, -0.0012996474040271467, -0.010468179118748209, -0.021414273637267153, -0.042150781466060876, -0.05482048254489047, -0.07486123875193712, -0.08908502810003281, -0.10004333263448875, -0.0923206444848952, -0.10057493255297151, -0.10627116879385165, -0.09221289481408793, -0.07713090219838296, -0.06319688261406951, -0.05888426976971045, -0.05119981097300792, -0.04334417233464003, -0.03879569087090858, -0.023719380124802587, -0.009873580423295522, 0.0003415716288286456, -0.0028276987697188113, -8.648546697288523e-06, 8.698096367221135e-07, 7.4983617365472555e-06, 3.922248735750293e-06, -0.00011657527994803196, -0.0016435269686554568, 0.0008235193500341378, -0.00411623783563628, -0.010288111752804602, -0.030318251819242338, -0.04163759200716872, -0.030969688600440977, -0.02170948450741361, -0.0041839300519171405, 0.02394482572792487, 0.01121160754674347, -0.032391554891876465, -0.02462652449356977, -0.060191541080682316, -0.04860626966130592, -0.021915005992051127, -0.010655131762925485, -0.04875967290340251, -0.05040863783769598, -0.045893572209505885, -0.010252908215337284, -0.0015362030988506294, 0.007304673304324945, -3.7308616259166495e-06, 4.245229764321286e-06, 1.7412131590416998e-05, 0.0002230074013726705, -0.0006696043006477327, -0.005830416469461521, 0.0014675482603544374, 0.008812475099513675, 0.00023696617964195986, -0.030134026313077142, -0.009290851551266532, 0.043363014822326, 0.10095936214182454, 0.1260090921355666, 0.17761225849351275, 0.17386592121694516, 0.14369818191639092, 0.10852312540160926, 0.1108973899520821, 0.09241227263029302, 0.06836359878225536, 0.037573030557126255, 0.008825265210106967, -0.020854345111315745, -0.006298827984666096, 0.003950447150128098, 0.015359437175693564, 0.0061403224285739135, 2.5693364869392942e-05, -1.3696713912846468e-05, 3.882196639488579e-07, 3.7032875833689604e-05, -0.0032681968693608733, -0.012667385562895879, -0.0050078919702617, -0.00632207462291432, -0.022635993749192927, -0.045332909233820676, -0.03149245467592363, 0.00700433388967962, 0.02138505404199078, 0.07114008452818882, 0.14797503261321923, 0.18523318401385544, 0.1521734416860515, 0.13548988211850893, 0.11912608127113282, 0.09734017374286263, 0.07810270514011082, 0.05229374455740696, 0.03175117561543227, 0.013666084011644085, 0.016176507579106544, 0.0038635227462576888, 0.014583684607913, 3.460363444901256e-05, -0.00015036144072557716, 8.271607885928764e-06, -0.0005451681045334457, -0.0006210349969026308, -0.012440368729466184, -0.013961821508675308, -0.022302620028203643, -0.07456374715954783, -0.13556778295013697, -0.12235093466219642, -0.1735005570848417, -0.1448151132550963, -0.1016600948190184, -0.06392390290889748, 0.05449471279233872, 0.06463216753343604, 0.07405584327155328, 0.03637223631543101, -0.02792078123037929, 0.02250201895825562, 0.03068337940930763, 0.054890978970965544, 0.07781294378966373, 0.024506816267173263, -0.016705549656794664, -0.016490917713780473, -0.011917475790876392, -0.0030857782187172548, 0.000987469491261636, -0.0011034940962219005, -0.007181269184884048, -0.007333541750073846, -0.02234328480412367, -0.0292521024649311, -0.07472270264112299, -0.12548548505524756, -0.16157022148036052, -0.16157903730546463, -0.17515360476429984, -0.16637349863814502, -0.1788033919752165, -0.14714404579754647, -0.09189623867575535, -0.0840957184771688, -0.1265442463379869, -0.18732462564164026, -0.09360145296086146, 0.0022546384557983285, 0.055874905278681025, 0.017430758984987513, 0.06291029632652742, -0.0016091825970622592, -0.06435895870914075, -0.0442528017521731, -0.028464283583713248, -0.011453530336916247, 0.00036473601321762697, -0.00028531675459258994, -0.009908821161379297, -0.018991062105335632, -0.042355224456566226, -0.06432638954832662, -0.11266139057706213, -0.12038374100078521, -0.1307682656657967, -0.15078918107167366, -0.13489679546784017, -0.13350645525298444, -0.13605652226471354, -0.16785247736272269, -0.16217293676963593, -0.2482056813470717, -0.2310511745248228, -0.14423028483450387, -0.017537502316539298, 0.08432129353563599, 0.05285161196753376, 0.0073020931105009235, 0.024159690222528694, 0.01829753710765163, -0.03556510754133908, -0.08008219804088158, -0.04462478490322933, -0.004106185666110945, 0.0007728391835060544, -0.00041332080498182936, -0.00879507985266995, -0.034162044453346606, -0.05039790907035334, -0.06727423062963431, -0.09444833811407896, -0.0864402998640787, -0.11102920899071568, -0.0820675553451802, -0.0882293092417151, -0.09441890879203103, -0.07471440853257799, -0.0730032103084565, -0.26405018093539356, -0.23562910320531086, -0.12405032448413887, -0.026630468048808465, 0.09884941249661831, 0.13562836896206287, 0.11421452226603497, 0.020693940425040608, 0.05249099670538501, -0.008826153116681865, -0.07587711147717346, -0.0791015226850222, -0.025213566984518695, 0.005616903106373247, 0.0021694167678043517, -0.00011625616300434432, -0.012171047075596455, -0.051225286148808044, -0.06142371730547114, -0.049044353573854796, -0.06085414359106228, -0.07097081133883584, -0.05075686975761414, -0.017369214805711294, -0.023342445690141687, -0.07915949336285134, -0.11992365343134717, -0.17005651818559203, -0.3022135137589949, -0.12579330664611146, 0.03096113823172201, 0.15496519848353357, 0.1948274393970983, 0.1580248856058534, 0.15983141674882304, 0.12535227516865483, 0.07477556044166428, 0.010781070890973042, -0.07440731330196745, -0.050444131694763174, -0.01442326498955847, 0.0001547229784010787, 0.001224704985270063, -4.305856671585129e-05, -0.010779452990734564, -0.04861561898628155, -0.05710926672015101, -0.021191691014968334, -0.051839265435382136, -0.05423960759974925, -0.05342595427739149, -0.02632233981884613, -0.03759443316539122, -0.07166339431519293, -0.1297972571509662, -0.12102839640910111, -0.02680220807002725, 0.175253622648045, 0.18306160110702036, 0.1362513339656575, 0.16063938349939028, 0.14731809239460272, 0.22231048910444975, 0.16442691605481397, 0.0990938967592943, -0.04403779224620567, -0.12607717472058616, -0.0817146924655351, -0.01812890271150977, -0.0020419503901161983, -0.0010357119768904148, 3.1370017098339074e-05, -0.006909538219428769, -0.026008008332359327, -0.01823300846060909, 0.0071764602719644405, -0.03126378274165016, -0.025272006558929257, 0.02209550353207936, 0.03077751961456281, -0.0033674170602597084, -0.041699868749042454, -0.021113074089135136, 0.030763420752591485, 0.2730445078486122, 0.310552992814229, 0.17289143422307832, 0.12126500134040184, 0.12895596961039665, 0.14138028060879282, 0.15858811174104445, 0.13407319729171913, 0.02092663360002077, -0.14922684629307564, -0.2160619220094422, -0.1308083756589312, -0.013035379183170461, 0.003140686508676289, 0.0028234167046524363, -6.326952205790351e-06, -0.0035173953855381543, -0.013608261312720289, 0.01569759425586875, 0.06303053507178961, 0.021662675590965543, 0.04079848229344435, 0.09809737173735805, 0.03150062063232853, -0.009700256903102026, -0.0651142879526372, 0.002729074685695833, 0.0950265220844041, 0.31812282932398384, 0.27380733503333715, 0.11030648327539112, 0.12593812762258733, 0.1364553223093196, 0.07466105606316839, 0.042291970967814736, -0.04656197257417395, -0.15063940634163495, -0.21358412700603305, -0.20608729012530655, -0.09527505673813783, 0.006616004282681843, 0.003111298263016331, 0.0003023320446654545, -1.742153629728283e-05, -2.186587176896968e-05, 3.258710029626162e-05, 0.03664943744531023, 0.0964385801439178, 0.06434988856221077, 0.05155086854104747, 0.08649722174461336, 0.09683807507856293, 0.004942235565031129, -0.031487738170768144, -0.0005014986188131911, 0.10908508025702864, 0.2841176039705989, 0.17586966762593748, 0.1055489552493871, 0.19060218010589108, 0.08200969142295116, -0.05438659372138991, -0.0966494369379944, -0.1948792719249002, -0.20541116251983046, -0.17947866974469115, -0.16082108770705056, -0.05919824216458453, 0.005112804493713587, 0.008390412072644862, 0.001021897627402304, -7.670837586920883e-06, 5.096093119893973e-06, 0.0006483692794245876, 0.03787277220832044, 0.08478080104597234, 0.07193151981289238, 0.059426775235197925, 0.08453386285571603, 0.1305849179664931, 0.058242267709382324, 0.044936929522641854, 0.03981258751650097, 0.16399724897584175, 0.25985628971249697, 0.22695533999852868, 0.20772462176804757, 0.2372866383302192, 0.11338165005594784, -0.032309949186771866, -0.16424466706743077, -0.1746317030458313, -0.1403704654234291, -0.1377103741347053, -0.09970836866725366, -0.04606564004104553, 0.01923892490586825, 0.013389125015094558, 0.0036260307205399508, 6.502409939415481e-07, -2.139573206853569e-05, 0.0027105519860395814, 0.0316137978463464, 0.04986428759721633, 0.05143062165989117, 0.04416044206506569, 0.050556934166522835, 0.07864809353737348, 0.039481685919855465, -0.004456456687511782, 0.057688963947666906, 0.18977905836246078, 0.2788970583206167, 0.23624316350358782, 0.2123746109448801, 0.14517290128679755, -0.01932635238204407, -0.12942516921666458, -0.18697167102041895, -0.13229220332902947, -0.07722943379588143, -0.11487622453506821, -0.07404406310031265, -0.011307859999797037, 0.030529203140873932, 0.017065315715123805, 0.002241573378755366, -0.0009012549570707516, 5.0681072187169075e-05, 0.0008524579497557577, 0.03218468782521492, 0.048806105946528185, 0.06706092605579261, 0.06349982140541255, 0.007477217087267307, -0.021039485241248445, 0.002443618831264547, -0.061031479100267204, -0.041235441784519496, -0.009366736521233918, 0.08506714935903237, 0.17368194200572834, 0.09736159886633153, -0.029752279403717264, -0.10602400013252954, -0.13581334611861848, -0.09341145925572786, -0.07986506969905376, -0.05880484649304111, -0.060585995016273084, -0.009437772330781928, 0.03995831848028947, 0.02322810756462654, 0.001999799268531675, 0.0013910788222070965, 2.4868625621682647e-05, 6.662033526748703e-05, -0.0007479599732364858, 0.02922831451158974, 0.04647348631179139, 0.06918086904932913, 0.06435310752394352, -0.021646849119316747, -0.09852597197497712, -0.144607004457511, -0.21580837575353676, -0.26797986716801286, -0.26490714063038856, -0.12339170039371443, -0.07023240547897204, -0.049211426970251826, -0.038107209309384736, -0.03895497113769559, -0.033672986053871416, -0.06128627683438591, -0.05348847363277635, -0.010846926240121221, -0.0014364805340868324, 0.023328797152788933, 0.04149350902500636, 0.012513923039313089, 0.004153411315948338, 0.00012066699142170181, 2.2946635016486152e-05, -6.199170151546122e-05, 0.004363419454061609, 0.03524657303817196, 0.06756475305428539, 0.06283252004064657, 0.07618146286543578, 0.03287919819973311, -0.04334139931871415, -0.17670733923468826, -0.2851154374492541, -0.3479666259477654, -0.3443077919446638, -0.2750105185773472, -0.18867959778741414, -0.10303765905224634, -0.0278857570232242, 0.004508038735141826, 0.02152615623595145, -0.02266477965750696, -0.006417868422901227, 0.015256657952792477, 0.030603609626822525, 0.030259744734145895, 0.028752583915112824, 0.0034558595961334234, 0.0009776239643183966, -7.325322800377841e-06, -1.2061798219710727e-05, -5.466385543062571e-05, 0.006992487220808164, 0.031181248754293026, 0.06029145004622762, 0.06608970239632375, 0.06281588562040619, 0.0352453994009409, -0.003413148905872087, -0.07072037856302268, -0.16967253686388917, -0.19562854906560917, -0.21694797277930242, -0.21653576860114596, -0.17740882126919802, -0.1240951427931496, -0.049414289265771794, -0.014067132378959539, 0.03517854769909006, 0.015825778688108284, 0.032176649957011444, 0.0715134978785164, 0.06515019550404953, 0.030133007800072328, 0.011512932326541199, 1.1611801254635464e-05, -0.0012110656874756481, 2.5393991999498962e-05, -1.147152882249776e-06, 2.0650915809783657e-05, 0.006273728667938618, 0.023890093239812074, 0.0549348650031959, 0.06177088385920677, 0.06553657390188523, 0.0067839384440731764, 0.006273997826383277, -0.05310015159672129, -0.05487010199985645, -0.06932500014699577, -0.09840250231730929, -0.12505973296382422, -0.14491287592523566, -0.11185089790414236, -0.06551298454781924, 0.02095731853367533, 0.0950195908277779, 0.08678957068093669, 0.07315167868592476, 0.10231279038290166, 0.08402999035009956, 0.023844182497369994, 0.005776798232744251, 0.0028167760010309752, 4.645163856929139e-05, -1.0258411530591359e-05, -6.834001664123875e-06, -4.00170751596513e-06, 0.0039282631639158145, 0.01143245859215872, 0.01965444643335874, 0.015496233631312625, 0.0057164098664052665, 0.00047229223997172914, 0.019071111672224427, -0.024104766463631678, -0.035868906521559586, -0.016745002284541347, -0.01766010919022502, -0.026067537152181647, -0.039614848831488046, -0.004270649379669385, 0.04219077645628856, 0.0839350953448236, 0.13653289792680035, 0.11450976294256417, 0.11474821937931134, 0.10978954660367823, 0.07725799927754834, 0.0424560610396205, 0.0109638034179272, 0.004690057367646694, -0.00019890253668070038, 2.0477857385037486e-05, -2.5028237237085365e-05, -4.686214827142554e-06, 0.0036556460010313736, 0.00359222047864884, 0.0019039348043729, -0.020066682123607092, -0.018771670176578492, -0.03137986396343119, -0.0041003527152434285, -0.034344736160930006, -0.03226423882434692, -0.044006663053641704, -0.07799680499719332, -0.07521642035151026, -0.03268409722214955, -0.021568185862859374, 0.04292238091479487, 0.030940971361612536, 0.06834752922812623, 0.11231347805663805, 0.10962081780862372, 0.08838534807338856, 0.05093804329878885, 0.029157767865822994, 0.0037760826808114598, 0.0018238801424131717, -4.1227323132296836e-05, -2.422234296541908e-05, -1.6916678253788672e-05, 1.7515700387841207e-05, 0.0006648485741681272, -0.00043514355791632623, -0.005762572886394348, -0.006503353831917974, -0.008960684433241363, -0.0641985666541799, -0.100299019095706, -0.12039146041963322, -0.0986755029390503, -0.12390392116624126, -0.10421953982208955, -0.05674761852599755, -0.055216494774059, -0.0733716771715718, -0.05901234476277042, -0.0554565944064726, 0.008401127655787327, 0.04559956449222458, 0.061254480001295165, 0.040096386539733374, 0.012400545261976805, 0.004846330790647271, -0.0030407903148470575, 4.341943304950242e-05, -6.449555198068676e-05, 1.86355915935101e-05, -5.574552510309226e-06, -5.315086702422759e-06, 2.1432526642346775e-05, -2.296249542612343e-06, 0.003602499300677547, 0.006252169359271862, -0.0013199599020032662, -0.028893012727011627, -0.02586506438043543, -0.03305613711490012, -0.035423600436809026, -0.022482127430551085, -0.006798509984536256, -0.03337872680280579, -0.04404804080535293, -0.057419171008326414, -0.03244793962837543, -0.03231536526507572, -0.009497634936211417, 0.0028563993151867464, 0.016077078343477023, 0.020259622060832018, 0.00369279910528594, 0.0022149709305491743, 0.0002025751110324695, -1.1897844802711034e-05, -1.5849559882098816e-05, -4.8645331334069515e-06, 1.93274792505251e-05, -1.9391438056876263e-05, 3.4235552616777555e-06, 1.7776963182520562e-05, 9.318671917737506e-06, -0.00019279627342449996, -0.0006436568082567004, -0.0011586840930414104, -0.0021316636303597702, -0.0025478015531108108, -0.003744085737173877, 0.0015091125852755571, 0.002953275023226057, -0.006435917210432464, -0.005401690226493927, -0.006064991105108195, -0.00971373621934625, -0.011437978243220813, -0.009326137675884421, -0.009250884402898011, 0.0015292781329018133, 0.003192503307649884, 0.0012632438390654036, -0.0007945380829838383, 2.0608611937372722e-05, 2.1507294607572627e-05, -5.189324989916511e-06, 1.3417368811907078e-06, -0.0372068239781829, -1.1901301902246152e-06, -6.496757259370902e-06, 2.0898815961792384e-05, 3.496614449899655e-06, -1.0560663701163675e-05, -1.766046601213539e-05, -2.0895523313432666e-05, 1.1769607960085021e-05, -4.0962658748544815e-06, 3.3234990435084324e-06, 2.0358796004875635e-05, -3.3202608922869542e-06, -0.00038895366939567473, -0.0007938291771075581, 8.898549376666653e-05, -1.7315049268632166e-05, -1.608644821117119e-06, 8.783063007851048e-06, 1.6744571298638324e-05, -7.3694714164822734e-06, 7.219256699834064e-06, -1.3195369104666971e-05, -1.9041808102887293e-05, 1.9818082399009022e-05, 2.5661509483155355e-06, -1.1998241040907909e-05, -1.1765967857345587e-05, -7.2266033100827305e-06, -2.16556880070792e-05, 1.810800584294527e-06, -9.062639545515803e-06, 7.398980369870823e-06, -1.0471335837351552e-05, -9.37628774424444e-06, -0.00022734069883452074, -0.0005060832120846611, -0.002079363532732649, -0.0017284853384692247, -0.0021292003588097895, -0.00510837688114843, -0.005503412713693129, -0.0024601042550422446, -0.0009596971427849421, -0.0021853824136474527, 0.004304591391005434, -0.0027580214070326435, -0.003422960783239826, -0.0013677481981354976, -0.0022875859689883756, -0.000871925723142666, 3.973133031716954e-05, 2.9736542035789023e-05, 5.850062841463743e-06, 1.1309899359127076e-05, 9.920923741887915e-06, 1.5549940498869068e-05, -2.484646492285256e-05, 7.70112177093555e-06, -2.0596533324052087e-05, 1.6267772748371902e-05, -0.00034858874462406, -0.00010657398424946234, -2.584977819347934e-05, -0.003814848225594284, -0.007386321236917924, -0.00500973569199931, -0.014063297832496916, -0.018893015823965013, -0.028068676319375225, -0.024322732614445557, -0.017011464201347082, -0.005690433091824558, 0.008342945953795441, -0.006178721332016348, -0.02456193395775156, -0.028449570965977965, -0.031439175933451656, -0.025576596615973994, -0.013031847600925652, -0.001390803876421532, 0.008794796832273835, 0.005798037717823651, -1.1592893802501211e-05, 1.990843618413885e-05, 9.48399420518225e-06, -1.3290899053626575e-05, -1.222244582532551e-05, -3.874505433926249e-06, -0.0018786652969612324, -0.0007771233671869349, -0.0068207368341740805, -0.00864023491359127, 0.01681537226248965, 0.037092087785146804, 0.04637265508921425, 0.06066219886815097, 0.0965682012126351, 0.15238384435152943, 0.16558671048774345, 0.14107663048356422, 0.1488268941540248, 0.1049033622157551, 0.05111218028140053, 0.005259025259607374, -0.020993530062722532, -0.054928757484662374, -0.06548882472945287, -0.0485560539328814, -0.0153082498393749, 0.0028837814254084773, -0.0007852638515682479, 1.6820917772648442e-06, 2.160222100827749e-05, -1.9368894102489208e-05, 0.0002345816753802358, 0.0007241188163817036, 0.0038608579443753384, 0.008874260952188186, 0.022053094549784946, 0.056388482209227896, 0.11316429139306806, 0.17102725602789753, 0.1925986646734846, 0.1835502436017581, 0.14967790718699056, 0.1151756598562913, 0.07970512137289054, 0.12093628693472554, 0.12110860932644739, 0.03303739207283878, 0.032054704134029985, -0.01885106875952759, -0.07223025998129921, -0.10386684122317012, -0.09219966588818247, -0.08549745634744135, -0.028038010117810423, 0.0012886540397000926, -0.00011038580051460822, 2.8152523914313236e-07, 3.4157871305103857e-06, -6.696478956574466e-06, -0.00010811014562639623, 0.007577513494872214, 0.02205369887403807, 0.038574759855770864, 0.05808718685754458, 0.07703162541852564, 0.1461274314933568, 0.1447787141696904, 0.18035885484079336, 0.09687506779927102, 0.006348964444682598, 0.010826399256925346, 0.04343449206605948, 0.03829628244490865, 0.004349143956550682, -0.05861827128548602, -0.010750285095296498, -0.033179252325383636, -0.03211359249156869, -0.08919093255217919, -0.09891097893541242, -0.09463911084340373, -0.054148998987690954, -0.011835113926974266, 0.00023663217405109574, 2.457275845946264e-05, -1.978619856638608e-05, 8.870823607650689e-06, 0.003490485706250759, 0.01897839086021262, 0.044910553469547324, 0.09343478665671401, 0.10287532776763854, 0.10542009201878598, 0.1301754098623688, 0.15911434587818787, 0.150036780008323, 0.12108465497480791, 0.0472682150265631, 0.062041402467481445, 0.08243477607472326, 0.03863838096887844, 0.07251571315847218, 0.017775184002251115, 0.08839763623312678, 0.05364371550415867, 0.09088415634192216, 0.06052359733208086, -0.05117573666930671, -0.12106030011811958, -0.05770388388877141, -0.015938496088237886, 0.0006898716312084896, -3.048626388944547e-06, 1.361362080808488e-05, 0.0004537996711890617, 0.00724733939408019, 0.030751292577533843, 0.0987223186303584, 0.11447522993938505, 0.14104253261513905, 0.11588358417191, 0.13747813023303476, 0.13418230745434837, 0.16664765076311083, 0.14605667701947408, 0.16690106538895508, 0.12422303292977485, 0.11058561970248419, 0.042410615162406906, 0.041575694700262976, 0.10165981400171019, 0.0745060351948824, 0.140188590755425, 0.060443194762719345, 0.0193932942399383, -0.022620948837664315, -0.13607541862644668, -0.08036554366564826, -0.021444799429847894, -0.00248493081067031, -0.0001835544328702349, -8.353180582844364e-05, 0.002236845779672038, 0.0045483375526463535, 0.03926748297547236, 0.1186872198732631, 0.10298711563080734, 0.07728538520838765, 0.11010091157940273, 0.053289080030385814, 0.08114683579169124, 0.14250144548487717, 0.18528396327747063, 0.17942366235143345, 0.09644401867278846, 0.18025490089639828, 0.12837864829232182, 0.01969595182242419, 0.11113491800443039, 0.09135978430319809, 0.10598712482163485, 0.022171875544627927, 0.0031131796532805353, -0.0266213904807222, -0.11917941997466024, -0.09359435666169025, -0.022976510693065513, -0.0008029160782499214, -2.3944823401262737e-05, -1.1361176638299058e-05, 0.0005782052352544423, 0.01187411283528139, 0.045929368522701845, 0.09243502394832004, 0.06601339600816364, -0.009666739043022995, 0.020320581105703273, 0.04670907002471232, 0.03248405072787688, 0.030290355473828454, -0.010815621465064559, -0.06153084931903067, -0.057064932962601414, 0.023414919672063883, 0.15460382728898253, 0.12805438307060707, 0.12208550544531675, 0.03390517043380115, -0.0013995178882416877, -0.0014264077746049015, -0.020639634333237865, -0.08075064114824566, -0.1302767763050806, -0.06623384584568914, -0.012134255268521462, -0.003869743720828207, 0.0013045881393505174, 1.0355805784302987e-05, 0.0007009988889816037, 0.010045111518484695, 0.04016367247139173, 0.025606278008184033, -0.012089992676110526, -0.09081151172472697, -0.1606798584146427, -0.14157461150731782, -0.24128246962575498, -0.3161674667547277, -0.4915556846270167, -0.5634869362763995, -0.4523500458062658, -0.17008320693590986, 0.08314023613020656, 0.1554575242358797, 0.06787095591901683, 0.04247629804233357, -0.009846500707692456, -0.021710564710064904, -0.09930715378944813, -0.14196426253524005, -0.14497709654890928, -0.03942668172794445, 0.004093619262188839, 0.0005021701626326171, 0.0020356368678684147, 7.553264697730546e-05, 0.0005762944736459554, 0.003202277185247274, 0.004349843882712497, -0.05048079039856666, -0.19339122709618953, -0.33842999820345676, -0.438651753209883, -0.5584178193545747, -0.6859635426695693, -0.7183309794396908, -0.6123135652777623, -0.5380761377862701, -0.4043606508497429, -0.20904814415344938, 0.044931647853955134, 0.12072755961070034, 0.04308953479901006, 0.072159356757853, 0.031150400808745756, -0.06771201133491221, -0.17014637963225485, -0.19354977255969316, -0.17614287896492473, -0.039417954550538724, 0.028702288905207547, -0.00011831653251066735, 3.202886916091527e-05, 7.140742649906302e-05, 0.000244614596659455, 0.0003593046989649769, -0.04196205327024598, -0.13194612859832086, -0.3428631877619745, -0.5210250919690932, -0.6325595103893541, -0.6960867403941907, -0.6496282542123417, -0.38738824801638, -0.29829126337459394, -0.1885707606745697, -0.18323911199163892, -0.26254323044108796, -0.04618974325830134, 0.017515357280951972, -0.034133501278866704, 0.04103233241935453, -0.015238491184797092, -0.12292518070348289, -0.20603106987360628, -0.22609992069635987, -0.19745774206201527, -0.04078345896989542, 0.03848792007991598, 0.00467739846583734, 0.00039948322005393494, 9.729904384219488e-08, -4.115982741811673e-06, 0.00022526249276137624, -0.04484667134782201, -0.14633483543428416, -0.37522496483217616, -0.5180446019879931, -0.5284315785937626, -0.3722522974087245, -0.20602102159136212, -0.06003365867206573, -0.046846547970414695, -0.008024476126894118, -0.03563224784095259, -0.12901489251702317, -0.12287525092968055, 0.011438296306979154, -0.0740508616618425, -0.021440535650791747, -0.05657688361149605, -0.08507546391296905, -0.10782629317714426, -0.14933795083857473, -0.16507103281735622, -0.02937679669633541, 0.047255868019488716, 0.014298129355252017, 0.0022487875242658056, 1.8885750003186685e-05, 5.993530116702177e-05, 0.00024849967137036767, -0.033503872239753776, -0.090954905322451, -0.2668911324499255, -0.32297615267652074, -0.23443924994401405, -0.10891536329608739, 0.04985432223582262, 0.030527139716637997, -0.07026306710696335, 0.03527549570676646, 0.017054844147795248, -0.0779340175390759, -0.09616122758998889, -0.005198099155639477, 0.023610117299871662, 0.03145719657456329, -0.03084033668163157, -0.023177191160600196, -0.038138133217287574, -0.09802025876535482, -0.09917067605724551, -0.019842743686942412, 0.04501438958714132, 0.01579512330732339, 0.00010728993980665301, 1.7389752989037492e-06, 1.2444011662059132e-06, -0.0008551946412874976, 0.003135910648001419, -0.005509260721438356, -0.07042536421085342, -0.08703431911217373, -0.11285918987306408, -0.0588112377410627, -0.00015315288176539016, -0.016220718809869562, -0.028995877789430993, -0.0047980554145912666, 0.0006930073401823221, -0.024160440267902043, 0.04378032634675636, 0.0024971191540658164, -0.016995695759468046, 0.002780555574612239, 0.02240089136377649, -0.0012065916834398057, 0.013540438693153738, -0.04708699857397431, -0.03318515008837857, 0.05637687054026151, 0.0899423933894757, 0.040471700520780085, 0.004209251346031582, -1.3984829552425267e-05, -1.0402471366020864e-06, 0.011946279607844085, 0.07704423053290764, 0.09432181970062725, 0.04980556769936702, 0.01969567670806027, -0.008734252292781058, -0.08783850777262314, -0.040849582125882404, -0.08492818383646333, -0.02694950951231095, 0.012894598210938678, 0.0044791263813635076, -0.025725764532618496, -0.06417889475715734, -0.041813497765142836, 0.005006531749801346, 0.07871394866752228, 0.1461977292103626, 0.07788778729360786, 0.10535297767690921, 0.11960676009680617, 0.12213646301979589, 0.14209560766880708, 0.14666161572861466, 0.07008616006219152, 0.01529503587173388, 1.0118286922926787e-05, 3.5594807272985606e-05, 0.02410410638078743, 0.1318617859187106, 0.19545848487023426, 0.11040920997030086, 0.061327642360942514, 0.020672912807584626, -0.009540177158316503, -0.08802198121788936, -0.15907077393496954, -0.06909096291117774, -0.0001157428995585547, -0.011716024023959694, -0.033802953631817234, -0.004263078499477942, 0.01718893089753959, 0.028140218682410775, 0.11690708478713177, 0.09551473053167704, 0.06870384300103313, 0.1073558511732868, 0.13976337519225873, 0.16913336624285147, 0.169028896372818, 0.12240473162767165, 0.0451929029658338, 0.010141014055996567, 0.00033986554035934116, 0.00140240961085372, 0.015976721781124522, 0.15158184107418568, 0.2434802782316288, 0.2146464310708924, 0.13461524781140044, 0.035534944807603205, -0.034415317470377293, -0.060111227394778886, -0.08713783616987725, -0.16175758101708332, -0.025449474432463117, 0.06462791873724197, 0.04980440558713639, 0.02458317484574116, 0.1162798822419523, 0.0835023395591457, 0.09727549001865979, 0.06508848933487343, 0.08161197203118753, 0.10583288690664673, 0.12655376150762226, 0.13461001316641752, 0.12012433855483926, 0.0792475596617952, 0.01893408691317491, 0.006007838536012692, 6.049613055523288e-06, 0.0028392248989434384, 0.015542930272746495, 0.11578868230508826, 0.20652754446314311, 0.19049692667439538, 0.20753470757850717, 0.08235750806729163, 0.035910762533374524, 0.03575340115225052, 0.021593851273940312, -0.001165775608782189, 0.006807749920982857, 0.07813459151044762, -0.005990785291002208, 0.05779769433392016, 0.10550802434277552, 0.08325862347415458, 0.08940348730224185, 0.03105393573568912, 0.05472632127207083, 0.11702437032210049, 0.13005310823876678, 0.09358108424843681, 0.07257743752570943, 0.06687699575191107, 0.02205574001547061, 0.0021261057454165957, 7.5122918675792734e-06, 0.0009125130083356117, 0.018797741442399707, 0.13910799225564355, 0.2349641374833576, 0.1719200476200831, 0.15253732691939034, 0.11178298745621233, 0.13807583891637437, 0.07584601784421725, 0.020937588058153076, 0.09160822983927946, -0.02356518654769248, -0.07327507994806594, -0.025940653462610628, 0.00994697262957594, 0.009656422873796746, 0.008401476577608775, 0.08260131257778182, 0.004385860701512434, 0.042041906502932616, 0.0885424428633924, 0.07259477105021553, 0.058634707646309965, 0.037166393180721666, 0.03681207021653545, 0.005938312780091516, 2.5698407516807422e-05, -3.4521332216979e-05, 0.0003074921588811358, 0.015481028931259739, 0.11827284968623904, 0.18478553209089454, 0.1290519321296713, 0.09624120720957499, 0.07192022293133393, 0.08833292169027095, 0.006396393486090911, -0.02584120635595084, -0.022710528160139395, 0.005727176918708318, -0.03428340398432827, -0.031139547789370413, -0.04157537620044975, 0.004754925753145988, 0.010601077223042692, 0.07084376514441233, 0.05544595926623951, -0.033326315110240944, 0.043803957067151775, 0.05013903438649603, 0.05836993525261169, 0.019329522359716494, 0.027600057218624637, 0.0020960079897991237, -2.4791195963200267e-05, -2.2132606628536392e-05, 1.2289962050999415e-05, 0.005612390751194688, 0.06493507351622524, 0.13419845305354763, 0.12463243180678311, 0.13204728150296205, 0.07802155811989626, 0.04765192625315467, 0.04045286084734276, -0.01528787221260039, -0.08913895230950616, -0.16111693883589356, -0.12181972974676578, -0.07961460714538568, -0.01723124721740004, 0.03389457898278342, 0.0282787768881851, 0.06654195729650719, 0.03803839301479384, 0.026408603954791825, 0.011578266668057247, 0.021787293860373973, 0.01655820079277068, 0.0013432460860152247, 0.008600626112981338, 0.0014769574830643705, 1.7541921245056118e-05, -1.2492260541607992e-05, 6.87788333966079e-06, 0.0019613139253725374, 0.03209198007849776, 0.07756659223147803, 0.13507131509377598, 0.12437810575320811, 0.08198127194016638, -0.031780302205851256, -0.03527381949717355, -0.0815620776617524, -0.07407234118053277, -0.15435797086351222, -0.06933037187753671, -0.09037468740886344, -0.09429343449158968, -0.1244875863569612, -0.09357766365337143, -0.02873065390699453, -0.041445916194033386, -0.050468482743895995, -0.04165032975970103, -0.014039901970071642, 0.006591776855938643, 0.0037127807149041625, 0.004712358888450815, 0.0006029467856808282, 1.1047505632373607e-05, 1.4384049233236985e-05, -1.8694111865356002e-05, -0.0001946031577618136, 0.020322340662168575, 0.05350754113625179, 0.06911107076771844, 0.08947399513928425, 0.07028924675321505, 0.05931686979246867, 0.014022918952386196, 0.011571665748098514, 0.10422010340651033, 0.09697365953220362, 0.06584887745478363, 0.010394520774280798, -0.04052997446477676, -0.07613964069517434, -0.0877199744772523, -0.12974754916256412, -0.10735829339031111, -0.07332314559096817, -0.05112283393951312, -0.03586236843652253, -0.009825160796273663, 0.014890818672735538, 0.009500463956274893, 0.002735867933285044, 4.2136457439293165e-06, -2.2192635529926452e-05, -1.478151003983876e-05, -4.473361162465813e-05, 0.0005166569407035128, 0.017142751469643853, 0.008073065257033883, 0.007898317993391019, 0.021034329296302747, 0.07459967354438941, 0.10177693537670085, 0.14484882094798698, 0.14630334147036828, 0.13696826050677502, 0.09611842663471744, 0.06854345448404232, 0.037861800173114156, -0.0020191071396909975, -0.020009548973330436, -0.06768576076872446, -0.0843086973894699, -0.08237135745801312, -0.0653003561442031, -0.030830944974115, -0.005944544034062752, -0.0009342742197781007, 0.002372368566561565, 0.002897548657762127, -1.768288526007952e-05, -1.0308272380610856e-05, -1.4993533062472122e-05, 2.2814793537693467e-05, 1.992126179815702e-05, -0.000847774331953798, -0.016211267322429102, -0.01891340337097837, 0.0012557221677924088, 0.0016861925628666144, -0.0023615773359656634, 0.006714413967867978, 0.019837063442211787, 0.025375148666108648, 0.018628434599856667, 0.0183175474153659, 0.028536013277131463, 0.013314745488540947, 0.008327873627999806, -0.013573170716602004, -0.02705321892241583, -0.021899077469054253, -0.01938267346578792, -0.00821717218096337, -0.00013729536953456734, -3.144882505107265e-05, 1.4120947182288584e-05, -1.1602141548276726e-05, -2.0868717419165732e-05, -1.8564063582310844e-05, -1.7707706189749867e-05, 4.852552748085883e-06, -2.4025142878400623e-05, 1.4107403572761883e-06, 2.5556794327919386e-05, 0.00015078849043701707, 6.029451702740568e-05, 0.0002034812365365345, 0.0007218409327477416, 0.002409314996207558, 0.0032103244459961563, 0.002698179762732986, 0.0018962763182421916, 0.0017859397114755044, 0.0023372630166800337, 0.001641259530676357, 0.0020526944247624018, -0.002049470106949442, -0.0017964121962450183, -0.0014805379850562272, -0.0017872150023103574, -0.0073568129783867595, 3.119099305696886e-05, 1.2328402960645276e-05, -1.9744635689708927e-05, 2.468663564464869e-05, 2.4923535888068843e-05, -0.012524438329877579, -2.583167729234105e-05, 1.1833028214958927e-05, 2.558779845570042e-05, -1.9530992779340406e-05, 1.2694601719365276e-06, 2.193987206021793e-05, -1.0196210007095573e-05, -2.0098804952527444e-05, 1.5139585247763871e-06, 1.789541242627007e-06, 1.2301181978423276e-05, -7.957592495648462e-06, -0.0008158868924359057, -0.0018568550924637787, 8.221614090679725e-07, -1.780650410589478e-05, 2.0981527225193602e-05, 2.4881093432280424e-05, -1.3636828783583977e-05, -2.312846178275068e-06, 4.683537433505672e-06, -1.627082862141505e-05, -1.653597178428844e-05, 1.864082940466587e-05, 2.5275713853415982e-05, 1.727640219389421e-05, -1.3486848062347575e-05, 2.1916324591067222e-05, 7.686530557234008e-06, 2.0266720909854306e-05, 6.910355732473486e-06, 2.479305431029426e-05, -3.124796585037744e-05, -9.2175910496493e-05, -0.002448379101431614, -0.006034179469087294, -0.01487729583398883, -0.012170064754961856, -0.019086391484335812, -0.023083282352983413, -0.026786628739356784, -0.014563256844090718, -0.010404612177923076, -0.01708586274814977, -0.007900326167649095, -0.009292931867227672, -0.009350715138475024, -0.004780638409201597, -0.006055181409288221, -0.005842253924785325, -0.005120255614786937, -0.0006306310065169293, 4.8222376178957845e-06, -2.0931909653194827e-05, 1.1918943105680013e-05, 2.5861931379039806e-06, 2.2268594253380957e-05, -5.756166757189648e-06, -2.518895512359559e-05, 3.269131907958384e-05, -0.0007253569988241425, -0.00025262966883939374, -0.005775025023289783, -0.015599355210843333, -0.025472945426977985, -0.03489942456697218, -0.05067066757044944, -0.0622941363403443, -0.08710079413262671, -0.07930855288713745, -0.07214491639850562, -0.08394961410893932, -0.07481297438582514, -0.06865165180156994, -0.08505594787862929, -0.0812726406304507, -0.06135815156226251, -0.040153276653921176, -0.028190608507141567, -0.009563377352838374, 0.006964024102757972, 0.00510575178472584, 1.2918455022974312e-05, -3.5245550148729794e-06, -5.715554401527526e-06, 1.616350725896188e-05, -1.4769181238288773e-05, -0.00025040138105071163, -0.002744600174918557, 0.001420903306293151, -0.016850070394645904, -0.012029507364632682, 0.0007940013586194821, -0.007175418647620602, 0.0055749809715473, 0.018545012689050785, 0.01568767442376337, -0.00531375203732369, -0.044868686220196144, -0.0847505492423889, -0.0610251043184665, -0.09428505989326978, -0.13026401057827164, -0.13852686650366175, -0.1226966280327671, -0.10556108129368447, -0.07538404453994621, -0.03598712138531922, -0.006785918647135716, 0.004315075594657442, 0.0004179600959698875, -5.0610801607004435e-06, 1.920229353731879e-05, 8.128589197680285e-06, 0.0002597991744797327, 0.0005655007408919634, 0.005039431615253024, 0.01956954938022133, 0.03866448915192106, 0.045073883874314484, 0.07049343597641143, 0.08466065014487408, 0.0607234002729563, 0.07174886549955473, 0.09388395568606078, 0.0731212687263034, -0.021161805059755658, -0.06571654226447847, -0.09566207508421218, -0.13808932823119224, -0.14888775662813417, -0.17891353209428548, -0.1766156824168632, -0.1526190332804766, -0.09173505900435637, -0.0752866563921074, -0.022654820362984242, 0.0025610308062691016, 0.002063967786623113, -1.7855936943863438e-05, 2.4274687563724063e-05, -1.2102006388769303e-05, -2.4006476890556545e-05, 0.007829633938720174, 0.029727958962717488, 0.0615548221215058, 0.07107892545864633, 0.062452003814309896, 0.05948092299624456, 0.05176284503578766, 0.03235176256137647, 0.024039887342152916, 0.05498094351465215, 0.04322215597748812, 0.025449242865298028, 0.03478914974937881, -0.04444862506790721, -0.1664858006768427, -0.1527059373006126, -0.16019409583204783, -0.1782578834303397, -0.14583225174162237, -0.10874277074780467, -0.09331943585939168, -0.035288906500187574, -0.0012843309650967774, 0.0032704096568246565, 7.495770706285875e-06, 2.488932227303919e-05, -2.3875832867381972e-05, 0.0023697056545029667, 0.021160778444482338, 0.05196637764884127, 0.09410018658616254, 0.11963050553656669, 0.08789752085667654, 0.04836738804946517, 0.042196400929182074, 0.018046340090310486, -0.0061928142183823, -0.0597578693972567, -0.011525861375129188, -0.06676926080101495, -0.1562035304979357, -0.1862533263472489, -0.20322620994843543, -0.17211589010105147, -0.14131648058415322, -0.09559666723348385, 0.005497751849998672, 0.012088568146343508, -0.006429959657033134, -0.01113592721008047, 0.002270357921673293, 0.002962464662948448, 0.0003729931715786968, -2.5113045664856263e-05, 9.667210435427832e-05, 0.006285545150303457, 0.028190452293150297, 0.0823534358308446, 0.1149067231641839, 0.10256150481766622, 0.03322810145133145, 0.007765260674685853, -0.03747942992567527, -0.033569533975527296, -0.04713609637806318, -0.07168234098134564, -0.04713979058836299, -0.1391293657912623, -0.16260663116641477, -0.17041117463626754, -0.06205800605850655, 0.019685330286625374, 0.07456038666778275, 0.1743021621331084, 0.22483127927124644, 0.22915185100573518, 0.16796119972719875, 0.06097922562507208, 0.019470347699187988, 0.004218698752828071, 0.0005190680711141221, 3.476834799807038e-05, 0.00031899167361072576, 0.005713750700671267, 0.029491534184193334, 0.08239093489560059, 0.0829812156205612, 0.05813319312198293, 0.06042763098447627, -0.045004268306218675, -0.07652841302291659, -0.04521493352276056, -0.05004404978643447, -0.01266195181139194, 0.051535573303768914, 0.11923852184667905, 0.1778154405020635, 0.20980679526170262, 0.36638920223386334, 0.5509359637523382, 0.6026465924022956, 0.5450080479944635, 0.4803095240163106, 0.42680923844843316, 0.28848415845744524, 0.1336701971284955, 0.03528148250289057, 0.003877712713038032, -0.0012385386698779753, 9.2831744757231e-05, 0.00045380887268441853, 0.005769014715858222, 0.020876378488497396, 0.060177225113107455, 0.08675346312912191, 0.0437354512933642, 0.007535847015992576, -0.07230544507876552, -0.058630690735455404, -0.015079659793653919, -0.1011530078039813, 0.02750018873159325, 0.24097456688140367, 0.32282409211218294, 0.4250972830188692, 0.5516718529215716, 0.671133416157313, 0.7242956682214352, 0.6529551453115575, 0.5736017871859176, 0.49904674462770976, 0.41492061800650387, 0.27218212132861136, 0.10244287974168922, 0.009404734905408661, 0.0024087264561873743, 0.00033219577573562014, 0.00014852634661339595, 0.0003887835779918414, 0.008386296293799268, 0.032982157410150974, 0.05606091375035115, 0.09462052330207071, 0.023666683766075947, -0.0462186880044019, -0.12277049744010463, -0.07415518753368296, -0.023379536965731813, -0.0005679743381917091, 0.1069468177120256, 0.14451563682182839, 0.23187513172151353, 0.2036444119221123, 0.2228535224425401, 0.2215883636549344, 0.2091278641284046, 0.21738866339036525, 0.2659608573560924, 0.2748802158285719, 0.23136620062778787, 0.126227550528901, 0.0291015266977624, -0.003581787424164461, 0.006573900623955867, 0.0022188535684863116, 2.732789138483662e-05, 0.0017491158779606249, 0.00609015458897245, 0.03213965905505349, 0.04476058224636249, 0.040220991446971874, -0.032472988533091815, -0.07502297356708415, -0.11745120149314955, -0.036240379649427126, 0.013653662310590375, -0.00435878604128995, 0.0027928128120861435, -0.05634714899348855, -0.023742909447584667, -0.008734918116302927, -0.08754531934671782, -0.12476643583226507, -0.2136928930224552, -0.16446313036120191, -0.046778059308256265, 0.02749387525198578, 0.04158681073458403, -0.011919205065013611, -0.015958871619037963, -0.0033387694750369418, 0.000998818944561344, 0.001442748551634062, 2.296605656852582e-05, 0.0017639222616995533, 0.0055222398117974174, 0.019607812406663774, 0.0365806114217052, 0.014265682798670873, -0.05932571010142289, -0.08423347652316959, -0.05670687754996435, 0.036302461434876906, 0.027695562296736486, -0.03775671034017003, -0.03748999243180226, -0.041769309984589845, 0.024406536973283304, 0.0020073598235555534, -0.03671595599538309, -0.1330982775700341, -0.1958781471743779, -0.15269422381969275, -0.1022529586063745, -0.02151772328353758, -0.02699588520576499, -0.03293289436823138, 0.00573912215400829, 0.024153940108428487, 0.00930879724584765, 0.0032201235996866615, -4.402316963504925e-06, 0.0007586294833558257, 0.0037598897298625577, 0.009966193138168534, 0.03248779870593042, 0.012386054753416996, -0.031511553440538874, -0.07006775000059404, -0.015177077899406493, 0.020442582796265592, -0.023200318707774604, -0.05202820042829293, 0.03313054977530243, 0.08299581666223799, 0.0741546494305386, -0.008512748027639868, -0.004502487437806902, -0.039259984318849195, -0.04190073753249553, -0.0922114183685419, -0.06590418152059188, 0.011725052383815398, -0.006764038231230957, -0.04429978801203334, -0.0020843853512812786, 0.05152417568084329, 0.024709708460420827, 0.009987414195997761, 9.58798980846912e-06, 0.0003832175761436929, 0.0018989931252090214, 0.002972832421832888, 0.027154848199759697, 0.022770846679435276, -0.003929981249966771, -0.008678166508447162, -0.03507809997093472, -0.02536136389803164, -0.08094987193243464, -0.06293700853702414, 0.05694176923131863, 0.12126464528856824, 0.04593632681925358, -0.03167109071608463, -0.05273630196203937, 0.013914321873036511, -0.01867025611526506, 0.03660314053841929, 0.005307648894657354, -0.01300859919855295, -0.019569805548700588, -0.018167363598843765, -0.016990010637277866, 0.031101694857242797, 0.016052498403429195, 0.0008039265018621269, 1.896362683875477e-05, -4.0954675641710774e-06, -0.003795917590312892, 0.01374808656183423, 0.04693710081247898, 0.05024091128794916, 0.019172643033288663, 0.015704937043984745, -0.03499712995462873, -0.02791282019265978, 0.016404740883955424, 0.008830182572488288, 0.058839643362352714, 0.10366916371003332, 0.025948958074104567, 0.002640407866454888, -0.031590189369343796, 0.04695406634580783, -0.042535230700134, 0.027076013290507912, -0.0036030792576046103, -0.023476513030479564, -0.008546920368942718, -0.015166416616858806, -0.01770300765116686, 0.022101127401288737, 0.02980764540927162, 0.0030196834454594606, 8.132635714662495e-06, 3.10348516950147e-05, -0.00221509227585849, 0.023980337299234232, 0.07183878611801729, 0.0668288436938359, 0.06614992013038284, 0.06692060409781138, 0.04290506996208661, 0.055985503334911, 0.02982194733211377, -0.025501628401310348, 0.017197248787711415, 0.050760378323997914, -0.0004216461728108112, 0.0036060591587922185, 0.048625460168595334, 0.06704227958616697, 0.00701726106247735, 0.0013519162069571325, 0.0015381986368574307, 0.005976358466425509, 0.01008785346429404, 0.016216508805981758, -0.010939700012500017, 0.03573171655910349, 0.03419404521091341, 0.009449876531318274, -1.9563414814342627e-05, 3.62769078076582e-05, 0.0020816268141487034, 0.03208894127089751, 0.07907029671609458, 0.06256957015974687, -0.010342122416865777, 0.048875381773027526, 0.0501518727948502, 0.043245851307008885, -0.019791861559531842, -0.013167685277438963, 0.011762370094994873, 0.018729310960652775, -0.011479192646569438, 0.029541734542647188, 0.06508911283783819, -0.0184496627054775, -0.03865448710703181, -0.03681607986919035, -0.030992577896909856, 0.003753830847884286, 0.018080434891672634, 0.00028268319849248286, -0.024073500756980264, 0.03742144539324551, 0.0252776979314842, 0.00732681215010476, -3.1249393053657186e-05, 0.00013008584446299153, 0.003324467511389218, 0.029809621357056462, 0.06572798146787036, 0.05538265789168936, 0.018329667116401653, 0.01575952157007975, 0.0175473605964689, 0.009542077198644455, -0.047244361309803584, -0.05974069868812259, -0.09549340706228823, -0.0237888204925326, 0.031340485036154934, 0.05753964328549821, 0.005268654451065632, -0.08740572345656963, -0.06169512928360458, -0.027068047051234643, -0.03033144235135082, 0.029660558007944732, 0.01588475866210743, -0.012498361541636518, -1.1596101982756074e-05, 0.031195667482531757, 0.01352664950449988, 0.003384684701238625, -1.2698600223895262e-05, 0.000291654122821798, -0.008721180255156504, -0.0015872176877317536, 0.04031322119385381, 0.0651011746807902, 0.0819130136672603, 0.07771662966411755, 0.05773065225651597, 0.0449514335268568, 0.00013931995625589147, -0.08649553581628233, -0.08924432977497528, 0.016454193709694517, 0.03593948551713775, 0.047431633368534926, -0.05908572507860951, -0.050103475327457424, -0.03525708905822544, -0.012551432001889119, -0.016109156576847358, 0.06344534390154416, 0.00475299760622493, -0.023160136736782307, 0.011569159676659118, 0.029504840719013565, 0.013470843572259056, 0.0010701785606075673, -1.8299427689987025e-05, 0.00012535847442558614, -0.005008163626429118, -0.0009416287319221889, 0.01968935740737624, 0.02964866571684094, 0.09134259550670547, 0.12607226331390234, 0.11071446215924924, 0.06084156764034152, 0.008175553919718068, -0.006254873735385596, -0.02564653303030928, -0.036389189703193416, 0.022669623213292172, 0.0050122538031042215, -0.04286631554580151, -0.06564475558429106, -0.015009434408213245, -0.036483692335953985, -0.014980518988152437, 0.005984943909399748, -0.0053255852644672075, -0.0014211150831678983, -0.006760212082165736, 0.004739531860802552, 0.0034064518703122025, -1.1273098701331908e-05, 2.0711632098716566e-07, 0.00013814504718999199, 0.00354886002573005, 0.019898504139650264, 0.025554573747719175, -0.00040551031718330993, 0.040475629356513484, 0.053176064000675545, 0.02987683221100624, -0.0001801109728263156, -0.05520916851609625, -0.032313249932697706, -0.08840427109103148, -0.10800106173390227, -0.04366980259973874, -0.001715715336632336, 0.004477002955397236, -0.05234971121065648, -0.03637501164990809, -0.05399543023543306, -0.06085859560549622, -0.06603318339702255, -0.034558207926394094, -0.009269529866144986, -0.01914115970045791, -0.0021890978629676636, 0.0014878020453531692, -5.960051024713892e-07, 3.32389431705912e-06, -2.443989634881344e-05, 0.00228438168000264, 0.013656051875011106, 0.024847367267432016, 0.024791538016247023, 0.04412685163555288, 0.04232894135317806, 0.05259502216358641, 0.04290684987651177, -0.004758823930326797, -0.027909287733034756, -0.01870770701429971, 0.007902734543857913, 0.00760048254411484, 0.039984569376321444, 0.004184485690408151, 0.0033151107294961406, 0.006536627534537792, -0.017574541504989185, -0.03624969847507878, -0.024048136112765732, -0.008410703645834617, -0.005346953815975268, -0.007479722529344407, -0.00662917658948464, 0.0005259153016258601, 1.651743089229462e-05, 5.2366018980482045e-06, -7.681981713010773e-06, 0.0007266520814790791, 0.003952670520026203, 0.009983417931743193, 0.017516935224905803, 0.02643386404778646, 0.04274096198093663, 0.046480429671664804, 0.050798728108417304, 0.04101891045198491, 0.09103777301435767, 0.06216460610211842, 0.0874186820419549, 0.05325398433008981, 0.034317917113880846, 0.007721325318573437, 0.01337289989629761, 0.02825090972458377, -0.006380005252123092, -0.010918262561003518, -0.004062057933888458, -0.0002697643379545266, 0.004422978900736753, 0.0014267311537343866, 0.001703853314133381, 0.0005530066639966479, -1.1780035080868089e-05, 1.2002232650347482e-06, -1.6331459429313115e-05, -5.1569429253762215e-05, 0.0025870503219522856, 0.007634876662159515, 0.005258785437675132, 0.007246109946246915, 0.029648416746173505, 0.05006936308258236, 0.03609187085544286, 0.0414596464530415, 0.0920083790757196, 0.05666483924966032, 0.08269841920771222, 0.10138933722399668, 0.07445042383986218, 0.05417301729533898, 0.024882765920788842, -0.03315254135154018, -0.02212985523135566, -0.01566491260184545, -0.01795018491229963, -0.014224542302662001, -0.00492212357228182, 0.00217823965310891, 0.0022487970735444586, 0.0006900740719160248, -7.727328402903313e-06, -1.0231553338526992e-05, -1.1542647765037694e-05, -1.496960424654644e-05, -0.001505852737500767, 0.0021732997725568476, 0.001996834121035242, -0.0024303657084529706, -0.008079012027685765, -0.009038042589399985, -0.010245056747764861, -0.008066640594272957, -0.004805089862758456, 0.003108394218193903, 0.020013675915517722, 0.012426492305043838, -0.011977529967339248, -0.04566192607967135, -0.05226950434118652, -0.05453267417198856, -0.04889855861195209, -0.04230919415704931, -0.03262346385003088, -0.012742115413089996, -0.004050729626528398, -0.0021215261650168954, 0.000495984120534925, 0.0006768870041751247, -1.7406486640869446e-05, 3.335197668064838e-06, 1.362095917818126e-05, 2.1212461960417906e-05, -2.393540335861357e-05, -0.00011137836736405781, -0.0002373291637936573, -0.0007147827681917182, -0.001751351894871238, -0.005157548848469506, -0.0064514701626351085, -0.0068300031419954894, -0.010899302394021168, -0.014728030439210131, -0.011326462009738022, -0.018672536350686282, -0.021658955377568373, -0.027220283074301167, -0.023939021647139284, -0.017440756129164958, -0.00889985478617097, -0.013557588745928805, -0.013730295085148794, -0.0037704966367970594, -0.0008361462158479687, -0.0001809366028183926, -4.037963144465297e-06, 1.3172926573051021e-05, 1.880765123672476e-05, -7.506326624274495e-06, 8.151350299754177e-06, -6.057498402311892e-06, 2.4728937672957608e-05, -5.19393526414269e-06, 1.1648649774973758e-05, -1.2390732098818525e-05, -0.0001031767387477494, -0.00014889306604473615, 0.00025410610876756953, 0.0013306340049819465, 0.0011104414266599203, 0.0007715029996299277, 0.00034490888698766626, -0.0011085761818435847, 0.00041150031334677927, 0.00113587730475454, 0.0028416478881624703, 0.0005783467141286475, 0.0017345841560094245, 0.0013345690016367158, 0.0001788211855388047, 0.00011160652169911509, 1.556944991022833e-05, -2.4949191634746213e-05, 8.08650787936489e-06, 1.2184683829991157e-05, 1.6976143869674513e-05, -0.024017738051432126, -8.515071412180935e-06, 1.8354443463680346e-05, 1.9075622810081614e-05, 1.0863210195739975e-05, 1.6711033881207284e-05, -1.8658904009527595e-06, -1.927902778689695e-05, -2.390626958194119e-05, -1.5950016698065502e-05, 2.0311439944674074e-05, -1.78514221976464e-05, -2.155869885317018e-05, 0.00010127505587825719, 0.00026613096435341803, -1.0355791477766144e-05, 1.7340391197224496e-05, -1.2250100706618166e-05, 1.6602895713483004e-05, 7.547463546071249e-06, 1.854984043758027e-05, -2.303536356657146e-05, 6.0419368948224935e-06, -9.168383545057798e-07, 1.71769774499741e-05, 2.4255103499984147e-05, -1.7453436331348935e-05, -3.475106173429618e-07, -1.6820231416051243e-06, -8.385572122080358e-06, 6.698492255045614e-08, -2.1332243102060734e-05, -7.071610223024082e-06, 1.8783132652596423e-05, 7.052524075639673e-06, 3.3262308155465087e-06, -2.3003953379659745e-06, -0.000670634953540212, -0.0005623962685417994, -0.00010569727426745186, -0.0001611292566269995, -0.0012527450695422509, -5.719875900874461e-05, 0.0011734179625598866, 0.0007253885085597394, -0.0030999044267236075, -0.0009412285923492241, 0.0005270767144485337, 0.00017250055160160848, 0.000237726830372107, 3.739684719374617e-05, 5.137794097907831e-06, 2.442496030391233e-05, -1.8583267100400454e-05, 1.406521231320992e-05, -6.684377533286193e-06, -1.160203405668348e-05, 5.485116450736531e-06, -1.1628155201800514e-05, 1.2709625747064708e-06, -1.2161987509568244e-05, 0.0001191757428695451, -0.00010765140769162553, -0.002149016770378023, -0.004634901306304325, -0.013018091608129133, -0.020028431849528763, -0.01077078703697643, 0.0003921745463429621, 0.000532440847778675, -0.017488334226307307, -0.021237052108645713, -0.012028944031168415, -0.015782139785171897, -0.005749299064296453, 0.00593389519164325, 0.009591144116216867, 0.006376758761949841, 0.0013101390223359802, -0.000651005629616166, -0.001124753044969185, -0.0002619670014875004, -2.9745835490921754e-05, 1.301981588936328e-05, -1.7397183937548274e-05, 2.2694861085426798e-05, -1.1916826388027443e-05, -2.723357283321252e-06, -1.8984798397066212e-05, -0.00042117355690235317, 0.001900145281210379, -2.0240601865494088e-05, -0.0021039866704675144, 0.0027408965659172385, -0.02239982030485598, 0.008717897671529827, 0.044763367640462216, 0.08373896681626354, 0.04178893279336706, 0.04797963521864464, 0.04032356002012178, 0.023237291134743678, 0.01837335336946624, 0.055946949504287635, 0.050045111469240525, 0.05709293027647005, 0.019120076407279918, -0.006011139129677181, -0.007942774388282005, -0.007906957447062204, 0.0005038731255097989, -0.0034911787052909708, -1.4283379913837759e-05, 2.8843213233446437e-06, 4.182627259906628e-05, 0.00019665925918238962, 0.000552954765844554, 0.0036731740350819894, 0.01574260968135728, 0.01908891628834349, 0.015340013871036054, 0.029176358874046054, 0.03786668301485467, 0.045905145926307574, 0.05155608198309448, 0.05954035550772613, 0.08009423114794946, 0.11757410394612121, 0.09743444419301256, 0.05041797968041634, 0.030279418455099027, 0.06982683741888744, 0.031291551583594236, 0.045977743044618095, 0.043438351773276054, -0.011573331141827336, -0.021708316496354185, 0.007203909123067282, -0.0006014376074018904, 0.0003266595869711468, 2.070948117338636e-05, 1.7994121428257654e-05, -2.0218054123474876e-05, 1.917493019847434e-05, 0.007482261392493499, 0.03535719190285063, 0.07195025496183423, 0.04229038619919589, 0.021309591864222613, 0.010471593151623777, 0.027112780625959895, -0.047884668803268436, -0.1304802767678765, -0.11588712153047714, -0.10393645725618005, -0.07107408747193415, -0.05762773861023301, -0.051644480746688655, -0.07721356374022831, -0.05651719291736124, -0.0033715319646575007, -0.028273290957486766, -0.021601869847866766, -0.022079352555823564, -0.011993941546175831, 0.016190546610031647, 0.005009475032043777, 0.001712238244810782, 1.9746590136598074e-05, 6.223620429084425e-06, 8.790640249445975e-06, 0.0022477072949682406, 0.024814829722427583, 0.05104442980501728, 0.07888702760847836, 0.06609808988435459, 0.015539256543001465, 0.03132973897993026, 0.06466989928815796, -0.004783572496042065, -0.008032458014474905, -0.014528405441094136, -0.0066704286858868065, 0.012059798785872294, 0.02483403859155135, 0.0012036289408253467, -0.04246064171470294, 0.0032536089830312743, 0.030010674318221558, 0.044341404699124905, 0.023166509037764606, 0.027408914318233866, 0.02887658020232944, 0.03693155382370823, 0.019270249947235796, 0.010816094031761751, 0.0007424026161319859, -1.7147818789686175e-05, 0.0004369164408507722, -0.00846013043464408, 0.029841888113570407, 0.07084438772228387, 0.05642883131705628, 0.043705950603808656, 0.005147487367750214, -0.024662048316963472, 0.04255119766228412, 0.02888397472803347, 0.0074398536917837325, 0.07325657685414025, 0.042530263540296605, 0.006192627142243784, 0.039047760328906514, 0.06099982244374126, 0.09031929342125876, 0.07647959698048032, 0.06628006762539496, 0.1185347979007853, 0.06103108111592229, 0.07930517313059231, 0.10825710537791848, 0.07772425095749397, 0.04392937584457269, 0.014913919455801967, 0.0007277130113874193, -0.0005695259277692424, 0.0012070271760040738, -0.0014018148446757034, 0.042962883853292756, 0.06210884930770373, 0.04190479042457764, 0.022083230857493162, 0.031068707402831647, -0.01487907576736643, 0.07817695879508045, 0.060175440701209074, 0.08776465975528808, 0.13779611103939501, 0.07795395816957788, 0.05194047993498346, 0.10293932684816473, 0.06640468583296728, 0.07340750023681926, 0.12663300070657246, 0.12806305413741073, 0.14886168586905682, 0.11849243279984406, 0.17226447463435351, 0.11762981770034749, 0.11020522792569004, 0.06581133555519617, 0.01826899610698148, 0.0007218260001457951, 0.00014929358196927997, 0.004140672470577871, 0.011141502457315725, 0.05414054361544972, 0.06970179206728885, 0.029680142577188016, -0.011282057152823512, -0.0021862603694639774, -0.03177283724390528, -0.05758936261804519, -0.03780815546049623, 0.051915740578040215, 0.07948170375789335, 0.0030498966622063157, 0.046853712002490354, 0.07000842231349932, 0.07851615872696191, 0.1224384592722478, 0.053032630380514624, 0.14105536146674305, 0.16426331103844496, 0.18886093185375488, 0.18167737193058348, 0.06224507011270753, 0.09007372663980044, 0.06931561199845235, 0.01493757663126144, 0.0005782469590787171, 0.0002256574835652325, 0.0039461850552093775, 0.015944300647301506, 0.05242713630409763, 0.08875033990904428, 0.003884862492109329, -0.07770843495923228, -0.07655689060583384, -0.12225385715815079, -0.13266555393882742, -0.09981257975602865, 0.043801530521751036, 0.09350333021746761, 0.19652486174548287, 0.2159854613207053, 0.1805895819040436, 0.15146927017805195, 0.130061007684421, 0.08751711970823567, 0.1570773151954245, 0.15887191066794654, 0.12193732117299129, 0.08616570570679398, -0.0065653428811769075, 0.009945087136494207, 0.048991553743318345, 0.00804965790320955, 0.0008111108576900687, 6.347098171060074e-05, 0.004566203710415207, 0.025033288266126007, 0.05790426232965268, 0.0625704338444819, -0.0298089415121842, -0.08184724236114373, -0.13428230278502645, -0.16768958454665228, -0.16686675726176084, -0.04829716360393453, 0.1435559043799079, 0.24938280427428947, 0.4084486282922353, 0.4390100658786096, 0.35111515051055286, 0.2080378055255885, 0.1902018291132757, 0.14032477865702217, 0.08373325701681267, 0.018432752006837375, -0.06016915462024416, -0.06649013632217557, -0.0763611465343988, -0.04296672050998005, 0.018467172835618793, 0.006042714461917701, 0.0007762269447138257, 1.4863694139843335e-05, 0.0035745523725720873, 0.02357917384900652, 0.026692097462882817, 0.01845756839169798, -0.045369740945530194, -0.11316517654894084, -0.11416264995808968, -0.16437271151583205, -0.15294668939493472, -0.06952192529037031, 0.10341606941760785, 0.2901396326168393, 0.34777747383715574, 0.4446518284133853, 0.32272944742762516, 0.20090458949659853, 0.10918363855894651, 0.12472940251026714, -0.0359166335673119, -0.11109515540337513, -0.18857878439023945, -0.14005576984898468, -0.14488987633384737, -0.10735483579070582, -0.018162286281538407, -0.0024509967438725295, 0.0007610046965151671, 4.712207518890174e-06, 0.002492294836246369, 0.013406241142862773, -0.005140138802918856, -0.012123470042194214, -0.044569741563354824, -0.10214885907765094, -0.16217201380129567, -0.19870036480667982, -0.2737079948420444, -0.3096406547137882, -0.0914769238701159, 0.09234939290670646, 0.1675653462755797, 0.1749582232287159, 0.11770501948476676, 0.07653191622380039, 0.013944713256160817, 0.03541229884051062, -0.028825927038625052, -0.05813034904257931, -0.14430022778498144, -0.1605127531995481, -0.17777792892524294, -0.10664427404948651, -0.022454519996986878, -0.018016356543357297, -0.009985776717410789, 1.4665554376118914e-05, 0.0015769607090661464, 0.007334470335304779, -0.018392908664112275, -0.026466508253961924, -0.04971917205425544, -0.1595465257712629, -0.21407071134472644, -0.21554010929110226, -0.31712803056034405, -0.3906786092429503, -0.32647086698311234, -0.10441459809322613, 0.007202991222326999, 0.024648444178485225, 0.02538907632315026, -0.00010498253246376881, 0.0067774553142372655, 0.02439730293936436, 0.07368387930748783, 0.03275005694266951, 0.0036231818702483144, -0.09557405158283595, -0.13695538850856906, -0.10957710557505812, -0.032271731805957465, -0.009060393542517415, -0.00039328757450337156, 1.0103367225980032e-05, -1.7446344619274647e-05, -0.0001397743125752898, -0.017915128313066353, -0.03039183309826572, -0.07786957035017408, -0.1145605680175525, -0.1768495136159348, -0.21202228545893612, -0.2761891737853685, -0.3408431759045794, -0.3344668495120388, -0.12532557636166525, 0.007608490294482685, 0.08883003507306043, 0.08180822718789942, -0.03816945756833718, 0.02303506896430344, 0.08540908983470757, 0.09463065821510828, 0.12297948775529925, 0.08555908886370793, 0.023896053521731048, -0.08196299664341836, -0.13106904057708146, -0.07322894138122263, -0.020986862437364813, -0.0014376765846039442, 1.9225133453070344e-05, 2.335390822984523e-05, 0.0007577993776531739, -0.005235723552476029, -0.010273801261231558, -0.0690360115710948, -0.07859685728616854, -0.10188366903078289, -0.15301715220270046, -0.17226911892295826, -0.26841695719163444, -0.28502766453180894, -0.1808517795039601, -0.03950907682058431, 0.04957181465377954, -0.01902059514831814, -0.13102893804318, -0.038920962124043314, 0.03626294402474999, 0.08862135743954545, 0.06338747750818027, 0.09496225136180304, -0.03183143838664407, -0.11144129476265786, -0.14848319459373574, -0.10974155827140257, -0.034578556490180636, -0.004497550169134262, -4.155290390574237e-06, 0.00022359385869470417, -0.004592002183906534, 0.016415593866360573, 0.04024205861308583, -0.03272806063915234, -0.0459718773949182, -0.08128728119669155, -0.13664363293101067, -0.18889626067410156, -0.2335305453265374, -0.2899467753753478, -0.25800014422298545, -0.08131231635411658, 0.01701732432089401, -0.042116695844094956, -0.0988857853702947, 0.00890534994158992, 0.031425202766490745, 0.04706899724186688, 0.023550525887869555, 0.059693948252734844, -0.04409935605772187, -0.14176245374813606, -0.16570546954390378, -0.09957759029566163, -0.029255755624086673, -0.0055683292997902815, 0.0005621331659485589, -0.0017818091037112673, 0.0025057671441984022, 0.062062919293929576, 0.07469862104518442, -0.0013712766330588758, -0.026630413009465247, -0.145219492991312, -0.14340862751904543, -0.15699051798490254, -0.1987293883111793, -0.23883911698374505, -0.22725431157808768, -0.05701076449706887, -0.0292983872878805, 0.009856919634213009, -0.007503416971005017, 0.04114209878598807, 0.04204773765382262, -0.0015623011898913358, 0.037338008810958806, -0.0023727746741747506, -0.07727904861127442, -0.19889749270337517, -0.16744302085781013, -0.057919543348321736, -0.008191548035714228, -0.0009429182990803929, -5.039468189877885e-06, -0.0035837472764751353, 0.0005692313100430647, 0.08414486525266286, 0.10479864857618672, 0.02772912311940374, 0.003580372097272035, -0.07203077616252526, -0.08875508838532839, -0.07376225721555747, -0.13899298686225292, -0.23445452579273907, -0.2252875913643966, -0.10779504428807402, -0.07257308094098673, -0.05308260504442808, -0.03802151388889305, -0.007795152805403496, 0.017966532452901647, 0.0430998573406577, 0.015213386548072918, -0.030153394131839973, -0.1233950810216112, -0.1752172706621316, -0.12661876404936415, -0.020578526861838354, -0.008193705875006096, -5.911382636049456e-05, -7.59161392699302e-06, -0.00022878905939963703, -0.0015761686283074772, 0.031797093330622646, 0.041272966416189286, -0.015393408590279847, -0.005549366812134345, -0.04243438140607174, -0.012922919511558335, 0.018545905592206785, -0.09722000113593911, -0.14888663746539013, -0.13164430719923104, -0.09418801501875122, -0.07590039923381992, -0.1261925176145833, -0.06860187715947727, 